{"learner":{"attributes":{"best_iteration":"323","best_ntree_limit":"324","scikit_learn":"{\"n_estimators\": 324, \"objective\": \"reg:squarederror\", \"max_depth\": 9, \"max_leaves\": null, \"max_bin\": null, \"grow_policy\": null, \"learning_rate\": 0.18262740699859992, \"verbosity\": null, \"booster\": null, \"tree_method\": null, \"gamma\": 0.010200032563360488, \"min_child_weight\": 7, \"max_delta_step\": null, \"subsample\": 0.5815853598108524, \"sampling_method\": null, \"colsample_bytree\": 0.9953928346590258, \"colsample_bylevel\": null, \"colsample_bynode\": null, \"reg_alpha\": 0.7602278267322102, \"reg_lambda\": 0.5812024500556857, \"scale_pos_weight\": null, \"base_score\": null, \"missing\": NaN, \"num_parallel_tree\": null, \"random_state\": 831, \"n_jobs\": null, \"monotone_constraints\": null, \"interaction_constraints\": null, \"importance_type\": null, \"gpu_id\": null, \"validate_parameters\": null, \"predictor\": null, \"enable_categorical\": false, \"feature_types\": null, \"max_cat_to_onehot\": null, \"max_cat_threshold\": null, \"eval_metric\": null, \"early_stopping_rounds\": null, \"callbacks\": null, \"_estimator_type\": \"regressor\"}"},"feature_names":[],"feature_types":[],"gradient_booster":{"model":{"gbtree_model_param":{"num_parallel_tree":"1","num_trees":"324","size_leaf_vector":"0"},"tree_info":[0,0,0,0,0,0,0,0,0,0,0,0,0,0,0,0,0,0,0,0,0,0,0,0,0,0,0,0,0,0,0,0,0,0,0,0,0,0,0,0,0,0,0,0,0,0,0,0,0,0,0,0,0,0,0,0,0,0,0,0,0,0,0,0,0,0,0,0,0,0,0,0,0,0,0,0,0,0,0,0,0,0,0,0,0,0,0,0,0,0,0,0,0,0,0,0,0,0,0,0,0,0,0,0,0,0,0,0,0,0,0,0,0,0,0,0,0,0,0,0,0,0,0,0,0,0,0,0,0,0,0,0,0,0,0,0,0,0,0,0,0,0,0,0,0,0,0,0,0,0,0,0,0,0,0,0,0,0,0,0,0,0,0,0,0,0,0,0,0,0,0,0,0,0,0,0,0,0,0,0,0,0,0,0,0,0,0,0,0,0,0,0,0,0,0,0,0,0,0,0,0,0,0,0,0,0,0,0,0,0,0,0,0,0,0,0,0,0,0,0,0,0,0,0,0,0,0,0,0,0,0,0,0,0,0,0,0,0,0,0,0,0,0,0,0,0,0,0,0,0,0,0,0,0,0,0,0,0,0,0,0,0,0,0,0,0,0,0,0,0,0,0,0,0,0,0,0,0,0,0,0,0,0,0,0,0,0,0,0,0,0,0,0,0,0,0,0,0,0,0,0,0,0,0,0,0,0,0,0,0,0,0,0,0,0,0,0,0,0,0,0,0,0,0],"trees":[{"base_weights":[-8.421169E-2,-2.3069578E-1,-4.4215653E-2,-2.4634922E-1,-0E0,-8.9215495E-2,1.314417E-2,-2.5692406E-1,-0E0,-5.497775E-2,-1.4388496E-1,4.0017936E-2,-1.0239106E-1,-6.38708E-2,-0E0,-1.6055556E-1,-0E0,-1.4822577E-2,6.2720455E-2,-0E0,-1.5554135E-1,-0E0,-6.920222E-2,-0E0,-3.4341544E-2,-0E0,9.0376854E-2,-7.7225015E-2,-0E0,-4.8846446E-2,-0E0,-0E0,8.85353E-3,-0E0,1.020339E-1,-0E0,-8.2222015E-2,-0E0,-5.3777783E-3,1.825618E-2,-0E0,-0E0,1.1744711E-1,-0E0,-8.579166E-2,1.3041793E-1,-0E0,-8.927802E-2,-0E0],"categories":[],"categories_nodes":[],"categories_segments":[],"categories_sizes":[],"default_left":[1,1,1,1,0,1,1,0,0,1,1,1,1,1,0,0,0,1,1,0,0,0,1,0,1,1,1,1,1,1,1,1,1,0,1,0,1,1,1,1,1,0,1,1,1,0,0,1,1],"id":0,"left_children":[1,3,5,7,-1,9,11,-1,-1,13,15,17,19,21,-1,-1,-1,23,25,-1,-1,-1,27,-1,-1,-1,33,35,-1,-1,-1,-1,-1,-1,41,-1,-1,-1,-1,-1,-1,-1,45,-1,-1,-1,-1,-1,-1],"loss_changes":[2.811614E0,3.7106705E-1,1.1182982E0,6.7905426E-2,0E0,2.8891635E-1,4.9391013E-1,0E0,0E0,9.9166214E-2,1.87114E-1,2.1944986E-1,1.8457082E-1,5.5927873E-2,0E0,0E0,0E0,1.8073529E-2,1.5419737E-1,0E0,0E0,0E0,2.8163254E-2,0E0,9.338776E-3,2.1619522E-3,8.175099E-2,1.9704998E-2,3.0601365E-4,0E0,0E0,0E0,4.6975184E-3,0E0,7.012302E-2,0E0,8.202374E-3,0E0,0E0,0E0,0E0,0E0,5.6417406E-2,0E0,7.133484E-4,0E0,0E0,0E0,0E0],"parents":[2147483647,0,0,1,1,2,2,3,3,5,5,6,6,9,9,10,10,11,11,12,12,13,13,17,17,18,18,22,22,24,24,25,25,26,26,27,27,28,28,32,32,34,34,36,36,42,42,44,44],"right_children":[2,4,6,8,-1,10,12,-1,-1,14,16,18,20,22,-1,-1,-1,24,26,-1,-1,-1,28,-1,-1,-1,34,36,-1,-1,-1,-1,-1,-1,42,-1,-1,-1,-1,-1,-1,-1,46,-1,-1,-1,-1,-1,-1],"split_conditions":[2.9102826E-1,5.5041903E-1,4.781509E-1,4.161132E-1,-0E0,6.659728E-2,7.050832E-1,-4.6921376E-2,-0E0,9.3321985E-1,4.3796116E-1,2.612748E-1,2.0756412E-3,8.5210986E-4,-0E0,-2.9321846E-2,-0E0,5.444227E-2,3.8256943E-1,-0E0,-2.8406113E-2,-0E0,8.2335865E-1,-0E0,-6.2717074E-3,-0E0,4.653612E-1,9.376484E-2,-0E0,-8.9207E-3,-0E0,-0E0,1.6168972E-3,-0E0,3.2400626E-1,-0E0,-1.5015993E-2,-0E0,-9.821297E-4,3.334079E-3,-0E0,-0E0,6.126434E-1,-0E0,-1.566791E-2,2.3817888E-2,-0E0,-1.6304614E-2,-0E0],"split_indices":[21,7,44,28,0,9,42,0,0,36,45,49,16,30,0,0,0,48,39,0,0,0,38,0,44,38,17,47,0,2147483647,2147483647,2147483647,2147483647,0,10,0,24,2147483647,2147483647,2147483647,2147483647,0,10,2147483647,2147483647,0,0,2147483647,2147483647],"split_type":[0,0,0,0,0,0,0,0,0,0,0,0,0,0,0,0,0,0,0,0,0,0,0,0,0,0,0,0,0,0,0,0,0,0,0,0,0,0,0,0,0,0,0,0,0,0,0,0,0],"sum_hessian":[5.16E2,1.06E2,4.1E2,9.9E1,7E0,2.37E2,1.73E2,9.2E1,7E0,1.55E2,8.2E1,1.46E2,2.7E1,1.39E2,1.6E1,7.3E1,9E0,3.3E1,1.13E2,8E0,1.9E1,9E0,1.3E2,1.2E1,2.1E1,4E1,7.3E1,1.09E2,2.1E1,1.4E1,7E0,1.3E1,2.7E1,8E0,6.5E1,1E1,9.9E1,1.1E1,1E1,2E1,7E0,1.1E1,5.4E1,7E0,9.2E1,4.7E1,7E0,8.5E1,7E0],"tree_param":{"num_deleted":"12","num_feature":"50","num_nodes":"49","size_leaf_vector":"0"}},{"base_weights":[-8.093128E-2,-2.3467709E-1,-4.6264973E-2,-7.013099E-2,2.9441684E-2,-8.377586E-2,1.8961776E-2,-0E0,4.4392914E-2,-9.505822E-2,-0E0,5.5016406E-2,-0E0,4.942242E-2,-0E0,-0E0,-1.0074705E-1,2.0752233E-2,-3.7215203E-2,6.751138E-2,-0E0,-1.5329073E-2,-0E0,-0E0,-1.0593509E-1,8.3947934E-2,-0E0,-5.757197E-2,-0E0,-5.0504956E-2,-0E0,-1.0999195E-1,-0E0,-0E0,-1.1302578E-1,-1.15574576E-1,-0E0],"categories":[],"categories_nodes":[],"categories_segments":[],"categories_sizes":[],"default_left":[1,0,1,1,1,1,1,0,1,1,1,1,1,1,1,0,1,1,1,1,1,1,1,1,1,0,0,0,0,0,0,1,0,0,1,0,0],"id":1,"left_children":[1,-1,3,5,7,9,11,-1,-1,15,17,-1,-1,-1,-1,-1,23,25,27,-1,-1,-1,-1,29,31,-1,-1,-1,-1,-1,-1,33,-1,-1,35,-1,-1],"loss_changes":[2.4960756E0,0E0,7.920462E-1,4.4842398E-1,4.0242583E-2,2.3590803E-1,5.2169368E-2,0E0,9.516172E-3,1.6970134E-1,3.789144E-2,1.1359006E-3,2.0164151E-3,0E0,0E0,0E0,4.5818806E-2,7.36136E-2,1.8440507E-2,0E0,0E0,0E0,0E0,2.188851E-2,4.9799442E-2,0E0,0E0,0E0,0E0,0E0,0E0,5.305457E-2,0E0,0E0,2.511549E-2,0E0,0E0],"parents":[2147483647,0,0,2,2,3,3,4,4,5,5,6,6,8,8,9,9,10,10,11,11,12,12,16,16,17,17,18,18,23,23,24,24,31,31,34,34],"right_children":[2,-1,4,6,8,10,12,-1,-1,16,18,-1,-1,-1,-1,-1,24,26,28,-1,-1,-1,-1,30,32,-1,-1,-1,-1,-1,-1,34,-1,-1,36,-1,-1],"split_conditions":[2.1080753E-1,-4.285847E-2,6.7681444E-1,9.2546356E-1,2.704718E-1,6.3987446E-1,4.8089415E-2,-0E0,8.107363E-3,2.4738183E-2,1.3205484E-2,1.0047504E-2,-0E0,9.0258885E-3,-0E0,-0E0,3.9183614E-1,3.4179655E-1,5.3261507E-1,1.2329428E-2,-0E0,-2.7995089E-3,-0E0,2.7181172E-1,9.520991E-1,1.5331194E-2,-0E0,-1.0514219E-2,-0E0,-9.22359E-3,-0E0,1.3192087E-2,-0E0,-0E0,9.36844E-1,-2.1107085E-2,-0E0],"split_indices":[21,0,44,36,49,14,9,0,4,48,37,0,26,2147483647,2147483647,0,1,19,21,2147483647,2147483647,2147483647,2147483647,35,43,0,0,0,0,0,0,20,0,0,33,0,0],"split_type":[0,0,0,0,0,0,0,0,0,0,0,0,0,0,0,0,0,0,0,0,0,0,0,0,0,0,0,0,0,0,0,0,0,0,0,0,0],"sum_hessian":[5.09E2,8.9E1,4.2E2,3.27E2,9.3E1,2.91E2,3.6E1,3.2E1,6.1E1,2.52E2,3.9E1,2.1E1,1.5E1,5.3E1,8E0,1.1E1,2.41E2,1.8E1,2.1E1,1.4E1,7E0,8E0,7E0,1.9E1,2.22E2,1.1E1,7E0,1.4E1,7E0,8E0,1.1E1,2.1E2,1.2E1,7E0,2.03E2,1.96E2,7E0],"tree_param":{"num_deleted":"6","num_feature":"50","num_nodes":"37","size_leaf_vector":"0"}},{"base_weights":[-5.8983237E-2,-1.7387818E-1,-2.2279179E-2,-1.8882494E-1,-0E0,-6.846609E-2,3.4393996E-2,-1.9957046E-1,-0E0,-7.5691976E-2,-0E0,-4.116857E-3,6.0792953E-2,-2.0922044E-1,-0E0,-5.08697E-2,-1.1321445E-1,-2.993452E-2,-0E0,7.765079E-2,-0E0,-6.32242E-2,-0E0,-1.2461735E-1,-0E0,-4.5661785E-2,-0E0,-0E0,8.744613E-2,-2.9634072E-3,-7.515927E-2,1.6002639E-1,4.12291E-2,-0E0,-1.0952343E-2,-7.875953E-2,-0E0,-0E0,5.421332E-2,5.9028406E-2,-0E0],"categories":[],"categories_nodes":[],"categories_segments":[],"categories_sizes":[],"default_left":[1,1,1,1,0,1,1,1,0,1,0,1,1,0,0,1,1,1,0,1,0,1,0,0,0,0,0,0,1,1,1,0,1,1,1,1,1,0,1,1,1],"id":2,"left_children":[1,3,5,7,-1,9,11,13,-1,15,-1,17,19,-1,-1,21,23,25,-1,27,-1,29,-1,-1,-1,-1,-1,-1,31,-1,-1,-1,37,-1,-1,-1,-1,-1,-1,-1,-1],"loss_changes":[1.9680647E0,3.1112027E-1,1.0391703E0,9.0536594E-2,0E0,1.4956295E-1,2.1258639E-1,8.24728E-2,0E0,6.431973E-2,0E0,1.9275494E-2,1.1939949E-1,0E0,0E0,9.00009E-2,7.999599E-2,1.2252323E-2,0E0,6.5166354E-2,0E0,2.0730644E-2,0E0,0E0,0E0,0E0,0E0,0E0,1.03407085E-1,1.8491568E-3,2.3407936E-3,0E0,4.706592E-2,0E0,0E0,0E0,0E0,0E0,1.5540719E-3,0E0,0E0],"parents":[2147483647,0,0,1,1,2,2,3,3,5,5,6,6,7,7,9,9,11,11,12,12,15,15,16,16,17,17,19,19,21,21,28,28,29,29,30,30,32,32,38,38],"right_children":[2,4,6,8,-1,10,12,14,-1,16,-1,18,20,-1,-1,22,24,26,-1,28,-1,30,-1,-1,-1,-1,-1,-1,32,-1,-1,-1,38,-1,-1,-1,-1,-1,-1,-1,-1],"split_conditions":[3.5173416E-1,4.5027325E-1,4.783332E-1,8.8101166E-1,-0E0,9.4499564E-1,3.1582367E-1,5.503001E-1,-0E0,7.496332E-2,-0E0,6.782391E-1,5.741356E-1,-3.8209386E-2,-0E0,7.6396275E-1,5.127871E-1,6.615447E-1,-0E0,2.3589735E-1,-0E0,1.2980208E-1,-0E0,-2.2758543E-2,-0E0,-8.339093E-3,-0E0,-0E0,6.3915336E-1,-5.411994E-4,-1.3726142E-2,2.9225204E-2,5.776751E-1,-0E0,-2.000198E-3,-1.43836485E-2,-0E0,-0E0,9.900838E-3,1.0780205E-2,-0E0],"split_indices":[28,21,44,36,0,29,46,14,0,9,0,44,42,0,0,35,45,35,0,49,0,19,0,0,0,0,0,0,44,2,47,0,22,2147483647,2147483647,2147483647,2147483647,0,37,2147483647,2147483647],"split_type":[0,0,0,0,0,0,0,0,0,0,0,0,0,0,0,0,0,0,0,0,0,0,0,0,0,0,0,0,0,0,0,0,0,0,0,0,0,0,0,0,0],"sum_hessian":[5.02E2,1.16E2,3.86E2,1.07E2,9E0,2.2E2,1.66E2,9.8E1,9E0,2.06E2,1.4E1,5.6E1,1.1E2,9.1E1,7E0,1.37E2,6.9E1,2.2E1,3.4E1,8.7E1,2.3E1,1.11E2,2.6E1,6.2E1,7E0,1.5E1,7E0,1E1,7.7E1,2.9E1,8.2E1,2.3E1,5.4E1,1.2E1,1.7E1,7.5E1,7E0,7E0,4.7E1,4E1,7E0],"tree_param":{"num_deleted":"6","num_feature":"50","num_nodes":"41","size_leaf_vector":"0"}},{"base_weights":[-5.201627E-2,-1.254891E-1,-2.3171296E-2,-1.3843666E-1,-0E0,-5.9429966E-2,1.842479E-2,-1.6704883E-1,-6.1647207E-2,-6.452607E-2,-0E0,3.638725E-2,-7.448471E-4,-0E0,-1.7779082E-1,-0E0,-9.447884E-2,-4.793385E-2,-1.0825818E-1,4.3957595E-2,-0E0,-0E0,-2.5075007E-2,-0E0,-1.218834E-1,-5.7190564E-2,-0E0,-0E0,5.165323E-2,-8.6100755E-4,3.3215545E-2,-0E0,-3.4585077E-2,-6.0832903E-2,-0E0,5.8177795E-2,-0E0,-0E0,-1.2489774E-2,5.0433964E-2,-0E0,-0E0,-6.424349E-2,-0E0,6.861796E-2,-3.220249E-2,-8.82761E-2,-0E0,-3.6301132E-2],"categories":[],"categories_nodes":[],"categories_segments":[],"categories_sizes":[],"default_left":[1,1,1,1,0,1,1,1,1,1,0,1,1,0,0,0,1,1,0,1,0,1,1,0,0,1,0,0,1,1,1,1,1,1,0,1,0,1,1,1,1,0,1,0,0,1,1,1,1],"id":3,"left_children":[1,3,5,7,-1,9,11,13,15,17,-1,19,21,-1,-1,-1,23,25,-1,27,-1,29,-1,-1,-1,33,-1,-1,35,-1,-1,-1,-1,41,-1,43,-1,-1,-1,-1,-1,-1,-1,-1,-1,-1,-1,-1,-1],"loss_changes":[1.014005E0,2.5725126E-1,6.2089163E-1,1.07055426E-1,0E0,1.0060376E-1,8.6537644E-2,1.03156805E-1,7.164544E-2,3.0317307E-2,0E0,4.3464243E-2,1.35340355E-2,0E0,0E0,0E0,5.3619325E-2,7.608837E-2,0E0,5.3122476E-2,0E0,1.721076E-2,2.6755389E-3,0E0,0E0,2.2996962E-2,0E0,0E0,4.1217893E-2,3.0341125E-3,4.636703E-3,0E0,0E0,2.2259414E-2,0E0,2.118209E-2,0E0,0E0,0E0,0E0,0E0,0E0,3.7765503E-4,0E0,0E0,9.46971E-3,0E0,0E0,0E0],"parents":[2147483647,0,0,1,1,2,2,3,3,5,5,6,6,7,7,8,8,9,9,11,11,12,12,16,16,17,17,19,19,21,21,22,22,25,25,28,28,29,29,30,30,33,33,35,35,42,42,45,45],"right_children":[2,4,6,8,-1,10,12,14,16,18,-1,20,22,-1,-1,-1,24,26,-1,28,-1,30,-1,-1,-1,34,-1,-1,36,-1,-1,-1,-1,42,-1,44,-1,-1,-1,-1,-1,-1,-1,-1,-1,-1,-1,-1,-1],"split_conditions":[3.5892233E-1,5.503001E-1,4.9346873E-1,1.6812035E-1,-0E0,9.747846E-1,5.923846E-1,4.5870763E-1,1.4837906E-1,7.323909E-1,-0E0,8.0881846E-1,3.945763E-1,-0E0,-3.2469478E-2,-0E0,8.2391596E-1,7.4737024E-1,-1.9770911E-2,2.4249578E-1,-0E0,1.4895004E-1,-4.5793834E-3,-0E0,-2.225925E-2,8.0557E-1,-0E0,-0E0,6.3690436E-1,-1.5724357E-4,6.066069E-3,-0E0,-6.316183E-3,3.49242E-5,-0E0,7.345122E-2,-0E0,-0E0,-2.2809752E-3,9.210624E-3,-0E0,-0E0,-1.1732622E-2,-0E0,1.2531521E-2,-5.881057E-3,-1.6121635E-2,-0E0,-6.6295816E-3],"split_indices":[28,14,44,33,0,29,14,17,47,3,0,19,20,0,0,0,46,35,0,4,0,34,30,0,0,0,0,0,6,4,44,2147483647,2147483647,16,0,43,0,2147483647,2147483647,2147483647,2147483647,0,45,0,0,2147483647,2147483647,2147483647,2147483647],"split_type":[0,0,0,0,0,0,0,0,0,0,0,0,0,0,0,0,0,0,0,0,0,0,0,0,0,0,0,0,0,0,0,0,0,0,0,0,0,0,0,0,0,0,0,0,0,0,0,0,0],"sum_hessian":[5.32E2,1.42E2,3.9E2,1.3E2,1.2E1,2.18E2,1.72E2,8.7E1,4.3E1,2.09E2,9E0,1.09E2,6.3E1,7E0,8E1,1.7E1,2.6E1,1.65E2,4.4E1,9.7E1,1.2E1,4.2E1,2.1E1,7E0,1.9E1,1.39E2,2.6E1,7E0,9E1,2.7E1,1.5E1,8E0,1.3E1,1.29E2,1E1,8.3E1,7E0,8E0,1.9E1,8E0,7E0,8E0,1.21E2,1.9E1,6.4E1,6.6E1,5.5E1,7E0,5.9E1],"tree_param":{"num_deleted":"10","num_feature":"50","num_nodes":"49","size_leaf_vector":"0"}},{"base_weights":[-4.2490747E-2,-1.11040324E-1,-1.6161604E-2,-1.2274229E-1,-0E0,-4.807316E-2,1.7768048E-2,-1.3276978E-1,-0E0,-5.2886143E-2,-0E0,3.0573262E-3,9.826209E-2,-0E0,-1.3893884E-1,-0E0,-5.933075E-2,3.1094609E-2,-1.8109163E-2,1.7651977E-1,-0E0,-1.4477375E-1,-0E0,-6.483295E-2,-0E0,-0E0,4.538091E-2,-4.6927795E-2,-0E0,-0E0,-1.5082653E-1,-0E0,-7.536441E-2,-0E0,5.7179023E-2,-0E0,-6.1890595E-2,-0E0,-5.6093405E-3,-7.973604E-2,-0E0,-0E0,6.5742746E-2,-0E0,-7.870268E-2,-0E0,-8.2819976E-2,7.215082E-2,-0E0,-9.973088E-2,-0E0,-8.7247744E-2,-0E0],"categories":[],"categories_nodes":[],"categories_segments":[],"categories_sizes":[],"default_left":[1,1,1,1,0,1,1,1,0,1,0,1,1,0,1,0,1,1,1,0,0,1,0,1,0,0,1,1,0,1,1,1,1,0,1,0,1,1,1,1,0,0,1,0,1,1,1,1,1,1,1,1,1],"id":4,"left_children":[1,3,5,7,-1,9,11,13,-1,15,-1,17,19,-1,21,-1,23,25,27,-1,-1,-1,-1,31,-1,-1,33,35,-1,-1,-1,-1,39,-1,41,-1,43,-1,-1,-1,-1,-1,-1,-1,-1,-1,-1,-1,-1,-1,-1,-1,-1],"loss_changes":[7.912904E-1,1.5590811E-1,4.1828483E-1,1.1985779E-1,0E0,6.621319E-2,1.1886848E-1,4.1845918E-2,0E0,3.7816823E-2,0E0,9.837481E-2,9.762944E-2,0E0,1.6478777E-2,0E0,2.563858E-2,6.0174063E-2,5.3336762E-2,0E0,0E0,4.6167374E-3,0E0,5.4211378E-2,0E0,0E0,3.806144E-2,2.949296E-2,0E0,0E0,0E0,5.8465195E-4,2.6150048E-2,0E0,2.6148468E-2,0E0,2.1833979E-2,0E0,0E0,4.915178E-3,0E0,0E0,4.7204643E-3,0E0,7.5997263E-3,0E0,5.7241917E-3,0E0,0E0,0E0,0E0,0E0,0E0],"parents":[2147483647,0,0,1,1,2,2,3,3,5,5,6,6,7,7,9,9,11,11,12,12,14,14,16,16,17,17,18,18,21,21,23,23,26,26,27,27,31,31,32,32,34,34,36,36,39,39,42,42,44,44,46,46],"right_children":[2,4,6,8,-1,10,12,14,-1,16,-1,18,20,-1,22,-1,24,26,28,-1,-1,-1,-1,32,-1,-1,34,36,-1,-1,-1,-1,40,-1,42,-1,44,-1,-1,-1,-1,-1,-1,-1,-1,-1,-1,-1,-1,-1,-1,-1,-1],"split_conditions":[3.6417186E-1,2.5813895E-1,4.7674888E-1,8.3979E-1,-0E0,9.5706105E-1,2.896464E-1,5.222275E-2,-0E0,2.9924596E-2,-0E0,4.0204018E-1,3.0537486E-1,-0E0,8.157877E-1,-0E0,8.8027585E-1,3.4735566E-1,6.73921E-1,3.2237347E-2,-0E0,-2.6439656E-2,-0E0,8.268213E-3,-0E0,-0E0,4.6908066E-2,3.7017712E-1,-0E0,-0E0,-2.754506E-2,-0E0,5.5835104E-1,-0E0,2.9528546E-1,-0E0,3.3291075E-1,-0E0,-1.0244193E-3,-1.4561987E-2,-0E0,-0E0,1.2006427E-2,-0E0,-1.4373267E-2,-0E0,-1.5125197E-2,1.3176717E-2,-0E0,-1.8213592E-2,-0E0,-1.593383E-2,-0E0],"split_indices":[28,26,44,11,0,29,48,48,0,45,0,0,49,0,18,0,43,35,44,0,0,24,0,2,0,0,40,1,0,2147483647,2147483647,5,42,0,42,0,32,2147483647,2147483647,24,0,0,27,0,23,2147483647,2147483647,2147483647,2147483647,2147483647,2147483647,2147483647,2147483647],"split_type":[0,0,0,0,0,0,0,0,0,0,0,0,0,0,0,0,0,0,0,0,0,0,0,0,0,0,0,0,0,0,0,0,0,0,0,0,0,0,0,0,0,0,0,0,0,0,0,0,0,0,0,0,0],"sum_hessian":[4.92E2,1.28E2,3.64E2,1.15E2,1.3E1,1.99E2,1.65E2,1.05E2,1E1,1.88E2,1.1E1,1.48E2,1.7E1,7E0,9.8E1,2.8E1,1.6E2,7.9E1,6.9E1,8E0,9E0,9.1E1,7E0,1.4E2,2E1,1.3E1,6.6E1,3.4E1,3.5E1,7E0,8.4E1,2.7E1,1.13E2,1.3E1,5.3E1,7E0,2.7E1,9E0,1.8E1,1.05E2,8E0,7E0,4.6E1,7E0,2E1,7E0,9.8E1,3.9E1,7E0,1.3E1,7E0,8.9E1,9E0],"tree_param":{"num_deleted":"12","num_feature":"50","num_nodes":"53","size_leaf_vector":"0"}},{"base_weights":[-3.3279024E-2,-8.992285E-2,-1.2414103E-2,-0E0,-9.754784E-2,-3.8349565E-2,1.6658777E-2,-1.1867591E-1,-2.5126215E-2,-8.599015E-2,-2.3925032E-2,4.5737293E-2,-0E0,-0E0,-1.2694731E-1,-3.8630497E-2,-0E0,-0E0,-9.583877E-2,-3.0986182E-2,-0E0,5.6607123E-2,-0E0,5.9369985E-2,-5.811591E-3,-1.3477899E-1,-0E0,-0E0,-4.7208827E-2,-3.51318E-2,-0E0,6.301885E-2,-0E0,-0E0,1.09092064E-1,-3.775679E-2,-0E0,-4.053295E-2,-0E0,-5.3113636E-2,-0E0,-0E0,7.6662214E-3,-4.264897E-2,-0E0,-6.883596E-2,-0E0,1.2763192E-2,-0E0,-0E0,-4.7239512E-2,-0E0,1.561151E-2,-0E0,-5.1077675E-2,-0E0,1.8780114E-2],"categories":[],"categories_nodes":[],"categories_segments":[],"categories_sizes":[],"default_left":[1,1,1,0,1,1,1,1,1,1,1,1,1,0,1,1,0,1,1,1,0,1,0,1,1,1,1,1,1,1,0,0,0,0,0,1,1,1,0,1,0,1,1,1,1,1,1,1,1,1,1,1,1,1,1,1,1],"id":5,"left_children":[1,3,5,-1,7,9,11,13,15,-1,19,21,23,-1,-1,-1,-1,-1,-1,29,-1,31,-1,33,35,-1,-1,-1,-1,37,-1,-1,-1,-1,-1,39,-1,-1,-1,-1,-1,-1,-1,-1,-1,-1,-1,-1,-1,-1,-1,-1,-1,-1,-1,-1,-1],"loss_changes":[5.734484E-1,1.3148749E-1,3.287092E-1,0E0,9.028089E-2,7.507193E-2,7.424644E-2,4.5083404E-2,1.5310191E-2,9.815693E-4,3.5877258E-2,4.064715E-2,5.8554057E-2,0E0,9.88245E-3,3.9725713E-3,0E0,0E0,0E0,2.79717E-2,0E0,1.1763617E-2,0E0,4.7205016E-2,4.138787E-2,0E0,0E0,0E0,0E0,2.130802E-2,0E0,0E0,0E0,0E0,0E0,2.1502566E-2,3.9130407E-3,8.139506E-3,0E0,7.3058605E-3,0E0,0E0,5.4668835E-3,5.8742017E-3,0E0,0E0,0E0,2.7039675E-3,0E0,0E0,1.3974756E-3,0E0,2.9341886E-3,0E0,0E0,0E0,0E0],"parents":[2147483647,0,0,1,1,2,2,4,4,5,5,6,6,7,7,8,8,9,9,10,10,11,11,12,12,14,14,15,15,19,19,21,21,23,23,24,24,29,29,35,35,36,36,37,37,39,39,42,42,43,43,47,47,50,50,52,52],"right_children":[2,4,6,-1,8,10,12,14,16,-1,20,22,24,-1,-1,-1,-1,-1,-1,30,-1,32,-1,34,36,-1,-1,-1,-1,38,-1,-1,-1,-1,-1,40,-1,-1,-1,-1,-1,-1,-1,-1,-1,-1,-1,-1,-1,-1,-1,-1,-1,-1,-1,-1,-1],"split_conditions":[3.593617E-1,2.3809668E-1,4.808199E-1,-0E0,1.7904839E-1,3.5095274E-1,3.2744044E-1,1.8572299E-1,9.440224E-2,-1.5704159E-2,7.457043E-1,5.891448E-2,5.405588E-1,-0E0,-2.318406E-2,-7.0549874E-3,-0E0,-0E0,-1.7502787E-2,9.4499564E-1,-0E0,6.040132E-1,-0E0,4.913649E-1,1.9888091E-1,-2.4614338E-2,-0E0,-0E0,-8.621626E-3,7.214828E-1,-0E0,1.150897E-2,-0E0,-0E0,1.99232E-2,1.671083E-1,-0E0,-7.4024275E-3,-0E0,-9.700006E-3,-0E0,-0E0,1.4000621E-3,-7.788871E-3,-0E0,-1.2571333E-2,-0E0,2.3309088E-3,-0E0,-0E0,-8.627229E-3,-0E0,2.8510897E-3,-0E0,-9.328184E-3,-0E0,3.4297635E-3],"split_indices":[28,10,44,0,33,10,0,1,16,13,35,37,44,0,30,11,0,2147483647,2147483647,29,0,27,0,11,47,2147483647,2147483647,2147483647,2147483647,3,0,0,0,0,0,33,8,48,0,44,0,2147483647,2147483647,2147483647,2147483647,2147483647,2147483647,2147483647,2147483647,2147483647,2147483647,2147483647,2147483647,2147483647,2147483647,2147483647,2147483647],"split_type":[0,0,0,0,0,0,0,0,0,0,0,0,0,0,0,0,0,0,0,0,0,0,0,0,0,0,0,0,0,0,0,0,0,0,0,0,0,0,0,0,0,0,0,0,0,0,0,0,0,0,0,0,0,0,0,0,0],"sum_hessian":[5.51E2,1.38E2,4.13E2,7E0,1.31E2,2.32E2,1.81E2,9.3E1,3.8E1,4.1E1,1.91E2,5.9E1,1.22E2,9E0,8.4E1,2.6E1,1.2E1,8E0,3.3E1,1.51E2,4E1,5.1E1,8E0,1.5E1,1.07E2,7.5E1,9E0,7E0,1.9E1,1.4E2,1.1E1,4.4E1,7E0,7E0,8E0,3.1E1,7.6E1,1.18E2,2.2E1,2.3E1,8E0,1E1,6.6E1,1.11E2,7E0,1.5E1,8E0,5.7E1,9E0,1.8E1,9.3E1,8E0,4.9E1,1.3E1,8E1,7E0,4.2E1],"tree_param":{"num_deleted":"22","num_feature":"50","num_nodes":"57","size_leaf_vector":"0"}},{"base_weights":[-3.2061026E-2,-5.286534E-2,-0E0,1.4569723E-2,-6.250598E-2,-1.7636573E-2,1.7463477E-2,-0E0,2.3520686E-2,2.1786712E-2,-7.303351E-2,-0E0,-2.6757697E-2,2.3739109E-2,-0E0,-0E0,1.0036661E-1,-7.602037E-2,-0E0,-0E0,-3.5712074E-2,2.9793765E-2,-0E0,-4.6267625E-2,-9.824578E-2,-3.952774E-2,-0E0,3.526797E-2,-0E0,-5.630489E-2,-0E0,-1.3816825E-1,-5.2399587E-2,-0E0,-4.3402232E-2,-0E0,4.058893E-2,-0E0,-6.23358E-2,-6.124607E-2,-0E0,-4.839444E-2,-0E0,-0E0,4.5751102E-2,-0E0,-6.774167E-2,-0E0,-7.090894E-2,-0E0,-5.3672668E-2,5.6381907E-2,-0E0,-7.301852E-2,-0E0],"categories":[],"categories_nodes":[],"categories_segments":[],"categories_sizes":[],"default_left":[1,1,1,1,1,1,1,1,1,1,1,0,1,1,0,0,0,1,0,0,1,1,0,1,1,1,1,1,0,1,0,0,1,1,1,0,1,0,1,1,0,1,1,0,1,0,1,1,1,1,1,1,1,0,0],"id":6,"left_children":[1,3,5,-1,9,11,13,-1,-1,15,17,-1,19,21,-1,-1,-1,23,-1,-1,-1,27,-1,29,31,-1,-1,35,-1,37,-1,-1,39,-1,-1,-1,43,-1,45,-1,-1,-1,-1,-1,-1,-1,53,-1,-1,-1,-1,-1,-1,-1,-1],"loss_changes":[3.559816E-1,2.4473703E-1,6.2856905E-2,4.8943064E-3,2.9685652E-1,2.7341569E-2,1.7978668E-2,0E0,0E0,6.470116E-2,5.4667234E-2,0E0,2.5945067E-2,1.749565E-2,0E0,0E0,0E0,5.584109E-2,0E0,0E0,7.890612E-3,1.359313E-2,0E0,7.753843E-2,8.991921E-2,5.6365207E-3,0E0,1.4938422E-2,0E0,3.883356E-2,0E0,0E0,3.720011E-2,0E0,7.243879E-3,0E0,1.14576E-2,0E0,3.7198037E-2,8.245885E-3,0E0,3.8520917E-3,0E0,0E0,5.1419064E-3,0E0,3.0701905E-2,0E0,0E0,0E0,0E0,0E0,0E0,0E0,0E0],"parents":[2147483647,0,0,1,1,2,2,3,3,4,4,5,5,6,6,9,9,10,10,12,12,13,13,17,17,20,20,21,21,23,23,24,24,25,25,27,27,29,29,32,32,34,34,36,36,38,38,39,39,41,41,44,44,46,46],"right_children":[2,4,6,-1,10,12,14,-1,-1,16,18,-1,20,22,-1,-1,-1,24,-1,-1,-1,28,-1,30,32,-1,-1,36,-1,38,-1,-1,40,-1,-1,-1,44,-1,46,-1,-1,-1,-1,-1,-1,-1,54,-1,-1,-1,-1,-1,-1,-1,-1],"split_conditions":[5.6324184E-1,2.3111837E-1,7.501639E-1,2.6608307E-3,2.9031354E-1,2.1547168E-1,4.3636024E-1,-0E0,4.295522E-3,2.6584768E-1,4.8833215E-1,-0E0,2.3288065E-1,8.190075E-1,-0E0,-0E0,1.8329693E-2,1.5595742E-1,-0E0,-0E0,-6.5220036E-3,6.060362E-1,-0E0,5.206966E-1,4.1579545E-1,-7.218849E-3,-0E0,2.4714947E-1,-0E0,1.3399372E-2,-0E0,-2.523331E-2,5.1711285E-1,-0E0,-7.926437E-3,-0E0,2.678563E-1,-0E0,3.777273E-2,-1.1185211E-2,-0E0,-8.838152E-3,-0E0,-0E0,8.355405E-3,-0E0,8.985133E-1,-0E0,-1.29499165E-2,-0E0,-9.8021E-3,1.0296882E-2,-0E0,-1.3335183E-2,-0E0],"split_indices":[21,24,5,31,15,26,32,2147483647,2147483647,8,30,0,19,40,0,0,0,47,0,0,36,24,0,42,28,2147483647,2147483647,19,0,19,0,0,6,2147483647,2147483647,0,24,0,14,37,0,2147483647,2147483647,0,44,0,4,2147483647,2147483647,2147483647,2147483647,2147483647,2147483647,0,0],"split_type":[0,0,0,0,0,0,0,0,0,0,0,0,0,0,0,0,0,0,0,0,0,0,0,0,0,0,0,0,0,0,0,0,0,0,0,0,0,0,0,0,0,0,0,0,0,0,0,0,0,0,0,0,0,0,0],"sum_hessian":[5.22E2,3.19E2,2.03E2,3E1,2.89E2,9.7E1,1.06E2,1E1,2E1,2.4E1,2.65E2,1.7E1,8E1,8.9E1,1.7E1,1.7E1,7E0,2.54E2,1.1E1,1.5E1,6.5E1,7.6E1,1.3E1,1.24E2,1.3E2,5.8E1,7E0,6.5E1,1.1E1,1.08E2,1.6E1,6E1,7E1,7E0,5.1E1,7E0,5.8E1,1E1,9.8E1,6.1E1,9E0,4.4E1,7E0,7E0,5.1E1,7E0,9.1E1,1.4E1,4.7E1,7E0,3.7E1,3.5E1,1.6E1,8.4E1,7E0],"tree_param":{"num_deleted":"14","num_feature":"50","num_nodes":"55","size_leaf_vector":"0"}},{"base_weights":[-2.324006E-2,-4.339221E-2,-0E0,-4.7839444E-2,-0E0,-4.2007323E-2,6.0187276E-3,-5.1682916E-2,-0E0,-0E0,-5.1379614E-2,-1.0579561E-2,1.5622028E-2,-0E0,-5.4275505E-2,-6.4548194E-2,-0E0,-2.6082793E-2,-0E0,2.4607852E-2,-0E0,-6.2137216E-2,-9.025377E-4,-0E0,-4.4767395E-2,3.1164695E-2,-0E0,-4.4523305E-3,-0E0,-6.824389E-2,-0E0,-0E0,-7.8039723E-3,-0E0,-5.358114E-2,-0E0,3.649107E-2,-0E0,-1.0778762E-2,-0E0,-7.037984E-2,-1.2799102E-2,-0E0,4.2770267E-2,-0E0,-7.573201E-2,-0E0,-1.8001752E-2,-0E0,-0E0,4.583425E-2,-0E0,-7.938247E-2,-0E0,-1.1183233E-3,-0E0,4.909424E-2],"categories":[],"categories_nodes":[],"categories_segments":[],"categories_sizes":[],"default_left":[1,1,1,1,0,1,1,1,0,0,1,1,1,0,1,0,0,1,0,1,1,1,1,0,1,1,0,1,1,1,0,1,1,1,1,0,1,1,1,0,1,1,1,1,0,1,1,1,1,1,1,0,0,1,1,1,1],"id":7,"left_children":[1,3,5,7,-1,9,11,13,-1,-1,15,17,19,-1,21,-1,-1,23,-1,25,-1,29,-1,-1,-1,35,-1,-1,-1,39,-1,-1,-1,-1,-1,-1,43,-1,-1,-1,45,-1,-1,-1,-1,51,-1,-1,-1,-1,-1,-1,-1,-1,-1,-1,-1],"loss_changes":[2.2244045E-1,8.055049E-2,6.836103E-2,4.738742E-2,0E0,9.148262E-3,3.622059E-2,3.710437E-2,0E0,0E0,1.1413701E-2,1.8424239E-2,3.5165716E-2,0E0,4.5438588E-2,0E0,0E0,2.7741784E-2,0E0,2.4065249E-2,4.2780957E-4,3.2800436E-2,2.0112908E-3,0E0,2.0777024E-3,1.2276679E-2,0E0,1.2662596E-3,0E0,1.198554E-2,0E0,0E0,2.1454745E-3,0E0,0E0,0E0,1.36610195E-2,0E0,0E0,0E0,1.4520764E-2,1.8308461E-3,0E0,1.5409067E-3,0E0,1.8358588E-2,1.323335E-5,0E0,0E0,0E0,1.5666485E-3,0E0,0E0,0E0,0E0,0E0,0E0],"parents":[2147483647,0,0,1,1,2,2,3,3,5,5,6,6,7,7,10,10,11,11,12,12,14,14,17,17,19,19,20,20,21,21,22,22,24,24,25,25,27,27,29,29,32,32,36,36,40,40,41,41,43,43,45,45,46,46,50,50],"right_children":[2,4,6,8,-1,10,12,14,-1,-1,16,18,20,-1,22,-1,-1,24,-1,26,-1,30,-1,-1,-1,36,-1,-1,-1,40,-1,-1,-1,-1,-1,-1,44,-1,-1,-1,46,-1,-1,-1,-1,52,-1,-1,-1,-1,-1,-1,-1,-1,-1,-1,-1],"split_conditions":[2.6020142E-1,6.11313E-1,1.1389965E-2,8.8503575E-1,-0E0,3.1887818E-2,3.545646E-1,1.0745363E-2,-0E0,-0E0,6.388877E-1,6.950515E-1,6.7886305E-1,-0E0,6.592591E-1,-1.17882695E-2,-0E0,5.083827E-1,-0E0,5.264954E-1,-0E0,6.197518E-1,-1.6482813E-4,-0E0,-8.175753E-3,2.0591457E-1,-0E0,-8.131176E-4,-0E0,2.5473228E-1,-0E0,-0E0,-1.4252192E-3,-0E0,-9.785385E-3,-0E0,5.9375036E-1,-0E0,-1.9684974E-3,-0E0,7.9163396E-1,-2.337467E-3,-0E0,7.811023E-3,-0E0,9.352976E-3,-0E0,-3.2876134E-3,-0E0,-0E0,8.37059E-3,-0E0,-1.4497415E-2,-0E0,-2.042365E-4,-0E0,8.965954E-3],"split_indices":[13,45,9,22,0,30,35,19,0,0,44,4,7,0,7,0,0,4,0,42,18,21,16,0,11,31,0,2147483647,2147483647,42,0,2147483647,2147483647,2147483647,2147483647,0,24,2147483647,2147483647,0,11,2147483647,2147483647,19,0,44,12,2147483647,2147483647,2147483647,2147483647,0,0,2147483647,2147483647,2147483647,2147483647],"split_type":[0,0,0,0,0,0,0,0,0,0,0,0,0,0,0,0,0,0,0,0,0,0,0,0,0,0,0,0,0,0,0,0,0,0,0,0,0,0,0,0,0,0,0,0,0,0,0,0,0,0,0,0,0,0,0,0,0],"sum_hessian":[4.96E2,2.6E2,2.36E2,2.49E2,1.1E1,3.4E1,2.02E2,2.31E2,1.8E1,8E0,2.6E1,4.5E1,1.57E2,9E0,2.22E2,1.9E1,7E0,3.4E1,1.1E1,1.21E2,3.6E1,1.81E2,4.1E1,9E0,2.5E1,1E2,2.1E1,2.1E1,1.5E1,1.57E2,2.4E1,8E0,3.3E1,7E0,1.8E1,1.8E1,8.2E1,7E0,1.4E1,7E0,1.5E2,2.5E1,8E0,6.7E1,1.5E1,1.32E2,1.8E1,1.8E1,7E0,8E0,5.9E1,9E0,1.23E2,8E0,1E1,7E0,5.2E1],"tree_param":{"num_deleted":"18","num_feature":"50","num_nodes":"57","size_leaf_vector":"0"}},{"base_weights":[-1.8666508E-2,-6.469887E-2,-3.5029862E-3,-7.109648E-2,-0E0,1.5186596E-2,-2.0980718E-2,-0E0,-8.397299E-2,-3.1316914E-2,2.560615E-2,-9.957808E-4,-3.9575174E-2,-9.75271E-3,-0E0,-0E0,-9.8869376E-2,-4.369772E-2,-0E0,2.4723728E-5,5.2803423E-2,-1.1722564E-2,-0E0,-5.0952613E-2,-0E0,-1.1122115E-1,-0E0,-0E0,1.192406E-2,6.30089E-2,-0E0,-0E0,-1.7960796E-2,-0E0,8.5401125E-3,-0E0,-6.099544E-2,-1.0033499E-2,-0E0,-0E0,2.3619244E-2,7.1714975E-2,-0E0,-2.303561E-2,-0E0,-0E0,1.4237499E-2,-6.8047285E-2,-0E0,-0E0,-1.711558E-2,2.970198E-2,-0E0,8.8488154E-2,-0E0,-2.8493635E-2,-0E0,-0E0,-7.2510764E-2],"categories":[],"categories_nodes":[],"categories_segments":[],"categories_sizes":[],"default_left":[1,1,1,1,0,1,1,1,1,1,1,1,1,1,1,0,1,1,1,1,1,1,1,1,0,0,0,1,1,1,0,1,1,1,1,0,1,1,1,0,1,1,0,1,1,1,1,1,0,1,1,1,1,0,0,1,1,1,1],"id":8,"left_children":[1,3,5,7,-1,9,11,-1,15,-1,19,-1,23,-1,-1,-1,25,-1,-1,27,29,-1,-1,35,-1,-1,-1,-1,39,41,-1,-1,-1,-1,-1,-1,47,-1,-1,-1,-1,53,-1,-1,-1,-1,-1,-1,-1,-1,-1,-1,-1,-1,-1,-1,-1,-1,-1],"loss_changes":[2.9743135E-1,6.1555028E-2,1.3184732E-1,4.6639323E-2,0E0,7.732536E-2,5.1847123E-2,1.4820118E-3,6.5799475E-2,2.9619597E-3,6.460395E-2,8.885564E-3,5.690749E-2,0E0,0E0,0E0,5.8851242E-2,0E0,0E0,8.47139E-3,4.14474E-2,9.885652E-3,2.6679959E-3,6.3428044E-2,0E0,0E0,0E0,2.6759594E-3,1.2493926E-2,2.4499178E-2,0E0,0E0,5.289454E-3,0E0,3.3283026E-3,0E0,3.363508E-2,2.767275E-3,0E0,0E0,1.6025584E-3,2.5833026E-2,0E0,6.324522E-3,0E0,0E0,0E0,4.3394864E-3,0E0,0E0,0E0,0E0,0E0,0E0,0E0,0E0,0E0,0E0,0E0],"parents":[2147483647,0,0,1,1,2,2,3,3,5,5,6,6,7,7,8,8,9,9,10,10,11,11,12,12,16,16,19,19,20,20,21,21,22,22,23,23,27,27,28,28,29,29,32,32,34,34,36,36,37,37,40,40,41,41,43,43,47,47],"right_children":[2,4,6,8,-1,10,12,-1,16,-1,20,-1,24,-1,-1,-1,26,-1,-1,28,30,-1,-1,36,-1,-1,-1,-1,40,42,-1,-1,-1,-1,-1,-1,48,-1,-1,-1,-1,54,-1,-1,-1,-1,-1,-1,-1,-1,-1,-1,-1,-1,-1,-1,-1,-1,-1],"split_conditions":[3.2557887E-1,6.051851E-1,3.921631E-1,1.6593866E-2,-0E0,6.2898186E-4,4.424068E-1,-0E0,7.219772E-2,-5.719327E-3,5.924493E-1,-1.8185687E-4,9.362105E-1,-1.7811123E-3,-0E0,-0E0,5.115886E-1,-7.980401E-3,-0E0,6.233213E-1,2.4600048E-2,-2.1408615E-3,-0E0,3.9049178E-1,-0E0,-2.031203E-2,-0E0,-0E0,6.9708824E-1,5.732001E-1,-0E0,-0E0,-3.2801337E-3,-0E0,1.5596587E-3,-0E0,8.079848E-1,-1.8323921E-3,-0E0,-0E0,4.3135216E-3,5.7169473E-1,-0E0,-4.206934E-3,-0E0,-0E0,2.6001576E-3,-1.2427299E-2,-0E0,-0E0,-3.125774E-3,5.4243957E-3,-0E0,1.6160361E-2,-0E0,-5.203719E-3,-0E0,-0E0,-1.3242453E-2],"split_indices":[28,14,43,20,0,9,12,41,12,18,39,49,36,2147483647,2147483647,0,35,2147483647,2147483647,21,37,2147483647,2147483647,1,0,0,0,0,22,6,0,2147483647,2147483647,2147483647,2147483647,0,38,2147483647,2147483647,0,5,7,0,2147483647,2147483647,2147483647,2147483647,0,0,2147483647,2147483647,2147483647,2147483647,0,0,2147483647,2147483647,2147483647,2147483647],"split_type":[0,0,0,0,0,0,0,0,0,0,0,0,0,0,0,0,0,0,0,0,0,0,0,0,0,0,0,0,0,0,0,0,0,0,0,0,0,0,0,0,0,0,0,0,0,0,0,0,0,0,0,0,0,0,0,0,0,0,0],"sum_hessian":[5E2,1.11E2,3.89E2,1.04E2,7E0,1.67E2,2.22E2,2.3E1,8.1E1,1.7E1,1.5E2,1.27E2,9.5E1,1.5E1,8E0,1.6E1,6.5E1,1E1,7E0,9.2E1,5.8E1,6.5E1,6.2E1,7.9E1,1.6E1,5.6E1,9E0,3.3E1,5.9E1,5.1E1,7E0,7E0,5.8E1,2.6E1,3.6E1,7E0,7.2E1,2.6E1,7E0,2.2E1,3.7E1,4.4E1,7E0,4.5E1,1.3E1,7E0,2.9E1,6.5E1,7E0,8E0,1.8E1,2.5E1,1.2E1,3.2E1,1.2E1,3.7E1,8E0,7E0,5.8E1],"tree_param":{"num_deleted":"24","num_feature":"50","num_nodes":"59","size_leaf_vector":"0"}},{"base_weights":[-1.5161262E-2,-4.348434E-2,-5.5233017E-4,-4.9795065E-2,-0E0,-5.6359963E-3,6.258771E-2,-5.5184662E-2,-0E0,-3.3378113E-2,-0E0,1.0438067E-1,-0E0,-6.3645236E-2,-0E0,-0E0,-4.467208E-2,-7.48931E-3,1.1334792E-2,-0E0,-7.211803E-2,-0E0,-6.0999177E-2,-0E0,-2.0219622E-2,-0E0,1.7153328E-2,-7.9399325E-2,-0E0,-7.307093E-2,-0E0,-5.2799063E-4,6.088023E-4,-2.5428154E-2,-0E0,-0E0,-3.251373E-3,-0E0,2.0695906E-2,-0E0,-8.346109E-2,-3.6617592E-3,-0E0,3.964512E-3,-0E0,-0E0,-3.2514974E-2,-7.4183512E-3,-0E0,-0E0,2.4967821E-2,-0E0,7.82996E-3,-0E0,2.8777663E-2,-0E0,3.3782355E-2],"categories":[],"categories_nodes":[],"categories_segments":[],"categories_sizes":[],"default_left":[1,1,1,1,0,1,1,1,0,1,1,0,0,1,0,0,1,1,1,0,1,0,1,1,1,1,1,1,0,0,0,1,1,1,1,1,1,0,1,1,1,1,1,1,1,1,1,1,1,0,1,1,1,0,1,1,1],"id":9,"left_children":[1,3,5,7,-1,9,11,13,-1,15,17,-1,-1,19,-1,-1,21,23,25,-1,27,-1,29,-1,-1,-1,37,-1,-1,-1,-1,-1,-1,-1,-1,-1,-1,-1,49,-1,-1,-1,-1,-1,-1,-1,-1,-1,-1,-1,53,-1,-1,-1,-1,-1,-1],"loss_changes":[1.7115097E-1,6.136617E-2,6.751341E-2,5.461204E-2,0E0,7.2590075E-2,2.548185E-2,5.1273406E-2,0E0,3.5809115E-2,2.4238594E-2,0E0,0E0,4.513502E-2,0E0,0E0,2.8377764E-2,1.1815643E-2,1.3646733E-2,0E0,5.5015206E-2,0E0,2.134575E-2,2.569825E-5,6.311154E-3,2.3871554E-4,1.073017E-2,9.174764E-3,0E0,0E0,0E0,3.0738406E-4,5.895003E-4,5.2704643E-3,0E0,0E0,6.187482E-4,0E0,1.030783E-2,0E0,0E0,0E0,0E0,1.2071782E-3,0E0,0E0,0E0,0E0,0E0,0E0,1.131716E-2,0E0,0E0,0E0,5.7171136E-3,0E0,0E0],"parents":[2147483647,0,0,1,1,2,2,3,3,5,5,6,6,7,7,9,9,10,10,13,13,16,16,17,17,18,18,20,20,22,22,23,23,24,24,25,25,26,26,27,27,31,31,32,32,33,33,36,36,38,38,43,43,50,50,54,54],"right_children":[2,4,6,8,-1,10,12,14,-1,16,18,-1,-1,20,-1,-1,22,24,26,-1,28,-1,30,-1,-1,-1,38,-1,-1,-1,-1,-1,-1,-1,-1,-1,-1,-1,50,-1,-1,-1,-1,-1,-1,-1,-1,-1,-1,-1,54,-1,-1,-1,-1,-1,-1],"split_conditions":[3.3910954E-1,4.2589948E-1,3.160823E-1,8.40671E-1,-0E0,3.0698988E-1,5.268639E-1,3.9118254E-1,-0E0,2.7265884E-2,1.9036894E-1,1.906277E-2,-0E0,1.7330457E-2,-0E0,-0E0,2.2647342E-1,4.039089E-1,6.0075223E-1,-0E0,8.1472754E-1,-0E0,7.23398E-1,-0E0,-3.6926572E-3,-0E0,1.2443571E-1,-1.4500493E-2,-0E0,-1.3344754E-2,-0E0,-9.642556E-5,1.1118399E-4,-4.643878E-3,-0E0,-0E0,-5.9378985E-4,-0E0,5.4080486E-2,-0E0,-1.5242283E-2,-6.687376E-4,-0E0,7.2402856E-4,-0E0,-0E0,-5.938126E-3,-1.3547943E-3,-0E0,-0E0,3.7079737E-2,-0E0,1.4299654E-3,-0E0,5.25559E-3,-0E0,6.169584E-3],"split_indices":[14,6,48,25,0,35,1,30,0,48,45,0,0,19,0,0,44,31,29,0,24,0,1,28,38,15,31,12,0,0,0,2147483647,2147483647,2147483647,2147483647,2147483647,2147483647,0,43,2147483647,2147483647,2147483647,2147483647,2147483647,2147483647,2147483647,2147483647,2147483647,2147483647,0,40,2147483647,2147483647,0,23,2147483647,2147483647],"split_type":[0,0,0,0,0,0,0,0,0,0,0,0,0,0,0,0,0,0,0,0,0,0,0,0,0,0,0,0,0,0,0,0,0,0,0,0,0,0,0,0,0,0,0,0,0,0,0,0,0,0,0,0,0,0,0,0,0],"sum_hessian":[4.94E2,1.5E2,3.44E2,1.39E2,1.1E1,3.3E2,1.4E1,1.31E2,8E0,7.4E1,2.56E2,7E0,7E0,1.11E2,2E1,1.5E1,5.9E1,1.21E2,1.35E2,1.6E1,9.5E1,2E1,3.9E1,7.6E1,4.5E1,3E1,1.05E2,8.7E1,8E0,3.1E1,8E0,3.1E1,4.5E1,3.8E1,7E0,8E0,2.2E1,8E0,9.7E1,7E0,8E1,2.3E1,8E0,3.8E1,7E0,1E1,2.8E1,1.5E1,7E0,1.4E1,8.3E1,9E0,2.9E1,7E0,7.6E1,1.6E1,6E1],"tree_param":{"num_deleted":"20","num_feature":"50","num_nodes":"57","size_leaf_vector":"0"}},{"base_weights":[-1.0170876E-2,-4.4718705E-2,-0E0,-0E0,-6.0146857E-2,-3.39068E-2,3.0252547E-3,-6.060826E-3,1.6115248E-2,-0E0,-6.604644E-2,-4.6462264E-2,-0E0,-5.1683155E-3,1.9974519E-2,4.0108617E-2,-0E0,-0E0,-7.145922E-2,-0E0,-3.304937E-2,-0E0,2.5136273E-2,-0E0,-7.6349154E-2,9.739272E-3,-4.1392823E-3,-4.093429E-2,-0E0,3.2772347E-2,-0E0,-0E0,-8.346769E-2,3.9218783E-2,-0E0,-1.3021341E-2,-0E0,-4.7920074E-2,-0E0,4.184407E-2,-0E0,-2.5104389E-2,-0E0,-0E0,-5.6456566E-2,5.0313998E-2,-0E0,-0E0,-2.9124277E-2,-0E0,5.6536924E-2,-0E0,6.249259E-2],"categories":[],"categories_nodes":[],"categories_segments":[],"categories_sizes":[],"default_left":[1,1,1,1,1,1,1,1,1,0,1,0,0,1,1,1,1,0,1,1,1,0,1,1,1,1,1,1,0,1,0,1,1,0,0,1,1,1,1,1,0,1,1,1,1,1,0,1,1,0,1,0,0],"id":10,"left_children":[1,3,5,-1,9,11,13,-1,-1,-1,17,-1,-1,19,21,-1,-1,-1,-1,25,27,-1,29,-1,-1,33,-1,-1,-1,39,-1,-1,-1,-1,-1,-1,-1,-1,-1,45,-1,-1,-1,-1,-1,49,-1,-1,-1,-1,51,-1,-1],"loss_changes":[1.675598E-1,8.684832E-2,4.529238E-2,4.435143E-3,2.371046E-2,1.9643098E-2,6.041967E-2,0E0,9.758133E-3,0E0,1.0296434E-2,0E0,0E0,4.0938262E-2,2.5053058E-2,0E0,0E0,0E0,7.3187053E-3,8.582817E-3,1.3110656E-2,0E0,3.240785E-2,0E0,5.0816536E-3,1.6986221E-2,6.972923E-3,6.0115457E-3,0E0,3.430126E-2,0E0,0E0,0E0,0E0,0E0,1.0066662E-2,0E0,3.1547397E-3,0E0,2.3766845E-2,0E0,5.109329E-4,0E0,0E0,0E0,2.0029977E-2,0E0,0E0,0E0,0E0,1.5608773E-2,0E0,0E0],"parents":[2147483647,0,0,1,1,2,2,3,3,4,4,5,5,6,6,8,8,10,10,13,13,14,14,18,18,19,19,20,20,22,22,24,24,25,25,26,26,27,27,29,29,35,35,37,37,39,39,41,41,45,45,50,50],"right_children":[2,4,6,-1,10,12,14,-1,-1,-1,18,-1,-1,20,22,-1,-1,-1,-1,26,28,-1,30,-1,-1,34,-1,-1,-1,40,-1,-1,-1,-1,-1,-1,-1,-1,-1,46,-1,-1,-1,-1,-1,50,-1,-1,-1,-1,52,-1,-1],"split_conditions":[2.9716706E-1,2.8846318E-1,3.0983143E-2,-0E0,3.6309707E-1,9.858089E-2,7.595684E-1,-1.1068729E-3,2.943086E-3,-0E0,4.407565E-1,-8.485283E-3,-0E0,7.5981003E-1,2.4853228E-1,7.324933E-3,-0E0,-0E0,-1.3050412E-2,6.118629E-1,3.6474288E-1,-0E0,7.278228E-1,-0E0,-1.3943449E-2,3.2949585E-3,-7.559464E-4,-7.4757235E-3,-0E0,6.8478376E-1,-0E0,-0E0,-1.5243488E-2,7.1624247E-3,-0E0,-2.3780537E-3,-0E0,-8.751519E-3,-0E0,7.299182E-1,-0E0,-4.584749E-3,-0E0,-0E0,-1.0310517E-2,9.243551E-2,-0E0,-0E0,-5.3188913E-3,-0E0,1.4147386E-1,-0E0,1.141286E-2],"split_indices":[35,15,33,49,3,26,36,2147483647,2147483647,0,18,0,0,19,28,2147483647,2147483647,0,6,36,47,0,17,2147483647,2147483647,37,21,12,0,7,0,2147483647,2147483647,0,0,2147483647,2147483647,2147483647,2147483647,0,0,2147483647,2147483647,2147483647,2147483647,43,0,2147483647,2147483647,0,31,0,0],"split_type":[0,0,0,0,0,0,0,0,0,0,0,0,0,0,0,0,0,0,0,0,0,0,0,0,0,0,0,0,0,0,0,0,0,0,0,0,0,0,0,0,0,0,0,0,0,0,0,0,0,0,0,0,0],"sum_hessian":[4.98E2,1.09E2,3.89E2,2.5E1,8.4E1,3.6E1,3.53E2,1E1,1.5E1,9E0,7.5E1,2.8E1,8E0,2.08E2,1.45E2,8E0,7E0,9E0,6.6E1,1.66E2,4.2E1,1.4E1,1.31E2,7E0,5.9E1,7.3E1,9.3E1,3.5E1,7E0,1.07E2,2.4E1,9E0,5E1,1.5E1,5.8E1,5E1,4.3E1,2.8E1,7E0,8.5E1,2.2E1,2.9E1,2.1E1,7E0,2.1E1,6.8E1,1.7E1,7E0,2.2E1,8E0,6E1,7E0,5.3E1],"tree_param":{"num_deleted":"18","num_feature":"50","num_nodes":"53","size_leaf_vector":"0"}},{"base_weights":[-1.1256219E-2,-2.2963515E-2,-0E0,-4.061569E-2,-0E0,-5.9769657E-3,1.0099427E-2,-0E0,-4.957908E-2,1.323343E-2,-1.9628914E-2,5.802614E-4,-1.9315846E-2,-0E0,4.624163E-2,-5.3626377E-2,-0E0,-0E0,3.3755902E-2,-0E0,-3.414089E-2,5.6051E-3,-0E0,-0E0,-2.8053062E-2,-1.7921523E-3,6.793729E-3,-0E0,-5.8902957E-2,-0E0,4.5944594E-2,-0E0,-4.0965155E-2,1.0528799E-2,-0E0,-0E0,-3.2626808E-2,-0E0,-1.5313377E-2,1.2582071E-2,-0E0,-6.305587E-2,-0E0,-0E0,5.366806E-2,-0E0,-4.5789007E-2,1.3615048E-2,-0E0,-3.8471993E-2,-0E0,-0E0,-2.0827916E-2,-0E0,1.8583536E-2,-0E0,-6.7276664E-2,-4.35203E-2,-0E0,-0E0,2.3019593E-2,-0E0,-7.081617E-2,-0E0,-4.844723E-2,-0E0,2.918453E-2,-8.2290255E-2,-0E0,-0E0,-5.3429805E-2],"categories":[],"categories_nodes":[],"categories_segments":[],"categories_sizes":[],"default_left":[1,1,1,1,1,1,1,0,1,1,1,1,1,1,0,1,0,0,1,0,1,1,1,0,1,1,1,0,1,0,1,0,1,1,1,0,1,1,1,1,1,1,0,1,1,1,1,1,1,1,0,1,1,1,1,0,1,1,1,1,1,0,1,1,1,1,1,0,0,1,1],"id":11,"left_children":[1,3,5,7,9,11,13,-1,15,17,19,-1,23,-1,-1,27,-1,-1,29,-1,31,-1,-1,-1,35,-1,-1,-1,41,-1,-1,-1,-1,-1,-1,-1,49,-1,-1,-1,-1,55,-1,-1,-1,-1,-1,-1,-1,-1,-1,-1,-1,-1,-1,-1,61,-1,-1,-1,-1,-1,67,-1,-1,-1,-1,-1,-1,-1,-1],"loss_changes":[7.6176934E-2,8.862887E-2,1.6494896E-2,5.8766693E-2,3.69981E-2,2.6021117E-2,2.5906578E-2,0E0,2.8983474E-2,2.9583935E-2,2.7090812E-2,1.3200756E-3,2.5521362E-2,2.916814E-3,0E0,1.7086029E-2,0E0,0E0,1.9788846E-2,0E0,1.1615343E-2,2.49574E-3,0E0,0E0,1.1350166E-2,4.7055786E-3,5.5279415E-3,0E0,2.1084636E-2,0E0,1.8272586E-3,0E0,1.469396E-3,9.084551E-4,0E0,0E0,1.3102591E-2,0E0,1.065271E-3,7.4173184E-3,0E0,1.7596126E-2,0E0,0E0,0E0,0E0,0E0,0E0,0E0,9.334266E-3,0E0,0E0,0E0,0E0,3.6430694E-3,0E0,5.259484E-3,5.1299185E-3,0E0,0E0,3.2557491E-3,0E0,1.0887474E-2,0E0,6.162226E-4,0E0,0E0,0E0,0E0,0E0,0E0],"parents":[2147483647,0,0,1,1,2,2,3,3,4,4,5,5,6,6,8,8,9,9,10,10,11,11,12,12,13,13,15,15,18,18,20,20,21,21,24,24,25,25,26,26,28,28,30,30,32,32,33,33,36,36,38,38,39,39,41,41,49,49,54,54,56,56,57,57,60,60,62,62,64,64],"right_children":[2,4,6,8,10,12,14,-1,16,18,20,-1,24,-1,-1,28,-1,-1,30,-1,32,-1,-1,-1,36,-1,-1,-1,42,-1,-1,-1,-1,-1,-1,-1,50,-1,-1,-1,-1,56,-1,-1,-1,-1,-1,-1,-1,-1,-1,-1,-1,-1,-1,-1,62,-1,-1,-1,-1,-1,68,-1,-1,-1,-1,-1,-1,-1,-1],"split_conditions":[4.8233938E-1,6.8498194E-1,6.5490735E-1,4.4472077E-1,2.9947343E-1,3.6368436E-1,2.494674E-1,-0E0,9.945532E-1,4.3648636E-1,3.7241483E-1,1.0597164E-4,2.2490626E-2,-0E0,8.444989E-3,3.8588926E-1,-0E0,-0E0,1.2381077E-1,-0E0,2.0414987E-1,1.0236449E-3,-0E0,-0E0,1.2882076E-1,-3.2729612E-4,1.2407211E-3,-0E0,1.0924722E-1,-0E0,8.390742E-3,-0E0,-7.48136E-3,1.9228474E-3,-0E0,-0E0,2.3425981E-1,-0E0,-2.7966422E-3,2.297831E-3,-0E0,2.5934605E-2,-0E0,-0E0,9.801258E-3,-0E0,-8.362328E-3,2.4864809E-3,-0E0,-7.0260405E-3,-0E0,-0E0,-3.8037482E-3,-0E0,3.393863E-3,-0E0,3.263818E-1,-7.948E-3,-0E0,-0E0,4.2040087E-3,-0E0,5.564232E-1,-0E0,-8.847792E-3,-0E0,5.329895E-3,-1.5028456E-2,-0E0,-0E0,-9.757747E-3],"split_indices":[14,8,38,18,7,32,48,0,46,11,42,48,48,47,0,24,0,0,21,0,14,2147483647,2147483647,0,20,2147483647,2147483647,0,37,0,36,0,29,2147483647,2147483647,0,48,2147483647,2147483647,2147483647,2147483647,12,0,2147483647,2147483647,2147483647,2147483647,2147483647,2147483647,14,0,2147483647,2147483647,2147483647,2147483647,0,32,2147483647,2147483647,2147483647,2147483647,0,7,2147483647,2147483647,2147483647,2147483647,0,0,2147483647,2147483647],"split_type":[0,0,0,0,0,0,0,0,0,0,0,0,0,0,0,0,0,0,0,0,0,0,0,0,0,0,0,0,0,0,0,0,0,0,0,0,0,0,0,0,0,0,0,0,0,0,0,0,0,0,0,0,0,0,0,0,0,0,0,0,0,0,0,0,0,0,0,0,0,0,0],"sum_hessian":[5.16E2,2.68E2,2.48E2,1.39E2,1.29E2,1.34E2,1.14E2,2.2E1,1.17E2,6.2E1,6.7E1,5.2E1,8.2E1,9.7E1,1.7E1,1.1E2,7E0,2.7E1,3.5E1,2.2E1,4.5E1,4.2E1,1E1,1.1E1,7.1E1,3.7E1,6E1,1.4E1,9.6E1,7E0,2.8E1,7E0,3.8E1,3.4E1,8E0,8E0,6.3E1,1.7E1,2E1,5.2E1,8E0,8.9E1,7E0,7E0,2.1E1,7E0,3.1E1,2.5E1,9E0,5.4E1,9E0,7E0,1.3E1,7E0,4.5E1,7E0,8.2E1,4.7E1,7E0,9E0,3.6E1,7E0,7.5E1,7E0,4E1,1E1,2.6E1,5.7E1,1.8E1,7E0,3.3E1],"tree_param":{"num_deleted":"30","num_feature":"50","num_nodes":"71","size_leaf_vector":"0"}},{"base_weights":[-9.233178E-3,-1.707177E-2,3.8473792E-3,-4.2323692E-4,-3.252315E-2,1.498852E-2,-5.5547594E-4,-4.0247906E-2,8.436681E-3,-0E0,-3.70267E-2,-0E0,2.7830573E-2,-1.7334798E-2,-0E0,-4.5806173E-2,-0E0,4.93444E-2,-0E0,-0E0,-4.0636044E-2,-0E0,3.483374E-2,-0E0,-2.5089892E-2,-0E0,-5.1692303E-2,6.470524E-2,-0E0,-1.0016562E-2,1.3943961E-2,-4.342219E-2,-0E0,-0E0,-6.349695E-2,-2.3141695E-2,-0E0,2.6485229E-2,-0E0,-0E0,-4.651719E-2,-2.8374894E-2,-0E0,3.4754217E-2,-0E0,-4.883433E-2,-0E0,-0E0,3.9740402E-2,-5.1878154E-2,-0E0,-0E0,-5.693608E-2],"categories":[],"categories_nodes":[],"categories_segments":[],"categories_sizes":[],"default_left":[1,1,1,1,1,1,1,1,1,0,1,0,1,1,1,1,1,1,1,0,1,1,1,1,1,1,1,0,0,1,1,1,0,1,1,1,0,1,0,0,1,1,1,1,0,1,0,1,1,1,0,0,0],"id":12,"left_children":[1,3,5,7,9,11,-1,-1,17,-1,19,-1,-1,-1,-1,-1,-1,27,29,-1,31,-1,-1,-1,-1,-1,-1,-1,-1,35,37,39,-1,-1,-1,-1,-1,43,-1,-1,45,-1,-1,-1,-1,49,-1,-1,-1,51,-1,-1,-1],"loss_changes":[6.1110303E-2,6.435801E-2,1.8363675E-2,9.1979265E-2,2.847986E-2,2.3250205E-2,7.067655E-3,9.506151E-3,4.490489E-2,0E0,2.8127834E-2,0E0,9.056523E-3,3.3518723E-3,0E0,3.633991E-3,0E0,1.025258E-2,1.7098205E-2,0E0,1.8320307E-2,0E0,0E0,0E0,0E0,0E0,4.0317103E-3,0E0,0E0,1.6659196E-2,1.5943972E-2,1.6039208E-2,0E0,0E0,0E0,5.3082667E-3,0E0,1.0575697E-2,0E0,0E0,9.506136E-3,0E0,0E0,3.0410662E-4,0E0,9.983242E-3,0E0,0E0,0E0,1.1074007E-2,0E0,0E0,0E0],"parents":[2147483647,0,0,1,1,2,2,3,3,4,4,5,5,6,6,7,7,8,8,10,10,12,12,13,13,15,15,17,17,18,18,20,20,26,26,29,29,30,30,31,31,35,35,37,37,40,40,43,43,45,45,49,49],"right_children":[2,4,6,8,10,12,-1,-1,18,-1,20,-1,-1,-1,-1,-1,-1,28,30,-1,32,-1,-1,-1,-1,-1,-1,-1,-1,36,38,40,-1,-1,-1,-1,-1,44,-1,-1,46,-1,-1,-1,-1,50,-1,-1,-1,52,-1,-1,-1],"split_conditions":[6.185057E-1,2.0405689E-1,5.404535E-1,2.341546E-4,5.0340462E-3,2.9974586E-1,-1.0144513E-4,-7.3503708E-3,1.58602E-2,-0E0,1.9293132E-1,-0E0,5.0826254E-3,-3.1658092E-3,-0E0,-8.3654625E-3,-0E0,2.0947312E-1,2.4115291E-1,-0E0,7.8851354E-1,-0E0,6.361596E-3,-0E0,-4.582102E-3,-0E0,-9.440431E-3,1.181695E-2,-0E0,7.090069E-2,6.838366E-1,2.5616658E-1,-0E0,-0E0,-1.1596283E-2,-4.226308E-3,-0E0,2.5027186E-1,-0E0,-0E0,7.0212424E-1,-5.1820334E-3,-0E0,6.347073E-3,-0E0,9.026216E-1,-0E0,-0E0,7.257687E-3,3.4802133E-1,-0E0,-0E0,-1.0398089E-2],"split_indices":[21,40,40,23,9,49,36,10,23,0,49,0,17,2147483647,2147483647,2147483647,2147483647,33,13,0,28,2147483647,2147483647,2147483647,2147483647,2147483647,2147483647,0,0,40,7,39,0,2147483647,2147483647,37,0,47,0,0,10,2147483647,2147483647,39,0,4,0,2147483647,2147483647,24,0,0,0],"split_type":[0,0,0,0,0,0,0,0,0,0,0,0,0,0,0,0,0,0,0,0,0,0,0,0,0,0,0,0,0,0,0,0,0,0,0,0,0,0,0,0,0,0,0,0,0,0,0,0,0,0,0,0,0],"sum_hessian":[4.97E2,3.47E2,1.5E2,1.91E2,1.56E2,9.1E1,5.9E1,5E1,1.41E2,1.5E1,1.41E2,3.5E1,5.6E1,2.3E1,3.6E1,4.3E1,7E0,2.2E1,1.19E2,7E0,1.34E2,1.3E1,4.3E1,7E0,1.6E1,8E0,3.5E1,1.5E1,7E0,6.6E1,5.3E1,1.27E2,7E0,1.1E1,2.4E1,4.3E1,2.3E1,3.7E1,1.6E1,9E0,1.18E2,3.5E1,8E0,3E1,7E0,1.11E2,7E0,7E0,2.3E1,1.02E2,9E0,1.4E1,8.8E1],"tree_param":{"num_deleted":"16","num_feature":"50","num_nodes":"53","size_leaf_vector":"0"}},{"base_weights":[-9.045465E-3,-0E0,-2.2591706E-2,-1.6228989E-2,6.9623385E-3,-3.36439E-2,-0E0,-0E0,-3.0302491E-2,3.64229E-2,-0E0,-0E0,-4.1481547E-2,-0E0,-6.4382767E-3,-3.6184464E-2,-0E0,-0E0,5.4325283E-2,8.745752E-3,-3.399244E-3,-5.728519E-2,-0E0,-0E0,1.2944896E-3,-2.1226764E-2,-0E0,-0E0,6.6235416E-2,-0E0,1.7819867E-2,-1.3963388E-2,-0E0,-6.329761E-2,-0E0,-0E0,2.3061126E-2,-1.7860346E-2,-0E0,1.1063447E-2,-0E0,-6.891085E-2,-0E0,-0E0,2.809207E-2,-0E0,-2.2768091E-2,-0E0,-2.6924668E-2,-3.1503573E-2,-0E0],"categories":[],"categories_nodes":[],"categories_segments":[],"categories_sizes":[],"default_left":[1,1,1,1,1,1,1,0,1,1,1,0,1,1,1,1,1,0,1,1,1,1,0,1,1,1,1,1,1,0,1,1,1,1,0,1,1,1,1,1,1,0,0,1,1,1,1,1,1,1,1],"id":13,"left_children":[1,3,5,7,9,11,-1,-1,-1,17,19,-1,21,-1,-1,-1,-1,-1,-1,29,31,33,-1,-1,-1,-1,-1,-1,-1,-1,-1,-1,-1,41,-1,-1,-1,-1,-1,-1,-1,-1,-1,-1,-1,-1,-1,-1,-1,-1,-1],"loss_changes":[6.3886E-2,3.2581694E-2,3.8353205E-2,1.7741041E-2,3.424506E-2,4.0117443E-2,8.5311977E-4,0E0,6.5689757E-3,3.3897664E-2,6.7297565E-3,0E0,3.8377747E-2,3.7839396E-5,5.2662375E-3,0E0,0E0,0E0,7.4578747E-3,1.0586823E-2,1.17271105E-2,1.2936711E-2,0E0,0E0,0E0,0E0,0E0,0E0,0E0,0E0,5.5197757E-3,6.0241735E-3,2.1519368E-3,1.0233223E-2,0E0,0E0,4.9193706E-3,7.7330507E-3,0E0,0E0,0E0,0E0,0E0,0E0,0E0,0E0,5.5796206E-3,0E0,1.7438084E-5,0E0,0E0],"parents":[2147483647,0,0,1,1,2,2,3,3,4,4,5,5,6,6,8,8,9,9,10,10,12,12,13,13,14,14,18,18,19,19,20,20,21,21,30,30,31,31,32,32,33,33,36,36,37,37,46,46,48,48],"right_children":[2,4,6,8,10,12,-1,-1,-1,18,20,-1,22,-1,-1,-1,-1,-1,-1,30,32,34,-1,-1,-1,-1,-1,-1,-1,-1,-1,-1,-1,42,-1,-1,-1,-1,-1,-1,-1,-1,-1,-1,-1,-1,-1,-1,-1,-1,-1],"split_conditions":[1.5017173E-1,3.4995466E-1,6.3257277E-1,7.117101E-1,1.3250141E-1,1.09894566E-1,-0E0,-0E0,-5.5340654E-3,3.55986E-1,3.8931698E-1,-0E0,6.4738333E-1,-0E0,-1.1758058E-3,-6.6082748E-3,-0E0,-0E0,9.921285E-3,7.257149E-1,1.8963179E-1,8.131863E-1,-0E0,-0E0,2.3640928E-4,-3.8765888E-3,-0E0,-0E0,1.2096402E-2,-0E0,3.2543961E-3,-2.5500974E-3,-0E0,3.912838E-1,-0E0,-0E0,4.211594E-3,-3.2617887E-3,-0E0,2.0204887E-3,-0E0,-1.258501E-2,-0E0,-0E0,5.130382E-3,-0E0,-4.1580778E-3,-0E0,-4.9171825E-3,-5.753416E-3,-0E0],"split_indices":[16,21,35,17,26,19,3,0,31,28,32,0,21,2147483647,2147483647,2147483647,2147483647,0,45,29,34,10,0,2147483647,2147483647,2147483647,2147483647,2147483647,2147483647,0,31,43,33,23,0,2147483647,2147483647,2147483647,2147483647,2147483647,2147483647,0,0,2147483647,2147483647,2147483647,2147483647,2147483647,2147483647,2147483647,2147483647],"split_type":[0,0,0,0,0,0,0,0,0,0,0,0,0,0,0,0,0,0,0,0,0,0,0,0,0,0,0,0,0,0,0,0,0,0,0,0,0,0,0,0,0,0,0,0,0,0,0,0,0,0,0],"sum_hessian":[5.01E2,2.96E2,2.05E2,8.4E1,2.12E2,1.26E2,7.9E1,4.1E1,4.3E1,3.3E1,1.79E2,2E1,1.06E2,5.9E1,2E1,3.5E1,8E0,7E0,2.6E1,7.1E1,1.08E2,6.7E1,3.9E1,3.7E1,2.2E1,1.3E1,7E0,7E0,1.9E1,2.1E1,5E1,6.6E1,4.2E1,5.8E1,9E0,1E1,4E1,5.9E1,7E0,1.7E1,2.5E1,5.1E1,7E0,7E0,3.3E1,8E0,5.1E1,7E0,4.4E1,3.2E1,1.2E1],"tree_param":{"num_deleted":"24","num_feature":"50","num_nodes":"51","size_leaf_vector":"0"}},{"base_weights":[-9.175107E-3,-2.8919827E-2,-0E0,-3.4418195E-2,-0E0,-3.6217258E-3,4.1978437E-2,-3.9255902E-2,-0E0,-1.9554349E-2,-0E0,-0E0,6.272861E-2,-4.129038E-2,-0E0,-0E0,-2.7143719E-2,-5.431987E-3,6.9774957E-3,-4.4470277E-2,-0E0,-0E0,-3.221813E-2,-1.223079E-2,-0E0,-0E0,1.4483436E-2,-4.6581462E-2,-0E0,-3.721377E-2,-0E0,-0E0,-2.1003935E-2,1.8999218E-4,-0E0,-0E0,2.0667834E-2,-0E0,-2.952846E-2,4.1357353E-3,-0E0,2.9034935E-2,-0E0,-0E0,-3.598322E-2,-0E0,9.384415E-3,-0E0,3.2912303E-2,-0E0,-4.2045157E-2,-0E0,1.1101443E-2,3.706745E-2,-0E0],"categories":[],"categories_nodes":[],"categories_segments":[],"categories_sizes":[],"default_left":[1,1,1,1,0,1,1,1,0,1,1,0,0,1,1,0,1,1,1,1,1,1,1,1,1,0,1,1,1,1,1,0,1,1,1,0,1,0,1,1,1,1,0,0,1,1,1,1,1,1,1,1,1,1,1],"id":14,"left_children":[1,3,5,7,-1,9,11,-1,-1,15,17,-1,-1,-1,-1,-1,-1,23,25,-1,-1,-1,-1,31,-1,-1,35,-1,-1,-1,-1,-1,37,-1,-1,-1,41,-1,43,-1,-1,-1,-1,-1,-1,-1,-1,-1,-1,-1,-1,-1,-1,-1,-1],"loss_changes":[7.801808E-2,2.2268824E-2,3.5671763E-2,1.7135754E-2,0E0,2.1150842E-2,1.0654347E-2,5.203396E-3,0E0,1.8793907E-2,1.1076411E-2,0E0,0E0,4.857734E-3,0E0,0E0,7.868577E-3,8.63296E-3,9.965484E-3,1.454398E-3,0E0,0E0,2.3109242E-3,1.5090336E-2,1.970219E-6,0E0,1.1312263E-2,0E0,0E0,0E0,0E0,0E0,1.9971928E-2,7.263517E-4,0E0,0E0,1.0839736E-2,0E0,1.314484E-2,2.229082E-3,0E0,3.3657178E-3,0E0,0E0,3.0603185E-3,0E0,3.1851814E-4,0E0,1.6005225E-3,0E0,0E0,0E0,0E0,0E0,0E0],"parents":[2147483647,0,0,1,1,2,2,3,3,5,5,6,6,7,7,9,9,10,10,13,13,16,16,17,17,18,18,19,19,22,22,23,23,24,24,26,26,32,32,33,33,36,36,38,38,39,39,41,41,44,44,46,46,48,48],"right_children":[2,4,6,8,-1,10,12,-1,-1,16,18,-1,-1,-1,-1,-1,-1,24,26,-1,-1,-1,-1,32,-1,-1,36,-1,-1,-1,-1,-1,38,-1,-1,-1,42,-1,44,-1,-1,-1,-1,-1,-1,-1,-1,-1,-1,-1,-1,-1,-1,-1,-1],"split_conditions":[3.1330833E-1,8.0877864E-1,3.1613463E-1,7.943486E-1,-0E0,2.730359E-1,2.3269844E-1,-7.169204E-3,-0E0,2.1967333E-2,5.4384464E-1,-0E0,1.1455964E-2,-7.540755E-3,-0E0,-0E0,-4.957187E-3,2.8824988E-1,2.9584453E-1,-8.121491E-3,-0E0,-0E0,-5.8839135E-3,4.4334152E-1,-0E0,-0E0,3.388666E-1,-8.5070515E-3,-0E0,-6.7962543E-3,-0E0,-0E0,3.9668873E-1,3.469778E-5,-0E0,-0E0,5.4231596E-1,-0E0,2.4358478E-1,7.5529865E-4,-0E0,5.302575E-3,-0E0,-0E0,-6.571522E-3,-0E0,1.7138515E-3,-0E0,6.0106884E-3,-0E0,-7.678598E-3,-0E0,2.0274278E-3,6.7695323E-3,-0E0],"split_indices":[14,18,48,24,0,35,25,10,0,48,17,0,0,2147483647,2147483647,0,6,30,49,2147483647,2147483647,2147483647,2147483647,39,7,0,35,2147483647,2147483647,2147483647,2147483647,0,1,2147483647,2147483647,0,6,0,25,2147483647,2147483647,24,0,0,42,2147483647,2147483647,2147483647,2147483647,2147483647,2147483647,2147483647,2147483647,2147483647,2147483647],"split_type":[0,0,0,0,0,0,0,0,0,0,0,0,0,0,0,0,0,0,0,0,0,0,0,0,0,0,0,0,0,0,0,0,0,0,0,0,0,0,0,0,0,0,0,0,0,0,0,0,0,0,0,0,0,0,0],"sum_hessian":[5.19E2,1.45E2,3.74E2,1.21E2,2.4E1,3.57E2,1.7E1,1.04E2,1.7E1,6.7E1,2.9E2,7E0,1E1,9.7E1,7E0,7E0,6E1,1.61E2,1.29E2,8.6E1,1.1E1,1E1,5E1,8.9E1,7.2E1,5.2E1,7.7E1,7.9E1,7E0,3.9E1,1.1E1,2.5E1,6.4E1,5.4E1,1.8E1,1.3E1,6.4E1,9E0,5.5E1,4.2E1,1.2E1,4.5E1,1.9E1,8E0,4.7E1,9E0,3.3E1,7E0,3.8E1,1.1E1,3.6E1,7E0,2.6E1,3.1E1,7E0],"tree_param":{"num_deleted":"24","num_feature":"50","num_nodes":"55","size_leaf_vector":"0"}},{"base_weights":[-6.8357065E-3,-2.5061812E-2,-0E0,-3.1953815E-2,-0E0,-9.8467525E-3,5.283668E-3,-0E0,-4.4478446E-2,-0E0,-1.7203404E-2,-1.4623252E-2,1.6189443E-2,-5.0368875E-2,-0E0,-0E0,5.692118E-3,-2.237944E-2,-0E0,-1.903123E-2,-0E0,-0E0,2.9575625E-2,-5.60239E-2,-0E0,-0E0,-2.5658129E-2,-2.3450946E-2,-0E0,-0E0,8.319882E-3,-0E0,3.6233176E-2,-2.9946176E-2,-0E0,-3.0513972E-2,-0E0,-0E0,-3.800156E-3,1.3304576E-2,-0E0,4.318952E-2,-0E0,-3.281337E-2,-0E0,-0E0,1.6958771E-2,5.0286286E-2,-0E0,-3.730442E-2,-0E0,-0E0,1.954909E-2,5.6280207E-2,-0E0,-0E0,-4.3381073E-2],"categories":[],"categories_nodes":[],"categories_segments":[],"categories_sizes":[],"default_left":[1,1,1,1,0,1,1,0,1,1,1,1,1,1,0,1,1,1,0,1,1,1,1,0,0,0,1,1,1,1,1,0,1,1,0,1,1,1,1,1,1,1,0,1,1,1,1,1,0,1,1,1,1,1,1,1,1],"id":15,"left_children":[1,3,5,7,-1,9,11,-1,13,-1,17,-1,21,23,-1,-1,-1,25,-1,-1,-1,-1,31,-1,-1,-1,33,-1,-1,-1,-1,-1,41,-1,-1,-1,-1,-1,-1,-1,-1,47,-1,-1,-1,-1,-1,-1,-1,-1,-1,-1,-1,-1,-1,-1,-1],"loss_changes":[4.7087394E-2,3.300748E-2,2.3402426E-2,2.800063E-2,0E0,2.3602156E-2,4.791392E-2,3.166055E-7,1.4365137E-2,9.5843716E-4,1.9878559E-2,3.6679152E-3,2.0613741E-2,1.2673199E-2,0E0,0E0,0E0,1.3224009E-2,0E0,3.7698634E-3,0E0,3.0167098E-3,1.9984074E-2,0E0,0E0,0E0,1.249481E-2,2.5575384E-3,0E0,3.116582E-4,3.458593E-3,0E0,2.0205393E-2,5.5352896E-3,0E0,0E0,0E0,0E0,0E0,2.0322497E-3,0E0,1.917027E-2,0E0,6.0754493E-3,0E0,0E0,1.2223702E-4,8.859068E-3,0E0,6.377019E-3,0E0,0E0,0E0,0E0,0E0,0E0,0E0],"parents":[2147483647,0,0,1,1,2,2,3,3,5,5,6,6,8,8,9,9,10,10,11,11,12,12,13,13,17,17,19,19,21,21,22,22,26,26,27,27,29,29,30,30,32,32,33,33,39,39,41,41,43,43,46,46,47,47,49,49],"right_children":[2,4,6,8,-1,10,12,-1,14,-1,18,-1,22,24,-1,-1,-1,26,-1,-1,-1,-1,32,-1,-1,-1,34,-1,-1,-1,-1,-1,42,-1,-1,-1,-1,-1,-1,-1,-1,48,-1,-1,-1,-1,-1,-1,-1,-1,-1,-1,-1,-1,-1,-1,-1],"split_conditions":[2.9089758E-1,7.237201E-1,5.437863E-1,5.2640177E-2,-0E0,2.5512466E-1,2.1564508E-2,-0E0,8.29005E-1,-0E0,2.1187128E-1,-2.6706066E-3,6.821613E-1,6.2669206E-1,-0E0,-0E0,1.0395368E-3,4.8038387E-1,-0E0,-3.4756244E-3,-0E0,-0E0,1.597102E-1,-1.02315E-2,-0E0,-0E0,5.6450385E-1,-4.2827856E-3,-0E0,-0E0,1.5194385E-3,-0E0,3.842309E-1,-5.4689925E-3,-0E0,-5.572688E-3,-0E0,-0E0,-6.940127E-4,2.4297803E-3,-0E0,7.532091E-1,-0E0,-5.9926207E-3,-0E0,-0E0,3.0971365E-3,9.183654E-3,-0E0,-6.8128095E-3,-0E0,-0E0,3.5701997E-3,1.0278309E-2,-0E0,-0E0,-7.922573E-3],"split_indices":[35,14,17,20,0,25,41,0,43,44,48,38,38,44,0,2147483647,2147483647,4,0,2147483647,2147483647,47,7,0,0,0,45,2147483647,2147483647,2147483647,2147483647,0,49,43,0,2147483647,2147483647,2147483647,2147483647,2147483647,2147483647,7,0,2147483647,2147483647,2147483647,2147483647,34,0,2147483647,2147483647,2147483647,2147483647,2147483647,2147483647,2147483647,2147483647],"split_type":[0,0,0,0,0,0,0,0,0,0,0,0,0,0,0,0,0,0,0,0,0,0,0,0,0,0,0,0,0,0,0,0,0,0,0,0,0,0,0,0,0,0,0,0,0,0,0,0,0,0,0,0,0,0,0,0,0],"sum_hessian":[5.05E2,1.12E2,3.93E2,1.01E2,1.1E1,1.79E2,2.14E2,3.5E1,6.6E1,4.1E1,1.38E2,5.1E1,1.63E2,5.7E1,9E0,1.2E1,2.9E1,1.21E2,1.7E1,4E1,1.1E1,9.1E1,7.2E1,5E1,7E0,9E0,1.12E2,3.3E1,7E0,4.8E1,4.3E1,9E0,6.3E1,9.6E1,1.6E1,2.2E1,1.1E1,2.7E1,2.1E1,3.6E1,7E0,5.5E1,8E0,8.5E1,1.1E1,7E0,2.9E1,4.8E1,7E0,7E1,1.5E1,7E0,2.2E1,4.1E1,7E0,1.5E1,5.5E1],"tree_param":{"num_deleted":"26","num_feature":"50","num_nodes":"57","size_leaf_vector":"0"}},{"base_weights":[-3.5925438E-3,-1.656985E-2,-0E0,-0E0,-3.0033281E-2,1.4571549E-2,-6.692184E-3,-0E0,3.188683E-3,-0E0,-3.428843E-2,-0E0,2.67117E-2,-0E0,-1.9274812E-2,-0E0,7.93231E-3,-3.8703028E-2,-0E0,-1.206568E-3,1.0160385E-3,3.39905E-2,-0E0,-2.6195168E-3,5.3494037E-3,-4.858371E-2,-0E0,-4.4253968E-2,-0E0,-1.3842411E-2,-0E0,-0E0,1.6893019E-3,3.981956E-2,-0E0,-0E0,-6.3519995E-3,1.1259255E-2,-0E0,-0E0,-5.0972356E-3,-4.9164273E-2,-0E0,-0E0,4.571288E-2,-1.20522585E-2,-0E0,-0E0,1.5645608E-2,-1.09102875E-2,-0E0,-5.4896533E-2,-0E0,-0E0,5.5924788E-2,-1.5111448E-2,-0E0,2.1266147E-2,-0E0,-0E0,-1.5929451E-2,-0E0,6.3445464E-2,-0E0,-2.0478683E-2,2.6083358E-2,-0E0,-1.9477727E-2,-0E0,-0E0,-2.2746464E-2],"categories":[],"categories_nodes":[],"categories_segments":[],"categories_sizes":[],"default_left":[1,1,1,1,1,1,1,1,1,0,1,1,1,1,1,1,1,1,0,1,1,1,0,1,1,0,1,1,1,1,1,1,1,1,0,1,1,1,1,1,1,1,1,0,1,1,1,1,1,1,1,1,1,0,1,1,1,1,1,1,1,1,1,1,1,1,1,1,1,1,1],"id":16,"left_children":[1,3,5,-1,9,11,13,-1,-1,-1,17,-1,21,-1,25,-1,-1,-1,-1,-1,-1,33,-1,-1,-1,-1,-1,-1,-1,-1,-1,-1,-1,43,-1,-1,-1,-1,-1,-1,-1,-1,-1,-1,53,-1,-1,-1,-1,-1,-1,-1,-1,-1,-1,-1,-1,-1,-1,-1,-1,-1,-1,-1,-1,-1,-1,-1,-1,-1,-1],"loss_changes":[2.865834E-2,3.94594E-2,3.8489223E-2,2.6010195E-4,8.493975E-3,2.3135612E-2,2.0129856E-2,0E0,8.461345E-4,0E0,1.0759853E-2,7.397297E-5,1.6607773E-2,2.2017069E-3,2.9700842E-2,0E0,0E0,5.3170025E-3,0E0,3.523147E-3,4.483166E-5,1.4105E-2,0E0,3.0384203E-3,3.766613E-3,0E0,1.1842821E-3,1.44808E-3,0E0,0E0,0E0,0E0,0E0,1.1372864E-2,0E0,0E0,6.5169516E-3,3.1936783E-3,0E0,0E0,3.4082069E-3,3.7079304E-3,0E0,0E0,1.4995649E-2,3.8100202E-3,0E0,0E0,3.5563633E-3,3.1674127E-3,0E0,0E0,0E0,0E0,2.8678179E-3,6.311383E-3,0E0,6.202394E-4,0E0,0E0,1.1863792E-3,0E0,0E0,0E0,6.2296726E-4,0E0,0E0,0E0,0E0,0E0,0E0],"parents":[2147483647,0,0,1,1,2,2,3,3,4,4,5,5,6,6,8,8,10,10,11,11,12,12,13,13,14,14,17,17,19,19,20,20,21,21,23,23,24,24,26,26,27,27,33,33,36,36,37,37,40,40,41,41,44,44,45,45,48,48,49,49,54,54,55,55,57,57,60,60,64,64],"right_children":[2,4,6,-1,10,12,14,-1,-1,-1,18,-1,22,-1,26,-1,-1,-1,-1,-1,-1,34,-1,-1,-1,-1,-1,-1,-1,-1,-1,-1,-1,44,-1,-1,-1,-1,-1,-1,-1,-1,-1,-1,54,-1,-1,-1,-1,-1,-1,-1,-1,-1,-1,-1,-1,-1,-1,-1,-1,-1,-1,-1,-1,-1,-1,-1,-1,-1,-1],"split_conditions":[5.714754E-2,5.534976E-1,2.0752949E-1,-0E0,8.431204E-3,2.824211E-1,7.020428E-1,-0E0,5.8234093E-4,-0E0,5.233629E-1,-0E0,8.28352E-1,-0E0,3.8755244E-1,-0E0,1.4486572E-3,-7.0682336E-3,-0E0,-2.2035239E-4,1.8555648E-4,1.7012712E-1,-0E0,-4.7839558E-4,9.769477E-4,-8.872717E-3,-0E0,-8.0819875E-3,-0E0,-2.5280036E-3,-0E0,-0E0,3.0851283E-4,7.149289E-2,-0E0,-0E0,-1.1600492E-3,2.0562485E-3,-0E0,-0E0,-9.308949E-4,-8.978744E-3,-0E0,-0E0,1.24711365E-1,-2.2010726E-3,-0E0,-0E0,2.857317E-3,-1.9925176E-3,-0E0,-1.0025612E-2,-0E0,-0E0,1.0213399E-2,-2.7597647E-3,-0E0,3.8837814E-3,-0E0,-0E0,-2.9091544E-3,-0E0,1.158688E-2,-0E0,-3.7399686E-3,4.763536E-3,-0E0,-3.5571668E-3,-0E0,-0E0,-4.154128E-3],"split_indices":[34,36,40,2,41,45,3,2147483647,2147483647,0,11,41,12,35,31,2147483647,2147483647,14,0,2147483647,2147483647,9,0,2147483647,2147483647,0,31,2147483647,2147483647,2147483647,2147483647,2147483647,2147483647,43,0,2147483647,2147483647,2147483647,2147483647,2147483647,2147483647,2147483647,2147483647,0,14,2147483647,2147483647,2147483647,2147483647,2147483647,2147483647,2147483647,2147483647,0,23,2147483647,2147483647,2147483647,2147483647,2147483647,2147483647,2147483647,2147483647,2147483647,2147483647,2147483647,2147483647,2147483647,2147483647,2147483647,2147483647],"split_type":[0,0,0,0,0,0,0,0,0,0,0,0,0,0,0,0,0,0,0,0,0,0,0,0,0,0,0,0,0,0,0,0,0,0,0,0,0,0,0,0,0,0,0,0,0,0,0,0,0,0,0,0,0,0,0,0,0,0,0,0,0,0,0,0,0,0,0,0,0,0,0],"sum_hessian":[4.93E2,1.27E2,3.66E2,4.5E1,8.2E1,1.31E2,2.35E2,2E1,2.5E1,1.2E1,7E1,6E1,7.1E1,1.53E2,8.2E1,8E0,1.7E1,6.2E1,8E0,2.5E1,3.5E1,5.8E1,1.3E1,1.01E2,5.2E1,2.5E1,5.7E1,5E1,1.2E1,1.8E1,7E0,7E0,2.8E1,5.1E1,7E0,9E0,9.2E1,4.1E1,1.1E1,1.2E1,4.5E1,4.1E1,9E0,7E0,4.4E1,7E1,2.2E1,7E0,3.4E1,3.8E1,7E0,3.4E1,7E0,1E1,3.4E1,6.1E1,9E0,2.6E1,8E0,8E0,3E1,7E0,2.7E1,1.3E1,4.8E1,1.8E1,8E0,2.3E1,7E0,8E0,4E1],"tree_param":{"num_deleted":"46","num_feature":"50","num_nodes":"71","size_leaf_vector":"0"}},{"base_weights":[-3.3340126E-3,-2.7164813E-2,-0E0,-4.1232564E-2,-0E0,5.025338E-3,-6.7214873E-3,-5.09763E-2,-0E0,-0E0,1.3405875E-2,-2.209914E-2,-0E0,3.4820726E-3,-1.6571099E-2,-0E0,2.544709E-2,-2.631123E-2,-0E0,-1.0685772E-2,5.4548946E-3,1.1575846E-2,-0E0,-0E0,-2.8394572E-2,-9.835203E-3,-0E0,-0E0,4.9710352E-2,-0E0,-1.8613756E-2,1.2375271E-2,-0E0,-0E0,1.639651E-2,-0E0,-3.4733992E-2,-0E0,6.0756006E-3,6.2303267E-2,-0E0,-2.1548452E-2,-0E0,-0E0,1.7319737E-2,2.0284945E-2,-0E0,-0E0,1.0365852E-2,-2.454612E-2,-0E0,1.9852012E-2,-0E0,-2.7482575E-2,-0E0,-0E0,2.1802228E-2],"categories":[],"categories_nodes":[],"categories_segments":[],"categories_sizes":[],"default_left":[1,1,1,1,0,1,1,0,0,1,1,1,1,1,1,1,1,1,1,1,1,1,1,0,1,1,1,0,1,0,1,1,1,1,1,1,1,1,1,0,0,1,1,1,1,1,1,1,1,1,1,1,1,1,1,1,1],"id":17,"left_children":[1,3,5,7,-1,9,11,-1,-1,13,15,-1,19,-1,23,-1,27,-1,-1,29,-1,-1,-1,-1,-1,-1,-1,-1,39,-1,-1,-1,-1,-1,-1,-1,-1,-1,-1,-1,-1,-1,-1,-1,-1,-1,-1,-1,-1,-1,-1,-1,-1,-1,-1,-1,-1],"loss_changes":[4.7561847E-2,3.753507E-2,1.5520571E-2,2.2154666E-2,0E0,1.6151696E-2,1.3876321E-2,0E0,0E0,1.3045756E-2,3.0187815E-2,4.4484437E-3,9.484133E-3,5.558988E-3,1.1350793E-2,1.990845E-3,5.1747393E-2,0E0,0E0,1.0725558E-2,7.2458913E-3,4.5358725E-3,0E0,0E0,2.9930007E-3,0E0,7.597124E-4,0E0,2.1247141E-2,0E0,2.829207E-3,5.8888393E-3,0E0,0E0,2.7816761E-3,0E0,0E0,0E0,6.9959986E-4,0E0,0E0,1.94248E-3,0E0,0E0,2.0965738E-3,0E0,0E0,0E0,0E0,4.5461208E-4,0E0,2.941843E-4,0E0,0E0,0E0,0E0,0E0],"parents":[2147483647,0,0,1,1,2,2,3,3,5,5,6,6,9,9,10,10,11,11,12,12,13,13,14,14,15,15,16,16,19,19,20,20,21,21,24,24,26,26,28,28,30,30,31,31,34,34,38,38,41,41,44,44,49,49,51,51],"right_children":[2,4,6,8,-1,10,12,-1,-1,14,16,-1,20,-1,24,-1,28,-1,-1,30,-1,-1,-1,-1,-1,-1,-1,-1,40,-1,-1,-1,-1,-1,-1,-1,-1,-1,-1,-1,-1,-1,-1,-1,-1,-1,-1,-1,-1,-1,-1,-1,-1,-1,-1,-1,-1],"split_conditions":[2.2158962E-2,7.809459E-1,6.1767244E-1,4.9980724E-1,-0E0,2.3883069E-1,5.428785E-1,-9.309669E-3,-0E0,1.7529997E-1,1.1621009E-1,-4.0359087E-3,4.872349E-1,6.359219E-4,5.3762066E-1,-0E0,3.154959E-1,-4.805152E-3,-0E0,6.5890774E-2,9.962133E-4,2.1140669E-3,-0E0,-0E0,-5.1856274E-3,-1.7961777E-3,-0E0,-0E0,2.538207E-1,-0E0,-3.3993819E-3,2.2600638E-3,-0E0,-0E0,2.9944521E-3,-0E0,-6.343379E-3,-0E0,1.1095712E-3,1.1378285E-2,-0E0,-3.935338E-3,-0E0,-0E0,3.1630588E-3,3.704587E-3,-0E0,-0E0,1.8930887E-3,-4.4827946E-3,-0E0,3.6255217E-3,-0E0,-5.0190715E-3,-0E0,-0E0,3.9816843E-3],"split_indices":[34,1,43,5,0,43,28,0,0,43,6,3,14,3,24,16,46,2147483647,2147483647,16,17,2147483647,2147483647,0,8,2147483647,2147483647,0,2,0,23,2147483647,2147483647,2147483647,2147483647,2147483647,2147483647,2147483647,2147483647,0,0,2147483647,2147483647,2147483647,2147483647,2147483647,2147483647,2147483647,2147483647,2147483647,2147483647,2147483647,2147483647,2147483647,2147483647,2147483647,2147483647],"split_type":[0,0,0,0,0,0,0,0,0,0,0,0,0,0,0,0,0,0,0,0,0,0,0,0,0,0,0,0,0,0,0,0,0,0,0,0,0,0,0,0,0,0,0,0,0,0,0,0,0,0,0,0,0,0,0,0,0],"sum_hessian":[5.39E2,7.2E1,4.67E2,5.3E1,1.9E1,2.82E2,1.85E2,4.3E1,1E1,1.53E2,1.29E2,4.5E1,1.4E2,1.11E2,4.2E1,4.7E1,8.2E1,3.8E1,7E0,6.2E1,7.8E1,5.1E1,6E1,1.4E1,2.8E1,2E1,2.7E1,4E1,4.2E1,1.1E1,5.1E1,6.2E1,1.6E1,9E0,4.2E1,7E0,2.1E1,7E0,2E1,3.2E1,1E1,4.4E1,7E0,1.1E1,5.1E1,3.4E1,8E0,7E0,1.3E1,3.7E1,7E0,4.4E1,7E0,3E1,7E0,7E0,3.7E1],"tree_param":{"num_deleted":"30","num_feature":"50","num_nodes":"57","size_leaf_vector":"0"}},{"base_weights":[-3.7662748E-3,-1.3271913E-2,6.053378E-3,-4.4765775E-3,-3.9266303E-2,-2.2538006E-3,1.7700003E-2,5.908327E-5,-1.6250143E-2,-0E0,-4.250966E-2,-1.0482006E-2,-0E0,2.82637E-2,-0E0,1.0613099E-2,-3.917798E-3,-2.2649541E-2,-0E0,-1.5224565E-2,-0E0,-0E0,3.437847E-2,2.3934804E-2,-0E0,-0E0,-8.610254E-3,-2.968178E-2,-0E0,-0E0,-1.893448E-2,4.014173E-2,-0E0,-0E0,3.686678E-2,-1.1242201E-2,-0E0,-0E0,-3.4547176E-2,-0E0,-2.1648936E-2,4.4833414E-2,-0E0,-3.8763E-2,-0E0,-0E0,5.135405E-2,-0E0,-4.380922E-2,-4.8333164E-2,-0E0],"categories":[],"categories_nodes":[],"categories_segments":[],"categories_sizes":[],"default_left":[1,1,1,1,1,1,1,1,1,1,1,1,1,1,0,1,1,1,0,1,1,0,1,1,0,1,1,1,0,1,1,1,0,1,1,1,1,0,1,1,1,1,0,1,1,0,0,1,1,1,1],"id":18,"left_children":[1,3,5,7,-1,-1,13,15,17,-1,-1,-1,-1,21,-1,23,-1,27,-1,-1,-1,-1,31,-1,-1,-1,-1,37,-1,-1,-1,41,-1,-1,-1,-1,-1,-1,-1,-1,-1,45,-1,-1,-1,-1,-1,-1,-1,-1,-1],"loss_changes":[5.4593254E-2,3.6736753E-2,3.301043E-2,2.5744112E-2,2.0922273E-3,5.42698E-3,3.2561917E-2,1.08047435E-2,1.6196053E-2,0E0,0E0,3.982687E-3,0E0,2.207882E-2,0E0,1.2011966E-2,1.9228833E-3,2.224936E-2,0E0,2.5280789E-3,0E0,0E0,1.8494397E-2,7.2300937E-3,0E0,0E0,9.7443E-4,1.26215E-2,0E0,0E0,5.287975E-4,1.406879E-2,0E0,0E0,0E0,0E0,0E0,0E0,7.6727793E-3,0E0,0E0,1.350598E-2,0E0,9.472147E-3,0E0,0E0,0E0,0E0,5.148798E-3,0E0,0E0],"parents":[2147483647,0,0,1,1,2,2,3,3,4,4,5,5,6,6,7,7,8,8,11,11,13,13,15,15,16,16,17,17,19,19,22,22,23,23,26,26,27,27,30,30,31,31,38,38,41,41,43,43,48,48],"right_children":[2,4,6,8,-1,-1,14,16,18,-1,-1,-1,-1,22,-1,24,-1,28,-1,-1,-1,-1,32,-1,-1,-1,-1,38,-1,-1,-1,42,-1,-1,-1,-1,-1,-1,-1,-1,-1,46,-1,-1,-1,-1,-1,-1,-1,-1,-1],"split_conditions":[5.09233E-1,7.150341E-1,5.990778E-1,6.599334E-2,-7.1711033E-3,-4.1160578E-4,6.116463E-1,5.791452E-1,5.6571746E-1,-0E0,-7.763429E-3,-1.9143015E-3,-0E0,2.9045716E-2,-0E0,6.516556E-1,-7.154973E-4,9.0177214E-1,-0E0,-2.7804228E-3,-0E0,-0E0,7.3667926E-1,4.3711513E-3,-0E0,-0E0,-1.5724684E-3,1.596492E-1,-0E0,-0E0,-3.457955E-3,8.500547E-1,-0E0,-0E0,6.732885E-3,-2.053134E-3,-0E0,-0E0,-6.309261E-3,-0E0,-3.9536892E-3,4.72351E-1,-0E0,-7.0791864E-3,-0E0,-0E0,9.378658E-3,-0E0,-8.000764E-3,-8.826961E-3,-0E0],"split_indices":[14,32,38,9,0,29,12,7,10,2147483647,2147483647,2147483647,2147483647,41,0,17,17,15,0,2147483647,2147483647,0,44,45,0,2147483647,2147483647,14,0,2147483647,2147483647,4,0,2147483647,2147483647,2147483647,2147483647,0,43,2147483647,2147483647,18,0,2147483647,2147483647,0,0,2147483647,2147483647,2147483647,2147483647],"split_type":[0,0,0,0,0,0,0,0,0,0,0,0,0,0,0,0,0,0,0,0,0,0,0,0,0,0,0,0,0,0,0,0,0,0,0,0,0,0,0,0,0,0,0,0,0,0,0,0,0,0,0],"sum_hessian":[5.25E2,3.06E2,2.19E2,2.51E2,5.5E1,9E1,1.29E2,1.35E2,1.16E2,7E0,4.8E1,5.3E1,3.7E1,9.1E1,3.8E1,8.9E1,4.6E1,9.1E1,2.5E1,4.2E1,1.1E1,1.1E1,8E1,3.8E1,5.1E1,1.1E1,3.5E1,7.8E1,1.3E1,8E0,3.4E1,7E1,1E1,1.7E1,2.1E1,2.8E1,7E0,1E1,6.8E1,7E0,2.7E1,6.3E1,7E0,5.9E1,9E0,1E1,5.3E1,8E0,5.1E1,4.4E1,7E0],"tree_param":{"num_deleted":"22","num_feature":"50","num_nodes":"51","size_leaf_vector":"0"}},{"base_weights":[-1.3455517E-3,-5.1257964E-3,1.4250229E-2,1.5061712E-3,-1.1906527E-2,2.339206E-2,-0E0,4.4276986E-2,-0E0,-0E0,-2.135806E-2,3.0724097E-2,-0E0,-0E0,6.067228E-2,-0E0,-5.868568E-3,-0E0,8.887837E-3,-2.7619036E-2,-0E0,3.547489E-2,-0E0,-0E0,4.1042333E-3,-1.2003833E-2,-0E0,1.236243E-2,-0E0,-3.6472674E-2,-0E0,6.8733143E-3,-0E0,-2.2131618E-2,-0E0,1.6153967E-2,-0E0,-4.0283557E-2,-0E0,1.0106883E-2,-0E0,-0E0,-2.5335811E-2,-0E0,-4.4015072E-2,-0E0,-2.8788839E-2,-0E0,-4.664422E-2,-0E0,-4.9758933E-2],"categories":[],"categories_nodes":[],"categories_segments":[],"categories_sizes":[],"default_left":[1,1,1,1,1,1,0,1,1,1,1,1,1,1,1,1,1,1,1,1,0,1,1,1,1,1,0,1,1,1,0,1,1,1,0,1,1,1,0,1,1,1,1,0,1,1,1,1,1,1,1],"id":19,"left_children":[1,3,5,7,9,-1,-1,-1,15,-1,19,-1,-1,-1,-1,-1,25,-1,-1,29,-1,-1,-1,-1,-1,33,-1,-1,-1,37,-1,-1,-1,-1,-1,-1,-1,43,-1,-1,-1,-1,-1,-1,-1,-1,-1,-1,-1,-1,-1],"loss_changes":[2.2618007E-2,2.7819753E-2,1.359267E-2,3.604738E-2,4.69566E-2,8.098895E-3,0E0,6.2043145E-3,2.9474243E-3,4.943517E-3,3.1891793E-2,1.1224598E-3,0E0,0E0,0E0,8.5202674E-4,7.3668556E-3,0E0,2.6339618E-3,2.5194265E-2,0E0,0E0,0E0,0E0,1.206856E-3,1.5440442E-2,0E0,3.273164E-3,0E0,1.8486366E-2,0E0,1.677854E-3,0E0,3.5040025E-3,0E0,0E0,0E0,1.3888478E-2,0E0,0E0,0E0,0E0,2.7172677E-3,0E0,4.185155E-3,0E0,0E0,0E0,4.988909E-3,0E0,0E0],"parents":[2147483647,0,0,1,1,2,2,3,3,4,4,5,5,7,7,8,8,9,9,10,10,11,11,15,15,16,16,18,18,19,19,24,24,25,25,27,27,29,29,31,31,33,33,37,37,42,42,44,44,48,48],"right_children":[2,4,6,8,10,-1,-1,-1,16,-1,20,-1,-1,-1,-1,-1,26,-1,-1,30,-1,-1,-1,-1,-1,34,-1,-1,-1,38,-1,-1,-1,-1,-1,-1,-1,44,-1,-1,-1,-1,-1,-1,-1,-1,-1,-1,-1,-1,-1],"split_conditions":[8.830967E-1,1.6662191E-1,9.470822E-1,3.6778527E-1,4.272725E-1,4.2720316E-3,-0E0,8.0861915E-3,4.2948127E-1,-0E0,7.700906E-1,5.611062E-3,-0E0,-0E0,1.10804215E-2,-0E0,1.435399E-1,-0E0,1.6231627E-3,6.605785E-1,-0E0,6.4786873E-3,-0E0,-0E0,7.495455E-4,7.402286E-1,-0E0,2.2577185E-3,-0E0,4.4579762E-1,-0E0,1.2552555E-3,-0E0,-4.04184E-3,-0E0,2.950157E-3,-0E0,2.795245E-1,-0E0,1.8457939E-3,-0E0,-0E0,-4.6270136E-3,-0E0,-8.038359E-3,-0E0,-5.257631E-3,-0E0,-8.518512E-3,-0E0,-9.087346E-3],"split_indices":[8,47,1,43,24,42,0,46,31,39,21,2147483647,2147483647,2147483647,2147483647,19,47,2147483647,2147483647,7,0,2147483647,2147483647,2147483647,2147483647,15,0,2147483647,2147483647,30,0,2147483647,2147483647,7,0,2147483647,2147483647,39,0,2147483647,2147483647,2147483647,2147483647,0,43,2147483647,2147483647,2147483647,2147483647,2147483647,2147483647],"split_type":[0,0,0,0,0,0,0,0,0,0,0,0,0,0,0,0,0,0,0,0,0,0,0,0,0,0,0,0,0,0,0,0,0,0,0,0,0,0,0,0,0,0,0,0,0,0,0,0,0,0,0],"sum_hessian":[5E2,4.42E2,5.8E1,1.67E2,2.75E2,4.6E1,1.2E1,1.8E1,1.49E2,8.7E1,1.88E2,3.5E1,1.1E1,7E0,1.1E1,6.4E1,8.5E1,2.5E1,6.2E1,1.54E2,3.4E1,2.7E1,8E0,1.4E1,5E1,7.1E1,1.4E1,4.9E1,1.3E1,1.07E2,4.7E1,4.3E1,7E0,5.2E1,1.9E1,4.1E1,8E0,9.9E1,8E0,3.6E1,7E0,7E0,4.5E1,9E0,9E1,7E0,3.8E1,8E0,8.2E1,8E0,7.4E1],"tree_param":{"num_deleted":"26","num_feature":"50","num_nodes":"51","size_leaf_vector":"0"}},{"base_weights":[-3.811038E-3,-1.3704843E-2,-0E0,-0E0,-2.5999824E-2,-9.522377E-4,1.8054398E-2,-1.3789627E-2,4.6874043E-3,-0E0,-3.305829E-2,4.0706242E-3,-7.310296E-3,-0E0,3.7117332E-2,-0E0,-1.692817E-2,-0E0,1.20318E-2,-4.200778E-2,-0E0,-0E0,1.0577392E-2,-0E0,-1.8776799E-2,2.073465E-2,-0E0,1.4702897E-2,-0E0,-1.1926638E-3,2.3834086E-3,-2.6536923E-2,-0E0,-0E0,2.5673922E-2,-0E0,1.9592656E-2,-1.0969064E-2,-0E0,1.1693701E-2,-0E0,-0E0,-3.328406E-2,2.2111973E-2,-0E0,-0E0,-1.8190319E-2,2.1849666E-2,-0E0,-3.8318582E-2,-0E0,-0E0,2.4829552E-2,-0E0,-2.9484855E-2,-0E0,-3.5241917E-2],"categories":[],"categories_nodes":[],"categories_segments":[],"categories_sizes":[],"default_left":[1,1,1,1,1,1,1,1,1,0,1,1,1,0,0,1,1,1,1,1,1,1,1,1,1,1,1,1,1,1,1,1,0,1,1,1,1,1,1,1,1,0,1,1,1,1,1,1,1,1,1,1,1,1,1,1,1],"id":20,"left_children":[1,3,5,-1,9,11,13,-1,-1,-1,-1,-1,23,-1,-1,-1,-1,-1,-1,-1,-1,-1,-1,-1,31,-1,-1,-1,-1,-1,-1,41,-1,-1,-1,-1,-1,-1,-1,-1,-1,-1,-1,-1,-1,-1,-1,-1,-1,-1,-1,-1,-1,-1,-1,-1,-1],"loss_changes":[2.2484664E-2,1.7063288E-2,9.939363E-3,9.332575E-3,1.5891388E-2,1.2941702E-2,1.5956929E-2,2.1956852E-3,4.829263E-3,0E0,8.684121E-3,6.6362508E-3,1.7455947E-2,0E0,0E0,0E0,0E0,0E0,5.553236E-3,0E0,0E0,0E0,6.0413787E-3,3.551158E-4,1.2490429E-2,8.198628E-4,0E0,5.958954E-3,0E0,5.8353595E-3,3.2731951E-3,1.5889775E-2,0E0,0E0,0E0,0E0,1.7181095E-3,6.800415E-3,0E0,4.4179554E-3,0E0,0E0,8.316051E-3,1.4991239E-3,0E0,0E0,7.734432E-3,0E0,0E0,0E0,0E0,0E0,0E0,0E0,9.325519E-5,0E0,0E0],"parents":[2147483647,0,0,1,1,2,2,3,3,4,4,5,5,6,6,7,7,8,8,10,10,11,11,12,12,18,18,22,22,23,23,24,24,25,25,27,27,29,29,30,30,31,31,36,36,37,37,39,39,42,42,43,43,46,46,54,54],"right_children":[2,4,6,-1,10,12,14,-1,-1,-1,-1,-1,24,-1,-1,-1,-1,-1,-1,-1,-1,-1,-1,-1,32,-1,-1,-1,-1,-1,-1,42,-1,-1,-1,-1,-1,-1,-1,-1,-1,-1,-1,-1,-1,-1,-1,-1,-1,-1,-1,-1,-1,-1,-1,-1,-1],"split_conditions":[3.189878E-1,1.8990031E-1,2.686323E-1,-0E0,1.5832973E-1,3.4259218E-1,6.2030053E-1,-2.5183638E-3,8.560485E-4,-0E0,-6.03735E-3,7.434076E-4,1.08827785E-1,-0E0,6.778642E-3,-0E0,-3.0915479E-3,-0E0,2.1973364E-3,-7.6717725E-3,-0E0,-0E0,1.9317217E-3,-0E0,5.8097565E-1,3.7867152E-3,-0E0,2.685152E-3,-0E0,-2.178131E-4,4.3527575E-4,3.9556193E-1,-0E0,-0E0,4.688762E-3,-0E0,3.578156E-3,-2.0032518E-3,-0E0,2.1355904E-3,-0E0,-0E0,-6.078582E-3,4.0382524E-3,-0E0,-0E0,-3.3220507E-3,3.990348E-3,-0E0,-6.9980235E-3,-0E0,-0E0,4.5345565E-3,-0E0,-5.3847427E-3,-0E0,-6.43614E-3],"split_indices":[14,49,48,15,14,31,38,2147483647,2147483647,0,5,49,48,0,0,2147483647,2147483647,2147483647,2147483647,2147483647,2147483647,2147483647,2147483647,45,21,2147483647,2147483647,2147483647,2147483647,2147483647,2147483647,7,0,2147483647,2147483647,2147483647,2147483647,2147483647,2147483647,2147483647,2147483647,0,38,2147483647,2147483647,2147483647,2147483647,2147483647,2147483647,2147483647,2147483647,2147483647,2147483647,2147483647,2147483647,2147483647,2147483647],"split_type":[0,0,0,0,0,0,0,0,0,0,0,0,0,0,0,0,0,0,0,0,0,0,0,0,0,0,0,0,0,0,0,0,0,0,0,0,0,0,0,0,0,0,0,0,0,0,0,0,0,0,0,0,0,0,0,0,0],"sum_hessian":[5.15E2,1.59E2,3.56E2,9E1,6.9E1,3.27E2,2.9E1,4.3E1,4.7E1,1.2E1,5.7E1,1.16E2,2.11E2,1.1E1,1.8E1,7E0,3.6E1,7E0,4E1,4E1,1.7E1,4E1,7.6E1,1.3E2,8.1E1,2.6E1,1.4E1,6.7E1,9E0,9.1E1,3.9E1,5.8E1,2.3E1,8E0,1.8E1,1.4E1,5.3E1,4.9E1,4.2E1,2.5E1,1.4E1,7E0,5.1E1,4.5E1,8E0,1.1E1,3.8E1,1.6E1,9E0,4.4E1,7E0,7E0,3.8E1,1.5E1,2.3E1,7E0,1.6E1],"tree_param":{"num_deleted":"38","num_feature":"50","num_nodes":"57","size_leaf_vector":"0"}},{"base_weights":[-2.5288106E-3,-1.2908318E-2,-0E0,-0E0,-2.2520265E-2,-1.926126E-3,5.790931E-3,1.1558383E-3,-0E0,-0E0,-2.8963516E-2,-9.972349E-3,-0E0,1.0682498E-2,-0E0,-1.7039963E-3,-0E0,-0E0,-3.507107E-2,-0E0,-1.5154565E-2,-0E0,6.452705E-3,1.4724926E-2,-0E0,-0E0,-4.1091133E-2,-2.2094635E-2,-0E0,-0E0,-4.6028453E-3,-0E0,1.3727851E-2,1.8799312E-2,-0E0,-2.6979996E-2,-0E0,-0E0,-1.1170874E-2,1.7346306E-2,-0E0,2.1621976E-2,-0E0,-1.7048094E-2,-0E0,-0E0,2.6732134E-2,-2.35032E-2,-0E0],"categories":[],"categories_nodes":[],"categories_segments":[],"categories_sizes":[],"default_left":[1,1,1,1,1,1,1,1,1,0,1,1,1,1,1,1,1,0,1,1,1,1,1,1,1,0,0,1,1,1,1,1,1,1,1,1,1,1,1,1,1,1,1,1,1,1,1,1,1],"id":21,"left_children":[1,3,-1,-1,9,-1,-1,-1,-1,-1,17,-1,-1,-1,-1,-1,-1,-1,25,-1,-1,-1,-1,-1,-1,-1,-1,-1,-1,-1,-1,-1,-1,-1,-1,-1,-1,-1,-1,-1,-1,-1,-1,-1,-1,-1,-1,-1,-1],"loss_changes":[1.7269019E-2,2.027607E-2,5.517156E-3,2.4823783E-5,1.666401E-2,6.446475E-3,4.991234E-3,0E0,5.3952444E-5,0E0,1.4521942E-2,7.644502E-3,1.523146E-3,6.199375E-3,0E0,0E0,0E0,0E0,1.5040182E-2,0E0,8.654592E-3,1.452974E-3,4.0515475E-3,5.3195283E-3,0E0,0E0,0E0,6.5517705E-3,0E0,0E0,5.108552E-3,0E0,1.2198626E-3,3.0578822E-3,0E0,0E0,0E0,0E0,6.1048074E-3,0E0,0E0,4.1702855E-3,0E0,7.541137E-3,0E0,0E0,0E0,0E0,0E0],"parents":[2147483647,0,0,1,1,2,2,3,3,4,4,5,5,6,6,8,8,10,10,11,11,12,12,13,13,18,18,20,20,21,21,22,22,23,23,27,27,30,30,32,32,33,33,38,38,41,41,43,43],"right_children":[2,4,-1,-1,10,-1,-1,-1,-1,-1,18,-1,-1,-1,-1,-1,-1,-1,26,-1,-1,-1,-1,-1,-1,-1,-1,-1,-1,-1,-1,-1,-1,-1,-1,-1,-1,-1,-1,-1,-1,-1,-1,-1,-1,-1,-1,-1,-1],"split_conditions":[2.9309285E-1,1.64332E-1,-0E0,-0E0,4.1750842E-1,-3.517634E-4,1.0575828E-3,2.1108774E-4,-0E0,-0E0,3.1635648E-1,-1.8212242E-3,-0E0,1.950917E-3,-0E0,-3.1119643E-4,-0E0,-0E0,4.7802E-2,-0E0,-2.767639E-3,-0E0,1.1784408E-3,2.689175E-3,-0E0,-0E0,-7.5043673E-3,-4.035086E-3,-0E0,-0E0,-8.406057E-4,-0E0,2.507082E-3,3.4332697E-3,-0E0,-4.927287E-3,-0E0,-0E0,-2.0401077E-3,3.167911E-3,-0E0,3.9487653E-3,-0E0,-3.1134493E-3,-0E0,-0E0,4.8820204E-3,-4.2923284E-3,-0E0],"split_indices":[35,47,13,33,24,2147483647,2147483647,2147483647,2147483647,0,32,2147483647,2147483647,2147483647,2147483647,2147483647,2147483647,0,13,2147483647,2147483647,2147483647,2147483647,2147483647,2147483647,0,0,2147483647,2147483647,2147483647,2147483647,2147483647,2147483647,2147483647,2147483647,2147483647,2147483647,2147483647,2147483647,2147483647,2147483647,2147483647,2147483647,2147483647,2147483647,2147483647,2147483647,2147483647,2147483647],"split_type":[0,0,0,0,0,0,0,0,0,0,0,0,0,0,0,0,0,0,0,0,0,0,0,0,0,0,0,0,0,0,0,0,0,0,0,0,0,0,0,0,0,0,0,0,0,0,0,0,0],"sum_hessian":[5.19E2,1.23E2,3.96E2,4.3E1,8E1,2.61E2,1.35E2,1.8E1,2.5E1,1.2E1,6.8E1,7.4E1,1.87E2,8.3E1,5.2E1,1.8E1,7E0,1E1,5.8E1,9E0,6.5E1,1.51E2,3.6E1,7.2E1,1.1E1,7E0,5.1E1,4.8E1,1.7E1,8.3E1,6.8E1,7E0,2.9E1,5.9E1,1.3E1,4.1E1,7E0,1.6E1,5.2E1,2.2E1,7E0,5.1E1,8E0,4.3E1,9E0,1.2E1,3.9E1,3.6E1,7E0],"tree_param":{"num_deleted":"38","num_feature":"50","num_nodes":"49","size_leaf_vector":"0"}},{"base_weights":[-1.1371918E-3,-1.8960083E-2,-0E0,-2.7102107E-2,-0E0,8.677959E-3,-5.239779E-3,-3.388703E-2,-0E0,1.30718155E-2,-0E0,-0E0,-1.1230209E-2,-0E0,-3.7740435E-2,-0E0,1.9569114E-2,5.594952E-3,-8.2453387E-4,-1.6277617E-2,-0E0,2.9085021E-2,-0E0,1.4886629E-2,-0E0,-8.737037E-3,-0E0,-0E0,-1.8838858E-2,3.4067158E-2,-0E0,-0E0,2.1788105E-2,-0E0,-1.6878426E-2,-0E0,-2.1659974E-2,-0E0,3.9684407E-2,-2.3689989E-2,-0E0,-0E0,-2.5563234E-2,4.3591205E-2,-0E0,-2.8632717E-2,-0E0,-0E0,-3.4606047E-2],"categories":[],"categories_nodes":[],"categories_segments":[],"categories_sizes":[],"default_left":[1,1,1,1,0,1,1,1,1,1,0,1,1,1,1,0,1,1,1,1,0,1,0,1,1,1,1,1,1,1,0,1,1,1,1,1,1,0,1,1,1,1,1,1,1,1,1,1,1],"id":22,"left_children":[1,3,5,-1,-1,9,11,-1,-1,15,-1,-1,19,-1,-1,-1,21,-1,-1,-1,-1,29,-1,-1,-1,-1,-1,-1,-1,37,-1,-1,-1,-1,-1,-1,-1,-1,-1,-1,-1,-1,-1,-1,-1,-1,-1,-1,-1],"loss_changes":[2.005738E-2,1.5719032E-2,2.182649E-2,7.885382E-3,0E0,1.6208738E-2,1.0477655E-2,6.784126E-4,0E0,1.8466275E-2,0E0,1.7722338E-3,1.0471901E-2,0E0,0E0,0E0,1.5622824E-2,6.5885494E-3,2.912779E-3,6.122157E-3,0E0,1.2803882E-2,0E0,2.8660716E-3,0E0,4.912241E-3,0E0,0E0,7.0528425E-3,1.0674223E-2,0E0,0E0,0E0,0E0,3.6931233E-3,0E0,4.1964166E-3,0E0,1.3064444E-3,0E0,0E0,0E0,5.6698993E-3,0E0,0E0,6.4959526E-3,0E0,0E0,0E0],"parents":[2147483647,0,0,1,1,2,2,3,3,5,5,6,6,7,7,9,9,11,11,12,12,16,16,17,17,18,18,19,19,21,21,23,23,25,25,28,28,29,29,34,34,36,36,38,38,42,42,45,45],"right_children":[2,4,6,-1,-1,10,12,-1,-1,16,-1,-1,20,-1,-1,-1,22,-1,-1,-1,-1,30,-1,-1,-1,-1,-1,-1,-1,38,-1,-1,-1,-1,-1,-1,-1,-1,-1,-1,-1,-1,-1,-1,-1,-1,-1,-1,-1],"split_conditions":[1.7692915E-1,7.1082747E-1,5.2822363E-1,-4.949588E-3,-0E0,1.2252122E-1,3.160799E-1,-6.1887004E-3,-0E0,7.37752E-2,-0E0,-0E0,6.889643E-1,-0E0,-6.892438E-3,-0E0,2.1953773E-1,1.0217916E-3,-1.5058249E-4,-2.972739E-3,-0E0,6.953383E-1,-0E0,2.7187064E-3,-0E0,-1.5956224E-3,-0E0,-0E0,-3.4404919E-3,2.5116986E-1,-0E0,-0E0,3.979105E-3,-0E0,-3.0824633E-3,-0E0,-3.955705E-3,-0E0,7.2474605E-3,-4.3264413E-3,-0E0,-0E0,-4.6685473E-3,7.960949E-3,-0E0,-5.2291187E-3,-0E0,-0E0,-6.3200127E-3],"split_indices":[21,1,0,28,0,37,40,2147483647,2147483647,40,0,12,28,2147483647,2147483647,0,2,2147483647,2147483647,47,0,18,0,2147483647,2147483647,2147483647,2147483647,2147483647,2147483647,31,0,2147483647,2147483647,2147483647,2147483647,2147483647,2147483647,0,4,2147483647,2147483647,2147483647,2147483647,2147483647,2147483647,2147483647,2147483647,2147483647,2147483647],"split_type":[0,0,0,0,0,0,0,0,0,0,0,0,0,0,0,0,0,0,0,0,0,0,0,0,0,0,0,0,0,0,0,0,0,0,0,0,0,0,0,0,0,0,0,0,0,0,0,0,0],"sum_hessian":[4.96E2,5.7E1,4.39E2,4.9E1,8E0,2.03E2,2.36E2,3.8E1,1.1E1,1.84E2,1.9E1,1.02E2,1.34E2,7E0,3.1E1,5.4E1,1.3E2,5.5E1,4.7E1,1.03E2,3.1E1,7.7E1,5.3E1,3.7E1,1.8E1,3.8E1,9E0,9E0,9.4E1,6.7E1,1E1,1.4E1,2.3E1,1.1E1,2.7E1,8E0,8.6E1,1.1E1,5.6E1,2E1,7E0,1.8E1,6.8E1,4.7E1,9E0,6.1E1,7E0,1.4E1,4.7E1],"tree_param":{"num_deleted":"28","num_feature":"50","num_nodes":"49","size_leaf_vector":"0"}},{"base_weights":[-7.162612E-4,-8.304609E-3,1.5977153E-3,-0E0,-1.7671112E-2,1.2964499E-2,-2.5538704E-3,-0E0,1.0606953E-3,-2.2265427E-2,-0E0,2.1732092E-2,-0E0,3.2496772E-4,-1.0876464E-2,6.4260373E-3,-0E0,-0E0,-3.1331472E-2,-0E0,2.5535079E-2,7.3953317E-3,-0E0,-0E0,-1.6158074E-2,9.786343E-3,-0E0,-0E0,-3.5383906E-2,-0E0,3.1046579E-2,-0E0,1.3174578E-2,-2.3291357E-2,-0E0,1.1784054E-2,-0E0,-3.9985184E-2,-0E0,3.5553064E-2,-0E0,1.5205164E-2,-0E0,-2.6624577E-2,-0E0,4.135894E-2,-0E0,-3.1623457E-2,-0E0,-0E0,-3.5752952E-2,-0E0,-3.9321013E-2],"categories":[],"categories_nodes":[],"categories_segments":[],"categories_sizes":[],"default_left":[1,1,1,1,1,1,1,1,1,1,0,1,0,1,1,1,1,0,1,1,1,1,1,0,1,1,1,1,1,1,1,1,1,1,0,1,1,1,1,1,1,1,1,1,1,1,1,1,1,1,1,1,1],"id":23,"left_children":[1,3,5,-1,9,11,13,-1,-1,17,-1,-1,-1,-1,23,-1,-1,-1,-1,-1,-1,-1,-1,-1,33,-1,-1,-1,-1,-1,-1,-1,-1,-1,-1,-1,-1,-1,-1,-1,-1,-1,-1,-1,-1,-1,-1,-1,-1,-1,-1,-1,-1],"loss_changes":[1.4177262E-2,2.0592239E-2,2.3014786E-2,5.6907622E-5,1.3165582E-2,1.449246E-2,1.247001E-2,0E0,1.5775566E-3,1.3067566E-2,0E0,8.257113E-3,0E0,2.321352E-3,1.258712E-2,1.485919E-3,0E0,0E0,5.38088E-3,0E0,1.0132205E-2,3.6734357E-3,0E0,0E0,1.6369225E-2,2.9305927E-4,0E0,0E0,7.0431456E-3,0E0,7.1696974E-3,0E0,3.7445128E-4,7.4034557E-3,0E0,0E0,0E0,0E0,0E0,6.745018E-3,0E0,0E0,0E0,7.55091E-3,0E0,0E0,0E0,7.0729405E-3,0E0,0E0,1.1799783E-3,0E0,0E0],"parents":[2147483647,0,0,1,1,2,2,3,3,4,4,5,5,6,6,8,8,9,9,11,11,13,13,14,14,15,15,18,18,20,20,21,21,24,24,25,25,28,28,30,30,32,32,33,33,39,39,43,43,47,47,50,50],"right_children":[2,4,6,-1,10,12,14,-1,-1,18,-1,-1,-1,-1,24,-1,-1,-1,-1,-1,-1,-1,-1,-1,34,-1,-1,-1,-1,-1,-1,-1,-1,-1,-1,-1,-1,-1,-1,-1,-1,-1,-1,-1,-1,-1,-1,-1,-1,-1,-1,-1,-1],"split_conditions":[9.047428E-2,4.7388387E-1,3.1305256E-1,-0E0,9.282824E-1,6.1479306E-1,5.112543E-1,-0E0,1.9371203E-4,1.8990031E-1,-0E0,3.968876E-3,-0E0,5.9348014E-5,4.870739E-2,1.1735705E-3,-0E0,-0E0,-5.7219854E-3,-0E0,4.6634055E-3,1.3505903E-3,-0E0,-0E0,8.883522E-1,1.7872545E-3,-0E0,-0E0,-6.462071E-3,-0E0,5.669956E-3,-0E0,2.406039E-3,-4.2536403E-3,-0E0,2.1520914E-3,-0E0,-7.3023904E-3,-0E0,6.492964E-3,-0E0,2.7768798E-3,-0E0,-4.8623774E-3,-0E0,7.553276E-3,-0E0,-5.77531E-3,-0E0,-0E0,-6.529469E-3,-0E0,-7.1810945E-3],"split_indices":[34,39,40,29,5,10,0,2147483647,2147483647,49,0,23,0,3,46,2147483647,2147483647,0,42,2147483647,2147483647,2147483647,2147483647,0,4,2147483647,2147483647,2147483647,2147483647,2147483647,2147483647,2147483647,2147483647,9,0,2147483647,2147483647,2147483647,2147483647,2147483647,2147483647,2147483647,2147483647,2147483647,2147483647,2147483647,2147483647,2147483647,2147483647,2147483647,2147483647,2147483647,2147483647],"split_type":[0,0,0,0,0,0,0,0,0,0,0,0,0,0,0,0,0,0,0,0,0,0,0,0,0,0,0,0,0,0,0,0,0,0,0,0,0,0,0,0,0,0,0,0,0,0,0,0,0,0,0,0,0],"sum_hessian":[5.16E2,1.97E2,3.19E2,8.8E1,1.09E2,1.34E2,1.85E2,3.8E1,5E1,9.5E1,1.4E1,7.8E1,5.6E1,7E1,1.15E2,3.9E1,1.1E1,3.4E1,6.1E1,9E0,6.9E1,4.2E1,2.8E1,1.5E1,1E2,3.2E1,7E0,9E0,5.2E1,1.2E1,5.7E1,8E0,3.4E1,7.8E1,2.2E1,2.4E1,8E0,4.5E1,7E0,4.9E1,8E0,2.7E1,7E0,7E1,8E0,4E1,9E0,5.7E1,1.3E1,7E0,5E1,8E0,4.2E1],"tree_param":{"num_deleted":"34","num_feature":"50","num_nodes":"53","size_leaf_vector":"0"}},{"base_weights":[-0E0,-7.1488246E-3,4.6948297E-3,-0E0,-2.1303652E-2,3.6174413E-2,-0E0,-1.6871493E-3,-0E0,-0E0,-2.6721966E-2,-0E0,4.4519447E-2,-5.0314367E-3,8.739495E-3,-5.9826155E-3,-0E0,-0E0,4.5177056E-3,-2.9549055E-2,-0E0,-0E0,6.7035414E-2,-1.7396396E-2,-0E0,-0E0,2.3421694E-2,-0E0,8.598639E-3,-3.2756183E-2,-0E0,-0E0,-2.4797825E-2,-0E0,7.166751E-3,-2.143064E-3,-0E0,2.7571777E-2,-0E0,1.1702078E-2,-0E0,-0E0,-2.8148325E-2,1.1536054E-2,-0E0,-0E0,-7.2151367E-3,-0E0,3.272752E-2,-0E0,1.2832068E-2,-3.0864123E-2,-0E0,1.749252E-2,-0E0,-0E0,3.7388716E-2,-0E0,1.3812731E-2,-0E0,-3.4960125E-2,2.1388426E-2,-0E0],"categories":[],"categories_nodes":[],"categories_segments":[],"categories_sizes":[],"default_left":[1,1,1,1,1,1,1,1,1,0,1,1,1,1,1,1,1,1,1,1,1,1,1,1,1,1,1,1,1,1,1,0,1,1,1,1,1,1,1,1,1,1,1,1,1,1,1,1,1,1,1,1,1,1,1,1,1,1,1,1,1,1,1],"id":24,"left_children":[1,3,5,-1,9,-1,13,-1,-1,-1,-1,-1,-1,23,25,-1,-1,-1,-1,-1,-1,-1,-1,31,-1,-1,-1,-1,-1,-1,-1,-1,-1,-1,-1,-1,-1,-1,-1,-1,-1,-1,-1,-1,-1,-1,-1,-1,-1,-1,-1,-1,-1,-1,-1,-1,-1,-1,-1,-1,-1,-1,-1],"loss_changes":[1.7313015E-2,1.9807326E-2,3.6186468E-2,1.1835976E-4,1.2587389E-2,8.066088E-3,1.2207009E-2,8.6881797E-4,1.8691417E-3,0E0,3.5254247E-3,0E0,5.83528E-3,2.1154601E-2,2.8703734E-2,0E0,0E0,0E0,3.5712016E-3,3.1958632E-3,0E0,0E0,0E0,1.2876324E-2,3.111591E-3,1.358583E-4,6.6999868E-3,0E0,3.6771968E-3,0E0,0E0,0E0,5.3779706E-3,0E0,3.3536213E-3,1.0396785E-3,0E0,8.261468E-3,0E0,5.285563E-4,0E0,0E0,2.0793453E-3,4.4222157E-3,0E0,0E0,0E0,0E0,4.6942495E-3,0E0,1.9516051E-4,3.050983E-3,0E0,1.7300015E-3,0E0,0E0,0E0,0E0,0E0,0E0,0E0,0E0,0E0],"parents":[2147483647,0,0,1,1,2,2,3,3,4,4,5,5,6,6,7,7,8,8,10,10,12,12,13,13,14,14,18,18,19,19,23,23,24,24,25,25,26,26,28,28,32,32,34,34,35,35,37,37,39,39,42,42,43,43,48,48,50,50,51,51,53,53],"right_children":[2,4,6,-1,10,-1,14,-1,-1,-1,-1,-1,-1,24,26,-1,-1,-1,-1,-1,-1,-1,-1,32,-1,-1,-1,-1,-1,-1,-1,-1,-1,-1,-1,-1,-1,-1,-1,-1,-1,-1,-1,-1,-1,-1,-1,-1,-1,-1,-1,-1,-1,-1,-1,-1,-1,-1,-1,-1,-1,-1,-1],"split_conditions":[6.539284E-1,4.323305E-1,4.646802E-1,-0E0,2.2321202E-2,6.606439E-3,6.7791116E-1,-3.081197E-4,-0E0,-0E0,-4.8801634E-3,-0E0,8.130471E-3,4.7787675E-1,4.2469507E-1,-1.0925896E-3,-0E0,-0E0,8.2505686E-4,-5.396467E-3,-0E0,-0E0,1.2242504E-2,3.5013056E-1,-0E0,-0E0,4.277443E-3,-0E0,1.5703471E-3,-5.982177E-3,-0E0,-0E0,-4.528763E-3,-0E0,1.3088452E-3,-3.9138223E-4,-0E0,5.035362E-3,-0E0,2.1371203E-3,-0E0,-0E0,-5.1406557E-3,2.1067997E-3,-0E0,-0E0,-1.3176817E-3,-0E0,5.9769424E-3,-0E0,2.3434872E-3,-5.636635E-3,-0E0,3.1946136E-3,-0E0,-0E0,6.8282043E-3,-0E0,2.5225834E-3,-0E0,-6.384677E-3,3.9061129E-3,-0E0],"split_indices":[38,32,29,9,48,21,8,2147483647,2147483647,0,10,2147483647,2147483647,21,11,2147483647,2147483647,2147483647,2147483647,2147483647,2147483647,2147483647,2147483647,3,42,49,44,2147483647,2147483647,2147483647,2147483647,0,21,2147483647,2147483647,2147483647,2147483647,2147483647,2147483647,2147483647,2147483647,2147483647,2147483647,2147483647,2147483647,2147483647,2147483647,2147483647,2147483647,2147483647,2147483647,2147483647,2147483647,2147483647,2147483647,2147483647,2147483647,2147483647,2147483647,2147483647,2147483647,2147483647,2147483647],"split_type":[0,0,0,0,0,0,0,0,0,0,0,0,0,0,0,0,0,0,0,0,0,0,0,0,0,0,0,0,0,0,0,0,0,0,0,0,0,0,0,0,0,0,0,0,0,0,0,0,0,0,0,0,0,0,0,0,0,0,0,0,0,0,0],"sum_hessian":[5.04E2,2.12E2,2.92E2,1.45E2,6.7E1,3.2E1,2.6E2,4.1E1,1.04E2,7E0,6E1,7E0,2.5E1,1.51E2,1.09E2,2.7E1,1.4E1,1.3E1,9.1E1,5.3E1,7E0,1.3E1,1.2E1,8.2E1,6.9E1,4.2E1,6.7E1,1.8E1,7.3E1,4.6E1,7E0,2.1E1,6.1E1,9E0,6E1,2.9E1,1.3E1,5.7E1,1E1,6.6E1,7E0,7E0,5.4E1,4.8E1,1.2E1,7E0,2.2E1,9E0,4.8E1,8E0,5.8E1,4.7E1,7E0,3.5E1,1.3E1,8E0,4E1,7E0,5.1E1,8E0,3.9E1,2.7E1,8E0],"tree_param":{"num_deleted":"46","num_feature":"50","num_nodes":"63","size_leaf_vector":"0"}},{"base_weights":[-0E0,-7.144616E-3,2.7606431E-3,-0E0,-1.3228753E-2,1.1384265E-2,-0E0,-0E0,1.3699682E-2,-1.8041633E-2,-0E0,-0E0,1.581659E-2,2.7762887E-3,-5.4036262E-3,1.8509513E-2,-0E0,-2.0547004E-2,-0E0,1.9431135E-2,-0E0,-0E0,7.4446443E-3,-0E0,-1.2838416E-2,-2.3000205E-2,-0E0,2.9244568E-2,-0E0,9.55085E-3,-0E0,-0E0,-1.901721E-2,-2.8681079E-2,-0E0,-0E0,3.611169E-2,-2.481324E-2,-0E0,-3.2121085E-2,-0E0,-0E0,4.2803735E-2,-3.617284E-2,-0E0,-0E0,-3.9213732E-2],"categories":[],"categories_nodes":[],"categories_segments":[],"categories_sizes":[],"default_left":[1,1,1,1,1,1,1,1,1,1,0,0,1,1,1,1,1,1,1,1,0,1,1,1,1,1,1,1,0,1,1,1,1,1,1,0,1,1,1,1,1,1,1,1,1,1,1],"id":25,"left_children":[1,3,5,-1,9,11,-1,-1,-1,-1,-1,-1,19,-1,-1,-1,-1,-1,-1,27,-1,-1,-1,-1,-1,-1,-1,35,-1,-1,-1,-1,-1,-1,-1,-1,-1,-1,-1,-1,-1,-1,-1,-1,-1,-1,-1],"loss_changes":[1.284273E-2,1.8234784E-2,1.4861502E-2,4.801113E-3,1.5179556E-2,1.0601336E-2,4.5008003E-3,0E0,1.5648454E-3,7.1006455E-3,0E0,0E0,1.0440253E-2,1.7715303E-3,8.158786E-3,0E0,0E0,6.004572E-3,0E0,1.174736E-2,0E0,0E0,7.4252207E-4,0E0,9.978265E-3,5.26195E-3,0E0,1.7163415E-2,0E0,0E0,0E0,0E0,5.7930946E-3,6.522678E-3,0E0,0E0,1.5900731E-3,0E0,0E0,5.338952E-3,0E0,0E0,0E0,6.6907704E-4,0E0,0E0,0E0],"parents":[2147483647,0,0,1,1,2,2,3,3,4,4,5,5,6,6,8,8,9,9,12,12,13,13,14,14,17,17,19,19,22,22,24,24,25,25,27,27,32,32,33,33,36,36,39,39,43,43],"right_children":[2,4,6,-1,10,12,-1,-1,-1,-1,-1,-1,20,-1,-1,-1,-1,-1,-1,28,-1,-1,-1,-1,-1,-1,-1,36,-1,-1,-1,-1,-1,-1,-1,-1,-1,-1,-1,-1,-1,-1,-1,-1,-1,-1,-1],"split_conditions":[4.8248833E-1,9.430086E-5,4.794796E-1,-0E0,8.103762E-1,1.6533816E-1,-0E0,-0E0,2.5019376E-3,-3.2948968E-3,-0E0,-0E0,7.5584966E-1,5.070264E-4,-9.868502E-4,3.3803445E-3,-0E0,-3.7524463E-3,-0E0,8.2226014E-1,-0E0,-0E0,1.3595961E-3,-0E0,-2.3446467E-3,-4.200468E-3,-0E0,3.6422317E-4,-0E0,1.7442469E-3,-0E0,-0E0,-3.473064E-3,-5.237951E-3,-0E0,-0E0,6.5949843E-3,-4.5315777E-3,-0E0,-5.8661904E-3,-0E0,-0E0,7.817135E-3,-6.6061523E-3,-0E0,-0E0,-7.1615023E-3],"split_indices":[21,16,12,26,4,12,0,2147483647,2147483647,2,0,0,7,2147483647,2147483647,2147483647,2147483647,2147483647,2147483647,43,0,2147483647,2147483647,2147483647,2147483647,2147483647,2147483647,9,0,2147483647,2147483647,2147483647,2147483647,2147483647,2147483647,0,17,2147483647,2147483647,2147483647,2147483647,2147483647,2147483647,2147483647,2147483647,2147483647,2147483647],"split_type":[0,0,0,0,0,0,0,0,0,0,0,0,0,0,0,0,0,0,0,0,0,0,0,0,0,0,0,0,0,0,0,0,0,0,0,0,0,0,0,0,0,0,0,0,0,0,0],"sum_hessian":[5.24E2,2.03E2,3.21E2,4E1,1.63E2,1.33E2,1.88E2,1.5E1,2.5E1,1.34E2,2.9E1,2.2E1,1.11E2,4.7E1,1.41E2,1.8E1,7E0,1.2E2,1.4E1,1.01E2,1E1,9E0,3.8E1,6.7E1,7.4E1,1.07E2,1.3E1,5.8E1,4.3E1,3.1E1,7E0,1.3E1,6.1E1,7.5E1,3.2E1,7E0,5.1E1,4.5E1,1.6E1,6.6E1,9E0,1.4E1,3.7E1,5.6E1,1E1,8E0,4.8E1],"tree_param":{"num_deleted":"30","num_feature":"50","num_nodes":"47","size_leaf_vector":"0"}},{"base_weights":[-0E0,-5.677705E-3,3.4545243E-3,-0E0,-1.8092617E-2,-0E0,7.996046E-3,1.6722538E-2,-2.1902372E-3,-2.2368867E-2,-0E0,-0E0,-8.275718E-3,-0E0,1.6365802E-2,-0E0,4.68346E-2,-0E0,-1.2402805E-2,-0E0,-2.7413726E-2,-1.48584945E-2,-0E0,-5.9527657E-3,8.924006E-3,-0E0,2.0896506E-2,-1.746708E-2,-0E0,-0E0,-3.269409E-2,-2.0099347E-2,-0E0,-1.0072527E-2,-0E0,-0E0,1.538623E-2,2.5825696E-2,-0E0,-2.12668E-2,-0E0,-3.780623E-2,-0E0,-0E0,-1.50795E-2,2.0781126E-2,-0E0,3.0333184E-2,-0E0,-0E0,-2.3800563E-2,-0E0,-4.3908805E-2,-0E0,-2.0082915E-2,2.5140991E-2,-0E0,-0E0,3.387813E-2,-0E0,3.0456897E-2],"categories":[],"categories_nodes":[],"categories_segments":[],"categories_sizes":[],"default_left":[1,1,1,1,1,1,1,1,1,1,1,1,1,1,1,0,0,1,1,1,1,1,1,1,1,0,1,1,1,1,1,1,1,1,1,1,1,1,0,1,1,1,1,1,1,1,1,1,0,1,1,1,1,1,1,1,1,1,1,1,1],"id":26,"left_children":[1,3,5,7,-1,-1,13,15,-1,-1,-1,-1,-1,-1,25,-1,-1,-1,-1,-1,-1,-1,-1,-1,-1,-1,37,-1,-1,-1,-1,-1,-1,-1,-1,-1,-1,47,-1,-1,-1,-1,-1,-1,-1,-1,-1,-1,-1,-1,-1,-1,-1,-1,-1,-1,-1,-1,-1,-1,-1],"loss_changes":[9.887074E-3,1.5227184E-2,1.0776203E-2,6.001428E-3,7.3441546E-3,3.7381311E-3,1.1713168E-2,1.9927382E-2,9.254991E-3,8.449199E-3,0E0,0E0,6.545827E-3,7.475775E-3,1.2544122E-2,0E0,0E0,0E0,6.566897E-3,0E0,7.1854107E-3,4.4942535E-3,0E0,3.2845535E-3,8.645536E-3,0E0,1.3063852E-2,3.8154759E-3,0E0,0E0,6.9307536E-4,0E0,0E0,4.8271897E-3,0E0,0E0,6.679903E-3,1.1357639E-2,0E0,1.1254642E-3,0E0,3.2479316E-4,0E0,0E0,4.389288E-3,4.469881E-3,0E0,5.2812845E-3,0E0,0E0,0E0,0E0,0E0,0E0,0E0,3.3497475E-3,0E0,0E0,0E0,0E0,0E0],"parents":[2147483647,0,0,1,1,2,2,3,3,4,4,5,5,6,6,7,7,8,8,9,9,12,12,13,13,14,14,18,18,20,20,21,21,23,23,24,24,26,26,27,27,30,30,33,33,36,36,37,37,39,39,41,41,44,44,45,45,47,47,55,55],"right_children":[2,4,6,8,-1,-1,14,16,-1,-1,-1,-1,-1,-1,26,-1,-1,-1,-1,-1,-1,-1,-1,-1,-1,-1,38,-1,-1,-1,-1,-1,-1,-1,-1,-1,-1,48,-1,-1,-1,-1,-1,-1,-1,-1,-1,-1,-1,-1,-1,-1,-1,-1,-1,-1,-1,-1,-1,-1,-1],"split_conditions":[5.481523E-1,3.906728E-1,4.9770588E-1,3.0169606E-1,-3.304208E-3,-0E0,4.63273E-1,3.9260578E-1,-3.9999734E-4,-4.0851682E-3,-0E0,-0E0,-1.511373E-3,-0E0,8.52949E-2,-0E0,8.553281E-3,-0E0,-2.265092E-3,-0E0,-5.0064977E-3,-2.7135683E-3,-0E0,-1.0871382E-3,1.629768E-3,-0E0,7.071194E-1,-3.1899675E-3,-0E0,-0E0,-5.970837E-3,-3.6706917E-3,-0E0,-1.8395196E-3,-0E0,-0E0,2.8099474E-3,4.6518016E-1,-0E0,-3.8839006E-3,-0E0,-6.904454E-3,-0E0,-0E0,-2.7539302E-3,3.7952033E-3,-0E0,5.5396706E-3,-0E0,-0E0,-4.346635E-3,-0E0,-8.018951E-3,-0E0,-3.6676908E-3,4.5914343E-3,-0E0,-0E0,6.187075E-3,-0E0,5.562264E-3],"split_indices":[1,6,17,43,43,25,11,0,42,2147483647,2147483647,2147483647,2147483647,28,49,0,0,2147483647,2147483647,2147483647,2147483647,2147483647,2147483647,2147483647,2147483647,0,7,2147483647,2147483647,2147483647,2147483647,2147483647,2147483647,2147483647,2147483647,2147483647,2147483647,13,0,2147483647,2147483647,2147483647,2147483647,2147483647,2147483647,2147483647,2147483647,10,0,2147483647,2147483647,2147483647,2147483647,2147483647,2147483647,2147483647,2147483647,2147483647,2147483647,2147483647,2147483647],"split_type":[0,0,0,0,0,0,0,0,0,0,0,0,0,0,0,0,0,0,0,0,0,0,0,0,0,0,0,0,0,0,0,0,0,0,0,0,0,0,0,0,0,0,0,0,0,0,0,0,0,0,0,0,0,0,0,0,0,0,0,0,0],"sum_hessian":[4.98E2,1.93E2,3.05E2,1.28E2,6.5E1,8E1,2.25E2,1.9E1,1.09E2,5.7E1,8E0,2.6E1,5.4E1,1.28E2,9.7E1,8E0,1.1E1,4.6E1,6.3E1,8E0,4.9E1,4.6E1,8E0,6.3E1,6.5E1,9E0,8.8E1,5.3E1,1E1,8E0,4.1E1,3.6E1,1E1,5.4E1,9E0,7E0,5.8E1,7.7E1,1.1E1,4.4E1,9E0,3.1E1,1E1,9E0,4.5E1,4.7E1,1.1E1,6.8E1,9E0,7E0,3.7E1,8E0,2.3E1,9E0,3.6E1,3.9E1,8E0,9E0,5.9E1,9E0,3E1],"tree_param":{"num_deleted":"42","num_feature":"50","num_nodes":"61","size_leaf_vector":"0"}},{"base_weights":[-1.2925417E-3,-1.1954803E-2,-0E0,-0E0,-1.5323464E-2,-6.146812E-3,2.7860133E-3,-1.9078132E-2,-0E0,-9.163093E-3,-0E0,-0E0,6.510146E-3,-0E0,-2.1547463E-2,-0E0,-1.3946549E-2,-7.989619E-3,-0E0,1.0044219E-2,-0E0,-0E0,-2.4524746E-2,-0E0,-1.61322E-2,-1.656182E-2,-0E0,6.2351255E-3,-0E0,1.209355E-2,-0E0,-2.735113E-2,-0E0,-1.99164E-2,-0E0,-2.3141928E-2,-0E0,-0E0,1.8320162E-2,-0E0,-2.934882E-2,-0E0,-2.786711E-2,-0E0,2.181218E-2,2.5199294E-2,-0E0,2.8504562E-2,-0E0],"categories":[],"categories_nodes":[],"categories_segments":[],"categories_sizes":[],"default_left":[1,1,1,1,1,1,1,1,1,1,1,1,1,1,1,1,1,1,1,1,0,1,1,1,1,1,1,1,1,1,0,1,1,1,1,1,1,0,1,1,1,1,1,1,1,1,1,1,1],"id":27,"left_children":[1,-1,5,-1,-1,-1,11,-1,-1,-1,-1,-1,19,-1,-1,-1,-1,-1,-1,29,-1,-1,-1,-1,-1,-1,-1,-1,-1,37,-1,-1,-1,-1,-1,-1,-1,-1,-1,-1,-1,-1,-1,-1,-1,-1,-1,-1,-1],"loss_changes":[1.2670965E-2,7.047523E-3,5.475968E-3,0E0,7.3088408E-3,2.6506395E-3,8.127018E-3,4.4324193E-3,0E0,3.1649745E-3,0E0,4.0586432E-3,1.1708123E-2,0E0,5.3342134E-3,0E0,1.1091055E-3,7.0725316E-3,4.891167E-4,7.3191505E-3,0E0,0E0,3.1910539E-3,0E0,1.5566796E-3,5.7821013E-3,0E0,0E0,0E0,1.0360284E-2,0E0,1.5287846E-4,0E0,0E0,0E0,2.1758918E-3,0E0,0E0,7.7188015E-3,0E0,0E0,0E0,0E0,0E0,9.6658245E-3,7.141065E-3,0E0,0E0,0E0],"parents":[2147483647,0,0,1,1,2,2,4,4,5,5,6,6,7,7,9,9,11,11,12,12,14,14,16,16,17,17,18,18,19,19,22,22,24,24,25,25,29,29,31,31,35,35,38,38,44,44,45,45],"right_children":[2,-1,6,-1,-1,-1,12,-1,-1,-1,-1,-1,20,-1,-1,-1,-1,-1,-1,30,-1,-1,-1,-1,-1,-1,-1,-1,-1,38,-1,-1,-1,-1,-1,-1,-1,-1,-1,-1,-1,-1,-1,-1,-1,-1,-1,-1,-1],"split_conditions":[2.587617E-1,-2.1832746E-3,2.5391284E-1,-0E0,-2.7984844E-3,-1.1225763E-3,7.172373E-2,-3.4841897E-3,-0E0,-1.673432E-3,-0E0,-0E0,7.747067E-1,-0E0,-3.9351573E-3,-0E0,-2.5470222E-3,-1.4591235E-3,-0E0,9.378295E-1,-0E0,-0E0,-4.478891E-3,-0E0,-2.946182E-3,-3.0246421E-3,-0E0,1.1387048E-3,-0E0,1.7523953E-1,-0E0,-4.995066E-3,-0E0,-3.6372805E-3,-0E0,-4.22635E-3,-0E0,-0E0,3.3457638E-3,-0E0,-5.3598993E-3,-0E0,-5.0892984E-3,-0E0,3.983502E-3,4.6020816E-3,-0E0,5.205714E-3,-0E0],"split_indices":[35,18,31,2147483647,2147483647,28,40,2147483647,2147483647,2147483647,2147483647,11,19,2147483647,2147483647,2147483647,2147483647,2147483647,2147483647,43,0,2147483647,2147483647,2147483647,2147483647,2147483647,2147483647,2147483647,2147483647,33,0,2147483647,2147483647,2147483647,2147483647,2147483647,2147483647,0,38,2147483647,2147483647,2147483647,2147483647,2147483647,2147483647,2147483647,2147483647,2147483647,2147483647],"split_type":[0,0,0,0,0,0,0,0,0,0,0,0,0,0,0,0,0,0,0,0,0,0,0,0,0,0,0,0,0,0,0,0,0,0,0,0,0,0,0,0,0,0,0,0,0,0,0,0,0],"sum_hessian":[5.06E2,9.4E1,4.12E2,7E0,8.7E1,7.5E1,3.37E2,7.6E1,1.1E1,6.5E1,1E1,8.4E1,2.53E2,7E0,6.9E1,2.1E1,4.4E1,6.3E1,2.1E1,2.22E2,3.1E1,7E0,6.2E1,7E0,3.7E1,4E1,2.3E1,1.2E1,9E0,2.03E2,1.9E1,5.4E1,8E0,2.8E1,9E0,3.1E1,9E0,8.4E1,1.19E2,7E0,4.7E1,7E0,2.4E1,1.9E1,1E2,9E1,1E1,7.9E1,1.1E1],"tree_param":{"num_deleted":"36","num_feature":"50","num_nodes":"49","size_leaf_vector":"0"}},{"base_weights":[-0E0,4.523901E-3,-4.7307517E-3,1.6432114E-2,-0E0,-0E0,-1.0485631E-2,-0E0,2.294438E-2,-1.0272873E-2,-0E0,4.503196E-3,-8.494829E-3,-1.6422732E-2,-0E0,2.6762348E-2,-0E0,-2.0220676E-2,-0E0,-0E0,9.686628E-3,-0E0,7.6337336E-3,-0E0,-1.6272807E-2,-2.0022627E-2,-0E0,3.133253E-2,-0E0,-2.3677085E-2,-0E0,-0E0,1.5943876E-2,-0E0,1.3473372E-2,-0E0,-2.2719163E-2,1.9447634E-2,-0E0,1.8683985E-2,-0E0,-2.5521716E-2,-0E0,2.0392053E-2,-0E0,-0E0,-2.7947862E-2,-0E0,-3.0488128E-2,-0E0,-3.2893695E-2],"categories":[],"categories_nodes":[],"categories_segments":[],"categories_sizes":[],"default_left":[1,1,1,1,1,1,1,1,1,1,1,1,1,1,0,1,1,1,1,1,1,1,1,1,1,1,0,1,1,1,1,1,1,1,1,1,1,1,1,1,1,1,1,1,1,1,1,1,1,1,1],"id":28,"left_children":[1,3,5,-1,-1,-1,13,-1,-1,-1,-1,-1,-1,25,-1,-1,-1,-1,-1,-1,-1,-1,-1,-1,-1,-1,-1,-1,-1,-1,-1,-1,-1,-1,-1,-1,-1,-1,-1,-1,-1,-1,-1,-1,-1,-1,-1,-1,-1,-1,-1],"loss_changes":[1.0737963E-2,1.7812815E-2,1.1912325E-2,8.2987975E-3,4.4936757E-3,4.2506754E-3,1.05796885E-2,0E0,2.8594527E-3,8.010237E-3,3.3386117E-3,2.9903848E-3,2.0151706E-3,1.11697465E-2,0E0,3.2126904E-4,0E0,7.158136E-4,0E0,0E0,3.4185206E-3,0E0,6.510005E-3,0E0,0E0,6.02996E-3,0E0,0E0,0E0,0E0,0E0,0E0,2.7047377E-4,0E0,6.101479E-3,0E0,5.0814264E-3,0E0,0E0,1.1607446E-4,0E0,4.0750057E-3,0E0,0E0,0E0,0E0,3.1895116E-3,0E0,2.1202117E-3,0E0,0E0],"parents":[2147483647,0,0,1,1,2,2,3,3,4,4,5,5,6,6,8,8,9,9,10,10,11,11,12,12,13,13,15,15,17,17,20,20,22,22,25,25,32,32,34,34,36,36,39,39,41,41,46,46,48,48],"right_children":[2,4,6,-1,-1,-1,14,-1,-1,-1,-1,-1,-1,26,-1,-1,-1,-1,-1,-1,-1,-1,-1,-1,-1,-1,-1,-1,-1,-1,-1,-1,-1,-1,-1,-1,-1,-1,-1,-1,-1,-1,-1,-1,-1,-1,-1,-1,-1,-1,-1],"split_conditions":[3.7144456E-2,7.617477E-1,3.7381563E-1,3.0009544E-3,-0E0,-0E0,5.284008E-1,-0E0,4.1902727E-3,-1.8761081E-3,-0E0,8.22407E-4,-1.5513885E-3,5.004047E-1,-0E0,4.887538E-3,-0E0,-3.6928498E-3,-0E0,-0E0,1.7690439E-3,-0E0,1.394129E-3,-0E0,-2.9718606E-3,-3.6566805E-3,-0E0,5.7221786E-3,-0E0,-4.3240846E-3,-0E0,-0E0,2.9117886E-3,-0E0,2.460607E-3,-0E0,-4.149142E-3,3.551671E-3,-0E0,3.4122078E-3,-0E0,-4.660965E-3,-0E0,3.7241478E-3,-0E0,-0E0,-5.1040454E-3,-0E0,-5.567968E-3,-0E0,-6.0072904E-3],"split_indices":[16,17,42,2,35,33,11,2147483647,2147483647,2147483647,2147483647,2147483647,2147483647,2,0,2147483647,2147483647,2147483647,2147483647,2147483647,2147483647,2147483647,2147483647,2147483647,2147483647,17,0,2147483647,2147483647,2147483647,2147483647,2147483647,2147483647,2147483647,2147483647,2147483647,2147483647,2147483647,2147483647,2147483647,2147483647,2147483647,2147483647,2147483647,2147483647,2147483647,2147483647,2147483647,2147483647,2147483647,2147483647],"split_type":[0,0,0,0,0,0,0,0,0,0,0,0,0,0,0,0,0,0,0,0,0,0,0,0,0,0,0,0,0,0,0,0,0,0,0,0,0,0,0,0,0,0,0,0,0,0,0,0,0,0,0],"sum_hessian":[4.94E2,1.79E2,3.15E2,7.9E1,1E2,1.43E2,1.72E2,2.3E1,5.6E1,4.2E1,5.8E1,1.18E2,2.5E1,1.09E2,6.3E1,4.5E1,1.1E1,3E1,1.2E1,2.3E1,3.5E1,2.6E1,9.2E1,1.1E1,1.4E1,1.01E2,8E0,3.3E1,1.2E1,2.3E1,7E0,9E0,2.6E1,2.7E1,6.5E1,1.1E1,9E1,1.8E1,8E0,5.1E1,1.4E1,7.9E1,1.1E1,4.3E1,8E0,8E0,7.1E1,8E0,6.3E1,7E0,5.6E1],"tree_param":{"num_deleted":"40","num_feature":"50","num_nodes":"51","size_leaf_vector":"0"}},{"base_weights":[-0E0,-2.4314455E-3,1.2195667E-2,-0E0,-7.185344E-3,-0E0,2.023111E-2,-2.7903276E-3,1.0490441E-2,-1.2602857E-2,-0E0,2.5663098E-2,-0E0,-0E0,-8.746034E-3,2.2118896E-2,-0E0,-0E0,-1.6732315E-2,-6.103504E-4,6.884639E-3,-1.2968869E-2,-0E0,-0E0,3.512402E-2,-0E0,-2.1110283E-2,-8.484697E-3,-0E0,1.5711876E-2,-0E0,-0E0,-1.687533E-2,-0E0,4.6136584E-2,-0E0,-2.7622262E-2,-1.2783497E-2,-0E0,2.0442562E-2,-0E0,-0E0,-1.9146679E-2,-0E0,5.5179693E-2,-3.5758987E-2,-0E0,-1.7244443E-2,-0E0,-0E0,-4.06713E-2,-2.006916E-2,-0E0],"categories":[],"categories_nodes":[],"categories_segments":[],"categories_sizes":[],"default_left":[1,1,1,1,1,0,1,1,1,1,1,1,1,1,1,1,0,0,1,1,1,1,1,0,1,0,1,1,1,1,1,1,1,0,1,0,1,1,1,1,1,1,1,1,1,1,0,1,1,1,1,1,1],"id":29,"left_children":[1,3,5,7,9,-1,-1,-1,15,17,-1,-1,-1,-1,-1,23,-1,-1,25,-1,-1,-1,-1,-1,33,-1,35,-1,-1,-1,-1,-1,-1,-1,-1,-1,45,-1,-1,-1,-1,-1,-1,-1,-1,-1,-1,-1,-1,-1,-1,-1,-1],"loss_changes":[1.11325765E-2,1.0375177E-2,1.0240718E-2,1.1489676E-2,1.2413246E-2,0E0,6.094493E-3,5.2264365E-3,1.656416E-2,1.1613375E-2,1.6612844E-3,0E0,0E0,0E0,4.9427915E-3,1.917095E-2,0E0,0E0,1.528056E-2,3.6191489E-3,3.935376E-3,4.2284774E-3,0E0,0E0,1.4473692E-2,0E0,1.442416E-2,3.3171806E-3,0E0,9.3689375E-4,0E0,0E0,3.513852E-4,0E0,1.8281117E-3,0E0,1.447808E-2,3.3249161E-3,0E0,0E0,0E0,0E0,0E0,0E0,0E0,8.984141E-3,0E0,8.254722E-4,0E0,0E0,0E0,0E0,0E0],"parents":[2147483647,0,0,1,1,2,2,3,3,4,4,6,6,7,7,8,8,9,9,10,10,14,14,15,15,18,18,19,19,20,20,21,21,24,24,26,26,27,27,29,29,32,32,34,34,36,36,37,37,45,45,47,47],"right_children":[2,4,6,8,10,-1,-1,-1,16,18,-1,-1,-1,-1,-1,24,-1,-1,26,-1,-1,-1,-1,-1,34,-1,36,-1,-1,-1,-1,-1,-1,-1,-1,-1,46,-1,-1,-1,-1,-1,-1,-1,-1,-1,-1,-1,-1,-1,-1,-1,-1],"split_conditions":[9.114283E-1,2.0377412E-1,2.0144333E-1,3.9689377E-1,6.7049176E-1,-0E0,3.694755E-3,-5.095903E-4,5.1139843E-1,4.482768E-1,-0E0,4.6867854E-3,-0E0,-0E0,-1.5972655E-3,3.0792695E-3,-0E0,-0E0,1.1835476E-1,-1.1146671E-4,1.2573238E-3,-2.368471E-3,-0E0,-0E0,8.922523E-2,-0E0,4.272725E-1,-1.5495382E-3,-0E0,2.869419E-3,-0E0,-0E0,-3.081898E-3,-0E0,8.425805E-3,-0E0,1.8765917E-1,-2.3346168E-3,-0E0,3.733372E-3,-0E0,-0E0,-3.4967083E-3,-0E0,1.0077325E-2,-6.5305713E-3,-0E0,-3.149308E-3,-0E0,-0E0,-7.4276943E-3,-3.6651785E-3,-0E0],"split_indices":[15,40,43,0,38,0,42,46,21,17,32,2147483647,2147483647,2147483647,2147483647,23,0,0,47,2147483647,2147483647,2147483647,2147483647,0,6,0,24,2147483647,2147483647,2147483647,2147483647,2147483647,2147483647,0,44,0,2,2147483647,2147483647,2147483647,2147483647,2147483647,2147483647,2147483647,2147483647,36,0,2147483647,2147483647,2147483647,2147483647,2147483647,2147483647],"split_type":[0,0,0,0,0,0,0,0,0,0,0,0,0,0,0,0,0,0,0,0,0,0,0,0,0,0,0,0,0,0,0,0,0,0,0,0,0,0,0,0,0,0,0,0,0,0,0,0,0,0,0,0,0],"sum_hessian":[5.15E2,4.59E2,5.6E1,2.06E2,2.53E2,1.1E1,4.5E1,1.1E2,9.6E1,1.6E2,9.3E1,3.7E1,8E0,3.1E1,7.9E1,5.5E1,4.1E1,2.8E1,1.32E2,5.9E1,3.4E1,6.5E1,1.4E1,1.8E1,3.7E1,1.5E1,1.17E2,5E1,9E0,2.2E1,1.2E1,1.2E1,5.3E1,9E0,2.8E1,3E1,8.7E1,4.2E1,8E0,1.5E1,7E0,1.1E1,4.2E1,8E0,2E1,6.3E1,2.4E1,3.4E1,8E0,9E0,5.4E1,2.7E1,7E0],"tree_param":{"num_deleted":"28","num_feature":"50","num_nodes":"53","size_leaf_vector":"0"}},{"base_weights":[-0E0,-3.498735E-3,4.1552456E-3,-0E0,-7.730778E-3,-0E0,1.8872544E-2,-9.7301556E-4,1.1539981E-2,-0E0,-1.0826889E-2,8.895611E-4,-8.668018E-3,2.3452733E-2,-0E0,-0E0,1.7663568E-2,-1.4739848E-2,-0E0,5.2656373E-3,-0E0,-0E0,-1.484109E-2,-0E0,2.8278466E-2,-0E0,2.4075722E-2,-1.849888E-2,-0E0,1.04995575E-2,-0E0,-1.9359447E-2,-0E0,3.144272E-2,-0E0,2.899745E-2,-0E0,-0E0,-2.309317E-2,-0E0,1.564538E-2,-0E0,-2.4505284E-2,-0E0,3.5235554E-2,-2.635099E-2,-0E0,1.8529555E-2,-0E0,-0E0,4.037592E-2,-2.9516878E-2,-0E0,-0E0,4.450843E-2,-0E0,4.93712E-2],"categories":[],"categories_nodes":[],"categories_segments":[],"categories_sizes":[],"default_left":[1,1,1,1,1,1,1,1,1,1,1,1,1,1,0,1,1,1,1,1,1,1,1,0,1,1,1,1,1,1,1,1,1,1,1,1,1,1,1,1,1,1,1,1,1,1,1,1,1,1,1,1,1,1,1,1,1],"id":30,"left_children":[1,-1,5,-1,-1,-1,13,-1,-1,-1,-1,-1,-1,23,-1,-1,-1,-1,-1,-1,-1,-1,-1,-1,-1,-1,-1,-1,-1,-1,-1,-1,-1,-1,-1,-1,-1,-1,-1,-1,-1,-1,-1,-1,-1,-1,-1,-1,-1,-1,-1,-1,-1,-1,-1,-1,-1],"loss_changes":[7.5954786E-3,7.866153E-3,2.5695385E-2,6.3625565E-3,6.5026544E-3,5.4586036E-3,1.1996476E-2,0E0,5.076952E-3,0E0,9.098237E-3,2.3479753E-3,4.4411435E-3,1.2720436E-2,0E0,0E0,5.153425E-3,8.814005E-3,0E0,3.9194347E-3,0E0,0E0,3.8908385E-3,0E0,6.039478E-3,0E0,1.5797801E-3,7.5271316E-3,0E0,6.0333665E-3,0E0,1.0510292E-3,0E0,6.8830512E-3,0E0,0E0,0E0,0E0,6.0362928E-3,0E0,1.8955125E-3,0E0,0E0,0E0,8.172393E-3,4.642576E-3,0E0,0E0,0E0,0E0,2.473019E-3,0E0,0E0,0E0,1.006797E-3,0E0,0E0],"parents":[2147483647,0,0,1,1,2,2,3,3,4,4,5,5,6,6,8,8,10,10,11,11,12,12,13,13,16,16,17,17,19,19,22,22,24,24,26,26,27,27,29,29,31,31,33,33,38,38,40,40,44,44,45,45,50,50,54,54],"right_children":[2,-1,6,-1,-1,-1,14,-1,-1,-1,-1,-1,-1,24,-1,-1,-1,-1,-1,-1,-1,-1,-1,-1,-1,-1,-1,-1,-1,-1,-1,-1,-1,-1,-1,-1,-1,-1,-1,-1,-1,-1,-1,-1,-1,-1,-1,-1,-1,-1,-1,-1,-1,-1,-1,-1,-1],"split_conditions":[2.748844E-1,-6.389649E-4,6.043581E-1,-0E0,-1.411852E-3,-0E0,6.1834586E-1,-1.7769932E-4,2.1075169E-3,-0E0,-1.9772868E-3,1.6245824E-4,-1.5830176E-3,3.217399E-2,-0E0,-0E0,3.2258518E-3,-2.6919001E-3,-0E0,9.616497E-4,-0E0,-0E0,-2.71039E-3,-0E0,5.164423E-3,-0E0,4.396887E-3,-3.3784027E-3,-0E0,1.917507E-3,-0E0,-3.5355657E-3,-0E0,5.7423026E-3,-0E0,5.2957293E-3,-0E0,-0E0,-4.217446E-3,-0E0,2.857275E-3,-0E0,-4.4753365E-3,-0E0,6.434978E-3,-4.812413E-3,-0E0,3.3840046E-3,-0E0,-0E0,7.3737493E-3,-5.390591E-3,-0E0,-0E0,8.12846E-3,-0E0,9.016534E-3],"split_indices":[49,49,39,2147483647,2147483647,32,27,2147483647,2147483647,2147483647,2147483647,2147483647,2147483647,41,0,2147483647,2147483647,2147483647,2147483647,2147483647,