{"learner":{"attributes":{"best_iteration":"405","best_ntree_limit":"406","scikit_learn":"{\"n_estimators\": 406, \"objective\": \"reg:squarederror\", \"max_depth\": 6, \"max_leaves\": null, \"max_bin\": null, \"grow_policy\": null, \"learning_rate\": 0.5776561057845523, \"verbosity\": null, \"booster\": null, \"tree_method\": null, \"gamma\": 0.029688898134754657, \"min_child_weight\": 3, \"max_delta_step\": null, \"subsample\": 0.9789265023319311, \"sampling_method\": null, \"colsample_bytree\": 0.5960863005175199, \"colsample_bylevel\": null, \"colsample_bynode\": null, \"reg_alpha\": 0.756038550251351, \"reg_lambda\": 0.4850395728418791, \"scale_pos_weight\": null, \"base_score\": null, \"missing\": NaN, \"num_parallel_tree\": null, \"random_state\": 132, \"n_jobs\": null, \"monotone_constraints\": null, \"interaction_constraints\": null, \"importance_type\": null, \"gpu_id\": null, \"validate_parameters\": null, \"predictor\": null, \"enable_categorical\": false, \"feature_types\": null, \"max_cat_to_onehot\": null, \"max_cat_threshold\": null, \"eval_metric\": null, \"early_stopping_rounds\": null, \"callbacks\": null, \"_estimator_type\": \"regressor\"}"},"feature_names":[],"feature_types":[],"gradient_booster":{"model":{"gbtree_model_param":{"num_parallel_tree":"1","num_trees":"406","size_leaf_vector":"0"},"tree_info":[0,0,0,0,0,0,0,0,0,0,0,0,0,0,0,0,0,0,0,0,0,0,0,0,0,0,0,0,0,0,0,0,0,0,0,0,0,0,0,0,0,0,0,0,0,0,0,0,0,0,0,0,0,0,0,0,0,0,0,0,0,0,0,0,0,0,0,0,0,0,0,0,0,0,0,0,0,0,0,0,0,0,0,0,0,0,0,0,0,0,0,0,0,0,0,0,0,0,0,0,0,0,0,0,0,0,0,0,0,0,0,0,0,0,0,0,0,0,0,0,0,0,0,0,0,0,0,0,0,0,0,0,0,0,0,0,0,0,0,0,0,0,0,0,0,0,0,0,0,0,0,0,0,0,0,0,0,0,0,0,0,0,0,0,0,0,0,0,0,0,0,0,0,0,0,0,0,0,0,0,0,0,0,0,0,0,0,0,0,0,0,0,0,0,0,0,0,0,0,0,0,0,0,0,0,0,0,0,0,0,0,0,0,0,0,0,0,0,0,0,0,0,0,0,0,0,0,0,0,0,0,0,0,0,0,0,0,0,0,0,0,0,0,0,0,0,0,0,0,0,0,0,0,0,0,0,0,0,0,0,0,0,0,0,0,0,0,0,0,0,0,0,0,0,0,0,0,0,0,0,0,0,0,0,0,0,0,0,0,0,0,0,0,0,0,0,0,0,0,0,0,0,0,0,0,0,0,0,0,0,0,0,0,0,0,0,0,0,0,0,0,0,0,0,0,0,0,0,0,0,0,0,0,0,0,0,0,0,0,0,0,0,0,0,0,0,0,0,0,0,0,0,0,0,0,0,0,0,0,0,0,0,0,0,0,0,0,0,0,0,0,0,0,0,0,0,0,0,0,0,0,0,0,0,0,0,0,0,0,0,0,0,0,0,0,0,0,0,0,0,0,0,0,0,0,0],"trees":[{"base_weights":[-5.385091E-2,-1.8824355E-1,-1.1325089E-2,-0E0,-2.282577E-1,-7.242912E-2,7.030945E-2,-5.231716E-2,4.3661952E-2,-1.7619003E-1,-2.901929E-1,-8.4310316E-2,1.222242E-2,8.581704E-2,-3.7236053E-2,-1.103621E-1,-0E0,8.160852E-2,-0E0,-1.89088E-1,-0E0,-2.9291952E-1,-0E0,-1.6205928E-1,-7.242016E-2,6.5120615E-2,-2.7209016E-2,3.2445458E-1,7.924978E-2,-0E0,-1.5664223E-1,-1.21658705E-1,-0E0,-0E0,1.0944358E-2,9.5488295E-2,-0E0,-3.073904E-2,-0E0,-2.0896047E-1,-7.411977E-2,3.806939E-2,-0E0,-1.7111297E-1,-0E0,-1.3693984E-1,-6.2158555E-2,-0E0,7.242878E-2,-0E0,-7.6851E-2,-3.3297524E-2,8.915972E-2,3.7238475E-2,-5.3019237E-2,-0E0,-1.7053907E-1,2.4922004E-2,-0E0,-0E0,1.1990026E-1,-2.1497214E-1,-0E0,-9.744175E-2,-0E0,6.584646E-2,-0E0,-1.8366764E-1,-0E0,-1.4756769E-1,-0E0,-0E0,-6.6579476E-2,-0E0,7.783417E-2,-0E0,1.4097365E-2,-0E0,-1.0203223E-1,-8.6044304E-2,2.50787E-2,1.19912155E-1,5.15193E-2,-0E0,6.5608725E-2,-8.131903E-2,-0E0,-0E0,-1.916579E-1],"categories":[],"categories_nodes":[],"categories_segments":[],"categories_sizes":[],"default_left":[1,1,1,1,1,1,1,1,1,1,1,1,1,1,1,1,1,1,1,1,1,0,0,1,1,1,1,0,1,1,1,0,0,1,1,1,0,1,1,1,1,1,1,1,0,1,1,0,1,1,1,1,1,1,1,1,1,1,1,0,0,0,0,0,0,1,1,0,0,0,0,0,0,1,1,1,1,0,0,0,0,0,0,0,0,0,0,1,1],"id":0,"left_children":[1,3,5,7,9,11,13,15,17,19,21,23,25,27,29,31,-1,35,-1,39,-1,-1,-1,43,45,47,49,-1,51,53,-1,-1,-1,-1,-1,59,-1,-1,-1,61,63,-1,-1,67,-1,69,71,-1,-1,-1,77,79,81,83,85,-1,-1,-1,-1,-1,-1,-1,-1,-1,-1,-1,-1,-1,-1,-1,-1,-1,-1,-1,-1,-1,-1,-1,-1,-1,-1,-1,-1,-1,-1,-1,-1,-1,-1],"loss_changes":[1.4584532E1,4.5264664E0,9.798327E0,2.576421E-1,1.2526951E0,1.1899881E0,1.4316769E0,1.950746E-1,1.3721377E-1,7.230625E-1,9.7919464E-2,7.391548E-1,3.0378038E-1,8.365278E-1,3.6469874E-1,3.025812E-2,2.453677E-3,5.3210497E-2,1.0852083E-2,3.850212E-1,1.5195743E-2,0E0,0E0,1.6752768E-1,4.2431974E-1,4.383877E-2,1.3599183E-1,0E0,8.472576E-1,1.6571043E-1,5.8903694E-3,0E0,0E0,0E0,8.406391E-3,5.5799603E-2,0E0,0E0,0E0,3.7706375E-1,8.704369E-2,1.725756E-2,0E0,1.1403632E-1,0E0,2.003932E-1,1.6083336E-1,0E0,1.8837005E-2,4.6673156E-3,5.853972E-2,2.0874873E-1,6.411886E-1,6.0782026E-2,8.679526E-2,0E0,2.3547888E-2,0E0,0E0,0E0,0E0,0E0,0E0,0E0,0E0,0E0,0E0,0E0,0E0,0E0,0E0,0E0,0E0,0E0,0E0,0E0,0E0,0E0,0E0,0E0,0E0,0E0,0E0,0E0,0E0,0E0,0E0,0E0,0E0],"parents":[2147483647,0,0,1,1,2,2,3,3,4,4,5,5,6,6,7,7,8,8,9,9,10,10,11,11,12,12,13,13,14,14,15,15,16,16,17,17,18,18,19,19,20,20,23,23,24,24,25,25,26,26,28,28,29,29,30,30,34,34,35,35,39,39,40,40,41,41,43,43,45,45,46,46,48,48,49,49,50,50,51,51,52,52,53,53,54,54,56,56],"right_children":[2,4,6,8,10,12,14,16,18,20,22,24,26,28,30,32,-1,36,-1,40,-1,-1,-1,44,46,48,50,-1,52,54,-1,-1,-1,-1,-1,60,-1,-1,-1,62,64,-1,-1,68,-1,70,72,-1,-1,-1,78,80,82,84,86,-1,-1,-1,-1,-1,-1,-1,-1,-1,-1,-1,-1,-1,-1,-1,-1,-1,-1,-1,-1,-1,-1,-1,-1,-1,-1,-1,-1,-1,-1,-1,-1,-1,-1],"split_conditions":[3.9533812E-1,7.689481E-2,4.947355E-1,3.3507222E-1,5.986397E-1,8.9322793E-1,6.8238145E-1,2.4180713E-1,4.5243096E-1,2.805161E-1,7.866963E-1,2.554353E-1,4.5700026E-1,3.7666687E-1,5.5229646E-1,7.480551E-1,-0E0,6.733171E-1,-0E0,7.741121E-1,-0E0,-1.6920674E-1,-0E0,7.0912826E-1,4.8568547E-1,2.5820822E-1,8.111708E-2,1.8742315E-1,2.9533632E-2,8.6942923E-1,-9.0485334E-2,-7.027689E-2,-0E0,-0E0,6.322075E-3,4.2735022E-1,-0E0,-1.7756592E-2,-0E0,6.514733E-1,6.9220424E-1,2.1991014E-2,-0E0,2.4437995E-1,-0E0,9.5039064E-1,1.5413827E-1,-0E0,4.1838925E-2,-0E0,2.3242258E-1,6.653041E-1,4.9077475E-1,8.197223E-1,6.751508E-1,-0E0,-9.851293E-2,1.4396347E-2,-0E0,-0E0,6.926111E-2,-1.2417997E-1,-0E0,-5.6287818E-2,-0E0,3.8036607E-2,-0E0,-1.0609674E-1,-0E0,-8.5243374E-2,-0E0,-0E0,-3.846004E-2,-0E0,4.496138E-2,-0E0,8.143429E-3,-0E0,-5.893954E-2,-4.9704015E-2,1.4486864E-2,6.926799E-2,2.9760437E-2,-0E0,3.7899278E-2,-4.697443E-2,-0E0,-0E0,-1.1071236E-1],"split_indices":[28,48,44,5,32,15,42,44,27,27,4,10,33,15,15,7,30,45,15,22,19,0,0,4,4,7,37,0,34,42,10,0,0,2147483647,2147483647,45,0,2147483647,2147483647,40,17,2147483647,2147483647,48,0,22,17,0,40,10,25,44,7,42,7,2147483647,2147483647,2147483647,2147483647,0,0,0,0,0,0,2147483647,2147483647,0,0,0,0,0,0,2147483647,2147483647,2147483647,2147483647,0,0,0,0,0,0,0,0,0,0,2147483647,2147483647],"split_type":[0,0,0,0,0,0,0,0,0,0,0,0,0,0,0,0,0,0,0,0,0,0,0,0,0,0,0,0,0,0,0,0,0,0,0,0,0,0,0,0,0,0,0,0,0,0,0,0,0,0,0,0,0,0,0,0,0,0,0,0,0,0,0,0,0,0,0,0,0,0,0,0,0,0,0,0,0,0,0,0,0,0,0,0,0,0,0,0,0],"sum_hessian":[2.578E3,6.15E2,1.963E3,1.1E2,5.05E2,1.128E3,8.35E2,5.5E1,5.5E1,2.82E2,2.23E2,9.97E2,1.31E2,7.36E2,9.9E1,2.8E1,2.7E1,3.6E1,1.9E1,2.65E2,1.7E1,2.2E2,3E0,1.23E2,8.74E2,6.4E1,6.7E1,1.6E1,7.2E2,7.9E1,2E1,2.5E1,3E0,7E0,2E1,3.2E1,4E0,1.1E1,8E0,2.2E2,4.5E1,1E1,7E0,1.16E2,7E0,1.09E2,7.65E2,4E0,6E1,3.6E1,3.1E1,5.2E1,6.68E2,4.1E1,3.8E1,3E0,1.7E1,1.7E1,3E0,8E0,2.4E1,2.16E2,4E0,3.5E1,1E1,7E0,3E0,1.04E2,1.2E1,1.03E2,6E0,6.2E1,7.03E2,5E0,5.5E1,1.3E1,2.3E1,8E0,2.3E1,3.4E1,1.8E1,3.56E2,3.12E2,1.4E1,2.7E1,2.9E1,9E0,3E0,1.4E1],"tree_param":{"num_deleted":"18","num_feature":"50","num_nodes":"89","size_leaf_vector":"0"}},{"base_weights":[-2.2838403E-2,-1.03017084E-1,-2.0339226E-3,-1.2706105E-1,-5.930766E-2,-3.562568E-2,2.1612031E-2,-0E0,-1.3706957E-1,-3.8762208E-2,-1.9900502E-1,-5.599191E-2,-1.6576147E-2,3.3807654E-2,-1.1896325E-2,-8.612574E-3,-0E0,-0E0,-1.429329E-1,-5.8928616E-2,1.1277777E-3,-2.8841706E-2,-7.724532E-2,1.1810592E-2,-3.414549E-2,4.8775483E-2,-1.0543253E-3,-0E0,-7.804956E-2,-0E0,-2.1552581E-2,-0E0,-7.480752E-3,-1.4800157E-1,-0E0,-6.958906E-2,-0E0,-0E0,3.4260385E-2,-0E0,-4.064927E-2,-9.993245E-2,-1.9782653E-2,-0E0,6.0149424E-2,-4.4590037E-2,-0E0,1.7407702E-1,4.3143872E-2,-2.923678E-2,2.280052E-2,-5.701044E-2,1.988968E-2,-9.560789E-2,-0E0,-0E0,-2.8837822E-2,-1.5566204E-1,-3.7388727E-2,-0E0,-8.220097E-2,-1.6798597E-2,-0E0,5.275622E-2,-0E0,-0E0,2.5790408E-3,-0E0,-4.6747163E-2,-0E0,-1.02403946E-1,-0E0,-4.741263E-2,9.023866E-3,-2.2284389E-2,7.658848E-2,-0E0,-0E0,-5.481171E-2,2.85049E-2,-1.7083796E-2,-0E0,2.043994E-1,-1.9493185E-2,5.4601658E-2,4.110725E-2,-5.8956247E-2,-0E0,3.8381904E-2,-0E0,-9.0548545E-2,4.0438242E-2,-8.522269E-3,-0E0,-1.0436654E-1],"categories":[],"categories_nodes":[],"categories_segments":[],"categories_sizes":[],"default_left":[1,1,1,1,1,1,1,1,1,1,0,1,1,1,1,1,1,1,1,1,1,1,1,1,1,1,1,1,1,1,1,1,1,1,0,1,0,1,1,1,1,1,1,1,1,1,1,1,1,1,1,1,1,1,0,1,1,0,0,0,0,1,1,1,1,1,1,0,0,1,1,0,0,1,1,0,0,0,0,0,0,0,0,0,0,0,0,0,0,0,0,0,0,1,1],"id":1,"left_children":[1,3,5,7,9,11,13,-1,17,19,-1,21,23,25,27,-1,-1,-1,33,35,-1,39,41,43,45,47,49,51,53,-1,-1,-1,-1,57,-1,59,-1,-1,-1,-1,67,-1,71,-1,75,77,79,81,83,85,87,89,91,-1,-1,-1,-1,-1,-1,-1,-1,-1,-1,-1,-1,-1,-1,-1,-1,-1,-1,-1,-1,-1,-1,-1,-1,-1,-1,-1,-1,-1,-1,-1,-1,-1,-1,-1,-1,-1,-1,-1,-1,-1,-1],"loss_changes":[4.2115755E0,4.045477E-1,1.6396873E0,3.531599E-1,3.8330805E-1,2.7852547E-1,5.032588E-1,1.3711542E-3,1.8359041E-1,1.8650758E-1,0E0,1.4749908E-1,2.4873719E-1,5.002445E-1,2.2223239E-1,5.8218604E-3,0E0,4.748368E-4,1.11377716E-1,6.739107E-2,2.7505735E-2,7.698318E-2,1.7771864E-1,1.094756E-1,1.2630028E-1,2.819711E-1,1.7493208E-1,3.0079976E-1,5.9464782E-2,0E0,3.1897943E-3,0E0,0E0,7.957077E-2,0E0,7.0625305E-2,0E0,4.651961E-3,1.2748901E-2,2.2937557E-4,3.2229245E-2,2.7306557E-2,4.8471097E-2,2.9141504E-2,4.6817854E-2,1.1317104E-1,3.5292294E-2,7.9452455E-2,4.6949983E-1,2.8746036E-1,6.81512E-2,1.6349204E-1,1.3492292E-1,7.6904E-3,0E0,0E0,0E0,0E0,0E0,0E0,0E0,0E0,0E0,0E0,0E0,0E0,0E0,0E0,0E0,0E0,0E0,0E0,0E0,0E0,0E0,0E0,0E0,0E0,0E0,0E0,0E0,0E0,0E0,0E0,0E0,0E0,0E0,0E0,0E0,0E0,0E0,0E0,0E0,0E0,0E0],"parents":[2147483647,0,0,1,1,2,2,3,3,4,4,5,5,6,6,7,7,8,8,9,9,11,11,12,12,13,13,14,14,15,15,17,17,18,18,19,19,20,20,21,21,22,22,23,23,24,24,25,25,26,26,27,27,28,28,30,30,33,33,35,35,37,37,38,38,39,39,40,40,41,41,42,42,43,43,44,44,45,45,46,46,47,47,48,48,49,49,50,50,51,51,52,52,53,53],"right_children":[2,4,6,8,10,12,14,-1,18,20,-1,22,24,26,28,-1,-1,-1,34,36,-1,40,42,44,46,48,50,52,54,-1,-1,-1,-1,58,-1,60,-1,-1,-1,-1,68,-1,72,-1,76,78,80,82,84,86,88,90,92,-1,-1,-1,-1,-1,-1,-1,-1,-1,-1,-1,-1,-1,-1,-1,-1,-1,-1,-1,-1,-1,-1,-1,-1,-1,-1,-1,-1,-1,-1,-1,-1,-1,-1,-1,-1,-1,-1,-1,-1,-1,-1],"split_conditions":[3.2183474E-1,7.3242545E-1,1.8468766E-1,4.592679E-1,6.9311726E-1,5.573262E-1,5.5322915E-1,-0E0,1.829263E-1,1.6659823E-1,-1.1495646E-1,5.0916404E-1,3.429659E-1,3.9267552E-1,5.8430016E-1,-4.975106E-3,-0E0,-0E0,3.2544565E-1,7.5717086E-1,6.5146765E-4,2.6494408E-1,6.6902685E-1,6.579875E-1,6.911466E-1,3.7666702E-1,6.409789E-1,5.489994E-1,6.936903E-1,-0E0,-1.244998E-2,-0E0,-4.3213023E-3,6.2243414E-1,-0E0,3.4616435E-1,-0E0,-0E0,1.979072E-2,-0E0,2.0008308E-1,-5.7726588E-2,3.262751E-1,-0E0,4.41396E-1,1.6392004E-1,6.0770357E-1,9.202158E-3,6.0587513E-1,5.16569E-2,7.671715E-1,3.4120658E-1,4.0462637E-1,-5.522848E-2,-0E0,-0E0,-1.6658343E-2,-8.991913E-2,-2.1597825E-2,-0E0,-4.7483888E-2,-9.703812E-3,-0E0,3.0474951E-2,-0E0,-0E0,1.4897987E-3,-0E0,-2.7003784E-2,-0E0,-5.9154265E-2,-0E0,-2.7388195E-2,5.212691E-3,-1.2872713E-2,4.4241805E-2,-0E0,-0E0,-3.166232E-2,1.6466029E-2,-9.8685585E-3,-0E0,1.1807256E-1,-1.1260357E-2,3.154098E-2,2.3745852E-2,-3.4056436E-2,-0E0,2.217154E-2,-0E0,-5.230592E-2,2.3359397E-2,-4.922941E-3,-0E0,-6.0287967E-2],"split_indices":[21,15,45,24,42,21,42,31,14,33,0,5,25,43,13,2147483647,2147483647,42,33,24,10,25,38,21,38,15,35,45,3,2147483647,2147483647,2147483647,2147483647,42,0,43,0,2147483647,2147483647,16,33,18,42,45,41,33,14,5,15,13,22,45,41,6,0,2147483647,2147483647,0,0,0,0,2147483647,2147483647,2147483647,2147483647,2147483647,2147483647,0,0,2147483647,2147483647,0,0,2147483647,2147483647,0,0,0,0,0,0,0,0,0,0,0,0,0,0,0,0,0,0,2147483647,2147483647],"split_type":[0,0,0,0,0,0,0,0,0,0,0,0,0,0,0,0,0,0,0,0,0,0,0,0,0,0,0,0,0,0,0,0,0,0,0,0,0,0,0,0,0,0,0,0,0,0,0,0,0,0,0,0,0,0,0,0,0,0,0,0,0,0,0,0,0,0,0,0,0,0,0,0,0,0,0,0,0,0,0,0,0,0,0,0,0,0,0,0,0,0,0,0,0,0,0],"sum_hessian":[2.572E3,5.22E2,2.05E3,3.25E2,1.97E2,8.6E2,1.19E3,2.7E1,2.98E2,1.77E2,2E1,3.96E2,4.64E2,8.89E2,3.01E2,1.8E1,9E0,1.5E1,2.83E2,1.3E2,4.7E1,1.9E2,2.06E2,1.61E2,3.03E2,6.37E2,2.52E2,2.58E2,4.3E1,3E0,1.5E1,7E0,8E0,2.69E2,1.4E1,1.07E2,2.3E1,2.4E1,2.3E1,4.8E1,1.42E2,1.38E2,6.8E1,1.25E2,3.6E1,2.41E2,6.2E1,2.1E1,6.16E2,1.3E2,1.22E2,6.9E1,1.89E2,3.5E1,8E0,3E0,1.2E1,2.45E2,2.4E1,2E1,8.7E1,1.6E1,8E0,1.4E1,9E0,1.4E1,3.4E1,2E1,1.22E2,4E0,1.34E2,3.5E1,3.3E1,8E1,4.5E1,3E1,6E0,4.4E1,1.97E2,3.2E1,3E1,4E0,1.7E1,8.5E1,5.31E2,3.1E1,9.9E1,3.3E1,8.9E1,2.2E1,4.7E1,1.25E2,6.4E1,5E0,3E1],"tree_param":{"num_deleted":"22","num_feature":"50","num_nodes":"95","size_leaf_vector":"0"}},{"base_weights":[-1.1215332E-2,-3.1034818E-2,7.4911807E-3,-4.8196662E-2,-1.190252E-2,-5.685036E-3,3.386142E-2,-5.8428273E-2,-1.1586364E-2,1.7882053E-2,-3.6151633E-2,1.9074889E-2,-1.1532163E-2,-9.74456E-3,5.019971E-2,-3.929218E-2,-9.178885E-2,2.6628127E-2,-2.1542503E-2,2.8687453E-2,-7.4251415E-3,-5.5584315E-2,-8.920915E-3,-0E0,3.0078927E-2,-1.7030694E-2,1.0993335E-2,-4.811449E-2,2.5791647E-2,3.6816612E-2,1.0264138E-1,-4.383276E-3,-5.7442985E-2,-0E0,-9.8032445E-2,-0E0,4.5340966E-2,-0E0,-2.9404236E-2,4.1981887E-2,-0E0,-0E0,-2.0221205E-2,-0E0,-5.968387E-2,2.634602E-2,-1.9932216E-2,-6.1347743E-4,-0E0,3.6785405E-2,-0E0,-0E0,-2.5865437E-2,3.1577155E-2,-0E0,-0E0,-6.429586E-2,4.3070342E-2,-0E0,4.249078E-2,-0E0,-0E0,1.1750161E-1,1.1089122E-2,-4.7723703E-2,-6.346723E-2,-0E0,-1.0112262E-1,-0E0,-0E0,-4.2319294E-2,-0E0,5.054015E-2,-0E0,2.3993414E-2,-2.9796712E-2,-0E0,-7.207938E-2,-2.6137354E-3,-0E0,4.2700753E-2,-0E0,-3.1097166E-2,-4.9731242E-3,-0E0,-0E0,4.220361E-2,-1.414013E-2,1.0234753E-2,-3.5743847E-2,-0E0,-0E0,4.8778683E-2,-0E0,-7.817216E-2,-0E0,5.7396237E-2,4.5591634E-2,-0E0],"categories":[],"categories_nodes":[],"categories_segments":[],"categories_sizes":[],"default_left":[1,1,1,1,1,1,1,1,1,1,1,1,1,1,1,1,1,1,1,1,1,1,1,1,1,1,1,1,1,1,1,1,1,0,1,1,1,0,1,1,1,1,1,0,1,1,1,1,1,1,1,1,1,1,0,0,1,1,0,1,0,0,0,0,0,0,0,0,0,0,0,0,0,1,1,1,1,0,0,1,1,0,0,1,1,1,1,0,0,0,0,1,1,0,0,1,1,0,0],"id":2,"left_children":[1,3,5,7,9,11,13,15,17,19,21,23,25,27,29,31,33,-1,37,39,-1,43,45,-1,-1,51,53,55,57,59,61,63,65,-1,67,-1,-1,-1,69,71,-1,-1,-1,-1,77,-1,81,-1,-1,-1,-1,87,89,-1,-1,-1,93,-1,-1,97,-1,-1,-1,-1,-1,-1,-1,-1,-1,-1,-1,-1,-1,-1,-1,-1,-1,-1,-1,-1,-1,-1,-1,-1,-1,-1,-1,-1,-1,-1,-1,-1,-1,-1,-1,-1,-1,-1,-1],"loss_changes":[9.7982705E-1,3.7439764E-1,4.7847423E-1,1.9152176E-1,4.6660453E-1,1.1869077E-1,3.567568E-1,2.1482325E-1,5.7112373E-2,8.932339E-2,1.4121825E-1,3.7446972E-2,9.376864E-2,1.7085464E-1,1.3520396E-1,1.619047E-1,8.080292E-2,1.5324694E-2,3.6318883E-2,5.6637734E-2,1.3683543E-2,6.293374E-2,6.005757E-2,5.0751555E-6,2.7476668E-2,8.963916E-2,3.1517982E-2,3.8750097E-2,3.3573996E-2,4.9928725E-2,9.468001E-2,1.13442816E-1,8.706713E-2,0E0,6.378102E-2,0E0,0E0,0E0,4.5281097E-2,6.421527E-2,7.7631203E-3,0E0,1.6317757E-2,0E0,7.4652314E-2,1.5580155E-2,5.1771205E-2,2.295085E-4,0E0,2.7680047E-2,0E0,3.0607954E-2,1.1864972E-1,1.5284196E-2,0E0,0E0,5.325538E-2,2.801238E-2,0E0,3.7402898E-2,0E0,0E0,0E0,0E0,0E0,0E0,0E0,0E0,0E0,0E0,0E0,0E0,0E0,0E0,0E0,0E0,0E0,0E0,0E0,0E0,0E0,0E0,0E0,0E0,0E0,0E0,0E0,0E0,0E0,0E0,0E0,0E0,0E0,0E0,0E0,0E0,0E0,0E0,0E0],"parents":[2147483647,0,0,1,1,2,2,3,3,4,4,5,5,6,6,7,7,8,8,9,9,10,10,11,11,12,12,13,13,14,14,15,15,16,16,17,17,18,18,19,19,20,20,21,21,22,22,23,23,24,24,25,25,26,26,27,27,28,28,29,29,30,30,31,31,32,32,34,34,38,38,39,39,40,40,42,42,44,44,45,45,46,46,47,47,49,49,51,51,52,52,53,53,56,56,57,57,59,59],"right_children":[2,4,6,8,10,12,14,16,18,20,22,24,26,28,30,32,34,-1,38,40,-1,44,46,-1,-1,52,54,56,58,60,62,64,66,-1,68,-1,-1,-1,70,72,-1,-1,-1,-1,78,-1,82,-1,-1,-1,-1,88,90,-1,-1,-1,94,-1,-1,98,-1,-1,-1,-1,-1,-1,-1,-1,-1,-1,-1,-1,-1,-1,-1,-1,-1,-1,-1,-1,-1,-1,-1,-1,-1,-1,-1,-1,-1,-1,-1,-1,-1,-1,-1,-1,-1,-1,-1],"split_conditions":[5.343396E-1,8.7526165E-2,3.063163E-1,4.1125423E-1,1.486073E-1,3.461163E-1,5.384096E-1,1.5775016E-1,2.9739736E-2,6.887685E-1,4.8082933E-1,2.5902402E-1,2.2052117E-1,2.3883069E-1,2.5047013E-1,9.3803275E-1,2.695665E-1,1.53819E-2,4.172857E-2,6.0966295E-1,-4.289178E-3,2.4552724E-1,2.6955718E-1,-0E0,1.7375275E-2,2.4865836E-1,2.231479E-1,3.0435884E-1,4.3428293E-1,5.0453913E-1,2.28742E-1,3.3702314E-1,7.267775E-2,-0E0,8.283857E-1,-0E0,2.6191486E-2,-0E0,1.5784526E-1,4.5006678E-1,-0E0,-0E0,-1.1680903E-2,-0E0,8.8027585E-1,1.5218939E-2,1.4687061E-1,-3.5437898E-4,-0E0,2.1249313E-2,-0E0,5.660771E-1,8.922988E-1,1.8240737E-2,-0E0,-0E0,6.3051535E-3,2.4879845E-2,-0E0,2.140713E-1,-0E0,-0E0,6.787552E-2,6.4056986E-3,-2.7567888E-2,-3.666223E-2,-0E0,-5.8414094E-2,-0E0,-0E0,-2.4445998E-2,-0E0,2.9194824E-2,-0E0,1.3859942E-2,-1.7212253E-2,-0E0,-4.1637093E-2,-1.5098401E-3,-0E0,2.466635E-2,-0E0,-1.7963467E-2,-2.8727555E-3,-0E0,-0E0,2.4379171E-2,-8.168132E-3,5.912167E-3,-2.064765E-2,-0E0,-0E0,2.8177304E-2,-0E0,-4.5156624E-2,-0E0,3.3155285E-2,2.6336284E-2,-0E0],"split_indices":[21,34,46,21,41,24,15,47,26,43,32,24,48,43,43,46,24,24,48,4,15,14,15,34,9,20,41,15,41,34,47,14,34,0,4,2147483647,2147483647,0,46,38,32,2147483647,2147483647,0,43,44,47,2147483647,2147483647,2147483647,2147483647,4,15,34,0,0,48,37,0,43,0,0,0,0,0,0,0,0,0,0,0,0,0,2147483647,2147483647,2147483647,2147483647,0,0,2147483647,2147483647,0,0,2147483647,2147483647,2147483647,2147483647,0,0,0,0,2147483647,2147483647,0,0,2147483647,2147483647,0,0],"split_type":[0,0,0,0,0,0,0,0,0,0,0,0,0,0,0,0,0,0,0,0,0,0,0,0,0,0,0,0,0,0,0,0,0,0,0,0,0,0,0,0,0,0,0,0,0,0,0,0,0,0,0,0,0,0,0,0,0,0,0,0,0,0,0,0,0,0,0,0,0,0,0,0,0,0,0,0,0,0,0,0,0,0,0,0,0,0,0,0,0,0,0,0,0,0,0,0,0,0,0],"sum_hessian":[2.594E3,1.279E3,1.315E3,6.53E2,6.26E2,8.58E2,4.57E2,4.94E2,1.59E2,2.67E2,3.59E2,1.39E2,7.19E2,1.12E2,3.45E2,3.29E2,1.65E2,1.7E1,1.42E2,2.08E2,5.9E1,1.93E2,1.66E2,4.2E1,9.7E1,6.05E2,1.14E2,6.4E1,4.8E1,2.87E2,5.8E1,1.27E2,2.02E2,1.2E1,1.53E2,4E0,1.3E1,2.4E1,1.18E2,1.29E2,7.9E1,1.8E1,4.1E1,8E0,1.85E2,2.3E1,1.43E2,1.3E1,2.9E1,8.5E1,1.2E1,2.09E2,3.96E2,4.5E1,6.9E1,1.9E1,4.5E1,3.5E1,1.3E1,2.43E2,4.4E1,7E0,5.1E1,8.1E1,4.6E1,1.87E2,1.5E1,1.5E2,3E0,3.6E1,8.2E1,1.5E1,1.14E2,6.6E1,1.3E1,3.7E1,4E0,1.41E2,4.4E1,6E0,1.7E1,3.1E1,1.12E2,9E0,4E0,5E0,8E1,9E1,1.19E2,3E2,9.6E1,2E1,2.5E1,6E0,3.9E1,7E0,2.8E1,2.29E2,1.4E1],"tree_param":{"num_deleted":"22","num_feature":"50","num_nodes":"99","size_leaf_vector":"0"}},{"base_weights":[-4.3145153E-3,-2.2408731E-2,1.167211E-3,6.4241863E-3,-3.0268053E-2,7.046595E-3,-1.0391146E-2,-6.023425E-3,2.4279008E-2,-3.3317946E-2,-0E0,-3.4493871E-3,1.43364305E-2,-1.8396337E-2,3.7802781E-3,-1.6023865E-2,-0E0,-0E0,3.3681735E-2,-1.8076021E-2,-5.1412668E-2,3.150216E-3,-0E0,1.950537E-2,-1.2808122E-2,-0E0,2.9531194E-2,-3.0879062E-2,-0E0,1.7442819E-2,-0E0,-0E0,-2.3937922E-2,-0E0,4.180963E-2,-3.404656E-2,-0E0,6.855423E-3,-6.452235E-2,-0E0,2.864415E-2,2.8311377E-2,-0E0,1.2710223E-2,-1.8178705E-2,-1.123036E-2,1.2182349E-2,3.3897303E-2,-0E0,-0E0,-4.0719427E-2,-1.4521792E-2,1.9088035E-3,2.180476E-2,-0E0,7.0374E-3,-1.2720477E-2,-0E0,-2.725818E-2,4.6585914E-2,-0E0,-4.176484E-2,-0E0,1.6715333E-2,-6.0920785E-3,1.6199285E-2,-0E0,-0E0,-6.807183E-2,3.536227E-2,-0E0,-0E0,3.4423128E-2,3.069512E-2,-0E0,-7.3599988E-3,-6.4363316E-2,-0E0,-2.2614334E-2,4.8684664E-2,-0E0,3.752045E-2,-0E0,-6.4997277E-3,-0E0,-1.1633393E-2,-0E0,-4.6438746E-2,-0E0,-1.9992338E-2,-0E0,9.371047E-3,-1.4628435E-4,2.610652E-2,-0E0,-0E0,3.0074868E-2,-2.3947163E-2,-0E0],"categories":[],"categories_nodes":[],"categories_segments":[],"categories_sizes":[],"default_left":[1,1,1,1,1,1,1,1,1,1,1,1,1,1,1,1,1,0,1,1,1,1,1,1,1,1,1,1,1,1,1,1,1,1,1,1,1,1,1,1,1,1,1,1,1,1,1,1,1,1,1,1,1,1,1,1,1,1,1,1,1,0,0,1,1,1,1,0,0,1,1,1,1,1,1,0,0,0,0,0,0,0,0,1,1,1,1,0,0,1,1,1,1,1,1,1,1,1,1],"id":3,"left_children":[1,3,5,7,9,11,13,-1,17,19,-1,23,25,27,-1,-1,-1,-1,-1,35,37,-1,-1,-1,43,45,47,49,-1,-1,-1,-1,-1,-1,-1,61,-1,-1,67,-1,-1,-1,-1,-1,75,77,79,81,-1,-1,87,-1,-1,-1,-1,-1,-1,-1,-1,-1,-1,-1,-1,-1,-1,-1,-1,-1,-1,-1,-1,-1,-1,-1,-1,-1,-1,-1,-1,-1,-1,-1,-1,-1,-1,-1,-1,-1,-1,-1,-1,-1,-1,-1,-1,-1,-1,-1,-1],"loss_changes":[2.7261916E-1,1.6167343E-1,1.3025798E-1,3.9539393E-2,6.50273E-2,1.1066783E-1,8.090772E-2,8.303873E-3,3.0427884E-2,8.1184864E-2,2.0329072E-4,1.038647E-1,1.720516E-1,7.9867125E-2,1.814316E-2,9.879179E-3,0E0,0E0,2.2086658E-2,1.0020974E-1,1.9619489E-1,7.579065E-3,0E0,2.7148861E-2,5.6802467E-2,6.049293E-2,7.335025E-2,5.9795633E-2,1.2823468E-2,8.396203E-3,1.3568636E-2,0E0,2.1468718E-3,0E0,1.6492963E-2,5.264926E-2,1.7690735E-2,2.556405E-3,3.5311222E-2,0E0,3.2712193E-4,1.6501158E-2,0E0,1.337955E-2,1.1617028E-1,3.495125E-2,1.1478607E-1,5.015418E-2,7.3868106E-4,3.0430318E-3,4.2351633E-2,7.0456937E-3,9.037346E-3,9.946039E-3,0E0,2.5829298E-2,1.6884759E-2,0E0,0E0,0E0,0E0,0E0,0E0,0E0,0E0,0E0,0E0,0E0,0E0,0E0,0E0,0E0,0E0,0E0,0E0,0E0,0E0,0E0,0E0,0E0,0E0,0E0,0E0,0E0,0E0,0E0,0E0,0E0,0E0,0E0,0E0,0E0,0E0,0E0,0E0,0E0,0E0,0E0,0E0],"parents":[2147483647,0,0,1,1,2,2,3,3,4,4,5,5,6,6,7,7,8,8,9,9,10,10,11,11,12,12,13,13,14,14,15,15,18,18,19,19,20,20,21,21,23,23,24,24,25,25,26,26,27,27,28,28,29,29,30,30,32,32,34,34,35,35,36,36,37,37,38,38,40,40,41,41,43,43,44,44,45,45,46,46,47,47,48,48,49,49,50,50,51,51,52,52,53,53,55,55,56,56],"right_children":[2,4,6,8,10,12,14,-1,18,20,-1,24,26,28,-1,-1,-1,-1,-1,36,38,-1,-1,-1,44,46,48,50,-1,-1,-1,-1,-1,-1,-1,62,-1,-1,68,-1,-1,-1,-1,-1,76,78,80,82,-1,-1,88,-1,-1,-1,-1,-1,-1,-1,-1,-1,-1,-1,-1,-1,-1,-1,-1,-1,-1,-1,-1,-1,-1,-1,-1,-1,-1,-1,-1,-1,-1,-1,-1,-1,-1,-1,-1,-1,-1,-1,-1,-1,-1,-1,-1,-1,-1,-1,-1],"split_conditions":[3.6324278E-1,3.7946385E-1,5.142673E-1,4.8764467E-2,2.9796636E-1,1.8988425E-1,6.4583766E-1,-3.4794682E-3,4.6608824E-1,1.5788272E-1,-0E0,3.0193534E-2,1.6983914E-1,6.396954E-1,2.1837007E-3,-9.256283E-3,-0E0,-0E0,1.945646E-2,3.497285E-1,4.5493138E-1,1.8197414E-3,-0E0,1.1267396E-2,2.306404E-1,5.2633476E-1,6.162175E-1,2.4836278E-1,-0E0,1.007595E-2,-0E0,-0E0,-1.3827886E-2,-0E0,2.4151588E-2,1.5555346E-1,-0E0,3.9600767E-3,4.6681082E-1,-0E0,1.6546467E-2,1.635424E-2,-0E0,7.342138E-3,2.828636E-1,3.5244885E-1,1.5654191E-1,4.1345382E-1,-0E0,-0E0,8.069326E-1,-8.388601E-3,1.1026319E-3,1.2595652E-2,-0E0,4.065197E-3,-7.348061E-3,-0E0,-1.5745854E-2,2.6910637E-2,-0E0,-2.4125714E-2,-0E0,9.655714E-3,-3.5191262E-3,9.357615E-3,-0E0,-0E0,-3.9322104E-2,2.042723E-2,-0E0,-0E0,1.988473E-2,1.7731223E-2,-0E0,-4.251548E-3,-3.717986E-2,-0E0,-1.3063308E-2,2.8122993E-2,-0E0,2.1673916E-2,-0E0,-3.7546074E-3,-0E0,-6.7201005E-3,-0E0,-2.6825625E-2,-0E0,-1.1548696E-2,-0E0,5.413242E-3,-8.450205E-5,1.508059E-2,-0E0,-0E0,1.737293E-2,-1.3833224E-2,-0E0],"split_indices":[21,42,33,47,26,45,38,42,10,47,33,45,33,21,39,2147483647,2147483647,0,45,45,42,2147483647,2147483647,47,42,45,27,6,10,2147483647,2147483647,2147483647,2147483647,2147483647,2147483647,33,45,39,44,2147483647,2147483647,2147483647,2147483647,7,44,45,27,30,15,44,26,2147483647,2147483647,2147483647,2147483647,2147483647,2147483647,2147483647,2147483647,2147483647,2147483647,0,0,2147483647,2147483647,2147483647,2147483647,0,0,2147483647,2147483647,2147483647,2147483647,2147483647,2147483647,0,0,0,0,0,0,0,0,2147483647,2147483647,2147483647,2147483647,0,0,2147483647,2147483647,2147483647,2147483647,2147483647,2147483647,2147483647,2147483647,2147483647,2147483647],"split_type":[0,0,0,0,0,0,0,0,0,0,0,0,0,0,0,0,0,0,0,0,0,0,0,0,0,0,0,0,0,0,0,0,0,0,0,0,0,0,0,0,0,0,0,0,0,0,0,0,0,0,0,0,0,0,0,0,0,0,0,0,0,0,0,0,0,0,0,0,0,0,0,0,0,0,0,0,0,0,0,0,0,0,0,0,0,0,0,0,0,0,0,0,0,0,0,0,0,0,0],"sum_hessian":[2.586E3,6.33E2,1.953E3,1.15E2,5.18E2,1.338E3,6.15E2,4.3E1,7.2E1,4.86E2,3.2E1,5.06E2,8.32E2,4.27E2,1.88E2,3.8E1,5E0,8E0,6.4E1,2.87E2,1.99E2,2E1,1.2E1,1.23E2,3.83E2,4.39E2,3.93E2,2.35E2,1.92E2,6.8E1,1.2E2,4E0,3.4E1,1E1,5.4E1,1.67E2,1.2E2,2.6E1,1.73E2,1.1E1,9E0,9.2E1,3.1E1,4.2E1,3.41E2,2.15E2,2.24E2,3.62E2,3.1E1,6.4E1,1.71E2,5.8E1,1.34E2,6.1E1,7E0,5.3E1,6.7E1,5E0,2.9E1,5.1E1,3E0,1.41E2,2.6E1,5.4E1,6.6E1,1.4E1,1.2E1,1E1,1.63E2,6E0,3E0,1.6E1,7.6E1,2.1E1,2.1E1,2.9E2,5.1E1,9.4E1,1.21E2,6.2E1,1.62E2,3.31E2,3.1E1,1.7E1,1.4E1,2.2E1,4.2E1,1.51E2,2E1,4.8E1,1E1,1.08E2,2.6E1,5.7E1,4E0,2.2E1,3.1E1,4.8E1,1.9E1],"tree_param":{"num_deleted":"48","num_feature":"50","num_nodes":"99","size_leaf_vector":"0"}},{"base_weights":[-1.85905E-3,-4.514533E-3,1.3494918E-2,-1.9896731E-3,-3.2922763E-2,1.9001825E-2,-0E0,-8.6303E-3,4.2286552E-3,-0E0,-4.607558E-2,-0E0,3.182702E-2,-4.060028E-3,-0E0,-1.317027E-2,5.7324655E-3,9.350564E-3,-6.3820574E-3,-0E0,-5.1452667E-2,9.245267E-3,-2.1883051E-4,3.5134356E-2,-0E0,-1.0347608E-2,-0E0,-0E0,-1.7059885E-2,-1.13611845E-2,1.6442457E-2,1.8907832E-2,7.3945045E-4,-3.3859838E-2,-0E0,-0E0,-5.666282E-2,-0E0,1.938228E-2,-1.0991893E-2,-0E0,3.8765687E-2,-0E0,-1.6077794E-2,-0E0,1.8261831E-2,-4.184391E-3,-0E0,-1.9340282E-2,-0E0,-1.8588075E-2,4.062489E-2,-0E0,2.3488954E-2,-3.940061E-2,-8.53592E-3,7.0646387E-3,-0E0,-4.897563E-2,8.213344E-3,-1.3007455E-2,-5.927484E-2,-0E0,-0E0,2.7354836E-2,-0E0,-1.9782694E-2,-0E0,4.2904764E-2,-2.069059E-2,-0E0],"categories":[],"categories_nodes":[],"categories_segments":[],"categories_sizes":[],"default_left":[1,1,1,1,1,1,1,1,1,0,1,1,1,1,1,1,1,1,1,1,1,1,1,1,1,1,1,1,1,1,1,1,1,1,1,1,1,1,1,1,1,1,1,1,1,1,1,0,0,1,1,0,0,0,0,1,1,0,0,1,1,1,1,1,1,1,1,1,1,1,1],"id":4,"left_children":[1,3,5,7,9,11,-1,15,17,-1,-1,-1,-1,-1,-1,27,29,31,33,-1,-1,-1,-1,-1,-1,-1,-1,-1,47,-1,51,53,-1,57,-1,-1,-1,-1,-1,-1,-1,-1,-1,-1,-1,-1,-1,-1,-1,-1,-1,-1,-1,-1,-1,-1,-1,-1,-1,-1,-1,-1,-1,-1,-1,-1,-1,-1,-1,-1,-1],"loss_changes":[9.841132E-2,1.3434763E-1,3.313282E-2,8.9380115E-2,8.187859E-2,5.259514E-2,9.3108974E-4,7.520165E-2,5.7570614E-2,0E0,2.8244197E-2,3.4641677E-3,2.8516367E-2,4.3674214E-3,0E0,5.2272618E-2,4.356478E-2,4.5586295E-2,6.123834E-2,0E0,2.7876109E-2,5.737905E-3,6.4584436E-3,1.2689441E-2,0E0,6.4591654E-3,0E0,1.9788971E-2,3.454019E-2,8.770458E-3,8.449205E-2,7.028674E-2,2.4055462E-2,5.7903633E-2,2.1975474E-2,0E0,1.5164673E-2,0E0,5.3820414E-3,9.381867E-3,0E0,1.4806718E-2,0E0,6.002092E-3,0E0,0E0,0E0,0E0,0E0,0E0,0E0,0E0,0E0,0E0,0E0,0E0,0E0,0E0,0E0,0E0,0E0,0E0,0E0,0E0,0E0,0E0,0E0,0E0,0E0,0E0,0E0],"parents":[2147483647,0,0,1,1,2,2,3,3,4,4,5,5,6,6,7,7,8,8,10,10,11,11,12,12,13,13,15,15,16,16,17,17,18,18,20,20,21,21,22,22,23,23,25,25,27,27,28,28,29,29,30,30,31,31,32,32,33,33,34,34,36,36,38,38,39,39,41,41,43,43],"right_children":[2,4,6,8,10,12,-1,16,18,-1,-1,-1,-1,-1,-1,28,30,32,34,-1,-1,-1,-1,-1,-1,-1,-1,-1,48,-1,52,54,-1,58,-1,-1,-1,-1,-1,-1,-1,-1,-1,-1,-1,-1,-1,-1,-1,-1,-1,-1,-1,-1,-1,-1,-1,-1,-1,-1,-1,-1,-1,-1,-1,-1,-1,-1,-1,-1,-1],"split_conditions":[7.288721E-1,7.777539E-1,6.3623166E-1,2.7080986E-1,1.475626E-1,1.9247696E-1,-0E0,6.97157E-1,4.1907787E-1,-0E0,-2.661584E-2,-0E0,1.8385073E-2,-2.3453E-3,-0E0,4.2975307E-1,8.175811E-2,5.9099936E-1,2.0285745E-1,-0E0,-2.9721946E-2,5.340585E-3,-1.2640878E-4,2.0295575E-2,-0E0,-5.9773587E-3,-0E0,-0E0,3.5504156E-1,-6.5628574E-3,1.7123818E-1,7.503156E-1,4.2714804E-4,3.2871312E-1,-0E0,-0E0,-3.2731622E-2,-0E0,1.1196292E-2,-6.349534E-3,-0E0,2.2393236E-2,-0E0,-9.287436E-3,-0E0,1.0549058E-2,-2.4171388E-3,-0E0,-1.1172032E-2,-0E0,-1.0737515E-2,2.3467215E-2,-0E0,1.3568537E-2,-2.2760004E-2,-4.930826E-3,4.0809317E-3,-0E0,-2.8291073E-2,4.7444883E-3,-7.5138356E-3,-3.4240473E-2,-0E0,-0E0,1.5801689E-2,-0E0,-1.1427593E-2,-0E0,2.4784198E-2,-1.1952045E-2,-0E0],"split_indices":[28,19,7,49,43,43,5,24,13,0,3,41,33,2147483647,2147483647,39,49,7,47,2147483647,2147483647,2147483647,2147483647,2147483647,2147483647,2147483647,2147483647,47,22,41,49,48,30,49,42,2147483647,2147483647,2147483647,2147483647,2147483647,2147483647,2147483647,2147483647,2147483647,2147483647,2147483647,2147483647,0,0,2147483647,2147483647,0,0,0,0,2147483647,2147483647,0,0,2147483647,2147483647,2147483647,2147483647,2147483647,2147483647,2147483647,2147483647,2147483647,2147483647,2147483647,2147483647],"split_type":[0,0,0,0,0,0,0,0,0,0,0,0,0,0,0,0,0,0,0,0,0,0,0,0,0,0,0,0,0,0,0,0,0,0,0,0,0,0,0,0,0,0,0,0,0,0,0,0,0,0,0,0,0,0,0,0,0,0,0,0,0,0,0,0,0,0,0,0,0,0,0],"sum_hessian":[2.579E3,2.241E3,3.38E2,2.083E3,1.58E2,2.62E2,7.6E1,1.066E3,1.017E3,3.9E1,1.19E2,1.17E2,1.45E2,5.6E1,2E1,8.5E2,2.16E2,7.34E2,2.83E2,1.3E1,1.06E2,4E1,7.7E1,1.42E2,3E0,4.9E1,7E0,1.64E2,6.86E2,5.6E1,1.6E2,3.06E2,4.28E2,6.3E1,2.2E2,1E1,9.6E1,1.6E1,2.4E1,5.3E1,2.4E1,1.25E2,1.7E1,4.5E1,4E0,5.3E1,1.11E2,6E1,6.26E2,1E1,4.6E1,7.7E1,8.3E1,2.96E2,1E1,1.25E2,3.03E2,9E0,5.4E1,1.51E2,6.9E1,9.2E1,4E0,5E0,1.9E1,1.3E1,4E1,1.5E1,1.1E2,4.1E1,4E0],"tree_param":{"num_deleted":"38","num_feature":"50","num_nodes":"71","size_leaf_vector":"0"}},{"base_weights":[-6.4958946E-4,-1.1846728E-2,8.483953E-4,-0E0,-2.1038549E-2,2.549848E-2,-0E0,-1.0425203E-2,1.0153845E-2,-3.0784959E-2,3.1419715E-3,-0E0,4.002045E-2,8.677478E-4,-2.1280747E-2,-0E0,-1.4432073E-2,2.060526E-2,-0E0,-3.7783515E-2,-0E0,1.6857365E-2,-0E0,-0E0,4.9555816E-2,-1.6851905E-3,7.47223E-3,-5.5946562E-2,-0E0,-1.8561887E-2,-0E0,-0E0,2.8373536E-2,-0E0,-4.135739E-2,2.5609571E-2,-0E0,5.926082E-2,-0E0,-0E0,-2.7928678E-2,1.5722547E-2,-0E0,-0E0,-6.1209638E-2,-0E0,-2.2594558E-2,3.225764E-2,-0E0,-0E0,-4.462869E-2,2.9456908E-2,-0E0,-0E0,6.640474E-2,2.7680434E-3,-7.14146E-3,-0E0,-3.3521675E-2,2.102574E-2,-0E0,3.9652428E-3,-8.143096E-3,-6.638091E-2,-0E0],"categories":[],"categories_nodes":[],"categories_segments":[],"categories_sizes":[],"default_left":[1,1,1,1,1,1,1,1,1,1,1,0,1,1,1,1,1,1,1,1,1,1,1,0,1,1,1,1,0,1,1,1,1,1,1,1,1,1,0,1,1,1,1,1,1,1,1,1,1,1,1,1,1,1,1,1,1,1,1,0,0,1,1,1,1],"id":5,"left_children":[1,3,5,-1,9,11,13,-1,-1,-1,-1,-1,23,25,27,-1,-1,-1,-1,-1,-1,-1,-1,-1,37,39,41,-1,-1,-1,-1,-1,-1,-1,-1,-1,-1,-1,-1,-1,-1,59,-1,-1,-1,-1,-1,-1,-1,-1,-1,-1,-1,-1,-1,-1,-1,-1,-1,-1,-1,-1,-1,-1,-1],"loss_changes":[5.1519018E-2,4.3479566E-2,5.658822E-2,1.5930789E-2,7.1258806E-2,4.9905792E-2,4.7482453E-2,5.6891628E-3,2.1961905E-2,2.2345394E-2,7.7048205E-3,0E0,3.553983E-2,3.8482126E-2,5.884922E-2,0E0,5.276993E-3,1.7918479E-2,0E0,2.3505718E-2,0E0,8.61975E-3,0E0,0E0,3.7181124E-2,4.326997E-2,3.2745086E-2,9.407073E-3,0E0,4.1163377E-3,0E0,0E0,1.0081861E-2,0E0,1.2825727E-2,2.7961154E-3,0E0,2.8582081E-2,0E0,2.8790576E-2,1.2922283E-2,2.9957578E-2,1.0024618E-2,0E0,6.894931E-3,0E0,0E0,0E0,0E0,0E0,0E0,0E0,0E0,0E0,0E0,0E0,0E0,0E0,0E0,0E0,0E0,0E0,0E0,0E0,0E0],"parents":[2147483647,0,0,1,1,2,2,3,3,4,4,5,5,6,6,7,7,8,8,9,9,10,10,12,12,13,13,14,14,16,16,17,17,19,19,21,21,24,24,25,25,26,26,27,27,29,29,32,32,34,34,35,35,37,37,39,39,40,40,41,41,42,42,44,44],"right_children":[2,4,6,-1,10,12,14,-1,-1,-1,-1,-1,24,26,28,-1,-1,-1,-1,-1,-1,-1,-1,-1,38,40,42,-1,-1,-1,-1,-1,-1,-1,-1,-1,-1,-1,-1,-1,-1,60,-1,-1,-1,-1,-1,-1,-1,-1,-1,-1,-1,-1,-1,-1,-1,-1,-1,-1,-1,-1,-1,-1,-1],"split_conditions":[3.184781E-1,3.5353497E-2,2.9839762E-2,-0E0,4.558695E-1,2.522299E-1,5.7557535E-1,-6.022182E-3,5.8654305E-3,-1.7783118E-2,1.814979E-3,-0E0,2.9718643E-1,6.717204E-1,5.3120184E-1,-0E0,-8.336775E-3,1.1902754E-2,-0E0,-2.1825878E-2,-0E0,9.73776E-3,-0E0,-0E0,1.6668098E-1,5.003784E-1,1.325299E-2,-3.2317873E-2,-0E0,-1.0722387E-2,-0E0,-0E0,1.6390145E-2,-0E0,-2.3890348E-2,1.47935245E-2,-0E0,3.4232374E-2,-0E0,-0E0,-1.613317E-2,3.4469494E-1,-0E0,-0E0,-3.535812E-2,-0E0,-1.3051884E-2,1.8633822E-2,-0E0,-0E0,-2.5780035E-2,1.7015962E-2,-0E0,-0E0,3.83591E-2,1.5989771E-3,-4.125308E-3,-0E0,-1.9364E-2,1.2145647E-2,-0E0,2.2905467E-3,-4.703909E-3,-3.8345337E-2,-0E0],"split_indices":[28,20,13,41,21,7,34,2147483647,2147483647,38,24,0,11,28,41,2147483647,2147483647,2147483647,2147483647,2147483647,2147483647,2147483647,2147483647,0,23,49,37,19,0,2147483647,2147483647,2147483647,2147483647,2147483647,2147483647,2147483647,2147483647,29,0,31,36,49,29,2147483647,2147483647,2147483647,2147483647,2147483647,2147483647,2147483647,2147483647,2147483647,2147483647,2147483647,2147483647,2147483647,2147483647,2147483647,2147483647,0,0,2147483647,2147483647,2147483647,2147483647],"split_type":[0,0,0,0,0,0,0,0,0,0,0,0,0,0,0,0,0,0,0,0,0,0,0,0,0,0,0,0,0,0,0,0,0,0,0,0,0,0,0,0,0,0,0,0,0,0,0,0,0,0,0,0,0,0,0,0,0,0,0,0,0,0,0,0,0],"sum_hessian":[2.575E3,3.63E2,2.212E3,1.5E2,2.13E2,8.9E1,2.123E3,6.5E1,8.5E1,1.74E2,3.9E1,2.2E1,6.7E1,2.022E3,1.01E2,4E0,6.1E1,7.2E1,1.3E1,1.31E2,4.3E1,2.8E1,1.1E1,9E0,5.8E1,1.376E3,6.46E2,3.3E1,6.8E1,5.2E1,9E0,1.2E1,6E1,8E0,1.23E2,2.5E1,3E0,5.1E1,7E0,1.316E3,6E1,2.78E2,3.68E2,3E0,3E1,9E0,4.3E1,5.6E1,4E0,1.1E1,1.12E2,2.2E1,3E0,4E0,4.7E1,8.85E2,4.31E2,7E0,5.3E1,2.23E2,5.5E1,2.85E2,8.3E1,2.7E1,3E0],"tree_param":{"num_deleted":"38","num_feature":"50","num_nodes":"65","size_leaf_vector":"0"}},{"base_weights":[-9.379945E-5,4.454665E-3,-3.6052112E-3,-1.4654298E-2,7.5166007E-3,-0E0,-1.2020072E-2,-2.1927182E-2,-0E0,2.4247522E-2,3.733069E-3,-1.2675549E-2,2.9996433E-3,-3.4338463E-2,-5.3044595E-3,-0E0,-3.1848248E-2,-0E0,3.0363254E-2,-7.37274E-3,7.536883E-3,-3.0236954E-2,-0E0,-0E0,1.6733434E-2,-4.9223192E-2,-0E0,-1.1123182E-2,1.0540176E-2,-0E0,-3.37119E-2,-0E0,3.39472E-2,-0E0,-1.4264598E-2,1.1018469E-2,-5.0885063E-3,-4.1093323E-2,-0E0,1.0591011E-2,-6.078836E-3,8.615938E-3,-4.9236882E-3,2.2066198E-2,-0E0,-5.556727E-2,-0E0,-0E0,-1.5906224E-2,2.8281076E-2,-0E0,-0E0,-3.5243373E-2,3.8373787E-2,-0E0,2.9215871E-4,-0E0,-0E0,-2.38908E-2,1.45499045E-2,-0E0,-0E0,-2.5416892E-2,-0E0,-4.8856925E-2,1.943277E-2,-0E0,-1.5952706E-2,-0E0,-4.338894E-3,1.5178584E-2,-0E0,-1.2038661E-2,2.9976869E-2,-0E0,-0E0,-6.425546E-2,1.5635682E-2,-0E0,-2.2108933E-2,-0E0,3.445946E-2,-0E0,-1.1201964E-2,-0E0],"categories":[],"categories_nodes":[],"categories_segments":[],"categories_sizes":[],"default_left":[1,1,1,1,1,1,1,1,1,1,1,1,1,1,1,1,1,1,1,1,1,1,1,1,1,1,0,1,1,1,1,1,1,1,1,1,1,1,1,1,1,1,1,1,1,1,0,1,1,1,1,1,1,1,1,1,1,1,1,0,0,1,1,1,1,1,1,1,1,1,1,1,1,1,1,1,1,1,1,0,0,1,1,1,1],"id":6,"left_children":[1,3,5,-1,9,11,13,-1,-1,-1,19,21,23,25,27,-1,-1,-1,-1,-1,35,-1,-1,-1,-1,45,-1,47,-1,-1,-1,-1,-1,-1,-1,59,-1,-1,-1,-1,-1,-1,-1,-1,-1,-1,-1,-1,79,-1,-1,-1,-1,-1,-1,-1,-1,-1,-1,-1,-1,-1,-1,-1,-1,-1,-1,-1,-1,-1,-1,-1,-1,-1,-1,-1,-1,-1,-1,-1,-1,-1,-1,-1,-1],"loss_changes":[4.086736E-2,5.5419244E-2,5.3184524E-2,1.9031977E-2,3.763993E-2,3.533223E-2,4.6152674E-2,2.3878466E-2,0E0,2.9243208E-2,3.3755865E-2,3.796511E-2,4.147672E-2,5.563826E-2,3.8987897E-2,0E0,3.45508E-3,0E0,1.555445E-2,1.4803121E-2,3.279575E-2,2.6649915E-2,6.438424E-3,2.8861169E-2,1.9961204E-2,3.560078E-2,0E0,2.732033E-2,2.8571405E-2,0E0,2.7667359E-3,0E0,1.9684263E-2,2.6874595E-6,2.3988219E-2,3.18008E-2,2.5051411E-2,1.8952973E-2,0E0,4.398574E-3,8.720542E-3,2.8162608E-2,2.4848321E-2,2.4513178E-2,0E0,2.5844082E-2,0E0,4.030173E-3,3.0017585E-2,1.0894507E-2,2.8215125E-3,0E0,0E0,0E0,0E0,0E0,0E0,0E0,0E0,0E0,0E0,0E0,0E0,0E0,0E0,0E0,0E0,0E0,0E0,0E0,0E0,0E0,0E0,0E0,0E0,0E0,0E0,0E0,0E0,0E0,0E0,0E0,0E0,0E0,0E0],"parents":[2147483647,0,0,1,1,2,2,3,3,4,4,5,5,6,6,7,7,9,9,10,10,11,11,12,12,13,13,14,14,16,16,18,18,19,19,20,20,21,21,22,22,23,23,24,24,25,25,27,27,28,28,30,30,32,32,33,33,34,34,35,35,36,36,37,37,39,39,40,40,41,41,42,42,43,43,45,45,47,47,48,48,49,49,50,50],"right_children":[2,4,6,-1,10,12,14,-1,-1,-1,20,22,24,26,28,-1,-1,-1,-1,-1,36,-1,-1,-1,-1,46,-1,48,-1,-1,-1,-1,-1,-1,-1,60,-1,-1,-1,-1,-1,-1,-1,-1,-1,-1,-1,-1,80,-1,-1,-1,-1,-1,-1,-1,-1,-1,-1,-1,-1,-1,-1,-1,-1,-1,-1,-1,-1,-1,-1,-1,-1,-1,-1,-1,-1,-1,-1,-1,-1,-1,-1,-1,-1],"split_conditions":[4.7046596E-1,8.6428404E-2,5.496695E-1,-8.465145E-3,4.5411885E-2,2.848469E-1,5.1872626E-2,-1.266637E-2,-0E0,1.4006728E-2,1.4592701E-1,2.1177414E-1,6.973772E-1,2.1175954E-1,7.134493E-1,-0E0,-1.8397335E-2,-0E0,1.7539518E-2,-4.2589083E-3,1.0742988E-1,-1.746656E-2,-0E0,-0E0,9.66617E-3,6.596946E-2,-0E0,3.15336E-1,6.088597E-3,-0E0,-1.9473884E-2,-0E0,1.9609807E-2,-0E0,-8.240032E-3,1.9917321E-1,-2.9394065E-3,-2.3737809E-2,-0E0,6.117962E-3,-3.5114766E-3,4.977049E-3,-2.8441986E-3,1.2746674E-2,-0E0,-3.209877E-2,-0E0,-0E0,5.6308273E-2,1.6336735E-2,-0E0,-0E0,-2.035855E-2,2.2166852E-2,-0E0,1.6876726E-4,-0E0,-0E0,-1.3800667E-2,8.404841E-3,-0E0,-0E0,-1.4682222E-2,-0E0,-2.8222501E-2,1.1225458E-2,-0E0,-9.215178E-3,-0E0,-2.5063886E-3,8.768002E-3,-0E0,-6.954206E-3,1.731632E-2,-0E0,-0E0,-3.711756E-2,9.032047E-3,-0E0,-1.277136E-2,-0E0,1.9905718E-2,-0E0,-6.470883E-3,-0E0],"split_indices":[0,49,31,48,13,10,40,2147483647,2147483647,40,13,47,39,48,31,2147483647,2147483647,2147483647,2147483647,14,37,49,41,2,36,41,0,10,45,2147483647,2147483647,2147483647,2147483647,2147483647,2147483647,9,33,2147483647,2147483647,2147483647,2147483647,2147483647,2147483647,2147483647,2147483647,14,0,28,37,2147483647,2147483647,2147483647,2147483647,2147483647,2147483647,2147483647,2147483647,2147483647,2147483647,0,0,2147483647,2147483647,2147483647,2147483647,2147483647,2147483647,2147483647,2147483647,2147483647,2147483647,2147483647,2147483647,2147483647,2147483647,2147483647,2147483647,2147483647,2147483647,0,0,2147483647,2147483647,2147483647,2147483647],"split_type":[0,0,0,0,0,0,0,0,0,0,0,0,0,0,0,0,0,0,0,0,0,0,0,0,0,0,0,0,0,0,0,0,0,0,0,0,0,0,0,0,0,0,0,0,0,0,0,0,0,0,0,0,0,0,0,0,0,0,0,0,0,0,0,0,0,0,0,0,0,0,0,0,0,0,0,0,0,0,0,0,0,0,0,0,0],"sum_hessian":[2.598E3,1.038E3,1.56E3,1.09E2,9.29E2,1.052E3,5.08E2,8.8E1,2.1E1,1.34E2,7.95E2,1.7E2,8.82E2,9.1E1,4.17E2,2.3E1,6.5E1,1.7E1,1.17E2,1.52E2,6.43E2,7.1E1,9.9E1,7.06E2,1.76E2,6.7E1,2.4E1,3.4E2,7.7E1,4E0,6.1E1,1E1,1.07E2,3.9E1,1.13E2,5.51E2,9.2E1,5.4E1,1.7E1,3.6E1,6.3E1,2.34E2,4.72E2,1.42E2,3.4E1,6.4E1,3E0,6.6E1,2.74E2,4.6E1,3.1E1,3E0,5.8E1,9.7E1,1E1,3.1E1,8E0,3.1E1,8.2E1,4.66E2,8.5E1,5E1,4.2E1,8E0,4.6E1,2.2E1,1.4E1,4.3E1,2E1,4E1,1.94E2,2.22E2,2.5E2,1.04E2,3.8E1,1E1,5.4E1,1.6E1,5E1,2.03E2,7.1E1,4E1,6E0,2.2E1,9E0],"tree_param":{"num_deleted":"52","num_feature":"50","num_nodes":"85","size_leaf_vector":"0"}},{"base_weights":[-5.695564E-4,3.851217E-4,-1.1516875E-2,5.191221E-3,-3.7815268E-3,-0E0,-2.0622829E-2,-2.0927237E-5,1.2449849E-2,-0E0,-1.0775836E-2,-0E0,7.701834E-3,-2.4493825E-2,-0E0,5.5882405E-3,-4.536294E-3,-0E0,1.998762E-2,-7.430741E-3,3.7148036E-3,-1.3625152E-2,7.1271793E-3,-0E0,-3.6061374E-3,1.641288E-2,-0E0,-0E0,-2.8489018E-2,-7.952069E-3,1.3431593E-2,-7.907462E-3,1.914096E-4,5.0515127E-3,-9.595646E-3,2.6605649E-2,-0E0,-1.4333567E-2,-0E0,8.949961E-3,-0E0,-1.7481336E-2,-0E0,1.921982E-2,-0E0,-0E0,-6.672039E-3,-0E0,2.4522237E-2,-3.2464296E-2,-0E0,-0E0,-1.1340795E-2,3.4735233E-2,-0E0,-0E0,-1.2118141E-2,-0E0,7.741734E-3,1.6990576E-2,-0E0,-0E0,-1.3454058E-2,3.0719085E-2,-0E0,-0E0,-8.492994E-3,-0E0,-2.7343081E-2,9.001916E-3,-0E0,-0E0,1.3187621E-2,-5.6627262E-3,5.327805E-4,-0E0,-1.882599E-2,8.7165085E-5,-3.9992263E-3,-0E0,2.218718E-2,-9.493859E-3,-0E0,3.1129759E-2,-0E0,-0E0,-3.4426533E-2],"categories":[],"categories_nodes":[],"categories_segments":[],"categories_sizes":[],"default_left":[1,1,1,1,1,1,1,1,1,1,1,1,1,1,1,1,1,1,1,1,1,1,1,1,1,1,1,1,1,1,1,1,1,1,1,1,1,1,1,1,1,1,1,1,1,1,1,1,1,1,1,1,1,0,0,1,1,1,1,1,1,1,1,0,0,1,1,0,0,1,1,1,1,1,1,1,1,1,1,1,1,1,1,1,1,1,1],"id":7,"left_children":[1,3,5,7,9,-1,-1,15,17,19,-1,-1,-1,-1,-1,29,-1,-1,35,37,-1,-1,-1,-1,-1,-1,-1,-1,-1,-1,53,-1,-1,-1,-1,63,-1,67,-1,-1,-1,-1,-1,-1,-1,-1,-1,-1,-1,-1,-1,-1,-1,-1,-1,-1,-1,-1,-1,-1,-1,-1,-1,-1,-1,-1,-1,-1,-1,-1,-1,-1,-1,-1,-1,-1,-1,-1,-1,-1,-1,-1,-1,-1,-1,-1,-1],"loss_changes":[3.5512675E-2,4.75638E-2,3.9475225E-2,5.337721E-2,3.805151E-2,3.8251397E-3,1.8998176E-2,1.4830976E-2,5.0921485E-2,1.6499426E-2,2.89599E-2,3.574217E-4,7.0808283E-3,2.0349935E-2,0E0,2.548633E-2,1.2472256E-2,9.9983215E-3,5.9378996E-2,1.9148853E-2,1.6873017E-2,2.0378225E-2,6.4896597E-3,0E0,6.88041E-4,1.163529E-2,0E0,0E0,2.4797343E-2,1.1013334E-3,3.280502E-2,1.8240277E-2,3.0827785E-3,1.5684567E-2,5.0015245E-3,3.7593618E-2,3.0644864E-3,3.8451053E-2,1.5789606E-3,1.897156E-2,4.527989E-3,1.3897702E-2,6.799952E-4,1.163044E-3,0E0,0E0,8.0092263E-4,0E0,7.0006307E-3,1.2648657E-2,0E0,0E0,0E0,0E0,0E0,0E0,0E0,0E0,0E0,0E0,0E0,0E0,0E0,0E0,0E0,0E0,0E0,0E0,0E0,0E0,0E0,0E0,0E0,0E0,0E0,0E0,0E0,0E0,0E0,0E0,0E0,0E0,0E0,0E0,0E0,0E0,0E0],"parents":[2147483647,0,0,1,1,2,2,3,3,4,4,5,5,6,6,7,7,8,8,9,9,10,10,11,11,12,12,13,13,15,15,16,16,17,17,18,18,19,19,20,20,21,21,22,22,24,24,25,25,28,28,29,29,30,30,31,31,32,32,33,33,34,34,35,35,36,36,37,37,38,38,39,39,40,40,41,41,42,42,43,43,46,46,48,48,49,49],"right_children":[2,4,6,8,10,-1,-1,16,18,20,-1,-1,-1,-1,-1,30,-1,-1,36,38,-1,-1,-1,-1,-1,-1,-1,-1,-1,-1,54,-1,-1,-1,-1,64,-1,68,-1,-1,-1,-1,-1,-1,-1,-1,-1,-1,-1,-1,-1,-1,-1,-1,-1,-1,-1,-1,-1,-1,-1,-1,-1,-1,-1,-1,-1,-1,-1,-1,-1,-1,-1,-1,-1,-1,-1,-1,-1,-1,-1,-1,-1,-1,-1,-1,-1],"split_conditions":[6.900146E-1,3.0154043E-1,5.7838756E-1,1.0397544E-1,5.604923E-1,-0E0,-1.1912903E-2,8.660196E-2,6.648749E-1,2.7767298E-1,-6.2247273E-3,-0E0,4.4490113E-3,-1.4149007E-2,-0E0,2.5067743E-2,-2.6204179E-3,-0E0,2.1525705E-1,4.547106E-1,2.145879E-3,-7.870653E-3,4.1170586E-3,-0E0,-2.0831071E-3,9.481E-3,-0E0,-0E0,-1.6456855E-2,-4.593561E-3,4.549458E-1,-4.5677936E-3,1.1056892E-4,2.9180371E-3,-5.5429833E-3,5.92911E-1,-0E0,1.2912098E-1,-0E0,5.1699993E-3,-0E0,-1.00982E-2,-0E0,1.1102445E-2,-0E0,-0E0,-3.8541441E-3,-0E0,1.416542E-2,-1.8753199E-2,-0E0,-0E0,-6.5510795E-3,2.0065019E-2,-0E0,-0E0,-7.000118E-3,-0E0,4.4720597E-3,9.814709E-3,-0E0,-0E0,-7.7718184E-3,1.7745066E-2,-0E0,-0E0,-4.90603E-3,-0E0,-1.5794897E-2,5.2000117E-3,-0E0,-0E0,7.6179095E-3,-3.2711083E-3,3.077639E-4,-0E0,-1.08749475E-2,5.0351442E-5,-2.3101773E-3,-0E0,1.281656E-2,-5.484185E-3,-0E0,1.7982295E-2,-0E0,-0E0,-1.9886697E-2],"split_indices":[32,40,39,34,39,20,23,27,39,41,14,2147483647,2147483647,2147483647,2147483647,40,10,39,9,32,2,2147483647,2147483647,2147483647,2147483647,2147483647,2147483647,2147483647,2147483647,40,25,2147483647,2147483647,2147483647,2147483647,27,34,45,20,2147483647,2147483647,2147483647,2147483647,2147483647,2147483647,2147483647,2147483647,2147483647,2147483647,2147483647,2147483647,2147483647,2147483647,0,0,2147483647,2147483647,2147483647,2147483647,2147483647,2147483647,2147483647,2147483647,0,0,2147483647,2147483647,0,0,2147483647,2147483647,2147483647,2147483647,2147483647,2147483647,2147483647,2147483647,2147483647,2147483647,2147483647,2147483647,2147483647,2147483647,2147483647,2147483647,2147483647,2147483647],"split_type":[0,0,0,0,0,0,0,0,0,0,0,0,0,0,0,0,0,0,0,0,0,0,0,0,0,0,0,0,0,0,0,0,0,0,0,0,0,0,0,0,0,0,0,0,0,0,0,0,0,0,0,0,0,0,0,0,0,0,0,0,0,0,0,0,0,0,0,0,0,0,0,0,0,0,0,0,0,0,0,0,0,0,0,0,0,0,0],"sum_hessian":[2.592E3,2.321E3,2.71E2,1.162E3,1.159E3,9.4E1,1.77E2,6.16E2,5.46E2,6.89E2,4.7E2,3E1,6.4E1,1.57E2,2E1,2E2,4.16E2,2.07E2,3.39E2,1.68E2,5.21E2,4.42E2,2.8E1,3E0,2.7E1,4E1,2.4E1,1.6E1,1.41E2,3.8E1,1.62E2,3.36E2,8E1,1.37E2,7E1,2.75E2,6.4E1,1.38E2,3E1,3E2,2.21E2,3.35E2,1.07E2,2.1E1,7E0,4E0,2.3E1,3E0,3.7E1,1.32E2,9E0,1.1E1,2.7E1,5.1E1,1.11E2,6.9E1,2.67E2,2.9E1,5.1E1,6.6E1,7.1E1,7E0,6.3E1,2.46E2,2.9E1,2.2E1,4.2E1,4.9E1,8.9E1,1.9E1,1.1E1,5.3E1,2.47E2,1.4E2,8.1E1,7E0,3.28E2,6.5E1,4.2E1,3E0,1.8E1,2E1,3E0,3E1,7E0,4E0,1.28E2],"tree_param":{"num_deleted":"58","num_feature":"50","num_nodes":"87","size_leaf_vector":"0"}},{"base_weights":[-0E0,2.962652E-3,-3.071415E-3,6.506616E-4,1.9658709E-2,-9.705974E-3,-0E0,-3.2931456E-4,1.3612806E-2,2.7395949E-2,-0E0,-1.4300121E-2,2.6940152E-3,3.7898554E-3,-1.0701124E-2,-3.438389E-3,6.389865E-3,-0E0,2.903421E-2,3.9779324E-2,-0E0,-1.7498376E-2,-0E0,1.79437E-2,-0E0,-5.414648E-3,7.662591E-3,-0E0,-2.9191546E-2,-0E0,-8.696219E-3,1.4497446E-2,-0E0,-0E0,2.0964814E-3,-0E0,4.0676612E-2,4.499092E-2,-0E0,-0E0,-2.1400316E-2,-0E0,2.126733E-2,-0E0,-1.226612E-2,-1.103677E-3,1.615087E-2,2.308352E-3,-0E0,-3.7204925E-2,-0E0,2.5519632E-2,-3.645408E-3,-0E0,-2.3318876E-2,2.0048961E-2,-0E0,-0E0,-9.536107E-3,-0E0,-6.83408E-3,-0E0,1.3855514E-2,-0E0,4.9312346E-2,4.7413666E-2,-0E0,-0E0,4.6273865E-4,-0E0,-2.7000066E-2,2.3753677E-2,-0E0,-0E0,-1.4678797E-2,1.91776E-3,-9.725247E-3,1.9067384E-2,-0E0,5.770763E-3,-0E0,-6.0086437E-3,-0E0,-4.207194E-2,-0E0],"categories":[],"categories_nodes":[],"categories_segments":[],"categories_sizes":[],"default_left":[1,1,1,1,1,1,1,1,1,1,1,1,1,1,1,1,1,1,1,1,1,1,1,1,1,1,1,1,1,1,1,1,1,1,1,1,1,1,1,1,1,1,1,1,1,1,1,1,1,1,1,0,0,0,0,1,1,1,1,1,1,1,1,1,1,1,1,1,1,1,1,1,1,1,1,1,1,1,1,1,1,1,1,1,1],"id":8,"left_children":[1,3,5,7,-1,11,13,15,-1,-1,-1,-1,-1,25,27,29,-1,-1,-1,-1,-1,-1,-1,-1,-1,-1,45,-1,-1,51,53,-1,-1,-1,-1,-1,-1,-1,-1,-1,-1,-1,-1,-1,-1,-1,-1,-1,-1,-1,-1,-1,-1,-1,-1,-1,-1,-1,-1,-1,-1,-1,-1,-1,-1,-1,-1,-1,-1,-1,-1,-1,-1,-1,-1,-1,-1,-1,-1,-1,-1,-1,-1,-1,-1],"loss_changes":[2.3487022E-2,3.80432E-2,2.8927878E-2,2.5992919E-2,2.5762897E-2,3.314605E-2,2.8319664E-2,2.1040406E-2,2.6270287E-2,2.0293348E-2,0E0,2.0026185E-2,7.364786E-3,2.3267496E-2,4.1278273E-2,1.908775E-2,2.374299E-2,1.208032E-4,1.9275807E-2,1.6600668E-2,0E0,2.6370198E-2,0E0,1.8340638E-3,0E0,1.0804711E-2,4.7361284E-2,3.222938E-4,2.1423861E-2,5.2302133E-2,4.2496856E-2,2.1478333E-2,6.227848E-3,1.1435653E-3,3.2358922E-3,0E0,1.6771168E-2,5.677432E-3,0E0,7.812435E-6,2.0298034E-2,0E0,7.122783E-4,0E0,4.4836868E-3,1.09780505E-2,2.100876E-2,1.1591339E-3,9.923144E-4,1.2331508E-2,0E0,0E0,0E0,0E0,0E0,0E0,0E0,0E0,0E0,0E0,0E0,0E0,0E0,0E0,0E0,0E0,0E0,0E0,0E0,0E0,0E0,0E0,0E0,0E0,0E0,0E0,0E0,0E0,0E0,0E0,0E0,0E0,0E0,0E0,0E0],"parents":[2147483647,0,0,1,1,2,2,3,3,4,4,5,5,6,6,7,7,8,8,9,9,11,11,12,12,13,13,14,14,15,15,16,16,17,17,18,18,19,19,21,21,23,23,25,25,26,26,27,27,28,28,29,29,30,30,31,31,32,32,33,33,34,34,36,36,37,37,39,39,40,40,42,42,44,44,45,45,46,46,47,47,48,48,49,49],"right_children":[2,4,6,8,-1,12,14,16,-1,-1,-1,-1,-1,26,28,30,-1,-1,-1,-1,-1,-1,-1,-1,-1,-1,46,-1,-1,52,54,-1,-1,-1,-1,-1,-1,-1,-1,-1,-1,-1,-1,-1,-1,-1,-1,-1,-1,-1,-1,-1,-1,-1,-1,-1,-1,-1,-1,-1,-1,-1,-1,-1,-1,-1,-1,-1,-1,-1,-1,-1,-1,-1,-1,-1,-1,-1,-1,-1,-1,-1,-1,-1,-1],"split_conditions":[4.5062986E-1,2.9001105E-1,2.1159165E-1,6.949052E-1,1.1355973E-2,7.6183724E-1,4.7461352E-1,2.8776917E-1,7.863521E-3,1.5825437E-2,-0E0,-8.260552E-3,1.5562143E-3,1.3310128E-1,1.7534128E-1,3.8364637E-1,3.6911445E-3,-0E0,1.6771788E-2,2.297877E-2,-0E0,-1.0108043E-2,-0E0,1.0365288E-2,-0E0,-3.1278045E-3,5.1705515E-1,-0E0,-1.6862674E-2,8.9037335E-1,6.0346186E-1,8.374538E-3,-0E0,-0E0,1.2110452E-3,-0E0,2.3497093E-2,2.598928E-2,-0E0,-0E0,-1.2362023E-2,-0E0,1.2285203E-2,-0E0,-7.085599E-3,-6.375457E-4,9.329648E-3,1.3334336E-3,-0E0,-2.1491652E-2,-0E0,1.4741571E-2,-2.105792E-3,-0E0,-1.347029E-2,1.1581404E-2,-0E0,-0E0,-5.5085905E-3,-0E0,-3.947748E-3,-0E0,8.003722E-3,-0E0,2.8485578E-2,2.7388792E-2,-0E0,-0E0,2.673038E-4,-0E0,-1.5596752E-2,1.3721456E-2,-0E0,-0E0,-8.479296E-3,1.1078058E-3,-5.617848E-3,1.1014391E-2,-0E0,3.3335164E-3,-0E0,-3.4709296E-3,-0E0,-2.4303112E-2,-0E0],"split_indices":[19,20,47,4,4,4,20,26,38,2147483647,2147483647,43,0,43,43,7,7,2147483647,2147483647,2147483647,2147483647,2147483647,2147483647,2147483647,2147483647,29,12,13,29,46,11,2147483647,2147483647,2147483647,2147483647,2147483647,2147483647,2147483647,2147483647,2147483647,2147483647,2147483647,2147483647,2147483647,2147483647,43,25,2147483647,2147483647,2147483647,2147483647,0,0,0,0,2147483647,2147483647,2147483647,2147483647,2147483647,2147483647,2147483647,2147483647,2147483647,2147483647,2147483647,2147483647,2147483647,2147483647,2147483647,2147483647,2147483647,2147483647,2147483647,2147483647,2147483647,2147483647,2147483647,2147483647,2147483647,2147483647,2147483647,2147483647,2147483647,2147483647],"split_type":[0,0,0,0,0,0,0,0,0,0,0,0,0,0,0,0,0,0,0,0,0,0,0,0,0,0,0,0,0,0,0,0,0,0,0,0,0,0,0,0,0,0,0,0,0,0,0,0,0,0,0,0,0,0,0,0,0,0,0,0,0,0,0,0,0,0,0,0,0,0,0,0,0,0,0,0,0,0,0,0,0,0,0,0,0],"sum_hessian":[2.585E3,1.383E3,1.202E3,1.255E3,1.28E2,4.27E2,7.75E2,1.113E3,1.42E2,1E2,2.8E1,3.56E2,7.1E1,6.04E2,1.71E2,8.38E2,2.75E2,8E1,6.2E1,6E1,4E1,3.03E2,5.3E1,2.4E1,4.7E1,1.21E2,4.83E2,1E2,7.1E1,4.55E2,3.83E2,1.66E2,1.09E2,5.3E1,2.7E1,1.9E1,4.3E1,5.5E1,5E0,4.3E1,2.6E2,3E0,2.1E1,2.6E1,9.5E1,1.94E2,2.89E2,6E1,4E1,5.9E1,1.2E1,7.2E1,3.83E2,2.52E2,1.31E2,1.4E2,2.6E1,4.1E1,6.8E1,2.9E1,2.4E1,1E1,1.7E1,7E0,3.6E1,5.2E1,3E0,7E0,3.6E1,6.9E1,1.91E2,1.8E1,3E0,8E0,8.7E1,7.9E1,1.15E2,2.65E2,2.4E1,4.4E1,1.6E1,2.7E1,1.3E1,5.3E1,6E0],"tree_param":{"num_deleted":"58","num_feature":"50","num_nodes":"85","size_leaf_vector":"0"}},{"base_weights":[-0E0,-1.423541E-2,7.6708646E-4,-1.9063784E-2,-0E0,-1.4092013E-2,1.693408E-3,-0E0,-2.7329264E-2,-0E0,1.7922828E-3,-0E0,-2.0860119E-2,8.165317E-3,-0E0,-4.2358246E-2,-0E0,-0E0,-2.653793E-2,1.7468851E-2,-0E0,6.154684E-3,-1.6328458E-3,-4.61214E-2,-0E0,-0E0,-2.8567912E-2,-0E0,2.5382187E-2,-1.7319954E-3,8.118048E-3,1.0724712E-2,-0E0,-0E0,-9.327244E-3,-4.9459666E-2,-0E0,-3.1168688E-2,-0E0,-3.900255E-3,2.4538026E-3,-0E0,3.1515766E-2,-1.1061399E-2,-0E0,1.6434172E-2,-0E0,-0E0,1.648214E-2,-7.1239085E-3,-0E0,2.6141817E-3,-5.6955167E-3,-0E0,-1.3076619E-2],"categories":[],"categories_nodes":[],"categories_segments":[],"categories_sizes":[],"default_left":[1,1,1,1,1,1,1,1,1,1,1,1,1,1,1,1,1,1,1,1,1,1,1,1,1,1,1,1,1,1,1,1,1,1,1,1,1,1,1,1,1,0,0,1,1,1,1,1,1,1,1,1,1,1,1],"id":9,"left_children":[1,-1,5,-1,-1,-1,13,-1,-1,-1,-1,-1,-1,19,-1,-1,-1,-1,-1,27,-1,-1,-1,-1,-1,-1,-1,-1,41,-1,-1,-1,-1,-1,-1,-1,-1,-1,-1,-1,-1,-1,-1,-1,-1,-1,-1,-1,-1,-1,-1,-1,-1,-1,-1],"loss_changes":[2.7079016E-2,1.56118255E-2,2.4490854E-2,1.662907E-2,2.0831749E-5,1.194586E-2,2.8791118E-2,0E0,1.8354855E-2,0E0,0E0,0E0,7.2654057E-3,3.8123034E-2,1.68011E-2,7.7643692E-3,0E0,0E0,2.0142756E-3,3.356713E-2,4.998053E-3,1.5298674E-2,2.311917E-2,5.2599236E-3,0E0,0E0,1.8591508E-3,7.3761016E-4,3.1283706E-2,9.042946E-3,9.319461E-3,1.9551896E-2,3.4756206E-3,1.6155502E-2,1.8469987E-2,0E0,0E0,0E0,0E0,0E0,0E0,0E0,0E0,0E0,0E0,0E0,0E0,0E0,0E0,0E0,0E0,0E0,0E0,0E0,0E0],"parents":[2147483647,0,0,1,1,2,2,3,3,4,4,5,5,6,6,8,8,12,12,13,13,14,14,15,15,18,18,19,19,20,20,21,21,22,22,23,23,26,26,27,27,28,28,29,29,30,30,31,31,32,32,33,33,34,34],"right_children":[2,-1,6,-1,-1,-1,14,-1,-1,-1,-1,-1,-1,20,-1,-1,-1,-1,-1,28,-1,-1,-1,-1,-1,-1,-1,-1,42,-1,-1,-1,-1,-1,-1,-1,-1,-1,-1,-1,-1,-1,-1,-1,-1,-1,-1,-1,-1,-1,-1,-1,-1,-1,-1],"split_conditions":[2.5863105E-1,-8.223171E-3,2.0651855E-1,-1.1012311E-2,-0E0,-8.140338E-3,1.7520752E-2,-0E0,-1.5786916E-2,-0E0,1.035323E-3,-0E0,-1.2049975E-2,4.2461318E-1,-0E0,-2.4468498E-2,-0E0,-0E0,-1.5329797E-2,5.2701813E-1,-0E0,3.5552906E-3,-9.4322336E-4,-2.6642308E-2,-0E0,-0E0,-1.6502429E-2,-0E0,3.2173687E-1,-1.0004977E-3,4.68944E-3,6.1951955E-3,-0E0,-0E0,-5.3879395E-3,-2.8570678E-2,-0E0,-1.8004782E-2,-0E0,-2.2530062E-3,1.417454E-3,-0E0,1.8205274E-2,-6.3896845E-3,-0E0,9.4933E-3,-0E0,-0E0,9.521009E-3,-4.115169E-3,-0E0,1.510098E-3,-3.29005E-3,-0E0,-7.553789E-3],"split_indices":[38,32,7,2147483647,2147483647,38,2,2147483647,2147483647,2147483647,2147483647,2147483647,2147483647,32,22,2147483647,2147483647,2147483647,2147483647,38,13,2147483647,2147483647,2147483647,2147483647,2147483647,2147483647,26,11,2147483647,2147483647,2147483647,2147483647,2147483647,2147483647,2147483647,2147483647,2147483647,2147483647,2147483647,2147483647,0,0,2147483647,2147483647,2147483647,2147483647,2147483647,2147483647,2147483647,2147483647,2147483647,2147483647,2147483647,2147483647],"split_type":[0,0,0,0,0,0,0,0,0,0,0,0,0,0,0,0,0,0,0,0,0,0,0,0,0,0,0,0,0,0,0,0,0,0,0,0,0,0,0,0,0,0,0,0,0,0,0,0,0,0,0,0,0,0,0],"sum_hessian":[2.585E3,1.26E2,2.459E3,1.13E2,1.3E1,9.6E1,2.363E3,3.6E1,7.7E1,7E0,6E0,2.5E1,7.1E1,5.33E2,1.83E3,4.2E1,3.5E1,1.7E1,5.4E1,2.41E2,2.92E2,3.38E2,1.492E3,3.9E1,3E0,5E0,4.9E1,7.5E1,1.66E2,2.27E2,6.5E1,2.44E2,9.4E1,1.181E3,3.11E2,3.6E1,3E0,4.3E1,6E0,3E1,4.5E1,2.7E1,1.39E2,7.9E1,1.48E2,5E1,1.5E1,6.9E1,1.75E2,6.8E1,2.6E1,8.66E2,3.15E2,4.5E1,2.66E2],"tree_param":{"num_deleted":"42","num_feature":"50","num_nodes":"55","size_leaf_vector":"0"}},{"base_weights":[-3.1080155E-5,-1.3580413E-3,9.468631E-3,-5.3334073E-3,8.680431E-4,3.166626E-2,-0E0,-0E0,-8.529485E-3,1.9768935E-3,-3.100423E-2,3.769868E-2,-0E0,-1.8059237E-2,7.0641953E-3,-1.2448917E-2,1.3766713E-2,-3.0761374E-2,-3.5379021E-3,3.6722491E-3,-6.5976554E-3,-4.5211397E-2,-0E0,-0E0,4.2728763E-2,-0E0,-3.1157672E-2,-0E0,1.1870026E-2,-0E0,-2.4941223E-2,-0E0,3.1004285E-2,-0E0,-3.521223E-2,4.4073383E-3,-9.092866E-3,-3.0153727E-3,6.241214E-3,-0E0,-1.0602837E-2,-0E0,-4.9755376E-2,-0E0,4.70353E-2,-0E0,-3.9709922E-2,-0E0,1.5101379E-2,-4.658853E-3,2.1125618E-3,-0E0,-2.8220937E-2,2.2618227E-2,-3.118419E-3,5.14774E-2,-0E0,-4.1775964E-2,-0E0,1.2433158E-2,-2.7750878E-4,-0E0,-1.463299E-2,-0E0,-3.0736051E-2,9.326438E-3,-2.0521113E-3,-0E0,-1.832649E-2,-0E0,4.8990194E-2,-0E0,-4.2525146E-2,1.8306458E-2,-0E0],"categories":[],"categories_nodes":[],"categories_segments":[],"categories_sizes":[],"default_left":[1,1,1,1,1,1,1,1,1,1,1,1,1,1,1,1,1,1,1,1,1,1,1,1,1,1,1,1,1,1,1,1,1,1,1,1,1,1,1,1,1,1,1,1,1,1,1,1,1,1,1,1,1,1,1,1,1,1,1,1,1,1,1,1,1,0,0,1,1,1,1,1,1,1,1],"id":10,"left_children":[1,3,5,7,9,-1,-1,15,17,19,-1,-1,-1,-1,-1,-1,-1,-1,-1,37,-1,-1,-1,-1,-1,-1,-1,-1,-1,-1,-1,-1,-1,-1,-1,-1,-1,-1,65,-1,-1,-1,-1,-1,-1,-1,-1,-1,-1,-1,-1,-1,-1,-1,-1,-1,-1,-1,-1,-1,-1,-1,-1,-1,-1,-1,-1,-1,-1,-1,-1,-1,-1,-1,-1],"loss_changes":[2.6504109E-2,2.4099205E-2,5.450727E-2,1.798175E-2,2.6837135E-2,2.2055946E-2,2.2803675E-2,5.8507673E-2,4.3205228E-2,1.7519131E-2,1.3165368E-2,1.8981911E-2,0E0,2.057017E-2,4.6231053E-3,2.0380585E-2,2.9094305E-2,2.043578E-2,2.7284065E-2,2.3175722E-2,5.757853E-3,1.1847913E-4,0E0,0E0,9.441882E-3,0E0,1.2286771E-2,0E0,5.2105226E-3,1.5963463E-3,9.9756345E-3,1.4322282E-2,1.7107084E-2,0E0,2.0739391E-2,1.5414009E-2,2.6477927E-2,1.5158102E-2,2.9905561E-2,0E0,8.677912E-3,0E0,0E0,0E0,3.5909563E-3,0E0,1.8639341E-3,0E0,4.423959E-3,0E0,0E0,0E0,0E0,0E0,0E0,0E0,0E0,0E0,0E0,0E0,0E0,0E0,0E0,0E0,0E0,0E0,0E0,0E0,0E0,0E0,0E0,0E0,0E0,0E0,0E0],"parents":[2147483647,0,0,1,1,2,2,3,3,4,4,5,5,6,6,7,7,8,8,9,9,10,10,11,11,13,13,14,14,15,15,16,16,17,17,18,18,19,19,20,20,21,21,24,24,26,26,28,28,29,29,30,30,31,31,32,32,34,34,35,35,36,36,37,37,38,38,40,40,44,44,46,46,48,48],"right_children":[2,4,6,8,10,-1,-1,16,18,20,-1,-1,-1,-1,-1,-1,-1,-1,-1,38,-1,-1,-1,-1,-1,-1,-1,-1,-1,-1,-1,-1,-1,-1,-1,-1,-1,-1,66,-1,-1,-1,-1,-1,-1,-1,-1,-1,-1,-1,-1,-1,-1,-1,-1,-1,-1,-1,-1,-1,-1,-1,-1,-1,-1,-1,-1,-1,-1,-1,-1,-1,-1,-1,-1],"split_conditions":[2.7083814E-1,5.071478E-1,1.994901E-1,1.8801168E-1,3.501856E-1,1.8292207E-2,-0E0,1.4784297E-1,2.0937428E-1,7.762322E-1,-1.7909782E-2,2.1776872E-2,-0E0,-1.0432028E-2,4.0806755E-3,-7.191193E-3,7.952426E-3,-1.7769495E-2,-2.0436908E-3,4.8670232E-1,-3.8111757E-3,-2.611664E-2,-0E0,-0E0,2.4682531E-2,-0E0,-1.799842E-2,-0E0,6.8567926E-3,-0E0,-1.4407449E-2,-0E0,1.7909814E-2,-0E0,-2.034056E-2,2.5459258E-3,-5.25255E-3,-1.7418484E-3,7.0702314E-1,-0E0,-6.1247936E-3,-0E0,-2.8741496E-2,-0E0,2.7170228E-2,-0E0,-2.2938678E-2,-0E0,8.723403E-3,-2.691215E-3,1.2203342E-3,-0E0,-1.6301995E-2,1.3065556E-2,-1.8013738E-3,2.9736232E-2,-0E0,-2.413214E-2,-0E0,7.1820896E-3,-1.6030464E-4,-0E0,-8.4528355E-3,-0E0,-1.7754868E-2,5.387474E-3,-1.1854146E-3,-0E0,-1.0586408E-2,-0E0,2.8299484E-2,-0E0,-2.4564909E-2,1.0574837E-2,-0E0],"split_indices":[48,21,47,49,37,10,44,49,49,44,28,2147483647,2147483647,2147483647,2147483647,6,44,41,15,15,42,2147483647,2147483647,2147483647,2147483647,2147483647,2147483647,2147483647,2147483647,2147483647,2147483647,2147483647,2147483647,2147483647,2147483647,2147483647,2147483647,44,7,2147483647,2147483647,2147483647,2147483647,2147483647,2147483647,2147483647,2147483647,2147483647,2147483647,2147483647,2147483647,2147483647,2147483647,2147483647,2147483647,2147483647,2147483647,2147483647,2147483647,2147483647,2147483647,2147483647,2147483647,2147483647,2147483647,0,0,2147483647,2147483647,2147483647,2147483647,2147483647,2147483647,2147483647,2147483647],"split_type":[0,0,0,0,0,0,0,0,0,0,0,0,0,0,0,0,0,0,0,0,0,0,0,0,0,0,0,0,0,0,0,0,0,0,0,0,0,0,0,0,0,0,0,0,0,0,0,0,0,0,0,0,0,0,0,0,0,0,0,0,0,0,0,0,0,0,0,0,0,0,0,0,0,0,0],"sum_hessian":[2.588E3,2.341E3,2.47E2,9.62E2,1.379E3,7.6E1,1.71E2,3.39E2,6.23E2,1.356E3,2.3E1,6.9E1,7E0,5.1E1,1.2E2,1.71E2,1.68E2,8.6E1,5.37E2,1.206E3,1.5E2,1.7E1,6E0,5E0,6.4E1,1.3E1,3.8E1,4.5E1,7.5E1,9.6E1,7.5E1,1.05E2,6.3E1,4E0,8.2E1,1.65E2,3.72E2,2.53E2,9.53E2,4.1E1,1.09E2,3E0,1.4E1,7E0,5.7E1,7E0,3.1E1,6E0,6.9E1,6.7E1,2.9E1,4E0,7.1E1,2.6E1,7.9E1,2.9E1,3.4E1,7E1,1.2E1,1.2E2,4.5E1,1.05E2,2.67E2,2.35E2,1.8E1,7.61E2,1.92E2,4.7E1,6.2E1,3E0,5.4E1,3E0,2.8E1,6E1,9E0],"tree_param":{"num_deleted":"54","num_feature":"50","num_nodes":"75","size_leaf_vector":"0"}},{"base_weights":[-5.9651607E-4,-9.85573E-3,1.2908301E-4,-0E0,-2.6511133E-2,1.5286426E-3,-8.910902E-3,-4.672592E-3,1.4974138E-2,-3.494221E-2,-0E0,4.5932294E-3,-1.2228395E-3,-1.5699612E-2,-0E0,-1.3744182E-2,-0E0,-0E0,2.107197E-2,-3.9206453E-2,-0E0,-3.5458412E-3,7.509146E-3,-6.538575E-3,3.6154406E-3,-2.5336381E-2,-0E0,-0E0,6.02898E-3,-0E0,-3.034394E-2,1.4690466E-3,-0E0,2.310714E-2,-0E0,-0E0,-4.145313E-2,-1.0545287E-2,-0E0,1.4049083E-2,-0E0,-1.1422707E-2,-0E0,-0E0,9.281756E-3,-0E0,-3.9689835E-2,-1.9468021E-3,-0E0,-0E0,-6.13786E-3,-0E0,1.1497303E-2,-3.5989545E-2,-0E0,-0E0,1.4623447E-2,-4.461236E-2,-0E0,-1.908175E-2,-0E0,-9.810254E-4,5.4379567E-3,1.8276323E-2,-0E0,-3.5970306E-3,6.9623278E-3,-1.8490948E-2,-0E0,-5.267761E-4,8.073565E-3,-4.0297313E-3,1.252237E-3,1.663753E-2,-0E0,-3.740062E-3,-0E0,-4.4285018E-2,-0E0,-0E0,-8.495449E-3,-8.973157E-3,-0E0,-0E0,1.5411932E-2],"categories":[],"categories_nodes":[],"categories_segments":[],"categories_sizes":[],"default_left":[1,1,1,1,1,1,1,1,1,1,1,1,1,1,1,1,1,1,1,1,1,1,1,1,1,1,1,1,1,1,1,1,1,1,1,1,1,1,1,1,1,1,1,1,1,1,1,1,1,1,1,1,1,1,1,1,1,1,1,1,1,1,1,1,1,1,1,0,0,1,1,1,1,1,1,1,1,1,1,1,1,1,1,1,1],"id":11,"left_children":[1,3,5,-1,-1,11,-1,-1,-1,-1,-1,21,23,-1,-1,-1,-1,-1,-1,-1,-1,-1,39,41,-1,-1,-1,-1,-1,-1,-1,-1,-1,-1,-1,-1,-1,-1,-1,-1,-1,67,-1,-1,-1,-1,-1,-1,-1,-1,-1,-1,-1,-1,-1,-1,-1,-1,-1,-1,-1,-1,-1,-1,-1,-1,-1,-1,-1,-1,-1,-1,-1,-1,-1,-1,-1,-1,-1,-1,-1,-1,-1,-1,-1],"loss_changes":[2.4805482E-2,4.704257E-2,2.3948584E-2,1.2742106E-2,2.4314448E-2,2.0203464E-2,1.9967524E-2,1.1149377E-2,6.8895575E-3,1.12978965E-2,0E0,2.9601622E-2,2.7258547E-2,1.3244826E-2,1.2898315E-3,1.8980412E-2,8.089639E-5,0E0,1.3245046E-3,7.6179504E-3,0E0,8.202877E-3,4.346851E-2,2.310027E-2,1.2957996E-2,1.1467524E-2,1.3448967E-4,1.0731261E-3,2.8721117E-3,0E0,5.517397E-3,4.941267E-3,0E0,0E0,0E0,0E0,4.417382E-3,1.132447E-2,1.7687095E-3,2.8565086E-2,1.0590764E-2,3.234231E-2,4.691339E-3,2.3179154E-3,1.9406477E-2,3.7047444E-4,9.738885E-3,1.7770058E-3,0E0,0E0,8.983492E-4,0E0,2.6040417E-3,0E0,0E0,0E0,0E0,0E0,0E0,0E0,0E0,0E0,0E0,0E0,0E0,0E0,0E0,0E0,0E0,0E0,0E0,0E0,0E0,0E0,0E0,0E0,0E0,0E0,0E0,0E0,0E0,0E0,0E0,0E0,0E0],"parents":[2147483647,0,0,1,1,2,2,3,3,4,4,5,5,6,6,7,7,8,8,9,9,11,11,12,12,13,13,14,14,15,15,16,16,18,18,19,19,21,21,22,22,23,23,24,24,25,25,26,26,27,27,28,28,30,30,31,31,36,36,37,37,38,38,39,39,40,40,41,41,42,42,43,43,44,44,45,45,46,46,47,47,50,50,52,52],"right_children":[2,4,6,-1,-1,12,-1,-1,-1,-1,-1,22,24,-1,-1,-1,-1,-1,-1,-1,-1,-1,40,42,-1,-1,-1,-1,-1,-1,-1,-1,-1,-1,-1,-1,-1,-1,-1,-1,-1,68,-1,-1,-1,-1,-1,-1,-1,-1,-1,-1,-1,-1,-1,-1,-1,-1,-1,-1,-1,-1,-1,-1,-1,-1,-1,-1,-1,-1,-1,-1,-1,-1,-1,-1,-1,-1,-1,-1,-1,-1,-1,-1,-1],"split_conditions":[7.331352E-2,4.928871E-2,8.2612926E-1,-0E0,-1.5314317E-2,6.385555E-1,-5.1474366E-3,-2.6991512E-3,8.6499015E-3,-2.018458E-2,-0E0,2.2153404E-1,6.140112E-1,-9.068976E-3,-0E0,-7.93941E-3,-0E0,-0E0,1.21723525E-2,-2.2647846E-2,-0E0,-2.0482768E-3,3.4954956E-1,8.6309826E-1,2.0884813E-3,-1.4635715E-2,-0E0,-0E0,3.482677E-3,-0E0,-1.7528363E-2,8.486037E-4,-0E0,1.334798E-2,-0E0,-0E0,-2.3945654E-2,-6.0915495E-3,-0E0,8.115538E-3,-0E0,2.4025685E-1,-0E0,-0E0,5.361663E-3,-0E0,-2.2927076E-2,-1.1245821E-3,-0E0,-0E0,-3.5455723E-3,-0E0,6.641487E-3,-2.078958E-2,-0E0,-0E0,8.447323E-3,-2.57706E-2,-0E0,-1.102269E-2,-0E0,-5.666953E-4,3.1412689E-3,1.0557429E-2,-0E0,-2.0778466E-3,4.021831E-3,-1.0681408E-2,-0E0,-3.0429542E-4,4.6637435E-3,-2.3277989E-3,7.233623E-4,9.61077E-3,-0E0,-2.1604695E-3,-0E0,-2.558151E-2,-0E0,-0E0,-4.907448E-3,-5.1833987E-3,-0E0,-0E0,8.902797E-3],"split_indices":[46,46,17,15,17,5,42,2147483647,2147483647,2147483647,2147483647,21,8,2147483647,2147483647,2147483647,2147483647,2147483647,2147483647,2147483647,2147483647,32,19,5,23,2147483647,2147483647,2147483647,2147483647,2147483647,2147483647,2147483647,2147483647,2147483647,2147483647,2147483647,2147483647,2147483647,2147483647,3,34,30,3,2147483647,2147483647,2147483647,2147483647,2147483647,2147483647,2147483647,2147483647,2147483647,2147483647,2147483647,2147483647,2147483647,2147483647,2147483647,2147483647,2147483647,2147483647,2147483647,2147483647,2147483647,2147483647,2147483647,2147483647,0,0,2147483647,2147483647,2147483647,2147483647,2147483647,2147483647,2147483647,2147483647,2147483647,2147483647,2147483647,2147483647,2147483647,2147483647,2147483647,2147483647],"split_type":[0,0,0,0,0,0,0,0,0,0,0,0,0,0,0,0,0,0,0,0,0,0,0,0,0,0,0,0,0,0,0,0,0,0,0,0,0,0,0,0,0,0,0,0,0,0,0,0,0,0,0,0,0,0,0,0,0,0,0,0,0,0,0,0,0,0,0,0,0,0,0,0,0,0,0,0,0,0,0,0,0,0,0,0,0],"sum_hessian":[2.597E3,2.64E2,2.333E3,1.61E2,1.03E2,2.093E3,2.4E2,1.16E2,4.5E1,7.9E1,2.4E1,1.12E3,9.73E2,1.58E2,8.2E1,7.2E1,4.4E1,7E0,3.8E1,7E1,9E0,2.27E2,8.93E2,5.38E2,4.35E2,8.1E1,7.7E1,4.7E1,3.5E1,3.7E1,3.5E1,3.7E1,7E0,3.4E1,4E0,3E0,6.7E1,9.9E1,1.28E2,4.75E2,4.18E2,3.53E2,1.85E2,2.19E2,2.16E2,4.1E1,4E1,3.5E1,4.2E1,1.9E1,2.8E1,4E0,3.1E1,2.9E1,6E0,1.4E1,2.3E1,6E1,7E0,6.1E1,3.8E1,7.1E1,5.7E1,3.66E2,1.09E2,2.73E2,1.45E2,2.29E2,1.24E2,1.14E2,7.1E1,1.34E2,8.5E1,1.37E2,7.9E1,2.6E1,1.5E1,3.7E1,3E0,9E0,2.6E1,2.4E1,4E0,3E0,2.8E1],"tree_param":{"num_deleted":"66","num_feature":"50","num_nodes":"85","size_leaf_vector":"0"}},{"base_weights":[-2.1204808E-4,-1.2840768E-3,9.83183E-3,-6.614231E-3,-0E0,-0E0,2.195043E-2,-0E0,-1.2411712E-2,8.4552733E-4,-6.8790093E-3,-7.659236E-3,1.8983062E-3,-0E0,2.7885145E-2,4.8412303E-3,-0E0,-1.5284188E-2,-0E0,-0E0,1.0293418E-2,-0E0,-1.1325722E-2,-1.523038E-2,-0E0,-0E0,1.3601683E-2,3.284242E-2,-0E0,-0E0,9.820874E-3,-3.1196217E-3,-0E0,-2.0039E-2,-0E0,2.3249276E-3,-5.500969E-3,-0E0,1.682619E-2,-0E0,5.695705E-3,-0E0,-2.1333657E-2,-2.404622E-2,-0E0,-0E0,1.6783662E-2,-0E0,4.11409E-2,-0E0,1.2716025E-2,-0E0,-5.240343E-3,-0E0,-2.1522151E-2,8.544635E-3,-0E0,-5.884504E-4,-1.7304713E-2,-0E0,-2.399545E-3,2.4882859E-2,-0E0,1.13351075E-2,-0E0,-0E0,-2.8969932E-2,-0E0,-3.0642249E-2,1.9199345E-2,-0E0,-0E0,4.7187194E-2],"categories":[],"categories_nodes":[],"categories_segments":[],"categories_sizes":[],"default_left":[1,1,1,1,1,1,1,1,1,1,1,1,1,1,1,1,1,1,1,1,1,1,1,1,1,1,1,1,1,1,1,1,1,1,1,1,1,1,1,1,1,1,1,1,1,1,1,1,1,1,1,1,1,1,1,1,1,1,1,1,1,1,1,1,1,1,1,1,1,1,1,1,1],"id":12,"left_children":[-1,-1,-1,-1,-1,-1,-1,-1,-1,-1,-1,-1,-1,-1,-1,-1,-1,-1,-1,-1,-1,-1,-1,-1,-1,-1,-1,-1,-1,-1,-1,-1,-1,-1,-1,-1,-1,-1,-1,-1,-1,-1,-1,-1,-1,-1,-1,-1,-1,-1,-1,-1,-1,-1,-1,-1,-1,-1,-1,-1,-1,-1,-1,-1,-1,-1,-1,-1,-1,-1,-1,-1,-1],"loss_changes":[2.139322E-2,1.4779095E-2,2.653622E-2,2.5233747E-2,1.3041546E-2,2.6119966E-3,1.4616303E-2,2.4488692E-3,1.5703809E-2,1.598029E-2,1.3269426E-2,4.869737E-3,5.4615857E-3,0E0,1.5173886E-2,3.5777863E-3,2.5775345E-4,1.9619443E-2,0E0,2.0710824E-2,2.2841323E-2,1.2160542E-3,2.3388743E-2,5.697903E-3,0E0,0E0,1.8206979E-3,1.1580005E-2,0E0,0E0,3.4302175E-3,3.5971266E-4,0E0,9.857267E-3,0E0,1.5619672E-2,1.5024432E-2,1.0643346E-4,2.6492748E-2,0E0,2.572321E-3,0E0,2.1601409E-2,2.4772724E-3,0E0,0E0,1.1963295E-3,0E0,6.922245E-3,0E0,0E0,0E0,0E0,0E0,0E0,0E0,0E0,0E0,0E0,0E0,0E0,0E0,0E0,0E0,0E0,0E0,0E0,0E0,0E0,0E0,0E0,0E0,0E0],"parents":[2147483647,0,0,1,1,2,2,3,3,4,4,5,5,6,6,7,7,8,8,9,9,10,10,11,11,12,12,14,14,15,15,16,16,17,17,19,19,20,20,21,21,22,22,23,23,26,26,27,27,30,30,31,31,33,33,35,35,36,36,37,37,38,38,40,40,42,42,43,43,46,46,48,48],"right_children":[-1,-1,-1,-1,-1,-1,-1,-1,-1,-1,-1,-1,-1,-1,-1,-1,-1,-1,-1,-1,-1,-1,-1,-1,-1,-1,-1,-1,-1,-1,-1,-1,-1,-1,-1,-1,-1,-1,-1,-1,-1,-1,-1,-1,-1,-1,-1,-1,-1,-1,-1,-1,-1,-1,-1,-1,-1,-1,-1,-1,-1,-1,-1,-1,-1,-1,-1,-1,-1,-1,-1,-1,-1],"split_conditions":[-1.2249086E-4,-7.417548E-4,5.6794165E-3,-3.8207509E-3,-0E0,-0E0,1.2679799E-2,-0E0,-7.1697007E-3,4.8842403E-4,-3.9737015E-3,-4.4244044E-3,1.0965682E-3,-0E0,1.6108023E-2,2.796566E-3,-0E0,-8.829004E-3,-0E0,-0E0,5.9460555E-3,-0E0,-6.542372E-3,-8.797922E-3,-0E0,-0E0,7.857095E-3,1.8971624E-2,-0E0,-0E0,5.6730877E-3,-1.8020684E-3,-0E0,-1.157565E-2,-0E0,1.3430086E-3,-3.1776682E-3,-0E0,9.719751E-3,-0E0,3.2901587E-3,-0E0,-1.2323517E-2,-1.3890445E-2,-0E0,-0E0,9.695184E-3,-0E0,2.376529E-2,-0E0,7.345489E-3,-0E0,-3.0271162E-3,-0E0,-1.2432402E-2,4.9358606E-3,-0E0,-3.3992197E-4,-9.996173E-3,-0E0,-1.3861117E-3,1.4373735E-2,-0E0,6.5477937E-3,-0E0,-0E0,-1.6734658E-2,-0E0,-1.7700681E-2,1.1090619E-2,-0E0,-0E0,2.725797E-2],"split_indices":[14,2147483647,2147483647,2147483647,2147483647,2147483647,2147483647,2147483647,2147483647,2147483647,2147483647,2147483647,2147483647,2147483647,2147483647,2147483647,2147483647,2147483647,2147483647,2147483647,2147483647,2147483647,2147483647,2147483647,2147483647,2147483647,2147483647,2147483647,2147483647,2147483647,2147483647,2147483647,2147483647,2147483647,2147483647,2147483647,2147483647,2147483647,2147483647,2147483647,2147483647,2147483647,2147483647,2147483647,2147483647,2147483647,2147483647,2147483647,2147483647,2147483647,2147483647,2147483647,2147483647,2147483647,2147483647,2147483647,2147483647,2147483647,2147483647,2147483647,2147483647,2147483647,2147483647,2147483647,2147483647,2147483647,2147483647,2147483647,2147483647,2147483647,2147483647,2147483647,2147483647],"split_type":[0,0,0,0,0,0,0,0,0,0,0,0,0,0,0,0,0,0,0,0,0,0,0,0,0,0,0,0,0,0,0,0,0,0,0,0,0,0,0,0,0,0,0,0,0,0,0,0,0,0,0,0,0,0,0,0,0,0,0,0,0,0,0,0,0,0,0,0,0,0,0,0,0],"sum_hessian":[2.586E3,2.405E3,1.81E2,4.28E2,1.977E3,9E1,9.1E1,1.43E2,2.85E2,1.728E3,2.49E2,4.1E1,4.9E1,1.6E1,7.5E1,1.04E2,3.9E1,2.55E2,3E1,1.566E3,1.62E2,5.4E1,1.95E2,3.1E1,1E1,1.9E1,3E1,6.8E1,7E0,4.2E1,6.2E1,2.6E1,1.3E1,1.97E2,5.8E1,1.074E3,4.92E2,2.1E1,1.41E2,1.7E1,3.7E1,8.9E1,1.06E2,2.2E1,9E0,4E0,2.6E1,1.8E1,5E1,4E0,5.8E1,4E0,2.2E1,5E0,1.92E2,2.93E2,7.81E2,3.93E2,9.9E1,3E0,1.8E1,1.07E2,3.4E1,2.9E1,8E0,2.3E1,8.3E1,6E0,1.6E1,2.3E1,3E0,9E0,4.1E1],"tree_param":{"num_deleted":"72","num_feature":"50","num_nodes":"73","size_leaf_vector":"0"}},{"base_weights":[-1.9561531E-4,-3.3365325E-3,2.045678E-3,3.3853229E-3,-5.7365284E-3,-3.5252848E-3,4.731078E-3,-0E0,1.5237234E-2,-9.340755E-3,-0E0,4.121847E-3,-1.24005005E-2,1.0040841E-2,-4.5896412E-4,-4.0214E-3,2.4538445E-3,-0E0,2.3983436E-2,-1.765985E-2,-2.6945895E-4,1.8398352E-3,-1.1123075E-3,1.7694592E-2,-0E0,-0E0,-1.9978525E-2,-0E0,1.4996192E-2,-1.4408326E-2,1.5318811E-4,-1.2509139E-2,-0E0,-0E0,1.0186861E-2,-0E0,3.059814E-2,-0E0,-1.947602E-2,1.562666E-3,-1.37838E-2,5.226431E-3,-0E0,-6.6408506E-3,-0E0,2.1859514E-2,-0E0,-0E0,-2.2643048E-3,1.1865462E-3,-0E0,-0E0,-2.792597E-2,4.647569E-3,-7.347954E-3,-0E0,1.797955E-2,-0E0,-1.8114565E-2,8.914767E-3,-1.3234093E-3,-0E0,-1.4815333E-2,1.3500811E-2,-0E0,-0E0,3.4506794E-2,-2.2231635E-2,-0E0,9.315159E-3,-0E0,-0E0,-1.820673E-2,1.0574369E-2,-0E0,-1.3289286E-2,-0E0,-0E0,2.987978E-3,2.3964524E-2,-0E0,-0E0,1.4141999E-3,-5.2127647E-3,-0E0,6.971544E-3,-0E0,-6.682139E-3,-0E0,-0E0,-3.210366E-2,-0E0,1.3353419E-2,-0E0,-2.1577159E-2,2.1274142E-2,-0E0,-2.2986563E-2,-0E0,-0E0,1.6491383E-2,-6.8397573E-3,9.058415E-3],"categories":[],"categories_nodes":[],"categories_segments":[],"categories_sizes":[],"default_left":[1,1,1,1,1,1,1,1,1,1,1,1,1,1,1,1,1,1,1,1,1,1,1,1,1,1,1,1,1,1,1,1,1,1,1,1,1,1,1,1,1,1,1,1,1,1,1,1,1,1,1,1,1,1,1,1,1,1,1,1,1,1,1,1,1,1,1,1,1,1,1,1,1,1,1,1,1,1,1,1,1,1,1,1,1,1,1,1,1,1,1,1,1,1,1,1,1,1,1,1,1,1,1],"id":13,"left_children":[1,3,5,-1,9,11,13,-1,-1,19,-1,-1,-1,27,-1,-1,-1,-1,-1,-1,-1,-1,-1,-1,-1,-1,-1,-1,-1,-1,-1,-1,-1,-1,-1,-1,-1,-1,-1,-1,-1,-1,-1,-1,-1,-1,-1,-1,-1,-1,-1,-1,-1,-1,-1,-1,-1,-1,-1,-1,-1,-1,-1,-1,-1,-1,-1,-1,-1,-1,-1,-1,-1,-1,-1,-1,-1,-1,-1,-1,-1,-1,-1,-1,-1,-1,-1,-1,-1,-1,-1,-1,-1,-1,-1,-1,-1,-1,-1,-1,-1,-1,-1],"loss_changes":[1.916625E-2,2.1411873E-2,2.1377653E-2,1.24822E-2,2.1119233E-2,3.0274782E-2,3.5203576E-2,2.0107161E-3,1.5560998E-2,3.2588135E-2,8.2266197E-4,1.27258515E-2,2.266296E-2,3.314504E-2,1.4548403E-2,8.389896E-3,6.536502E-3,0E0,1.4629059E-2,1.630421E-2,1.7581454E-2,3.6427574E-3,4.009506E-3,6.5539004E-3,3.1523846E-4,7.6709046E-5,1.802925E-2,6.634768E-3,2.201306E-2,7.183549E-3,1.0551104E-2,3.122569E-3,0E0,0E0,3.6571114E-3,0E0,8.765962E-3,0E0,1.51561275E-2,8.722371E-3,7.6891314E-3,4.667952E-3,0E0,8.722758E-3,2.0074674E-4,2.6645921E-3,0E0,5.8968944E-5,1.0022415E-3,1.988167E-3,6.914222E-4,0E0,1.2107573E-2,8.9117335E-3,2.0427305E-2,0E0,2.6640967E-2,0E0,7.5010676E-3,1.5293099E-2,1.2354259E-2,0E0,0E0,0E0,0E0,0E0,0E0,0E0,0E0,0E0,0E0,0E0,0E0,0E0,0E0,0E0,0E0,0E0,0E0,0E0,0E0,0E0,0E0,0E0,0E0,0E0,0E0,0E0,0E0,0E0,0E0,0E0,0E0,0E0,0E0,0E0,0E0,0E0,0E0,0E0,0E0,0E0,0E0],"parents":[2147483647,0,0,1,1,2,2,3,3,4,4,5,5,6,6,7,7,8,8,9,9,10,10,11,11,12,12,13,13,14,14,15,15,16,16,18,18,19,19,20,20,21,21,22,22,23,23,24,24,25,25,26,26,27,27,28,28,29,29,30,30,31,31,34,34,36,36,38,38,39,39,40,40,41,41,43,43,44,44,45,45,47,47,48,48,49,49,50,50,52,52,53,53,54,54,56,56,58,58,59,59,60,60],"right_children":[2,4,6,-1,10,12,14,-1,-1,20,-1,-1,-1,28,-1,-1,-1,-1,-1,-1,-1,-1,-1,-1,-1,-1,-1,-1,-1,-1,-1,-1,-1,-1,-1,-1,-1,-1,-1,-1,-1,-1,-1,-1,-1,-1,-1,-1,-1,-1,-1,-1,-1,-1,-1,-1,-1,-1,-1,-1,-1,-1,-1,-1,-1,-1,-1,-1,-1,-1,-1,-1,-1,-1,-1,-1,-1,-1,-1,-1,-1,-1,-1,-1,-1,-1,-1,-1,-1,-1,-1,-1,-1,-1,-1,-1,-1,-1,-1,-1,-1,-1,-1],"split_conditions":[5.3499764E-1,3.8948464E-1,6.258492E-2,1.9555523E-3,6.7913914E-1,2.8738342E-2,4.5145112E-1,-0E0,8.801881E-3,5.3309834E-1,-0E0,2.38101E-3,-7.1632247E-3,4.8503536E-1,-2.651234E-4,-2.3229863E-3,1.4174782E-3,-0E0,1.3854178E-2,-1.020132E-2,-1.556546E-4,1.062792E-3,-6.425312E-4,1.0221389E-2,-0E0,-0E0,-1.15407165E-2,-0E0,8.662642E-3,-8.323058E-3,8.8490044E-5,-7.2259805E-3,-0E0,-0E0,5.8845025E-3,-0E0,1.7675202E-2,-0E0,-1.1250442E-2,9.0268353E-4,-7.962297E-3,3.0190796E-3,-0E0,-3.8361277E-3,-0E0,1.2627281E-2,-0E0,-0E0,-1.3079895E-3,6.8541564E-4,-0E0,-0E0,-1.6131606E-2,2.6846963E-3,-4.24459E-3,-0E0,1.0385996E-2,-0E0,-1.0463988E-2,5.1496695E-3,-7.6447544E-4,-0E0,-8.558167E-3,7.7988254E-3,-0E0,-0E0,1.993306E-2,-1.2842239E-2,-0E0,5.3809583E-3,-0E0,-0E0,-1.0517228E-2,6.1083487E-3,-0E0,-7.676637E-3,-0E0,-0E0,1.7260237E-3,1.3843253E-2,-0E0,-0E0,8.1692124E-4,-3.0111852E-3,-0E0,4.0271548E-3,-0E0,-3.8599782E-3,-0E0,-0E0,-1.8544875E-2,-0E0,7.7136834E-3,-0E0,-1.2464177E-2,1.2289138E-2,-0E0,-1.3278328E-2,-0E0,-0E0,9.526348E-3,-3.9510275E-3,5.2326485E-3],"split_indices":[11,28,45,28,28,45,25,2147483647,2147483647,14,28,48,18,7,9,2147483647,2147483647,2147483647,2147483647,11,16,2147483647,2147483647,2147483647,2147483647,2147483647,2147483647,5,4,2147483647,2147483647,2147483647,2147483647,2147483647,2147483647,2147483647,2147483647,2147483647,2147483647,2147483647,2147483647,2147483647,2147483647,2147483647,2147483647,2147483647,2147483647,2147483647,2147483647,2147483647,2147483647,2147483647,2147483647,2147483647,2147483647,2147483647,2147483647,2147483647,2147483647,2147483647,2147483647,2147483647,2147483647,2147483647,2147483647,2147483647,2147483647,2147483647,2147483647,2147483647,2147483647,2147483647,2147483647,2147483647,2147483647,2147483647,2147483647,2147483647,2147483647,2147483647,2147483647,2147483647,2147483647,2147483647,2147483647,2147483647,2147483647,2147483647,2147483647,2147483647,2147483647,2147483647,2147483647,2147483647,2147483647,2147483647,2147483647,2147483647,2147483647,2147483647,2147483647,2147483647,2147483647],"split_type":[0,0,0,0,0,0,0,0,0,0,0,0,0,0,0,0,0,0,0,0,0,0,0,0,0,0,0,0,0,0,0,0,0,0,0,0,0,0,0,0,0,0,0,0,0,0,0,0,0,0,0,0,0,0,0,0,0,0,0,0,0,0,0,0,0,0,0,0,0,0,0,0,0,0,0,0,0,0,0,0,0,0,0,0,0,0,0,0,0,0,0,0,0,0,0,0,0,0,0,0,0,0,0],"sum_hessian":[2.583E3,1.216E3,1.367E3,2.37E2,9.79E2,3.53E2,1.014E3,1.72E2,6.5E1,6.11E2,3.68E2,1.44E2,2.09E2,5.73E2,4.41E2,9.5E1,7.7E1,1.2E1,5.3E1,2.75E2,3.36E2,1.7E2,1.98E2,4.8E1,9.6E1,7.2E1,1.37E2,1.69E2,4.04E2,7E1,3.71E2,6.3E1,3.2E1,1E1,6.7E1,5E0,4.8E1,6E0,2.69E2,2.47E2,8.9E1,1.54E2,1.6E1,9.6E1,1.02E2,4.5E1,3E0,3.5E1,6.1E1,5.4E1,1.8E1,4.4E1,9.3E1,7.8E1,9.1E1,5.5E1,3.49E2,4E0,6.6E1,1.27E2,2.44E2,4E0,5.9E1,5.8E1,9E0,3E0,4.5E1,2.37E2,3.2E1,1.07E2,1.4E2,1.5E1,7.4E1,7.9E1,7.5E1,7.3E1,2.3E1,8E1,2.2E1,4.2E1,3E0,6E0,2.9E1,4.8E1,1.3E1,4.2E1,1.2E1,1.5E1,3E0,1.1E1,8.2E1,1.9E1,5.9E1,3.7E1,5.4E1,3.08E2,4.1E1,5.5E1,1.1E1,3.4E1,9.3E1,2.07E2,3.7E1],"tree_param":{"num_deleted":"86","num_feature":"50","num_nodes":"103","size_leaf_vector":"0"}},{"base_weights":[-0E0,5.8308116E-4,-9.5778955E-3,9.265151E-3,-0E0,-0E0,-1.5913602E-2,-0E0,1.602322E-2,1.7322509E-3,-2.8493858E-3,4.154634E-3,-0E0,-1.9782422E-2,-0E0,-0E0,-1.8477257E-3,-0E0,1.9470561E-2,-3.5918616E-3,4.2796577E-3,-0E0,-9.175932E-3,5.9292545E-3,-0E0,-0E0,-2.1987522E-2,-7.6061687E-3,-0E0,2.269244E-2,-0E0,-1.4180407E-2,-0E0,-2.148591E-3,6.9453535E-3,2.1528495E-3,-7.91087E-3,-2.0455519E-2,-0E0,-2.603437E-2,-0E0,-0E0,-1.1384226E-2,2.5496917E-2,-0E0,-1.7359365E-2,-0E0,-6.2151114E-3,7.8068897E-3,-1.323078E-2,-0E0,1.1756333E-2,-0E0,-0E0,1.3647959E-2,-0E0,-1.075576E-2,-2.4442429E-2,-0E0,-0E0,-4.934411E-3,-2.795611E-2,-0E0],"categories":[],"categories_nodes":[],"categories_segments":[],"categories_sizes":[],"default_left":[1,1,1,1,1,1,1,1,1,1,1,1,1,1,1,1,1,1,1,1,1,1,1,1,1,1,1,1,1,1,1,1,1,1,1,1,1,1,1,1,1,1,1,1,1,1,1,1,1,1,1,1,1,1,1,1,1,1,1,1,1,1,1],"id":14,"left_children":[-1,-1,-1,-1,-1,-1,-1,-1,-1,-1,-1,-1,-1,-1,-1,-1,-1,-1,-1,-1,-1,-1,-1,-1,-1,-1,-1,-1,-1,-1,-1,-1,-1,-1,-1,-1,-1,-1,-1,-1,-1,-1,-1,-1,-1,-1,-1,-1,-1,-1,-1,-1,-1,-1,-1,-1,-1,-1,-1,-1,-1,-1,-1],"loss_changes":[2.0207753E-2,1.829184E-2,2.1747349E-2,1.9280536E-2,1.1378577E-2,5.0894084E-4,1.1873126E-2,1.2797731E-4,9.571508E-3,1.6673626E-2,1.7746452E-2,3.8701273E-4,0E0,1.0545306E-2,0E0,0E0,1.6356983E-3,0E0,1.0487933E-2,1.8884154E-2,1.9081399E-2,1.0963081E-2,2.2351027E-2,0E0,0E0,0E0,1.2674466E-2,1.4096003E-3,0E0,9.486206E-3,0E0,9.4700735E-3,9.519135E-3,1.342643E-2,2.128793E-2,1.4432764E-2,6.0911067E-3,1.6311266E-2,2.1301217E-3,9.326331E-3,0E0,0E0,0E0,0E0,0E0,0E0,0E0,0E0,0E0,0E0,0E0,0E0,0E0,0E0,0E0,0E0,0E0,0E0,0E0,0E0,0E0,0E0,0E0],"parents":[2147483647,0,0,1,1,2,2,3,3,4,4,5,5,6,6,7,7,8,8,9,9,10,10,11,11,13,13,16,16,18,18,19,19,20,20,21,21,22,22,26,26,27,27,29,29,31,31,32,32,33,33,34,34,35,35,36,36,37,37,38,38,39,39],"right_children":[-1,-1,-1,-1,-1,-1,-1,-1,-1,-1,-1,-1,-1,-1,-1,-1,-1,-1,-1,-1,-1,-1,-1,-1,-1,-1,-1,-1,-1,-1,-1,-1,-1,-1,-1,-1,-1,-1,-1,-1,-1,-1,-1,-1,-1,-1,-1,-1,-1,-1,-1,-1,-1,-1,-1,-1,-1,-1,-1,-1,-1,-1,-1],"split_conditions":[-0E0,3.3682038E-4,-5.53273E-3,5.352071E-3,-0E0,-0E0,-9.192589E-3,-0E0,9.255911E-3,1.0006453E-3,-1.645965E-3,2.3999498E-3,-0E0,-1.1427437E-2,-0E0,-0E0,-1.06735E-3,-0E0,1.1247288E-2,-2.0748607E-3,2.4721704E-3,-0E0,-5.300533E-3,3.4250699E-3,-0E0,-0E0,-1.2701226E-2,-4.39375E-3,-0E0,1.3108426E-2,-0E0,-8.191398E-3,-0E0,-1.2411467E-3,4.012026E-3,1.2436066E-3,-4.5697624E-3,-1.1816255E-2,-0E0,-1.5038912E-2,-0E0,-0E0,-6.576168E-3,1.4728449E-2,-0E0,-1.0027743E-2,-0E0,-3.5901968E-3,4.509697E-3,-7.6428405E-3,-0E0,6.791117E-3,-0E0,-0E0,7.883826E-3,-0E0,-6.21313E-3,-1.4119318E-2,-0E0,-0E0,-2.8503926E-3,-1.6149016E-2,-0E0],"split_indices":[40,2147483647,2147483647,2147483647,2147483647,2147483647,2147483647,2147483647,2147483647,2147483647,2147483647,2147483647,2147483647,2147483647,2147483647,2147483647,2147483647,2147483647,2147483647,2147483647,2147483647,2147483647,2147483647,2147483647,2147483647,2147483647,2147483647,2147483647,2147483647,2147483647,2147483647,2147483647,2147483647,2147483647,2147483647,2147483647,2147483647,2147483647,2147483647,2147483647,2147483647,2147483647,2147483647,2147483647,2147483647,2147483647,2147483647,2147483647,2147483647,2147483647,2147483647,2147483647,2147483647,2147483647,2147483647,2147483647,2147483647,2147483647,2147483647,2147483647,2147483647,2147483647,2147483647],"split_type":[0,0,0,0,0,0,0,0,0,0,0,0,0,0,0,0,0,0,0,0,0,0,0,0,0,0,0,0,0,0,0,0,0,0,0,0,0,0,0,0,0,0,0,0,0,0,0,0,0,0,0,0,0,0,0,0,0,0,0,0,0,0,0],"sum_hessian":[2.584E3,2.373E3,2.11E2,2.22E2,2.151E3,4.9E1,1.62E2,7.3E1,1.49E2,1.19E3,9.61E2,2.9E1,2E1,1.35E2,2.7E1,3.6E1,3.7E1,2.3E1,1.26E2,2.89E2,9.01E2,6.58E2,3.03E2,2.5E1,4E0,4E0,1.31E2,3E1,7E0,1.13E2,1.3E1,1.12E2,1.77E2,1.81E2,7.2E2,5.22E2,1.36E2,1.14E2,1.89E2,1.12E2,1.9E1,6E0,2.4E1,1.04E2,9E0,1.06E2,6E0,5.9E1,1.18E2,8.1E1,1E2,4.05E2,3.15E2,4.32E2,9E1,1E1,1.26E2,1.07E2,7E0,1.02E2,8.7E1,1.09E2,3E0],"tree_param":{"num_deleted":"62","num_feature":"50","num_nodes":"63","size_leaf_vector":"0"}},{"base_weights":[-4.9253827E-5,3.4629754E-4,-9.3767885E-3,9.202597E-3,-2.1169023E-4,-1.5410465E-2,-0E0,-0E0,1.51065895E-2,1.9365569E-3,-2.096669E-3,-1.8028026E-2,-0E0,3.5973839E-3,-0E0,1.8811474E-2,-0E0,6.21811E-3,-7.851511E-4,-6.1918837E-3,3.531927E-5,-2.0599905E-2,-0E0,6.75169E-3,-0E0,2.2214182E-2,-0E0,9.469435E-3,-0E0,-7.5743548E-3,1.1516723E-3,-0E0,-1.36505505E-2,3.548676E-3,-2.9281676E-3,-0E0,-2.3092052E-2,-0E0,9.28652E-3,2.6093634E-2,-0E0,1.2854571E-2,-0E0,-3.8026804E-3,-0E0,-1.4111559E-2,-0E0,5.010919E-3,-0E0,3.2827682E-3,-8.445469E-3,-0E0,-1.7145958E-2,8.962941E-3,-1.4160781E-3,-6.8784854E-3,3.6857927E-3,-2.5662245E-2,-0E0,1.1813264E-2,-0E0],"categories":[],"categories_nodes":[],"categories_segments":[],"categories_sizes":[],"default_left":[1,1,1,1,1,1,1,1,1,1,1,1,1,1,1,1,1,1,1,1,1,1,1,1,1,1,1,1,1,1,1,1,1,1,1,1,1,1,1,1,1,1,1,1,1,1,1,1,1,1,1,1,1,1,1,1,1,1,1,1,1],"id":15,"left_children":[-1,-1,-1,-1,-1,-1,-1,-1,-1,-1,-1,-1,-1,-1,-1,-1,-1,-1,-1,-1,-1,-1,-1,-1,-1,-1,-1,-1,-1,-1,-1,-1,-1,-1,-1,-1,-1,-1,-1,-1,-1,-1,-1,-1,-1,-1,-1,-1,-1,-1,-1,-1,-1,-1,-1,-1,-1,-1,-1,-1,-1],"loss_changes":[1.6416134E-2,1.8735036E-2,1.4617654E-2,1.5415588E-2,9.00127E-3,8.408384E-3,4.3333563E-4,0E0,1.2186766E-2,1.3869225E-2,1.6489377E-2,8.150555E-3,0E0,8.651641E-4,0E0,1.391387E-2,0E0,1.314301E-2,1.0178798E-2,2.217789E-2,8.496294E-3,8.4065385E-3,0E0,8.993163E-4,0E0,9.337105E-3,0E0,1.36346035E-2,1.00478E-3,1.6058318E-2,3.3248686E-3,1.1458286E-2,1.6666193E-2,1.8331867E-2,1.0303068E-2,0E0,8.482959E-3,0E0,9.400437E-4,0E0,0E0,0E0,0E0,0E0,0E0,0E0,0E0,0E0,0E0,0E0,0E0,0E0,0E0,0E0,0E0,0E0,0E0,0E0,0E0,0E0,0E0],"parents":[2147483647,0,0,1,1,2,2,3,3,4,4,5,5,6,6,8,8,9,9,10,10,11,11,13,13,15,15,17,17,18,18,19,19,20,20,21,21,23,23,25,25,27,27,28,28,29,29,30,30,31,31,32,32,33,33,34,34,36,36,38,38],"right_children":[-1,-1,-1,-1,-1,-1,-1,-1,-1,-1,-1,-1,-1,-1,-1,-1,-1,-1,-1,-1,-1,-1,-1,-1,-1,-1,-1,-1,-1,-1,-1,-1,-1,-1,-1,-1,-1,-1,-1,-1,-1,-1,-1,-1,-1,-1,-1,-1,-1,-1,-1,-1,-1,-1,-1,-1,-1,-1,-1,-1,-1],"split_conditions":[-2.8451774E-5,2.0004089E-4,-5.416559E-3,5.315936E-3,-1.2228415E-4,-8.901949E-3,-0E0,-0E0,8.726413E-3,1.1186639E-3,-1.2111537E-3,-1.0414E-2,-0E0,2.0780507E-3,-0E0,1.0866562E-2,-0E0,3.5919293E-3,-4.535473E-4,-3.5767793E-3,2.040239E-5,-1.1899661E-2,-0E0,3.900155E-3,-0E0,1.2832157E-2,-0E0,5.4700766E-3,-0E0,-4.375372E-3,6.6527055E-4,-0E0,-7.885324E-3,2.0499143E-3,-1.6914739E-3,-0E0,-1.3339264E-2,-0E0,5.364415E-3,1.5073147E-2,-0E0,7.4255215E-3,-0E0,-2.1966414E-3,-0E0,-8.151628E-3,-0E0,2.894588E-3,-0E0,1.8963111E-3,-4.8785764E-3,-0E0,-9.904467E-3,5.177498E-3,-8.180061E-4,-3.973399E-3,2.1291205E-3,-1.4823953E-2,-0E0,6.824004E-3,-0E0],"split_indices":[40,2147483647,2147483647,2147483647,2147483647,2147483647,2147483647,2147483647,2147483647,2147483647,2147483647,2147483647,2147483647,2147483647,2147483647,2147483647,2147483647,2147483647,2147483647,2147483647,2147483647,2147483647,2147483647,2147483647,2147483647,2147483647,2147483647,2147483647,2147483647,2147483647,2147483647,2147483647,2147483647,2147483647,2147483647,2147483647,2147483647,2147483647,2147483647,2147483647,2147483647,2147483647,2147483647,2147483647,2147483647,2147483647,2147483647,2147483647,2147483647,2147483647,2147483647,2147483647,2147483647,2147483647,2147483647,2147483647,2147483647,2147483647,2147483647,2147483647,2147483647],"split_type":[0,0,0,0,0,0,0,0,0,0,0,0,0,0,0,0,0,0,0,0,0,0,0,0,0,0,0,0,0,0,0,0,0,0,0,0,0,0,0,0,0,0,0,0,0,0,0,0,0,0,0,0,0,0,0,0,0,0,0,0,0],"sum_hessian":[2.598E3,2.415E3,1.83E2,2.23E2,2.192E3,1.29E2,5.4E1,7.3E1,1.5E2,8.37E2,1.355E3,1.2E2,9E0,3.3E1,2.1E1,1.31E2,1.9E1,4.33E2,4.04E2,5.85E2,7.7E2,1.11E2,9E0,2.8E1,5E0,1.22E2,9E0,3.33E2,1E2,1.76E2,2.28E2,3.46E2,2.39E2,4.69E2,3.01E2,7E0,1.04E2,3E0,2.5E1,1.02E2,2E1,2.63E2,7E1,6.9E1,3.1E1,1.31E2,4.5E1,1.44E2,8.4E1,2.19E2,1.27E2,3.1E1,2.08E2,2.97E2,1.72E2,2.6E2,4.1E1,9.7E1,7E0,2.2E1,3E0],"tree_param":{"num_deleted":"60","num_feature":"50","num_nodes":"61","size_leaf_vector":"0"}},{"base_weights":[-0E0,-4.950376E-4,7.0123053E-3,-0E0,-1.7410593E-2,2.0096492E-2,-1.0028793E-2,-9.093957E-4,6.1909235E-3,-0E0,-2.2375073E-2,3.0752283E-2,-0E0,-1.8677013E-2,-0E0,-2.6044091E-3,5.4301256E-3,-4.505431E-3,1.8810911E-2,-2.6081624E-2,-0E0,3.7457496E-2,-0E0,-2.558207E-2,-0E0,1.0009984E-3,-1.035095E-2,-0E0,1.4133408E-2,6.234228E-4,-1.3876742E-2,2.8791025E-2,-0E0,-0E0,-2.9448217E-2,4.258342E-2,-0E0,-3.0501386E-2,-0E0,6.6263126E-3,-4.327378E-3,-1.6877986E-2,-0E0,-3.8871963E-3,2.3914957E-3,2.229061E-2,-0E0,1.2343994E-2,-0E0,-2.0666514E-2,-0E0,-0E0,3.627877E-2,-0E0,-5.1183614E-4,-3.3114426E-2,-0E0,4.777314E-2,-0E0,-3.1981945E-2,-0E0],"categories":[],"categories_nodes":[],"categories_segments":[],"categories_sizes":[],"default_left":[1,1,1,1,1,1,1,1,1,1,1,1,1,1,1,1,1,1,1,1,1,1,1,1,1,1,1,1,1,1,1,1,1,1,1,1,1,1,1,0,0,0,0,1,1,1,1,1,1,1,1,1,1,1,1,1,1,1,1,1,1],"id":16,"left_children":[1,3,5,7,-1,-1,-1,15,17,-1,-1,-1,-1,-1,-1,25,-1,-1,31,-1,-1,-1,-1,-1,-1,39,41,-1,-1,-1,-1,-1,-1,-1,-1,-1,-1,-1,-1,-1,-1,-1,-1,-1,-1,-1,-1,-1,-1,-1,-1,-1,-1,-1,-1,-1,-1,-1,-1,-1,-1],"loss_changes":[9.5617445E-3,1.8352497E-2,4.839781E-2,1.2640998E-2,9.838525E-3,2.6115224E-2,1.0386661E-2,1.994713E-2,4.939361E-2,0E0,7.60372E-3,1.9485623E-2,0E0,1.1937425E-2,0E0,5.498648E-2,1.5455399E-2,1.5911346E-2,4.4510365E-2,7.397242E-3,0E0,1.9441828E-2,0E0,7.0696175E-3,0E0,3.4857597E-2,4.116238E-2,1.9175217E-3,2.0984493E-2,3.720206E-3,1.7269881E-2,2.7261414E-2,8.772285E-6,0E0,5.0002486E-3,1.882732E-2,0E0,3.99217E-4,0E0,0E0,0E0,0E0,0E0,0E0,0E0,0E0,0E0,0E0,0E0,0E0,0E0,0E0,0E0,0E0,0E0,0E0,0E0,0E0,0E0,0E0,0E0],"parents":[2147483647,0,0,1,1,2,2,3,3,4,4,5,5,6,6,7,7,8,8,10,10,11,11,13,13,15,15,16,16,17,17,18,18,19,19,21,21,23,23,25,25,26,26,27,27,28,28,29,29,30,30,31,31,32,32,34,34,35,35,37,37],"right_children":[2,4,6,8,-1,-1,-1,16,18,-1,-1,-1,-1,-1,-1,26,-1,-1,32,-1,-1,-1,-1,-1,-1,40,42,-1,-1,-1,-1,-1,-1,-1,-1,-1,-1,-1,-1,-1,-1,-1,-1,-1,-1,-1,-1,-1,-1,-1,-1,-1,-1,-1,-1,-1,-1,-1,-1,-1,-1],"split_conditions":[8.0231833E-1,6.9311726E-1,9.0545696E-1,5.4277134E-1,-1.0057335E-2,1.1608861E-2,-5.793193E-3,4.7269195E-1,6.786361E-1,-0E0,-1.2925098E-2,1.7764244E-2,-0E0,-1.07888905E-2,-0E0,3.9647925E-1,3.1367452E-3,-2.6025895E-3,6.85582E-1,-1.5066208E-2,-0E0,2.1637551E-2,-0E0,-1.4777638E-2,-0E0,7.299851E-2,7.258701E-1,-0E0,8.164249E-3,3.6012396E-4,-8.015985E-3,1.663131E-2,-0E0,-0E0,-1.7010942E-2,2.4598572E-2,-0E0,-1.7619312E-2,-0E0,3.8277297E-3,-2.4997361E-3,-9.749671E-3,-0E0,-2.2454627E-3,1.3814621E-3,1.2876307E-2,-0E0,7.1305833E-3,-0E0,-1.1938137E-2,-0E0,-0E0,2.0956652E-2,-0E0,-2.9566526E-4,-1.912875E-2,-0E0,2.7596446E-2,-0E0,-1.8474566E-2,-0E0],"split_indices":[42,42,42,42,10,6,34,45,15,2147483647,2147483647,2147483647,2147483647,2147483647,2147483647,42,11,20,5,2147483647,2147483647,2147483647,2147483647,2147483647,2147483647,9,43,2147483647,2147483647,2147483647,2147483647,5,7,2147483647,2147483647,2147483647,2147483647,2147483647,2147483647,0,0,0,0,2147483647,2147483647,2147483647,2147483647,2147483647,2147483647,2147483647,2147483647,2147483647,2147483647,2147483647,2147483647,2147483647,2147483647,2147483647,2147483647,2147483647,2147483647],"split_type":[0,0,0,0,0,0,0,0,0,0,0,0,0,0,0,0,0,0,0,0,0,0,0,0,0,0,0,0,0,0,0,0,0,0,0,0,0,0,0,0,0,0,0,0,0,0,0,0,0,0,0,0,0,0,0,0,0,0,0,0,0],"sum_hessian":[2.583E3,2.401E3,1.82E2,2.339E3,6.2E1,1.28E2,5.4E1,2.054E3,2.85E2,5E0,5.7E1,8.2E1,4.6E1,4.5E1,9E0,1.715E3,3.39E2,1.22E2,1.63E2,5.3E1,4E0,6.9E1,1.3E1,4.2E1,3E0,1.104E3,6.11E2,2.12E2,1.27E2,2.7E1,9.5E1,1.23E2,4E1,3E0,5E1,6.4E1,5E0,3.7E1,5E0,6.06E2,4.98E2,3.74E2,2.37E2,7.4E1,1.38E2,9.3E1,3.4E1,2.4E1,3E0,8.3E1,1.2E1,2.5E1,9.8E1,7E0,3.3E1,4.4E1,6E0,5.9E1,5E0,3.4E1,3E0],"tree_param":{"num_deleted":"40","num_feature":"50","num_nodes":"61","size_leaf_vector":"0"}},{"base_weights":[-4.6953064E-4,8.1141014E-5,-8.952475E-3,-5.1822176E-4,8.949729E-3,-0E0,-1.5855579E-2,2.4323298E-3,-2.36804E-3,1.6035246E-2,-0E0,3.2027846E-3,-0E0,-1.880955E-2,-0E0,6.865447E-3,-0E0,-4.1209944E-3,1.7720315E-3,2.2674305E-2,-0E0,-5.3258506E-3,-0E0,-0E0,4.207766E-3,-2.488459E-2,-0E0,1.1150419E-2,-0E0,-1.0227893E-2,7.574781E-4,-0E0,-6.1114146E-3,-1.7107466E-3,9.516673E-3,2.6665928E-2,-0E0,-0E0,-9.668669E-3,-2.796368E-2,-0E0,-0E0,1.6599441E-2,-2.5326048E-3,-0E0,-0E0,-1.5733685E-2,-0E0,6.143048E-3,6.614063E-3,-3.3902605E-3,-3.1200556E-2,-4.0271296E-3,-5.84191E-3,-0E0,1.9432561E-2,-0E0,3.2608267E-2,-0E0,-0E0,-1.3716252E-2,-3.4153204E-2,-0E0],"categories":[],"categories_nodes":[],"categories_segments":[],"categories_sizes":[],"default_left":[1,1,1,1,1,1,1,1,1,1,1,1,1,1,1,1,1,1,1,1,1,1,1,1,1,1,1,1,1,1,1,1,1,1,1,1,1,1,1,1,1,1,1,1,1,1,1,1,1,1,1,1,1,1,1,1,1,1,1,1,1,1,1],"id":17,"left_children":[-1,-1,-1,-1,-1,-1,-1,-1,-1,-1,-1,-1,-1,-1,-1,-1,-1,-1,-1,-1,-1,-1,-1,-1,-1,-1,-1,-1,-1,-1,-1,-1,-1,-1,-1,-1,-1,-1,-1,-1,-1,-1,-1,-1,-1,-1,-1,-1,-1,-1,-1,-1,-1,-1,-1,-1,-1,-1,-1,-1,-1,-1,-1],"loss_changes":[1.879906E-2,1.8854855E-2,2.4511166E-2,1.1522303E-2,2.270713E-2,2.71679E-4,1.3975441E-2,1.0591447E-2,1.237871E-2,1.5794776E-2,1.6589098E-3,1.4413061E-4,0E0,1.5530143E-2,0E0,1.3417526E-2,7.5355065E-3,1.3690267E-2,1.4176257E-2,8.960474E-3,0E0,3.5280064E-3,0E0,0E0,0E0,1.1460759E-2,0E0,2.07183E-2,1.5704917E-4,8.589776E-3,4.5733517E-3,8.14549E-3,1.992393E-2,3.4501501E-3,1.6810197E-2,1.4499679E-2,0E0,0E0,3.746708E-3,1.0215759E-2,0E0,0E0,0E0,0E0,0E0,0E0,0E0,0E0,0E0,0E0,0E0,0E0,0E0,0E0,0E0,0E0,0E0,0E0,0E0,0E0,0E0,0E0,0E0],"parents":[2147483647,0,0,1,1,2,2,3,3,4,4,5,5,6,6,7,7,8,8,9,9,10,10,11,11,13,13,15,15,16,16,17,17,18,18,19,19,21,21,25,25,27,27,28,28,29,29,30,30,31,31,32,32,33,33,34,34,35,35,38,38,39,39],"right_children":[-1,-1,-1,-1,-1,-1,-1,-1,-1,-1,-1,-1,-1,-1,-1,-1,-1,-1,-1,-1,-1,-1,-1,-1,-1,-1,-1,-1,-1,-1,-1,-1,-1,-1,-1,-1,-1,-1,-1,-1,-1,-1,-1,-1,-1,-1,-1,-1,-1,-1,-1,-1,-1,-1,-1,-1,-1,-1,-1,-1,-1,-1,-1],"split_conditions":[-2.7122724E-4,4.68716E-5,-5.1714517E-3,-2.9935397E-4,5.169865E-3,-0E0,-9.159071E-3,1.4050502E-3,-1.3679126E-3,9.262857E-3,-0E0,1.850108E-3,-0E0,-1.0865451E-2,-0E0,3.965867E-3,-0E0,-2.3805175E-3,1.0236248E-3,1.309795E-2,-0E0,-3.07651E-3,-0E0,-0E0,2.4306418E-3,-1.4374736E-2,-0E0,6.4411075E-3,-0E0,-5.9082042E-3,4.3756186E-4,-0E0,-3.5302958E-3,-9.882231E-4,5.4973643E-3,1.5403735E-2,-0E0,-0E0,-5.585165E-3,-1.615339E-2,-0E0,-0E0,9.588768E-3,-1.4629746E-3,-0E0,-0E0,-9.088659E-3,-0E0,3.548569E-3,3.8206538E-3,-1.9584047E-3,-1.8023191E-2,-2.326296E-3,-3.3746148E-3,-0E0,1.1225337E-2,-0E0,1.8836364E-2,-0E0,-0E0,-7.923276E-3,-1.9728806E-2,-0E0],"split_indices":[40,2147483647,2147483647,2147483647,2147483647,2147483647,2147483647,2147483647,2147483647,2147483647,2147483647,2147483647,2147483647,2147483647,2147483647,2147483647,2147483647,2147483647,2147483647,2147483647,2147483647,2147483647,2147483647,2147483647,2147483647,2147483647,2147483647,2147483647,2147483647,2147483647,2147483647,2147483647,2147483647,2147483647,2147483647,2147483647,2147483647,2147483647,2147483647,2147483647,2147483647,2147483647,2147483647,2147483647,2147483647,2147483647,2147483647,2147483647,2147483647,2147483647,2147483647,2147483647,2147483647,2147483647,2147483647,2147483647,2147483647,2147483647,2147483647,2147483647,2147483647,2147483647,2147483647],"split_type":[0,0,0,0,0,0,0,0,0,0,0,0,0,0,0,0,0,0,0,0,0,0,0,0,0,0,0,0,0,0,0,0,0,0,0,0,0,0,0,0,0,0,0,0,0,0,0,0,0,0,0,0,0,0,0,0,0,0,0,0,0,0,0],"sum_hessian":[2.588E3,2.347E3,2.41E2,2.119E3,2.28E2,6.7E1,1.74E2,6.59E2,1.46E3,1.59E2,6.9E1,2.6E1,4.1E1,1.63E2,1.1E1,3.07E2,3.52E2,1.154E3,3.06E2,1.1E2,4.9E1,5.8E1,1.1E1,3E0,2.3E1,1.18E2,4.5E1,2.24E2,8.3E1,7E1,2.82E2,2.63E2,8.91E2,1.44E2,1.62E2,9.2E1,1.8E1,3E0,5.5E1,1.08E2,1E1,4.8E1,1.76E2,2.4E1,5.9E1,6E0,6.4E1,1.57E2,1.25E2,1.58E2,1.05E2,4E1,8.51E2,1.13E2,3.1E1,8.3E1,7.9E1,7.5E1,1.7E1,8E0,4.7E1,8.1E1,2.7E1],"tree_param":{"num_deleted":"62","num_feature":"50","num_nodes":"63","size_leaf_vector":"0"}},{"base_weights":[-3.1725309E-4,4.458842E-3,-2.0167802E-3,1.5196942E-3,3.6695275E-2,-9.004491E-3,-0E0,6.5712943E-3,-7.1040227E-4,-0E0,4.1792903E-2,-0E0,-2.2258826E-2,1.6551008E-2,-7.74894E-4,-0E0,1.3502966E-2,1.007318E-2,-7.1842163E-3,-0E0,4.60398E-2,-8.020664E-3,1.0251662E-2,-2.620774E-2,-0E0,2.5457954E-2,-0E0,-0E0,-7.924109E-3,7.224495E-4,-1.5005786E-2,-0E0,1.7282145E-2,2.2489993E-2,-0E0,-0E0,-1.3505806E-2,-1.1066846E-2,-0E0,-0E0,1.5690722E-2,-0E0,-3.0537317E-2,-0E0,3.9469667E-2,-6.9381885E-4,6.470735E-3,4.2735733E-4,-1.586533E-2,-0E0,1.0293988E-2,-1.7191263E-2,-0E0,2.526423E-2,-0E0,-0E0,2.9235916E-2,-0E0,5.9609655E-3,-1.781921E-2,-0E0,-1.48182325E-2,-0E0,1.8444661E-2,-0E0,-3.4041364E-2,-0E0,4.736914E-2,-0E0,5.369839E-3,-3.2984372E-3,1.2313451E-2,-0E0,-0E0,1.7265348E-2,-2.30747E-2,-0E0],"categories":[],"categories_nodes":[],"categories_segments":[],"categories_sizes":[],"default_left":[1,1,1,1,1,1,1,1,1,1,1,1,1,1,1,1,1,1,1,1,1,1,1,1,1,1,1,1,1,1,1,1,1,1,1,1,1,1,1,1,1,1,1,1,1,1,1,1,1,1,1,1,1,1,1,1,1,1,1,1,1,1,1,1,1,1,1,1,1,1,1,1,1,1,1,1,1],"id":18,"left_children":[1,-1,5,-1,-1,11,-1,-1,-1,-1,-1,-1,-1,-1,-1,-1,-1,-1,-1,-1,-1,-1,-1,-1,-1,-1,-1,-1,-1,-1,-1,-1,-1,-1,-1,-1,-1,-1,-1,-1,-1,-1,-1,-1,-1,-1,-1,-1,-1,-1,-1,-1,-1,-1,-1,-1,-1,-1,-1,-1,-1,-1,-1,-1,-1,-1,-1,-1,-1,-1,-1,-1,-1,-1,-1,-1,-1],"loss_changes":[1.916095E-2,2.4375092E-2,3.2665618E-2,1.0488392E-2,4.956715E-3,5.8427297E-2,2.6739994E-2,1.5844252E-2,1.6663928E-2,0E0,2.028305E-3,2.4897568E-2,1.9139208E-2,1.7854711E-2,1.3238605E-2,5.1133963E-3,1.3326379E-2,1.0597979E-2,1.7576955E-2,0E0,0E0,7.3864805E-3,8.176471E-3,2.092833E-2,0E0,1.4658686E-2,0E0,9.291343E-3,2.6563022E-2,7.3127057E-3,6.95562E-4,0E0,1.3799176E-2,5.3521283E-3,0E0,9.055628E-4,1.4158329E-2,1.0635028E-2,0E0,0E0,6.276965E-3,0E0,1.8761903E-2,0E0,1.2251012E-2,1.4133151E-2,1.4306846E-2,1.0566221E-2,1.0725483E-2,0E0,0E0,0E0,0E0,0E0,0E0,0E0,0E0,0E0,0E0,0E0,0E0,0E0,0E0,0E0,0E0,0E0,0E0,0E0,0E0,0E0,0E0,0E0,0E0,0E0,0E0,0E0,0E0],"parents":[2147483647,0,0,1,1,2,2,3,3,4,4,5,5,6,6,7,7,8,8,10,10,11,11,12,12,13,13,14,14,15,15,16,16,17,17,18,18,21,21,22,22,23,23,25,25,27,27,28,28,29,29,30,30,32,32,33,33,35,35,36,36,37,37,40,40,42,42,44,44,45,45,46,46,47,47,48,48],"right_children":[2,-1,6,-1,-1,12,-1,-1,-1,-1,-1,-1,-1,-1,-1,-1,-1,-1,-1,-1,-1,-1,-1,-1,-1,-1,-1,-1,-1,-1,-1,-1,-1,-1,-1,-1,-1,-1,-1,-1,-1,-1,-1,-1,-1,-1,-1,-1,-1,-1,-1,-1,-1,-1,-1,-1,-1,-1,-1,-1,-1,-1,-1,-1,-1,-1,-1,-1,-1,-1,-1,-1,-1,-1,-1,-1,-1],"split_conditions":[1.2859957E-1,2.5756771E-3,1.8315864E-1,8.7786064E-4,2.119725E-2,2.40655E-1,-0E0,3.795948E-3,-4.103682E-4,-0E0,2.4141924E-2,-0E0,-1.2857947E-2,9.560791E-3,-4.4762227E-4,-0E0,7.8000706E-3,5.818834E-3,-4.1500065E-3,-0E0,2.6595172E-2,-4.633185E-3,5.9219347E-3,-1.513906E-2,-0E0,1.4705942E-2,-0E0,-0E0,-4.5774095E-3,4.1732736E-4,-8.668183E-3,-0E0,9.983136E-3,1.2991481E-2,-0E0,-0E0,-7.801711E-3,-6.392831E-3,-0E0,-0E0,9.063841E-3,-0E0,-1.7640067E-2,-0E0,2.2799894E-2,-4.0078867E-4,3.7378597E-3,2.4686556E-4,-9.164704E-3,-0E0,5.9463847E-3,-9.930638E-3,-0E0,1.4594036E-2,-0E0,-0E0,1.6888306E-2,-0E0,3.443388E-3,-1.0293376E-2,-0E0,-8.559843E-3,-0E0,1.0654671E-2,-0E0,-1.9664202E-2,-0E0,2.7363073E-2,-0E0,3.10192E-3,-1.9053624E-3,7.11294E-3,-0E0,-0E0,9.973433E-3,-1.33292405E-2,-0E0],"split_indices":[47,42,47,2147483647,2147483647,13,47,2147483647,2147483647,2147483647,2147483647,39,44,2147483647,2147483647,2147483647,2147483647,2147483647,2147483647,2147483647,2147483647,2147483647,2147483647,2147483647,2147483647,2147483647,2147483647,2147483647,2147483647,2147483647,2147483647,2147483647,2147483647,2147483647,2147483647,2147483647,2147483647,2147483647,2147483647,2147483647,2147483647,2147483647,2147483647,2147483647,2147483647,2147483647,2147483647,2147483647,2147483647,2147483647,2147483647,2147483647,2147483647,2147483647,2147483647,2147483647,2147483647,2147483647,2147483647,2147483647,2147483647,2147483647,2147483647,2147483647,2147483647,2147483647,2147483647,2147483647,2147483647,2147483647,2147483647,2147483647,2147483647,2147483647,2147483647,2147483647,2147483647],"split_type":[0,0,0,0,0,0,0,0,0,0,0,0,0,0,0,0,0,0,0,0,0,0,0,0,0,0,0,0,0,0,0,0,0,0,0,0,0,0,0,0,0,0,0,0,0,0,0,0,0,0,0,0,0,0,0,0,0,0,0,0,0,0,0,0,0,0,0,0,0,0,0,0,0,0,0,0,0],"sum_hessian":[2.587E3,5.62E2,2.025E3,5.37E2,2.5E1,5.04E2,1.521E3,2.68E2,2.69E2,3E0,2.2E1,3.04E2,2E2,9.4E1,1.427E3,1.18E2,1.5E2,5.7E1,2.12E2,3E0,1.9E1,1.75E2,1.29E2,1.72E2,2.8E1,6.7E1,2.7E1,1.203E3,2.24E2,9.6E1,2.2E1,1.4E1,1.36E2,3.2E1,2.5E1,5.6E1,1.56E2,1.52E2,2.3E1,4.1E1,8.8E1,2.3E1,1.49E2,3E1,3.7E1,9.93E2,2.1E2,6.3E1,1.61E2,2.7E1,6.9E1,1.9E1,3E0,8.5E1,5.1E1,7E0,2.5E1,3.1E1,2.5E1,1.34E2,2.2E1,1.33E2,1.9E1,8.2E1,6E0,1.36E2,1.3E1,3.1E1,6E0,2.11E2,7.82E2,1.52E2,5.8E1,2.8E1,3.5E1,9.6E1,6.5E1],"tree_param":{"num_deleted":"70","num_feature":"50","num_nodes":"77","size_leaf_vector":"0"}},{"base_weights":[-0E0,9.3440793E-4,-8.873565E-3,-0E0,8.880486E-3,-1.4926645E-2,-0E0,-3.2914258E-3,1.007027E-3,1.5398995E-2,-0E0,-1.9659476E-2,-0E0,-1.0669357E-2,5.724564E-4,7.1388525E-3,-4.5722618E-4,2.0134512E-2,-0E0,-5.064343E-3,-0E0,-2.579778E-2,-0E0,-1.5422407E-2,-0E0,7.815477E-3,-7.188355E-5,-0E0,1.1250181E-2,1.4122709E-3,-5.7486063E-3,-0E0,2.3165522E-2,-0E0,-9.404744E-3,-0E0,-2.9164277E-2,-0E0,-1.7767657E-2,-0E0,5.210873E-4,-0E0,1.3377759E-2,-0E0,-7.51316E-3,-0E0,-3.7745256E-3,-0E0,1.4340523E-2,-0E0,1.3134778E-2,-1.8844975E-2,1.9606148E-4,2.5656072E-2,-0E0,-0E0,-1.2314838E-2,-3.0951736E-2,-0E0],"categories":[],"categories_nodes":[],"categories_segments":[],"categories_sizes":[],"default_left":[1,1,1,1,1,1,1,1,1,1,1,1,1,1,1,1,1,1,1,1,1,1,1,1,1,1,1,1,1,1,1,1,1,1,1,1,1,1,1,1,1,1,1,1,1,1,1,1,1,1,1,0,0,1,1,1,1,1,1],"id":19,"left_children":[1,3,-1,7,-1,-1,-1,-1,15,-1,-1,-1,-1,-1,-1,-1,29,-1,-1,-1,-1,-1,-1,-1,-1,-1,-1,-1,-1,-1,51,-1,-1,-1,-1,-1,-1,-1,-1,-1,-1,-1,-1,-1,-1,-1,-1,-1,-1,-1,-1,-1,-1,-1,-1,-1,-1,-1,-1],"loss_changes":[1.8339727E-2,1.7120903E-2,1.6601702E-2,6.9481465E-3,2.1224987E-2,1.3706502E-2,0E0,2.1505058E-2,1.990802E-2,1.8147077E-2,1.576942E-3,1.3653234E-2,0E0,1.6949384E-2,7.033068E-3,1.7589984E-2,1.5513957E-2,1.1449639E-2,0E0,3.5960139E-3,0E0,1.2489632E-2,0E0,8.599881E-3,1.0178387E-5,6.5729995E-3,3.5264236E-3,5.9103913E-4,1.156681E-2,1.9001313E-2,4.7460172E-2,0E0,9.941913E-3,0E0,3.2416424E-3,0E0,4.3957382E-3,0E0,0E0,0E0,0E0,0E0,0E0,0E0,0E0,0E0,0E0,0E0,0E0,0E0,0E0,0E0,0E0,0E0,0E0,0E0,0E0,0E0,0E0],"parents":[2147483647,0,0,1,1,2,2,3,3,4,4,5,5,7,7,8,8,9,9,10,10,11,11,13,13,14,14,15,15,16,16,17,17,19,19,21,21,23,23,24,24,25,25,26,26,27,27,28,28,29,29,30,30,32,32,34,34,36,36],"right_children":[2,4,-1,8,-1,-1,-1,-1,16,-1,-1,-1,-1,-1,-1,-1,30,-1,-1,-1,-1,-1,-1,-1,-1,-1,-1,-1,-1,-1,52,-1,-1,-1,-1,-1,-1,-1,-1,-1,-1,-1,-1,-1,-1,-1,-1,-1,-1,-1,-1,-1,-1,-1,-1,-1,-1,-1,-1],"split_conditions":[8.122885E-1,7.2089666E-1,-5.125869E-3,7.3578686E-2,5.129867E-3,-8.6224675E-3,-0E0,-1.9013121E-3,1.8503618E-1,8.895324E-3,-0E0,-1.1356416E-2,-0E0,-6.163219E-3,3.3068293E-4,4.123802E-3,4.591925E-1,1.1630824E-2,-0E0,-2.9254486E-3,-0E0,-1.4902245E-2,-0E0,-8.908847E-3,-0E0,4.5146584E-3,-4.152397E-5,-0E0,6.498736E-3,8.158069E-4,3.2280326E-1,-0E0,1.3381705E-2,-0E0,-5.4327077E-3,-0E0,-1.6846923E-2,-0E0,-1.0263595E-2,-0E0,3.0100928E-4,-0E0,7.7277436E-3,-0E0,-4.3400223E-3,-0E0,-2.1803777E-3,-0E0,8.28389E-3,-0E0,7.5873844E-3,-1.0885915E-2,1.1325611E-4,1.4820387E-2,-0E0,-0E0,-7.1137412E-3,-1.787946E-2,-0E0],"split_indices":[40,4,29,40,37,2147483647,2147483647,42,40,2147483647,2147483647,2147483647,2147483647,2147483647,2147483647,8,42,2147483647,2147483647,2147483647,2147483647,2147483647,2147483647,2147483647,2147483647,2147483647,2147483647,2147483647,2147483647,25,49,2147483647,2147483647,2147483647,2147483647,2147483647,2147483647,2147483647,2147483647,2147483647,2147483647,2147483647,2147483647,2147483647,2147483647,2147483647,2147483647,2147483647,2147483647,2147483647,2147483647,0,0,2147483647,2147483647,2147483647,2147483647,2147483647,2147483647],"split_type":[0,0,0,0,0,0,0,0,0,0,0,0,0,0,0,0,0,0,0,0,0,0,0,0,0,0,0,0,0,0,0,0,0,0,0,0,0,0,0,0,0,0,0,0,0,0,0,0,0,0,0,0,0,0,0,0,0,0,0],"sum_hessian":[2.589E3,2.383E3,2.06E2,2.14E3,2.43E2,1.47E2,5.9E1,4.86E2,1.654E3,1.7E2,7.3E1,1.2E2,2.7E1,2.34E2,2.52E2,4.18E2,1.236E3,1.44E2,2.6E1,6.1E1,1.2E1,9E1,3E1,1.83E2,5.1E1,1.16E2,1.36E2,1.11E2,3.07E2,8.08E2,4.28E2,1.4E1,1.3E2,3E0,5.8E1,5E0,8.5E1,1.8E1,1.65E2,1.4E1,3.7E1,4E1,7.6E1,7.4E1,6.2E1,7E1,4.1E1,6.2E1,2.45E2,6.89E2,1.19E2,1.73E2,2.55E2,1.21E2,9E0,3E0,5.5E1,8E1,5E0],"tree_param":{"num_deleted":"46","num_feature":"50","num_nodes":"59","size_leaf_vector":"0"}},{"base_weights":[-0E0,1.5638164E-3,-2.952374E-3,4.363889E-3,-3.4210782E-3,-1.0975957E-2,-0E0,-5.1511946E-4,7.435426E-3,-7.778945E-3,-0E0,-1.5938567E-2,-0E0,1.9710744E-3,-1.575394E-2,2.0556487E-3,-6.9055227E-3,-0E0,1.2375129E-2,-0E0,-1.2221842E-2,-6.887241E-3,5.761176E-3,-0E0,-1.8234635E-2,-5.643108E-3,7.855862E-3,-0E0,-2.8915254E-2,1.2380141E-2,-0E0,-1.1501279E-2,-0E0,8.397813E-3,-2.5748727E-3,1.3894556E-2,-0E0,-1.9048337E-2,-0E0,-0E0,-1.3385869E-2,1.2528859E-2,-0E0,-0E0,-2.0886792E-2,-1.1539024E-2,-0E0,9.970162E-3,-0E0,-3.196432E-2,-0E0,2.0710751E-2,-0E0,-3.6473204E-3,1.284226E-3,-1.9625949E-2,-0E0,1.6631762E-2,-0E0,-9.438242E-3,-0E0,1.5385671E-2,-0E0,-2.360489E-2,-0E0,-0E0,-1.8051319E-2,-0E0,1.9614652E-2,-2.3328071E-2,-0E0,-1.4773113E-2,-0E0,1.8237832E-3,-0E0,1.154133E-2,-0E0],"categories":[],"categories_nodes":[],"categories_segments":[],"categories_sizes":[],"default_left":[1,1,1,1,1,1,1,1,1,1,1,1,1,1,1,1,1,1,1,1,1,1,1,1,1,1,1,1,1,1,1,1,1,1,1,1,1,1,1,1,1,1,1,1,1,1,1,1,1,1,1,1,1,1,1,1,1,1,1,1,1,1,1,1,1,1,1,1,1,1,1,1,1,1,1,1,1],"id":20,"left_children":[1,3,-1,7,-1,-1,-1,-1,17,-1,-1,-1,-1,-1,-1,-1,-1,-1,-1,-1,-1,-1,-1,-1,-1,-1,-1,-1,-1,-1,-1,-1,-1,-1,-1,-1,-1,-1,-1,-1,-1,-1,-1,-1,-1,-1,-1,-1,-1,-1,-1,-1,-1,-1,-1,-1,-1,-1,-1,-1,-1,-1,-1,-1,-1,-1,-1,-1,-1,-1,-1,-1,-1,-1,-1,-1,-1],"loss_changes":[1.1411359E-2,2.5181346E-2,2.3171192E-2,2.350915E-2,1.1576084E-2,1.4537085E-2,1.2826215E-2,9.858565E-3,3.185137E-2,1.4069118E-2,8.997282E-3,9.525187E-3,0E0,2.515067E-2,1.4695892E-2,6.651623E-3,1.4298726E-2,6.768366E-3,1.4857069E-2,0E0,2.0172998E-2,8.295445E-3,1.382471E-2,0E0,1.0418709E-2,8.951955E-3,1.0861617E-2,0E0,2.5936626E-3,1.0792131E-2,1.1638454E-3,2.4856444E-2,0E0,6.4340467E-3,6.7788395E-3,1.4007479E-2,0E0,1.7857127E-2,0E0,0E0,6.6719493E-3,1.7737405E-2,0E0,0E0,8.9530125E-3,7.703903E-3,1.0472507E-4,9.203564E-3,0E0,0E0,0E0,0E0,0E0,0E0,0E0,0E0,0E0,0E0,0E0,0E0,0E0,0E0,0E0,0E0,0E0,0E0,0E0,0E0,0E0,0E0,0E0,0E0,0E0,0E0,0E0,0E0,0E0],"parents":[2147483647,0,0,1,1,2,2,3,3,4,4,5,5,6,6,7,7,8,8,9,9,10,10,11,11,13,13,14,14,15,15,16,16,17,17,18,18,20,20,21,21,22,22,24,24,25,25,26,26,28,28,29,29,30,30,31,31,33,33,34,34,35,35,37,37,40,40,41,41,44,44,45,45,46,46,47,47],"right_children":[2,4,-1,8,-1,-1,-1,-1,18,-1,-1,-1,-1,-1,-1,-1,-1,-1,-1,-1,-1,-1,-1,-1,-1,-1,-1,-1,-1,-1,-1,-1,-1,-1,-1,-1,-1,-1,-1,-1,-1,-1,-1,-1,-1,-1,-1,-1,-1,-1,-1,-1,-1,-1,-1,-1,-1,-1,-1,-1,-1,-1,-1,-1,-1,-1,-1,-1,-1,-1,-1,-1,-1,-1,-1,-1,-1],"split_conditions":[6.57714E-1,4.5661736E-1,-1.7054569E-3,1.5448228E-1,-1.9762067E-3,-6.340328E-3,-0E0,-2.975619E-4,4.1006875E-1,-4.493555E-3,-0E0,-9.20701E-3,-0E0,1.1386031E-3,-9.100359E-3,1.187458E-3,-3.989017E-3,-0E0,7.148569E-3,-0E0,-7.0600216E-3,-3.9784564E-3,3.3279783E-3,-0E0,-1.0533348E-2,-3.2597757E-3,4.5379866E-3,-0E0,-1.6703073E-2,7.1514635E-3,-0E0,-6.6437838E-3,-0E0,4.851048E-3,-1.4873908E-3,8.026275E-3,-0E0,-1.1003388E-2,-0E0,-0E0,-7.7324286E-3,7.2373715E-3,-0E0,-0E0,-1.2065383E-2,-6.665588E-3,-0E0,5.759325E-3,-0E0,-1.8464385E-2,-0E0,1.1963692E-2,-0E0,-2.1068968E-3,7.418409E-4,-1.1337048E-2,-0E0,9.607438E-3,-0E0,-5.452058E-3,-0E0,8.887626E-3,-0E0,-1.3635509E-2,-0E0,-0E0,-1.04274545E-2,-0E0,1.13305235E-2,-1.34756025E-2,-0E0,-8.533779E-3,-0E0,1.0535194E-3,-0E0,6.6669197E-3,-0E0],"split_indices":[10,6,10,6,39,2147483647,2147483647,4,10,2147483647,2147483647,2147483647,2147483647,2147483647,2147483647,2147483647,2147483647,19,16,2147483647,2147483647,2147483647,2147483647,2147483647,2147483647,2147483647,2147483647,2147483647,2147483647,2147483647,2147483647,2147483647,2147483647,2147483647,2147483647,2147483647,2147483647,2147483647,2147483647,2147483647,2147483647,2147483647,2147483647,2147483647,2147483647,2147483647,2147483647,2147483647,2147483647,2147483647,2147483647,2147483647,2147483647,2147483647,2147483647,2147483647,2147483647,2147483647,2147483647,2147483647,2147483647,2147483647,2147483647,2147483647,2147483647,2147483647,2147483647,2147483647,2147483647,2147483647,2147483647,2147483647,2147483647,2147483647,2147483647,2147483647,2147483647],"split_type":[0,0,0,0,0,0,0,0,0,0,0,0,0,0,0,0,0,0,0,0,0,0,0,0,0,0,0,0,0,0,0,0,0,0,0,0,0,0,0,0,0,0,0,0,0,0,0,0,0,0,0,0,0,0,0,0,0,0,0,0,0,0,0,0,0,0,0,0,0,0,0,0,0,0,0,0,0],"sum_hessian":[2.569E3,1.752E3,8.17E2,1.219E3,5.33E2,2.51E2,5.66E2,3.76E2,8.43E2,2.94E2,2.39E2,1.76E2,7.5E1,5.23E2,4.3E1,1.84E2,