{"learner":{"attributes":{"best_iteration":"756","best_ntree_limit":"757","scikit_learn":"{\"n_estimators\": 757, \"objective\": \"reg:squarederror\", \"max_depth\": 3, \"max_leaves\": null, \"max_bin\": null, \"grow_policy\": null, \"learning_rate\": 0.31325649717042997, \"verbosity\": null, \"booster\": null, \"tree_method\": null, \"gamma\": 0.010312428841639115, \"min_child_weight\": 2, \"max_delta_step\": null, \"subsample\": 0.6735099756683387, \"sampling_method\": null, \"colsample_bytree\": 0.5420730527555989, \"colsample_bylevel\": null, \"colsample_bynode\": null, \"reg_alpha\": 0.46184044849096867, \"reg_lambda\": 0.11693833306257394, \"scale_pos_weight\": null, \"base_score\": null, \"missing\": NaN, \"num_parallel_tree\": null, \"random_state\": 483, \"n_jobs\": null, \"monotone_constraints\": null, \"interaction_constraints\": null, \"importance_type\": null, \"gpu_id\": null, \"validate_parameters\": null, \"predictor\": null, \"enable_categorical\": false, \"feature_types\": null, \"max_cat_to_onehot\": null, \"max_cat_threshold\": null, \"eval_metric\": null, \"early_stopping_rounds\": null, \"callbacks\": null, \"_estimator_type\": \"regressor\"}"},"feature_names":[],"feature_types":[],"gradient_booster":{"model":{"gbtree_model_param":{"num_parallel_tree":"1","num_trees":"757","size_leaf_vector":"0"},"tree_info":[0,0,0,0,0,0,0,0,0,0,0,0,0,0,0,0,0,0,0,0,0,0,0,0,0,0,0,0,0,0,0,0,0,0,0,0,0,0,0,0,0,0,0,0,0,0,0,0,0,0,0,0,0,0,0,0,0,0,0,0,0,0,0,0,0,0,0,0,0,0,0,0,0,0,0,0,0,0,0,0,0,0,0,0,0,0,0,0,0,0,0,0,0,0,0,0,0,0,0,0,0,0,0,0,0,0,0,0,0,0,0,0,0,0,0,0,0,0,0,0,0,0,0,0,0,0,0,0,0,0,0,0,0,0,0,0,0,0,0,0,0,0,0,0,0,0,0,0,0,0,0,0,0,0,0,0,0,0,0,0,0,0,0,0,0,0,0,0,0,0,0,0,0,0,0,0,0,0,0,0,0,0,0,0,0,0,0,0,0,0,0,0,0,0,0,0,0,0,0,0,0,0,0,0,0,0,0,0,0,0,0,0,0,0,0,0,0,0,0,0,0,0,0,0,0,0,0,0,0,0,0,0,0,0,0,0,0,0,0,0,0,0,0,0,0,0,0,0,0,0,0,0,0,0,0,0,0,0,0,0,0,0,0,0,0,0,0,0,0,0,0,0,0,0,0,0,0,0,0,0,0,0,0,0,0,0,0,0,0,0,0,0,0,0,0,0,0,0,0,0,0,0,0,0,0,0,0,0,0,0,0,0,0,0,0,0,0,0,0,0,0,0,0,0,0,0,0,0,0,0,0,0,0,0,0,0,0,0,0,0,0,0,0,0,0,0,0,0,0,0,0,0,0,0,0,0,0,0,0,0,0,0,0,0,0,0,0,0,0,0,0,0,0,0,0,0,0,0,0,0,0,0,0,0,0,0,0,0,0,0,0,0,0,0,0,0,0,0,0,0,0,0,0,0,0,0,0,0,0,0,0,0,0,0,0,0,0,0,0,0,0,0,0,0,0,0,0,0,0,0,0,0,0,0,0,0,0,0,0,0,0,0,0,0,0,0,0,0,0,0,0,0,0,0,0,0,0,0,0,0,0,0,0,0,0,0,0,0,0,0,0,0,0,0,0,0,0,0,0,0,0,0,0,0,0,0,0,0,0,0,0,0,0,0,0,0,0,0,0,0,0,0,0,0,0,0,0,0,0,0,0,0,0,0,0,0,0,0,0,0,0,0,0,0,0,0,0,0,0,0,0,0,0,0,0,0,0,0,0,0,0,0,0,0,0,0,0,0,0,0,0,0,0,0,0,0,0,0,0,0,0,0,0,0,0,0,0,0,0,0,0,0,0,0,0,0,0,0,0,0,0,0,0,0,0,0,0,0,0,0,0,0,0,0,0,0,0,0,0,0,0,0,0,0,0,0,0,0,0,0,0,0,0,0,0,0,0,0,0,0,0,0,0,0,0,0,0,0,0,0,0,0,0,0,0,0,0,0,0,0,0,0,0,0,0,0,0,0,0,0,0,0,0,0,0,0,0,0,0,0,0,0,0,0,0,0,0,0,0,0,0,0,0,0,0,0,0,0,0,0,0,0,0,0,0,0,0,0,0,0,0,0,0,0,0,0,0,0,0,0,0,0,0,0,0,0,0,0,0,0,0,0,0,0,0,0,0,0,0,0,0,0,0,0,0,0,0,0,0,0,0,0,0,0,0,0,0,0,0,0,0,0,0,0,0,0,0,0,0,0,0,0,0,0,0,0,0],"trees":[{"base_weights":[-8.2644336E-2,-4.9430137E-3,-1.4080302E-1,3.680994E-2,-9.156754E-2,-2.1513066E-1,-8.57623E-2,5.0420627E-2,-4.2433918E-2,-1.03068195E-1,-0E0,-1.7246829E-1,-2.9707703E-1,-1.0943719E-1,6.0000405E-2],"categories":[],"categories_nodes":[],"categories_segments":[],"categories_sizes":[],"default_left":[1,1,1,1,1,1,1,0,0,0,0,0,0,0,0],"id":0,"left_children":[1,3,5,7,9,11,13,-1,-1,-1,-1,-1,-1,-1,-1],"loss_changes":[5.396614E0,1.9104745E0,2.673997E0,3.79405E-1,2.2816586E-1,7.879152E-1,1.4009182E0,0E0,0E0,0E0,0E0,0E0,0E0,0E0,0E0],"parents":[2147483647,0,0,1,1,2,2,3,3,4,4,5,5,6,6],"right_children":[2,4,6,8,10,12,14,-1,-1,-1,-1,-1,-1,-1,-1],"split_conditions":[8.044347E-2,5.455128E-1,4.1039264E-1,4.7696477E-1,9.719956E-1,6.45217E-1,2.911207E-1,1.579459E-2,-1.3292701E-2,-3.228678E-2,-0E0,-5.4026812E-2,-9.306131E-2,-3.4281913E-2,1.8795516E-2],"split_indices":[48,43,14,49,36,31,48,0,0,0,0,0,0,0,0],"split_type":[0,0,0,0,0,0,0,0,0,0,0,0,0,0,0],"sum_hessian":[1.209E3,5.21E2,6.88E2,3.48E2,1.73E2,2.89E2,3.99E2,3.02E2,4.6E1,1.58E2,1.5E1,1.94E2,9.5E1,3.46E2,5.3E1],"tree_param":{"num_deleted":"0","num_feature":"50","num_nodes":"15","size_leaf_vector":"0"}},{"base_weights":[-5.8814317E-2,-1.6901708E-1,-3.0092612E-2,-1.83734E-1,-0E0,-7.758703E-2,-0E0,-0E0,-1.9167362E-1,-0E0,-1.1308207E-2,-3.424265E-2,-9.614864E-2,-8.6580046E-2,1.8427316E-2],"categories":[],"categories_nodes":[],"categories_segments":[],"categories_sizes":[],"default_left":[1,1,1,1,1,1,1,0,0,1,1,0,0,0,0],"id":1,"left_children":[1,3,5,7,-1,11,13,-1,-1,-1,-1,-1,-1,-1,-1],"loss_changes":[3.5889587E0,5.5580807E-1,1.3592527E0,3.1648827E-1,7.822069E-4,2.3314643E-1,8.641274E-1,0E0,0E0,0E0,0E0,0E0,0E0,0E0,0E0],"parents":[2147483647,0,0,1,1,2,2,3,3,4,4,5,5,6,6],"right_children":[2,4,6,8,-1,12,14,-1,-1,-1,-1,-1,-1,-1,-1],"split_conditions":[3.001896E-1,4.9958485E-1,1.8079689E-1,8.118997E-3,-0E0,4.24497E-2,4.0105417E-1,-0E0,-6.0043007E-2,-0E0,-3.5423695E-3,-1.0726732E-2,-3.0119186E-2,-2.7121762E-2,5.7724766E-3],"split_indices":[21,28,45,12,37,2,28,0,0,2147483647,2147483647,0,0,0,0],"split_type":[0,0,0,0,0,0,0,0,0,0,0,0,0,0,0],"sum_hessian":[1.163E3,2.37E2,9.26E2,2.17E2,2E1,3.65E2,5.61E2,9E0,2.08E2,1.4E1,6E0,1.17E2,2.48E2,9.4E1,4.67E2],"tree_param":{"num_deleted":"2","num_feature":"50","num_nodes":"15","size_leaf_vector":"0"}},{"base_weights":[-4.2499326E-2,-1.0906568E-1,-2.0328835E-2,-0E0,-1.2955448E-1,-5.5706576E-2,2.5932172E-2,-4.4387612E-2,1.9810459E-2,-9.250461E-2,-1.8161285E-1,-3.7056647E-2,-9.344832E-2,9.454276E-3,8.920181E-2],"categories":[],"categories_nodes":[],"categories_segments":[],"categories_sizes":[],"default_left":[1,1,1,1,1,1,1,0,0,0,0,0,0,0,0],"id":2,"left_children":[1,3,5,7,9,11,13,-1,-1,-1,-1,-1,-1,-1,-1],"loss_changes":[1.6668499E0,5.980768E-1,1.4592378E0,5.0670214E-2,3.326354E-1,2.955687E-1,3.4750152E-1,0E0,0E0,0E0,0E0,0E0,0E0,0E0,0E0],"parents":[2147483647,0,0,1,1,2,2,3,3,4,4,5,5,6,6],"right_children":[2,4,6,8,10,12,14,-1,-1,-1,-1,-1,-1,-1,-1],"split_conditions":[4.0135747E-1,7.9452544E-2,4.9570125E-1,3.5460192E-1,4.264645E-1,6.043805E-1,2.3718888E-1,-1.3904708E-2,6.205755E-3,-2.8977672E-2,-5.6891404E-2,-1.1608236E-2,-2.9273294E-2,2.9616135E-3,2.7943047E-2],"split_indices":[28,48,44,5,45,11,43,0,0,0,0,0,0,0,0],"split_type":[0,0,0,0,0,0,0,0,0,0,0,0,0,0,0],"sum_hessian":[1.17E3,2.87E2,8.83E2,4.8E1,2.39E2,5.06E2,3.77E2,2E1,2.8E1,1.45E2,9.4E1,3.47E2,1.59E2,3.05E2,7.2E1],"tree_param":{"num_deleted":"0","num_feature":"50","num_nodes":"15","size_leaf_vector":"0"}},{"base_weights":[-3.1126976E-2,-9.735701E-2,-1.8095486E-2,-6.33705E-2,-1.3996767E-1,2.357188E-2,-3.0459205E-2,-9.590239E-2,-1.7670477E-3,-1.6781309E-1,-0E0,-2.9775418E-2,4.746818E-2,-3.618628E-2,7.94766E-2],"categories":[],"categories_nodes":[],"categories_segments":[],"categories_sizes":[],"default_left":[1,1,1,1,1,1,1,0,0,0,0,0,0,0,0],"id":3,"left_children":[1,3,5,7,9,11,13,-1,-1,-1,-1,-1,-1,-1,-1],"loss_changes":[9.8571765E-1,1.8327451E-1,5.246706E-1,1.8156755E-1,2.837975E-1,2.9276666E-1,4.7717983E-1,0E0,0E0,0E0,0E0,0E0,0E0,0E0,0E0],"parents":[2147483647,0,0,1,1,2,2,3,3,4,4,5,5,6,6],"right_children":[2,4,6,8,10,12,14,-1,-1,-1,-1,-1,-1,-1,-1],"split_conditions":[2.53837E-1,1.5553717E-1,2.7950741E-2,7.090281E-1,4.6022677E-1,3.1193578E-1,3.1777054E-1,-3.0042047E-2,-5.535392E-4,-5.2568544E-2,-0E0,-9.327344E-3,1.4869717E-2,-1.1335588E-2,2.4896562E-2],"split_indices":[21,47,48,15,14,46,48,0,0,0,0,0,0,0,0],"split_type":[0,0,0,0,0,0,0,0,0,0,0,0,0,0,0],"sum_hessian":[1.204E3,1.92E2,1.012E3,1.13E2,7.9E1,2.23E2,7.89E2,6.9E1,4.4E1,6.5E1,1.4E1,6.3E1,1.6E2,7.54E2,3.5E1],"tree_param":{"num_deleted":"0","num_feature":"50","num_nodes":"15","size_leaf_vector":"0"}},{"base_weights":[-1.8024083E-2,-6.8409406E-2,-6.687456E-3,-9.336722E-2,-0E0,-2.0369831E-2,2.6088871E-2,-1.0956178E-1,-4.0760845E-2,1.6125065E-1,-3.646849E-2,-6.3533574E-2,-1.1105565E-2,-2.2338738E-3,3.944549E-2],"categories":[],"categories_nodes":[],"categories_segments":[],"categories_sizes":[],"default_left":[1,1,1,1,1,1,1,0,0,0,0,0,0,0,0],"id":4,"left_children":[1,3,5,7,9,11,13,-1,-1,-1,-1,-1,-1,-1,-1],"loss_changes":[6.513413E-1,3.810199E-1,4.405498E-1,6.475842E-2,3.4773344E-1,2.4820834E-1,1.2354158E-1,0E0,0E0,0E0,0E0,0E0,0E0,0E0,0E0],"parents":[2147483647,0,0,1,1,2,2,3,3,4,4,5,5,6,6],"right_children":[2,4,6,8,10,12,14,-1,-1,-1,-1,-1,-1,-1,-1],"split_conditions":[4.5529924E-2,4.1052875E-1,5.911714E-1,7.491751E-1,7.43442E-2,3.3965605E-1,6.346099E-1,-3.432094E-2,-1.27686E-2,5.0512813E-2,-1.1423992E-2,-1.9902306E-2,-3.4788905E-3,-6.997755E-4,1.2356556E-2],"split_indices":[33,21,44,25,27,35,22,0,0,0,0,0,0,0,0],"split_type":[0,0,0,0,0,0,0,0,0,0,0,0,0,0,0],"sum_hessian":[1.201E3,2.13E2,9.88E2,1.58E2,5.5E1,7.07E2,2.81E2,1.14E2,4.4E1,1.1E1,4.4E1,1.16E2,5.91E2,7.9E1,2.02E2],"tree_param":{"num_deleted":"0","num_feature":"50","num_nodes":"15","size_leaf_vector":"0"}},{"base_weights":[-1.3437429E-2,1.7589494E-3,-3.290794E-2,-3.8733608E-3,6.2312897E-2,-6.9057055E-2,-2.6297667E-3,2.617353E-2,-1.4703422E-2,8.037928E-2,-0E0,-7.969716E-2,6.644248E-3,2.1384524E-2,-2.7148928E-2],"categories":[],"categories_nodes":[],"categories_segments":[],"categories_sizes":[],"default_left":[1,1,1,1,1,1,1,0,0,0,0,0,0,0,0],"id":5,"left_children":[1,3,5,7,9,11,13,-1,-1,-1,-1,-1,-1,-1,-1],"loss_changes":[3.56466E-1,2.4397112E-1,5.3615403E-1,1.8189624E-1,7.356447E-2,2.1915317E-1,1.7355396E-1,0E0,0E0,0E0,0E0,0E0,0E0,0E0,0E0],"parents":[2147483647,0,0,1,1,2,2,3,3,4,4,5,5,6,6],"right_children":[2,4,6,8,10,12,14,-1,-1,-1,-1,-1,-1,-1,-1],"split_conditions":[5.593182E-1,9.177989E-1,5.564698E-1,4.7718406E-1,8.577032E-2,8.4922755E-1,1.6663489E-1,8.199029E-3,-4.6059424E-3,2.5179332E-2,-0E0,-2.4965655E-2,2.081354E-3,6.698841E-3,-8.504578E-3],"split_indices":[24,15,4,7,37,3,47,0,0,0,0,0,0,0,0],"split_type":[0,0,0,0,0,0,0,0,0,0,0,0,0,0,0],"sum_hessian":[1.156E3,6.36E2,5.2E2,5.75E2,6.1E1,2.3E2,2.9E2,1.41E2,4.34E2,4.8E1,1.3E1,2.07E2,2.3E1,1.37E2,1.53E2],"tree_param":{"num_deleted":"0","num_feature":"50","num_nodes":"15","size_leaf_vector":"0"}},{"base_weights":[-9.548445E-3,-6.4908855E-2,-2.2240307E-3,-0E0,-7.114007E-2,6.9989394E-3,-2.6035732E-2,-0E0,-7.495847E-2,1.7696252E-2,-1.5193342E-2,-3.9361123E-2,7.2594993E-3],"categories":[],"categories_nodes":[],"categories_segments":[],"categories_sizes":[],"default_left":[1,1,1,0,1,1,1,0,0,0,0,0,0],"id":6,"left_children":[1,3,5,-1,7,9,11,-1,-1,-1,-1,-1,-1],"loss_changes":[4.4262952E-1,8.415437E-2,2.3701853E-1,0E0,3.5527587E-2,1.757025E-1,1.497874E-1,0E0,0E0,0E0,0E0,0E0,0E0],"parents":[2147483647,0,0,1,1,2,2,4,4,5,5,6,6],"right_children":[2,4,6,-1,8,10,12,-1,-1,-1,-1,-1,-1],"split_conditions":[1.8033992E-2,8.644865E-3,3.1252962E-1,-0E0,5.0107706E-1,4.8200525E-2,7.7522576E-1,-0E0,-2.348123E-2,5.543466E-3,-4.759413E-3,-1.2330128E-2,2.2740853E-3],"split_indices":[34,19,34,0,46,37,12,0,0,0,0,0,0],"split_type":[0,0,0,0,0,0,0,0,0,0,0,0,0],"sum_hessian":[1.168E3,1.29E2,1.039E3,5E0,1.24E2,7.35E2,3.04E2,6E0,1.18E2,5.1E2,2.25E2,2.27E2,7.7E1],"tree_param":{"num_deleted":"0","num_feature":"50","num_nodes":"13","size_leaf_vector":"0"}},{"base_weights":[-8.797155E-3,-1.83206E-2,1.7627401E-2,-1.5282817E-2,-1.2529033E-1,-1.8929852E-2,3.076447E-2,3.308177E-2,-1.9816583E-2,-0E0,-1.4635582E-1,-4.0309485E-2,-0E0,3.86145E-2,-0E0],"categories":[],"categories_nodes":[],"categories_segments":[],"categories_sizes":[],"default_left":[1,1,1,1,1,1,1,0,0,0,0,0,0,0,0],"id":7,"left_children":[1,3,5,7,9,11,13,-1,-1,-1,-1,-1,-1,-1,-1],"loss_changes":[2.9758933E-1,2.2117344E-1,1.496665E-1,1.8277054E-1,7.2276294E-2,4.0058535E-2,6.270257E-2,0E0,0E0,0E0,0E0,0E0,0E0,0E0,0E0],"parents":[2147483647,0,0,1,1,2,2,3,3,4,4,5,5,6,6],"right_children":[2,4,6,8,10,12,14,-1,-1,-1,-1,-1,-1,-1,-1],"split_conditions":[6.3654244E-1,6.470393E-1,5.3472805E-1,3.440234E-1,4.2438692E-1,1.7865512E-1,7.125838E-1,1.036308E-2,-6.2076733E-3,-0E0,-4.5846913E-2,-1.2627209E-2,-0E0,1.2096243E-2,-0E0],"split_indices":[21,13,22,22,5,2,7,0,0,0,0,0,0,0,0],"split_type":[0,0,0,0,0,0,0,0,0,0,0,0,0,0,0],"sum_hessian":[1.181E3,8.81E2,3E2,8.61E2,2E1,7E1,2.3E2,6.5E1,7.96E2,2E0,1.8E1,4E1,3E1,1.88E2,4.2E1],"tree_param":{"num_deleted":"0","num_feature":"50","num_nodes":"15","size_leaf_vector":"0"}},{"base_weights":[-4.189823E-3,-0E0,-3.7950896E-2,9.155997E-2,-2.6047172E-3,-5.6737825E-2,1.0814255E-2,-1.0000209E-2,2.1480997E-1,-6.1164644E-2,-0E0,1.3671181E-2,-6.815226E-2,5.6067668E-2,-1.6576087E-2],"categories":[],"categories_nodes":[],"categories_segments":[],"categories_sizes":[],"default_left":[1,1,1,1,1,1,1,0,0,0,0,0,0,0,0],"id":8,"left_children":[1,3,5,7,9,11,13,-1,-1,-1,-1,-1,-1,-1,-1],"loss_changes":[1.7520581E-1,2.6778144E-1,1.4598435E-1,4.843404E-1,1.7683099E-1,1.0975078E-1,5.691714E-2,0E0,0E0,0E0,0E0,0E0,0E0,0E0,0E0],"parents":[2147483647,0,0,1,1,2,2,3,3,4,4,5,5,6,6],"right_children":[2,4,6,8,10,12,14,-1,-1,-1,-1,-1,-1,-1,-1],"split_conditions":[6.726521E-1,3.5358635E-1,7.703868E-1,2.2953984E-1,8.6428404E-2,3.3552805E-1,4.144196E-1,-3.1326306E-3,6.729062E-2,-1.9160222E-2,-0E0,4.2825863E-3,-2.1349138E-2,1.7563561E-2,-5.192567E-3],"split_indices":[42,22,14,22,49,0,27,0,0,0,0,0,0,0,0],"split_type":[0,0,0,0,0,0,0,0,0,0,0,0,0,0,0],"sum_hessian":[1.187E3,1.051E3,1.36E2,3.1E1,1.02E3,1.05E2,3.1E1,1.5E1,1.6E1,4.9E1,9.71E2,9E0,9.6E1,1.8E1,1.3E1],"tree_param":{"num_deleted":"0","num_feature":"50","num_nodes":"15","size_leaf_vector":"0"}},{"base_weights":[-3.1801518E-3,-2.3236636E-2,4.151088E-3,1.3665057E-2,-3.2499276E-2,1.3640354E-2,-1.974704E-2,-0E0,1.1999449E-1,-1.0766169E-3,-4.5144167E-2,-1.5894163E-2,2.3816392E-2,-6.275976E-2,6.494536E-3],"categories":[],"categories_nodes":[],"categories_segments":[],"categories_sizes":[],"default_left":[1,1,1,1,1,1,1,0,0,0,0,0,0,0,0],"id":9,"left_children":[1,3,5,7,9,11,13,-1,-1,-1,-1,-1,-1,-1,-1],"loss_changes":[1.8308403E-1,1.2295389E-1,1.9022383E-1,1.2060619E-1,8.875623E-2,1.9097735E-1,2.8351375E-1,0E0,0E0,0E0,0E0,0E0,0E0,0E0,0E0],"parents":[2147483647,0,0,1,1,2,2,3,3,4,4,5,5,6,6],"right_children":[2,4,6,8,10,12,14,-1,-1,-1,-1,-1,-1,-1,-1],"split_conditions":[4.133008E-1,3.1329852E-1,5.736842E-1,2.0050333E-1,3.5577938E-2,5.182434E-2,6.746696E-1,-0E0,3.7589055E-2,-3.3725725E-4,-1.4141704E-2,-4.97895E-3,7.46064E-3,-1.9659901E-2,2.0344555E-3],"split_indices":[35,15,33,48,20,34,40,0,0,0,0,0,0,0,0],"split_type":[0,0,0,0,0,0,0,0,0,0,0,0,0,0,0],"sum_hessian":[1.185E3,3.34E2,8.51E2,5.7E1,2.77E2,6.23E2,2.28E2,4.8E1,9E0,9E1,1.87E2,1.48E2,4.75E2,9.3E1,1.35E2],"tree_param":{"num_deleted":"0","num_feature":"50","num_nodes":"15","size_leaf_vector":"0"}},{"base_weights":[-4.332663E-4,-4.153029E-2,2.6131547E-3,-0E0,-5.575477E-2,1.6141292E-2,-8.649932E-3,2.4244043E-3,-0E0,-0E0,-6.540185E-2,-0E0,3.3521183E-2,-1.6826633E-2,2.8077047E-2],"categories":[],"categories_nodes":[],"categories_segments":[],"categories_sizes":[],"default_left":[1,1,1,1,1,1,1,1,1,0,0,0,0,0,0],"id":10,"left_children":[1,3,5,-1,9,11,13,-1,-1,-1,-1,-1,-1,-1,-1],"loss_changes":[1.624803E-1,6.5643206E-2,1.6561413E-1,8.297564E-5,4.0347993E-2,1.3786624E-1,1.6366619E-1,0E0,0E0,0E0,0E0,0E0,0E0,0E0,0E0],"parents":[2147483647,0,0,1,1,2,2,3,3,4,4,5,5,6,6],"right_children":[2,4,6,-1,10,12,14,-1,-1,-1,-1,-1,-1,-1,-1],"split_conditions":[2.5865972E-1,4.7938406E-1,4.6470377E-1,-0E0,2.5391454E-1,1.3773198E-1,7.611897E-1,7.594604E-4,-0E0,-0E0,-2.0487556E-2,-0E0,1.0500728E-2,-5.2710525E-3,8.795317E-3],"split_indices":[28,8,19,6,32,33,28,2147483647,2147483647,0,0,0,0,0,0],"split_type":[0,0,0,0,0,0,0,0,0,0,0,0,0,0,0],"sum_hessian":[1.154E3,9E1,1.064E3,1.9E1,7.1E1,5.02E2,5.62E2,1.4E1,5E0,1E1,6.1E1,2.63E2,2.39E2,4.7E2,9.2E1],"tree_param":{"num_deleted":"2","num_feature":"50","num_nodes":"15","size_leaf_vector":"0"}},{"base_weights":[-2.7344236E-3,4.368492E-3,-1.8754547E-2,1.1649776E-2,-6.26335E-3,-3.9749872E-2,-0E0,-1.9697271E-2,1.584717E-2,-1.538254E-2,3.378947E-2,-5.2749436E-2,-0E0,1.8992111E-2,-2.2042716E-2],"categories":[],"categories_nodes":[],"categories_segments":[],"categories_sizes":[],"default_left":[1,1,1,1,1,1,1,0,0,0,0,0,0,0,0],"id":11,"left_children":[1,3,5,7,9,11,13,-1,-1,-1,-1,-1,-1,-1,-1],"loss_changes":[1.4116624E-1,6.4358614E-2,1.4825927E-1,6.406172E-2,1.00811966E-1,8.460158E-2,8.569923E-2,0E0,0E0,0E0,0E0,0E0,0E0,0E0,0E0],"parents":[2147483647,0,0,1,1,2,2,3,3,4,4,5,5,6,6],"right_children":[2,4,6,8,10,12,14,-1,-1,-1,-1,-1,-1,-1,-1],"split_conditions":[4.8112072E-2,7.167743E-1,5.590695E-1,2.5009158E-1,7.264663E-1,5.446968E-1,4.9694216E-1,-6.1702984E-3,4.964229E-3,-4.8186807E-3,1.0584772E-2,-1.6524104E-2,-0E0,5.949402E-3,-6.905024E-3],"split_indices":[37,39,21,28,4,38,19,0,0,0,0,0,0,0,0],"split_type":[0,0,0,0,0,0,0,0,0,0,0,0,0,0,0],"sum_hessian":[1.182E3,7.99E2,3.83E2,5E2,2.99E2,1.79E2,2.04E2,4.6E1,4.54E2,2.53E2,4.6E1,1.32E2,4.7E1,1.08E2,9.6E1],"tree_param":{"num_deleted":"0","num_feature":"50","num_nodes":"15","size_leaf_vector":"0"}},{"base_weights":[-3.5834344E-4,1.6844647E-4,-8.7602556E-2,-6.4820265E-3,1.1362098E-2,1.8461024E-2,-1.2456651E-2,2.0819228E-2,-4.1219653E-3],"categories":[],"categories_nodes":[],"categories_segments":[],"categories_sizes":[],"default_left":[1,1,0,1,1,0,0,0,0],"id":12,"left_children":[1,3,-1,5,7,-1,-1,-1,-1],"loss_changes":[9.2873305E-2,8.639181E-2,0E0,9.905558E-2,7.319498E-2,0E0,0E0,0E0,0E0],"parents":[2147483647,0,0,1,1,3,3,4,4],"right_children":[2,4,-1,6,8,-1,-1,-1,-1],"split_conditions":[3.83859E-1,5.7353413E-1,-2.744207E-2,3.54096E-2,5.494496E-1,5.783036E-3,-3.9021268E-3,6.5217586E-3,-1.2912324E-3],"split_indices":[37,21,0,19,33,0,0,0,0],"split_type":[0,0,0,0,0,0,0,0,0],"sum_hessian":[1.142E3,1.13E3,1.2E1,6.83E2,4.47E2,1.17E2,5.66E2,2.96E2,1.51E2],"tree_param":{"num_deleted":"0","num_feature":"50","num_nodes":"9","size_leaf_vector":"0"}},{"base_weights":[4.7300538E-4,8.163706E-3,-5.9040296E-3,-5.084264E-3,1.6627617E-2,4.7656684E-3,-2.1006472E-2,1.39668025E-2,-1.753823E-2,2.4316665E-2,-7.049015E-3,-0E0,2.7071562E-2,2.7742373E-2,-2.9510897E-2],"categories":[],"categories_nodes":[],"categories_segments":[],"categories_sizes":[],"default_left":[1,1,1,1,1,1,1,0,0,0,0,0,0,0,0],"id":13,"left_children":[1,3,5,7,9,11,13,-1,-1,-1,-1,-1,-1,-1,-1],"loss_changes":[5.863249E-2,6.870743E-2,1.0566455E-1,4.8920825E-2,7.464681E-2,4.07532E-2,1.1289782E-1,0E0,0E0,0E0,0E0,0E0,0E0,0E0,0E0],"parents":[2147483647,0,0,1,1,2,2,3,3,4,4,5,5,6,6],"right_children":[2,4,6,8,10,12,14,-1,-1,-1,-1,-1,-1,-1,-1],"split_conditions":[1.05103076E-1,3.5097358E-1,8.275262E-2,4.6457477E-2,6.66442E-1,6.6602504E-1,3.9752446E-2,4.375192E-3,-5.493965E-3,7.6173535E-3,-2.2081498E-3,-0E0,8.480343E-3,8.690478E-3,-9.24448E-3],"split_indices":[2,21,16,12,11,14,44,0,0,0,0,0,0,0,0],"split_type":[0,0,0,0,0,0,0,0,0,0,0,0,0,0,0],"sum_hessian":[1.174E3,5.65E2,6.09E2,1.99E2,3.66E2,3.39E2,2.7E2,6.4E1,1.35E2,2.91E2,7.5E1,2.73E2,6.6E1,3.2E1,2.38E2],"tree_param":{"num_deleted":"0","num_feature":"50","num_nodes":"15","size_leaf_vector":"0"}},{"base_weights":[-2.8264665E-3,3.2630423E-3,-1.50300525E-2,-1.9083522E-2,9.438157E-3,-6.5232934E-3,-4.3789536E-2,-2.9326981E-2,1.0822267E-2,4.5285686E-3,5.9135936E-2,-2.220388E-2,2.9051583E-3,-0E0,-5.3686526E-2],"categories":[],"categories_nodes":[],"categories_segments":[],"categories_sizes":[],"default_left":[1,1,1,1,1,1,1,0,0,0,0,0,0,0,0],"id":14,"left_children":[1,3,5,7,9,11,13,-1,-1,-1,-1,-1,-1,-1,-1],"loss_changes":[9.2247464E-2,9.962901E-2,7.804381E-2,5.3650957E-2,1.1869973E-1,5.8021855E-2,4.7515154E-2,0E0,0E0,0E0,0E0,0E0,0E0,0E0,0E0],"parents":[2147483647,0,0,1,1,2,2,3,3,4,4,5,5,6,6],"right_children":[2,4,6,8,10,12,14,-1,-1,-1,-1,-1,-1,-1,-1],"split_conditions":[6.516189E-1,3.1584752E-1,7.3528147E-1,4.608037E-1,5.763871E-1,3.362622E-1,4.8868152E-1,-9.186868E-3,3.3901455E-3,1.4186036E-3,1.8524716E-2,-6.9555095E-3,9.100597E-4,-0E0,-1.6817654E-2],"split_indices":[7,28,19,35,25,26,3,0,0,0,0,0,0,0,0],"split_type":[0,0,0,0,0,0,0,0,0,0,0,0,0,0,0],"sum_hessian":[1.168E3,7.54E2,4.14E2,1.47E2,6.07E2,3.32E2,8.2E1,1.21E2,2.6E1,5.61E2,4.6E1,1.43E2,1.89E2,1.1E1,7.1E1],"tree_param":{"num_deleted":"0","num_feature":"50","num_nodes":"15","size_leaf_vector":"0"}},{"base_weights":[1.4487465E-3,-4.7906227E-2,3.1935016E-3,-5.4325033E-2,-0E0,1.7365437E-2,-8.3658914E-4,-5.8327537E-2,-0E0,2.6246395E-2,-1.353607E-2,-3.6312167E-3,3.66853E-2],"categories":[],"categories_nodes":[],"categories_segments":[],"categories_sizes":[],"default_left":[1,1,1,1,1,1,1,1,1,0,0,0,0],"id":15,"left_children":[1,-1,5,-1,-1,9,11,-1,-1,-1,-1,-1,-1],"loss_changes":[8.3143175E-2,3.3679754E-3,7.4637E-2,1.5696213E-3,0E0,8.415775E-2,7.787754E-2,0E0,0E0,0E0,0E0,0E0,0E0],"parents":[2147483647,0,0,1,1,2,2,3,3,5,5,6,6],"right_children":[2,-1,6,-1,-1,10,12,-1,-1,-1,-1,-1,-1],"split_conditions":[4.476803E-2,-1.5006937E-2,4.2535784E-4,-1.701767E-2,-0E0,6.324883E-1,7.911629E-1,-1.827148E-2,-0E0,8.2218535E-3,-4.240262E-3,-1.1375023E-3,1.1491909E-2],"split_indices":[49,22,37,2147483647,2147483647,32,18,2147483647,2147483647,0,0,0,0],"split_type":[0,0,0,0,0,0,0,0,0,0,0,0,0],"sum_hessian":[1.205E3,3.2E1,1.173E3,2.6E1,6E0,2.85E2,8.88E2,2.3E1,3E0,2.33E2,5.2E1,8.38E2,5E1],"tree_param":{"num_deleted":"4","num_feature":"50","num_nodes":"13","size_leaf_vector":"0"}},{"base_weights":[-0E0,-1.8306694E-3,2.8101409E-2,-3.409844E-2,4.403463E-4,-4.01183E-3,4.1022744E-2,-0E0,-5.2033596E-2,-2.7977461E-2,2.9301294E-3,-0E0,-1.6954925E-2,4.774203E-2,-0E0],"categories":[],"categories_nodes":[],"categories_segments":[],"categories_sizes":[],"default_left":[1,1,1,1,1,1,1,0,0,0,0,1,1,0,0],"id":16,"left_children":[1,3,5,7,9,-1,13,-1,-1,-1,-1,-1,-1,-1,-1],"loss_changes":[6.2186066E-2,9.5504135E-2,4.78669E-2,5.297058E-2,5.9628695E-2,1.8669782E-3,1.9410789E-2,0E0,0E0,0E0,0E0,0E0,0E0,0E0,0E0],"parents":[2147483647,0,0,1,1,2,2,3,3,4,4,5,5,6,6],"right_children":[2,4,6,8,10,-1,14,-1,-1,-1,-1,-1,-1,-1,-1],"split_conditions":[9.210079E-1,7.139285E-2,3.652536E-2,1.7782947E-1,1.5131155E-1,-1.2567318E-3,1.0408029E-1,-0E0,-1.6299862E-2,-8.764122E-3,9.178821E-4,-0E0,-5.3112404E-3,1.4955502E-2,-0E0],"split_indices":[15,46,40,34,21,40,37,0,0,0,0,2147483647,2147483647,0,0],"split_type":[0,0,0,0,0,0,0,0,0,0,0,0,0,0,0],"sum_hessian":[1.165E3,1.091E3,7.4E1,8.5E1,1.006E3,1.1E1,6.3E1,2.9E1,5.6E1,6.6E1,9.4E2,4E0,7E0,5.5E1,8E0],"tree_param":{"num_deleted":"2","num_feature":"50","num_nodes":"15","size_leaf_vector":"0"}},{"base_weights":[-0E0,-1.139941E-3,3.1032981E-2,2.4261901E-2,-2.6326173E-3,4.0066972E-2,-0E0,-0E0,5.627045E-2,-2.1084175E-2,3.109281E-4,-0E0,4.736096E-2],"categories":[],"categories_nodes":[],"categories_segments":[],"categories_sizes":[],"default_left":[1,1,1,1,1,1,0,0,0,0,0,1,1],"id":17,"left_children":[1,3,5,7,9,-1,-1,-1,-1,-1,-1,-1,-1],"loss_changes":[4.9746457E-2,3.3247687E-2,2.576948E-2,5.2383095E-2,6.901946E-2,9.221144E-3,0E0,0E0,0E0,0E0,0E0,0E0,0E0],"parents":[2147483647,0,0,1,1,2,2,3,3,4,4,5,5],"right_children":[2,4,6,8,10,-1,-1,-1,-1,-1,-1,-1,-1],"split_conditions":[9.6155846E-1,1.6816175E-2,6.183225E-1,2.6134267E-1,1.03917316E-1,1.255124E-2,-0E0,-0E0,1.7627085E-2,-6.604755E-3,9.740025E-5,-0E0,1.4836129E-2],"split_indices":[36,13,31,44,6,44,0,0,0,0,0,2147483647,2147483647],"split_type":[0,0,0,0,0,0,0,0,0,0,0,0,0],"sum_hessian":[1.19E3,1.14E3,5E1,4.6E1,1.094E3,4.6E1,4E0,2.1E1,2.5E1,1.72E2,9.22E2,9E0,3.7E1],"tree_param":{"num_deleted":"2","num_feature":"50","num_nodes":"13","size_leaf_vector":"0"}},{"base_weights":[-0E0,1.1793226E-3,-4.8404686E-2,-6.1401604E-3,9.612034E-3,-5.7227828E-2,-0E0,-1.5023574E-2,3.7669989E-3,-1.6549034E-3,2.5102872E-2,-7.45744E-2,-0E0],"categories":[],"categories_nodes":[],"categories_segments":[],"categories_sizes":[],"default_left":[1,1,1,1,1,1,0,0,0,0,0,0,0],"id":18,"left_children":[1,3,5,7,9,11,-1,-1,-1,-1,-1,-1,-1],"loss_changes":[5.5808783E-2,7.463599E-2,1.4995191E-2,5.8373325E-2,1.1190985E-1,1.4911965E-2,0E0,0E0,0E0,0E0,0E0,0E0,0E0],"parents":[2147483647,0,0,1,1,2,2,3,3,4,4,5,5],"right_children":[2,4,6,8,10,12,-1,-1,-1,-1,-1,-1,-1],"split_conditions":[9.1093886E-1,3.1374747E-1,4.447676E-1,6.752435E-1,8.2621776E-2,5.582336E-1,-0E0,-4.7062323E-3,1.1800369E-3,-5.1840924E-4,7.863638E-3,-2.3360917E-2,-0E0],"split_indices":[42,46,43,28,34,5,0,0,0,0,0,0,0],"split_type":[0,0,0,0,0,0,0,0,0,0,0,0,0],"sum_hessian":[1.206E3,1.183E3,2.3E1,6.04E2,5.79E2,2.1E1,2E0,3.43E2,2.61E2,3.18E2,2.61E2,1.5E1,6E0],"tree_param":{"num_deleted":"0","num_feature":"50","num_nodes":"13","size_leaf_vector":"0"}},{"base_weights":[-1.4582685E-3,3.9091013E-2,-2.8157325E-3,5.7665195E-2,-0E0,1.692428E-2,-5.0534923E-3,-0E0,6.757447E-2,-0E0,1.0752131E-1,-1.8582674E-2,-0E0],"categories":[],"categories_nodes":[],"categories_segments":[],"categories_sizes":[],"default_left":[1,1,1,1,0,1,1,1,1,0,0,0,0],"id":19,"left_children":[1,3,5,-1,-1,9,11,-1,-1,-1,-1,-1,-1],"loss_changes":[4.805293E-2,2.8782036E-2,4.533218E-2,7.941604E-3,0E0,1.2411182E-1,6.39386E-2,0E0,0E0,0E0,0E0,0E0,0E0],"parents":[2147483647,0,0,1,1,2,2,3,3,5,5,6,6],"right_children":[2,4,6,-1,-1,10,12,-1,-1,-1,-1,-1,-1],"split_conditions":[1.2710124E-1,2.911705E-1,4.171778E-1,1.8063998E-2,-0E0,2.6747733E-1,5.316601E-1,-0E0,2.1168143E-2,-0E0,3.368175E-2,-5.8211433E-3,-0E0],"split_indices":[24,33,15,27,0,48,22,2147483647,2147483647,0,0,0,0],"split_type":[0,0,0,0,0,0,0,0,0,0,0,0,0],"sum_hessian":[1.177E3,2.7E1,1.15E3,2.1E1,6E0,9.6E1,1.054E3,4E0,1.7E1,8.3E1,1.3E1,2.63E2,7.91E2],"tree_param":{"num_deleted":"2","num_feature":"50","num_nodes":"13","size_leaf_vector":"0"}},{"base_weights":[-3.243432E-3,-1.4861037E-3,-3.2885514E-2,-8.429014E-3,6.840874E-3,-0E0,-5.8483932E-2,5.2481345E-3,-1.1737843E-2,-3.0415922E-3,1.1955926E-2,-0E0,-7.104051E-2],"categories":[],"categories_nodes":[],"categories_segments":[],"categories_sizes":[],"default_left":[1,1,1,1,1,0,1,0,0,0,0,0,0],"id":20,"left_children":[1,3,5,7,9,-1,11,-1,-1,-1,-1,-1,-1],"loss_changes":[4.6322666E-2,6.676994E-2,3.9808124E-2,3.256144E-2,2.8845783E-2,0E0,2.0495169E-2,0E0,0E0,0E0,0E0,0E0,0E0],"parents":[2147483647,0,0,1,1,2,2,3,3,4,4,6,6],"right_children":[2,4,6,8,10,-1,12,-1,-1,-1,-1,-1,-1],"split_conditions":[5.8556306E-1,5.5939907E-1,1.6903128E-1,5.407664E-2,3.753217E-1,-0E0,3.1168815E-1,1.6440123E-3,-3.6769556E-3,-9.527985E-4,3.7452716E-3,-0E0,-2.2253903E-2],"split_indices":[34,21,43,12,10,0,25,0,0,0,0,0,0],"split_type":[0,0,0,0,0,0,0,0,0,0,0,0,0],"sum_hessian":[1.194E3,1.142E3,5.2E1,6.53E2,4.89E2,2.4E1,2.8E1,1E2,5.53E2,1.36E2,3.53E2,5E0,2.3E1],"tree_param":{"num_deleted":"0","num_feature":"50","num_nodes":"13","size_leaf_vector":"0"}},{"base_weights":[-4.5233362E-4,5.11467E-3,-7.5063636E-3,-8.50625E-3,1.1816108E-2,-1.5930166E-3,-2.822812E-2,-0E0,-3.8149826E-2,1.7394949E-2,-0E0,-7.506856E-3,2.4023658E-2,-3.5639547E-2,-0E0],"categories":[],"categories_nodes":[],"categories_segments":[],"categories_sizes":[],"default_left":[1,1,1,1,1,1,1,0,0,0,0,0,0,0,0],"id":21,"left_children":[1,3,5,7,9,11,13,-1,-1,-1,-1,-1,-1,-1,-1],"loss_changes":[4.8158895E-2,5.9331127E-2,5.546871E-2,4.9286053E-2,2.4752993E-2,6.164293E-2,3.2124557E-2,0E0,0E0,0E0,0E0,0E0,0E0,0E0,0E0],"parents":[2147483647,0,0,1,1,2,2,3,3,4,4,5,5,6,6],"right_children":[2,4,6,8,10,12,14,-1,-1,-1,-1,-1,-1,-1,-1],"split_conditions":[6.1456007E-1,4.2808557E-1,3.2572067E-1,7.1937555E-1,2.8125322E-1,7.2710675E-1,6.238513E-1,-0E0,-1.1950681E-2,5.449081E-3,-0E0,-2.3515716E-3,7.525567E-3,-1.116432E-2,-0E0],"split_indices":[39,38,34,3,13,4,8,0,0,0,0,0,0,0,0],"split_type":[0,0,0,0,0,0,0,0,0,0,0,0,0,0,0],"sum_hessian":[1.198E3,6.33E2,5.65E2,1.86E2,4.47E2,4.57E2,1.08E2,1.43E2,4.3E1,2.88E2,1.59E2,3.86E2,7.1E1,9.3E1,1.5E1],"tree_param":{"num_deleted":"0","num_feature":"50","num_nodes":"15","size_leaf_vector":"0"}},{"base_weights":[2.9576155E-3,4.77853E-3,-1.4996662E-2,-6.9933003E-3,8.218554E-3,1.0674557E-2,-3.4340646E-2,9.674304E-3,-2.033788E-2,4.317227E-3,3.0582102E-2,-0E0,2.5403365E-2,-4.886137E-2,-0E0],"categories":[],"categories_nodes":[],"categories_segments":[],"categories_sizes":[],"default_left":[1,1,1,1,1,1,1,0,0,0,0,1,1,0,0],"id":22,"left_children":[1,3,5,7,9,-1,13,-1,-1,-1,-1,-1,-1,-1,-1],"loss_changes":[3.272677E-2,4.3623917E-2,5.175075E-2,5.1682543E-2,5.8298964E-2,8.184113E-3,3.558196E-2,0E0,0E0,0E0,0E0,0E0,0E0,0E0,0E0],"parents":[2147483647,0,0,1,1,2,2,3,3,4,4,5,5,6,6],"right_children":[2,4,6,8,10,-1,14,-1,-1,-1,-1,-1,-1,-1,-1],"split_conditions":[5.251399E-1,1.13221794E-1,7.5023266E-4,3.9642006E-1,6.778636E-1,3.3438744E-3,8.5491043E-1,3.0305388E-3,-6.370973E-3,1.3523994E-3,9.580042E-3,-0E0,7.95777E-3,-1.5306142E-2,-0E0],"split_indices":[20,6,37,42,18,20,26,0,0,0,0,2147483647,2147483647,0,0],"split_type":[0,0,0,0,0,0,0,0,0,0,0,0,0,0,0],"sum_hessian":[1.145E3,1.063E3,8.2E1,2.1E2,8.53E2,2.5E1,5.7E1,7.8E1,1.32E2,7.44E2,1.09E2,8E0,1.7E1,4.3E1,1.4E1],"tree_param":{"num_deleted":"2","num_feature":"50","num_nodes":"15","size_leaf_vector":"0"}},{"base_weights":[-1.5098192E-3,-1.672723E-2,1.7425268E-4,5.7607573E-3,-2.5593035E-2,-2.4294318E-3,2.1329949E-2,2.0253152E-2,-0E0,-0E0,-3.3698216E-2,6.611489E-3,-8.4105795E-3,3.605785E-2,-0E0],"categories":[],"categories_nodes":[],"categories_segments":[],"categories_sizes":[],"default_left":[1,1,1,1,1,1,1,1,1,0,0,0,0,0,0],"id":23,"left_children":[1,3,5,-1,9,11,13,-1,-1,-1,-1,-1,-1,-1,-1],"loss_changes":[3.7683263E-2,3.7909776E-2,6.5366596E-2,6.564665E-3,3.9729476E-2,4.9294997E-2,3.3655368E-2,0E0,0E0,0E0,0E0,0E0,0E0,0E0,0E0],"parents":[2147483647,0,0,1,1,2,2,3,3,4,4,5,5,6,6],"right_children":[2,4,6,-1,10,12,14,-1,-1,-1,-1,-1,-1,-1,-1],"split_conditions":[3.039747E-1,3.819718E-1,2.2723079E-1,1.8045946E-3,8.4568137E-1,4.7133788E-1,5.7211626E-1,6.3444315E-3,-0E0,-0E0,-1.0556186E-2,2.071092E-3,-2.6346687E-3,1.1295356E-2,-0E0],"split_indices":[28,42,48,39,46,0,10,2147483647,2147483647,0,0,0,0,0,0],"split_type":[0,0,0,0,0,0,0,0,0,0,0,0,0,0,0],"sum_hessian":[1.172E3,1.44E2,1.028E3,2.6E1,1.18E2,8.96E2,1.32E2,1.8E1,8E0,1.5E1,1.03E2,3.26E2,5.7E2,7.2E1,6E1],"tree_param":{"num_deleted":"2","num_feature":"50","num_nodes":"15","size_leaf_vector":"0"}},{"base_weights":[5.358526E-4,-1.4811474E-2,3.3823864E-3,-0E0,-3.4768607E-2,1.0487283E-2,-2.7401324E-3,1.1393059E-2,-7.0905183E-3,-5.1156875E-2,-0E0,1.4336231E-2,-3.6108117E-3,-6.3885464E-3,2.0684602E-2],"categories":[],"categories_nodes":[],"categories_segments":[],"categories_sizes":[],"default_left":[1,1,1,1,1,1,1,1,1,0,0,0,0,0,0],"id":24,"left_children":[1,3,5,-1,9,11,13,-1,-1,-1,-1,-1,-1,-1,-1],"loss_changes":[4.623915E-2,5.1063117E-2,4.795625E-2,7.6263514E-3,4.2570144E-2,3.2477096E-2,3.726553E-2,0E0,0E0,0E0,0E0,0E0,0E0,0E0,0E0],"parents":[2147483647,0,0,1,1,2,2,3,3,4,4,5,5,6,6],"right_children":[2,4,6,-1,10,12,14,-1,-1,-1,-1,-1,-1,-1,-1],"split_conditions":[2.9618177E-1,5.397613E-1,1.04712315E-1,-0E0,7.3100513E-1,8.1916976E-1,8.7990475E-1,3.5689499E-3,-2.221151E-3,-1.6025223E-2,-0E0,4.4909175E-3,-1.1311102E-3,-2.0012537E-3,6.479586E-3],"split_indices":[11,4,2,0,35,17,43,2147483647,2147483647,0,0,0,0,0,0],"split_type":[0,0,0,0,0,0,0,0,0,0,0,0,0,0,0],"sum_hessian":[1.179E3,1.59E2,1.02E3,8.8E1,7.1E1,5.07E2,5.13E2,4E1,4.8E1,4.9E1,2.2E1,4.24E2,8.3E1,4.61E2,5.2E1],"tree_param":{"num_deleted":"2","num_feature":"50","num_nodes":"15","size_leaf_vector":"0"}},{"base_weights":[7.238735E-4,1.513228E-2,-8.6113875E-4,-5.038337E-3,2.8419208E-2,-0E0,-6.385791E-2,-2.6135422E-2,-0E0,3.7306204E-2,-0E0,-1.012024E-2,3.0095554E-3,-7.3872454E-2,-0E0],"categories":[],"categories_nodes":[],"categories_segments":[],"categories_sizes":[],"default_left":[1,1,1,1,1,1,1,0,0,0,0,0,0,1,1],"id":25,"left_children":[1,3,5,7,9,11,-1,-1,-1,-1,-1,-1,-1,-1,-1],"loss_changes":[3.40687E-2,5.0511144E-2,6.0861915E-2,1.3961917E-2,2.9612198E-2,3.1279422E-2,9.936605E-3,0E0,0E0,0E0,0E0,0E0,0E0,0E0,0E0],"parents":[2147483647,0,0,1,1,2,2,3,3,4,4,5,5,6,6],"right_children":[2,4,6,8,10,12,-1,-1,-1,-1,-1,-1,-1,-1,-1],"split_conditions":[3.568086E-1,3.651233E-1,9.263686E-1,7.4753845E-1,9.083288E-1,2.040083E-1,-2.0003907E-2,-8.187091E-3,-0E0,1.1686411E-2,-0E0,-3.170231E-3,9.427628E-4,-2.3141026E-2,-0E0],"split_indices":[3,21,39,39,12,43,14,0,0,0,0,0,0,2147483647,2147483647],"split_type":[0,0,0,0,0,0,0,0,0,0,0,0,0,0,0],"sum_hessian":[1.203E3,1.48E2,1.055E3,4.5E1,1.03E2,1.04E3,1.5E1,2.2E1,2.3E1,8.1E1,2.2E1,2.34E2,8.06E2,1.3E1,2E0],"tree_param":{"num_deleted":"2","num_feature":"50","num_nodes":"15","size_leaf_vector":"0"}},{"base_weights":[-3.2769376E-4,-1.7980192E-3,2.0817518E-2,3.200889E-3,-6.6937576E-3,-0E0,3.312866E-2,1.7644886E-2,-0E0,1.4026886E-2,-1.0812272E-2,4.4088423E-2,-0E0],"categories":[],"categories_nodes":[],"categories_segments":[],"categories_sizes":[],"default_left":[1,1,1,1,1,0,1,0,0,0,0,0,0],"id":26,"left_children":[1,3,5,7,9,-1,11,-1,-1,-1,-1,-1,-1],"loss_changes":[2.781737E-2,2.905314E-2,2.1904333E-2,2.689862E-2,5.0855428E-2,0E0,2.0092443E-2,0E0,0E0,0E0,0E0,0E0,0E0],"parents":[2147483647,0,0,1,1,2,2,3,3,4,4,6,6],"right_children":[2,4,6,8,10,-1,12,-1,-1,-1,-1,-1,-1],"split_conditions":[3.6616668E-1,5.6467086E-1,7.613774E-2,3.9283544E-2,2.0511271E-1,-0E0,3.244351E-1,5.5273753E-3,-0E0,4.394013E-3,-3.3870146E-3,1.3810985E-2,-0E0],"split_indices":[23,39,34,20,36,0,34,0,0,0,0,0,0],"split_type":[0,0,0,0,0,0,0,0,0,0,0,0,0],"sum_hessian":[1.177E3,1.121E3,5.6E1,5.08E2,6.13E2,1.4E1,4.2E1,1.03E2,4.05E2,8.3E1,5.3E2,3.4E1,8E0],"tree_param":{"num_deleted":"0","num_feature":"50","num_nodes":"13","size_leaf_vector":"0"}},{"base_weights":[-1.3440828E-3,-2.1944791E-2,-0E0,-2.8238734E-2,-0E0,2.8665083E-2,-1.5943195E-3,-0E0,-3.7769645E-2,-0E0,4.4786885E-2,-1.3400771E-2,8.1003964E-4],"categories":[],"categories_nodes":[],"categories_segments":[],"categories_sizes":[],"default_left":[1,1,1,1,0,1,1,0,0,0,0,0,0],"id":27,"left_children":[1,3,5,7,-1,9,11,-1,-1,-1,-1,-1,-1],"loss_changes":[4.173313E-2,2.1602657E-2,6.1044108E-2,1.7424293E-2,0E0,4.810955E-2,3.4944512E-2,0E0,0E0,0E0,0E0,0E0,0E0],"parents":[2147483647,0,0,1,1,2,2,3,3,5,5,6,6],"right_children":[2,4,6,8,-1,10,12,-1,-1,-1,-1,-1,-1],"split_conditions":[1.4055485E-1,4.0941432E-2,1.8272364E-1,1.2389824E-2,-0E0,3.0291682E-1,3.7095734E-1,-0E0,-1.1831587E-2,-0E0,1.4029783E-2,-4.1978788E-3,2.537502E-4],"split_indices":[49,37,49,6,0,7,35,0,0,0,0,0,0],"split_type":[0,0,0,0,0,0,0,0,0,0,0,0,0],"sum_hessian":[1.188E3,9.1E1,1.097E3,8.2E1,9E0,7.1E1,1.026E3,2.4E1,5.8E1,1.8E1,5.3E1,2.06E2,8.2E2],"tree_param":{"num_deleted":"0","num_feature":"50","num_nodes":"13","size_leaf_vector":"0"}},{"base_weights":[1.134815E-3,-3.3768036E-3,6.136978E-3,6.5051783E-3,-1.1171903E-2,2.9278176E-3,3.1087957E-2,-0E0,2.8690884E-2,-2.2978688E-2,-0E0,-0E0,2.022328E-2,4.5082554E-2,-0E0],"categories":[],"categories_nodes":[],"categories_segments":[],"categories_sizes":[],"default_left":[1,1,1,1,1,1,1,0,0,0,0,0,0,0,0],"id":28,"left_children":[1,3,5,7,9,11,13,-1,-1,-1,-1,-1,-1,-1,-1],"loss_changes":[2.800016E-2,4.63886E-2,3.313259E-2,2.9997282E-2,5.1781192E-2,3.044453E-2,3.6296997E-2,0E0,0E0,0E0,0E0,0E0,0E0,0E0,0E0],"parents":[2147483647,0,0,1,1,2,2,3,3,4,4,5,5,6,6],"right_children":[2,4,6,8,10,12,14,-1,-1,-1,-1,-1,-1,-1,-1],"split_conditions":[2.74325E-1,4.066571E-1,2.4616632E-1,2.3532411E-1,8.5597694E-2,7.5226355E-1,2.1710458E-1,-0E0,8.987606E-3,-7.1982234E-3,-0E0,-0E0,6.335074E-3,1.4122403E-2,-0E0],"split_indices":[49,7,48,49,16,35,47,0,0,0,0,0,0,0,0],"split_type":[0,0,0,0,0,0,0,0,0,0,0,0,0,0,0],"sum_hessian":[1.184E3,5.74E2,6.1E2,2.27E2,3.47E2,5.57E2,5.3E1,1.79E2,4.8E1,1.8E2,1.67E2,4.71E2,8.6E1,4.3E1,1E1],"tree_param":{"num_deleted":"0","num_feature":"50","num_nodes":"15","size_leaf_vector":"0"}},{"base_weights":[-2.364721E-3,-5.7919966E-3,4.290301E-3,-2.0693976E-3,-2.268557E-2,-9.271181E-3,1.7510777E-2,1.1405665E-2,-5.360508E-3,-2.972599E-2,-0E0,-0E0,-3.061323E-2,2.7954502E-2,-2.3655295E-3],"categories":[],"categories_nodes":[],"categories_segments":[],"categories_sizes":[],"default_left":[1,1,1,1,1,1,1,0,0,0,0,0,0,0,0],"id":29,"left_children":[1,3,5,7,9,11,13,-1,-1,-1,-1,-1,-1,-1,-1],"loss_changes":[2.7727302E-2,4.064028E-2,6.785159E-2,2.8308328E-2,2.9233381E-2,2.7668199E-2,5.295139E-2,0E0,0E0,0E0,0E0,0E0,0E0,0E0,0E0],"parents":[2147483647,0,0,1,1,2,2,3,3,4,4,5,5,6,6],"right_children":[2,4,6,8,10,12,14,-1,-1,-1,-1,-1,-1,-1,-1],"split_conditions":[6.5953946E-1,1.6706866E-1,6.5378614E-2,3.249556E-2,6.6615206E-1,2.3536842E-1,4.8349336E-1,3.572899E-3,-1.679214E-3,-9.3118595E-3,-0E0,-0E0,-9.589793E-3,8.756929E-3,-7.410175E-4],"split_indices":[38,16,41,34,44,19,6,0,0,0,0,0,0,0,0],"split_type":[0,0,0,0,0,0,0,0,0,0,0,0,0,0,0],"sum_hessian":[1.185E3,8.28E2,3.57E2,7.01E2,1.27E2,1.59E2,1.98E2,1.1E2,5.91E2,1.07E2,2E1,1.15E2,4.4E1,1.45E2,5.3E1],"tree_param":{"num_deleted":"0","num_feature":"50","num_nodes":"15","size_leaf_vector":"0"}},{"base_weights":[1.2522369E-3,3.0356417E-3,-1.6082795E-2,-2.058883E-2,4.3113814E-3,-0E0,-6.3712515E-2,-3.1200085E-2,-0E0,-5.408849E-3,6.3253446E-3,-5.016394E-3,-0E0,-0E0,-7.235567E-2],"categories":[],"categories_nodes":[],"categories_segments":[],"categories_sizes":[],"default_left":[1,1,1,1,1,1,1,0,0,0,0,1,1,1,1],"id":30,"left_children":[1,3,5,7,9,-1,-1,-1,-1,-1,-1,-1,-1,-1,-1],"loss_changes":[3.1514894E-2,2.640233E-2,5.8609724E-2,1.2735527E-2,2.16893E-2,4.8106263E-4,7.952668E-3,0E0,0E0,0E0,0E0,0E0,0E0,0E0,0E0],"parents":[2147483647,0,0,1,1,2,2,3,3,4,4,5,5,6,6],"right_children":[2,4,6,8,10,-1,-1,-1,-1,-1,-1,-1,-1,-1,-1],"split_conditions":[5.2538025E-1,1.7179253E-2,6.6937655E-1,1.3057944E-1,3.8525766E-1,-0E0,-1.995836E-2,-9.77363E-3,-0E0,-1.6943571E-3,1.9814554E-3,-1.571418E-3,-0E0,-0E0,-2.2665884E-2],"split_indices":[34,27,28,19,4,40,46,0,0,0,0,2147483647,2147483647,2147483647,2147483647],"split_type":[0,0,0,0,0,0,0,0,0,0,0,0,0,0,0],"sum_hessian":[1.214E3,1.125E3,8.9E1,3.9E1,1.086E3,6.9E1,2E1,3E1,9E0,1.47E2,9.39E2,1.9E1,5E1,3E0,1.7E1],"tree_param":{"num_deleted":"4","num_feature":"50","num_nodes":"15","size_leaf_vector":"0"}},{"base_weights":[2.120838E-3,6.1013787E-3,-2.2325953E-3,2.4037322E-2,2.9271306E-3,-7.075474E-3,6.6942335E-3,-0E0,3.676209E-2,1.5243376E-2,-0E0,-8.783392E-4,-2.0892119E-2,-0E0,1.480193E-2],"categories":[],"categories_nodes":[],"categories_segments":[],"categories_sizes":[],"default_left":[1,1,1,1,1,1,1,0,0,0,0,0,0,0,0],"id":31,"left_children":[1,3,5,7,9,11,13,-1,-1,-1,-1,-1,-1,-1,-1],"loss_changes":[2.2013346E-2,2.540569E-2,2.1888902E-2,2.8000996E-2,2.473884E-2,2.0692265E-2,1.442638E-2,0E0,0E0,0E0,0E0,0E0,0E0,0E0,0E0],"parents":[2147483647,0,0,1,1,2,2,3,3,4,4,5,5,6,6],"right_children":[2,4,6,8,10,12,14,-1,-1,-1,-1,-1,-1,-1,-1],"split_conditions":[6.639749E-2,3.1016028E-1,8.103051E-1,2.116764E-1,4.7753376E-1,4.087878E-1,1.0687907E-1,-0E0,1.1515963E-2,4.7750864E-3,-0E0,-2.7514546E-4,-6.5445923E-3,-0E0,4.636801E-3],"split_indices":[9,32,36,32,22,13,9,0,0,0,0,0,0,0,0],"split_type":[0,0,0,0,0,0,0,0,0,0,0,0,0,0,0],"sum_hessian":[1.167E3,6.65E2,5.02E2,7.8E1,5.87E2,3.59E2,1.43E2,2.4E1,5.4E1,1.28E2,4.59E2,2.71E2,8.8E1,4.8E1,9.5E1],"tree_param":{"num_deleted":"0","num_feature":"50","num_nodes":"15","size_leaf_vector":"0"}},{"base_weights":[1.1763948E-4,-5.451596E-3,5.875406E-3,2.330568E-3,-1.4892066E-2,-1.8082927E-4,1.45170875E-2,-1.1951424E-2,1.7594222E-2,-2.1437554E-2,-0E0,-7.247195E-3,1.345002E-2,1.946634E-2,-0E0],"categories":[],"categories_nodes":[],"categories_segments":[],"categories_sizes":[],"default_left":[1,1,1,1,1,1,1,0,0,0,0,0,0,0,0],"id":32,"left_children":[1,3,5,7,9,11,13,-1,-1,-1,-1,-1,-1,-1,-1],"loss_changes":[3.784913E-2,4.6661865E-2,3.897117E-2,6.325887E-2,3.2586336E-2,2.9136376E-2,1.9323424E-2,0E0,0E0,0E0,0E0,0E0,0E0,0E0,0E0],"parents":[2147483647,0,0,1,1,2,2,3,3,4,4,5,5,6,6],"right_children":[2,4,6,8,10,12,14,-1,-1,-1,-1,-1,-1,-1,-1],"split_conditions":[5.153315E-1,1.6663489E-1,6.375083E-2,1.685107E-1,3.341589E-1,7.4674785E-1,1.6470867E-1,-3.7438613E-3,5.5115046E-3,-6.715453E-3,-0E0,-2.270231E-3,4.213306E-3,6.097958E-3,-0E0],"split_indices":[21,47,48,49,27,21,23,0,0,0,0,0,0,0,0],"split_type":[0,0,0,0,0,0,0,0,0,0,0,0,0,0,0],"sum_hessian":[1.174E3,5.56E2,6.18E2,2.78E2,2.78E2,3.32E2,2.86E2,1.28E2,1.5E2,2.05E2,7.3E1,2.41E2,9.1E1,2.1E2,7.6E1],"tree_param":{"num_deleted":"0","num_feature":"50","num_nodes":"15","size_leaf_vector":"0"}},{"base_weights":[-2.4678998E-4,-2.4079853E-3,9.708387E-3,2.4404621E-3,-8.329044E-3,1.772458E-2,-9.475136E-3,1.1684063E-2,-4.0539284E-3,1.0228173E-3,-1.928633E-2,-2.2596216E-3,2.6658807E-2,-2.1060463E-2,-0E0],"categories":[],"categories_nodes":[],"categories_segments":[],"categories_sizes":[],"default_left":[1,1,1,1,1,1,1,0,0,0,0,0,0,1,1],"id":33,"left_children":[1,3,5,7,9,11,-1,-1,-1,-1,-1,-1,-1,-1,-1],"loss_changes":[2.2107486E-2,3.1749044E-2,3.0451281E-2,3.4332655E-2,5.9479695E-2,3.6113985E-2,8.521031E-3,0E0,0E0,0E0,0E0,0E0,0E0,0E0,0E0],"parents":[2147483647,0,0,1,1,2,2,3,3,4,4,5,5,6,6],"right_children":[2,4,6,8,10,12,-1,-1,-1,-1,-1,-1,-1,-1,-1],"split_conditions":[6.6140413E-1,4.834296E-1,7.996975E-1,3.219511E-1,5.609001E-1,2.623512E-1,-2.968148E-3,3.6601087E-3,-1.2699194E-3,3.204042E-4,-6.0415687E-3,-7.078412E-4,8.351045E-3,-6.597327E-3,-0E0],"split_indices":[14,14,12,45,39,49,22,0,0,0,0,0,0,2147483647,2147483647],"split_type":[0,0,0,0,0,0,0,0,0,0,0,0,0,0,0],"sum_hessian":[1.184E3,1.011E3,1.73E2,5.13E2,4.98E2,1.39E2,3.4E1,2.41E2,2.72E2,2.46E2,2.52E2,2.7E1,1.12E2,2.6E1,8E0],"tree_param":{"num_deleted":"2","num_feature":"50","num_nodes":"15","size_leaf_vector":"0"}},{"base_weights":[-0E0,1.0753953E-3,-1.4289052E-2,-1.0132877E-4,1.0333927E-2,-4.7906563E-2,-0E0,2.2854602E-4,-3.4765776E-2,2.1319598E-2,-1.7706448E-2,-5.838674E-2,-0E0,-0E0,-6.5315957E-3],"categories":[],"categories_nodes":[],"categories_segments":[],"categories_sizes":[],"default_left":[1,1,1,1,1,1,1,0,0,0,0,0,0,1,1],"id":34,"left_children":[1,3,5,7,9,11,-1,-1,-1,-1,-1,-1,-1,-1,-1],"loss_changes":[1.7648797E-2,1.688575E-2,2.7516078E-2,2.67704E-2,5.4116063E-2,1.4477726E-2,5.5959146E-4,0E0,0E0,0E0,0E0,0E0,0E0,0E0,0E0],"parents":[2147483647,0,0,1,1,2,2,3,3,4,4,5,5,6,6],"right_children":[2,4,6,8,10,12,-1,-1,-1,-1,-1,-1,-1,-1,-1],"split_conditions":[5.5099726E-1,5.5367374E-1,5.066644E-1,5.381433E-1,8.6942923E-1,4.6605206E-1,-0E0,7.1593524E-5,-1.0890606E-2,6.6785025E-3,-5.54666E-3,-1.8290026E-2,-0E0,-0E0,-2.046065E-3],"split_indices":[34,45,41,45,42,32,11,0,0,0,0,0,0,2147483647,2147483647],"split_type":[0,0,0,0,0,0,0,0,0,0,0,0,0,0,0],"sum_hessian":[1.196E3,1.116E3,8E1,9.46E2,1.7E2,1.9E1,6.1E1,9.24E2,2.2E1,1.34E2,3.6E1,1.7E1,2E0,4.8E1,1.3E1],"tree_param":{"num_deleted":"2","num_feature":"50","num_nodes":"15","size_leaf_vector":"0"}},{"base_weights":[-2.4077012E-4,-2.2264186E-2,2.6084363E-4,-0E0,-2.9567447E-2,-1.3994996E-3,1.0069881E-2,-0E0,-3.73879E-2,2.013419E-3,-1.1625652E-2,-6.750834E-4,1.9400463E-2],"categories":[],"categories_nodes":[],"categories_segments":[],"categories_sizes":[],"default_left":[1,1,1,0,1,1,1,0,0,0,0,0,0],"id":35,"left_children":[1,3,5,-1,7,9,11,-1,-1,-1,-1,-1,-1],"loss_changes":[2.286834E-2,1.3960164E-2,2.1988032E-2,0E0,1.2268335E-2,3.5996664E-2,2.8712748E-2,0E0,0E0,0E0,0E0,0E0,0E0],"parents":[2147483647,0,0,1,1,2,2,4,4,5,5,6,6],"right_children":[2,4,6,-1,8,10,12,-1,-1,-1,-1,-1,-1],"split_conditions":[2.2080222E-1,2.7199647E-1,6.9062054E-1,-0E0,3.1865753E-2,5.223787E-1,2.6403493E-1,-0E0,-1.1712003E-2,6.307166E-4,-3.6418112E-3,-2.1147427E-4,6.0773212E-3],"split_indices":[4,28,18,0,13,32,28,0,0,0,0,0,0],"split_type":[0,0,0,0,0,0,0,0,0,0,0,0,0],"sum_hessian":[1.15E3,4.6E1,1.104E3,4E0,4.2E1,9.04E2,2E2,7E0,3.5E1,6.44E2,2.6E2,7E1,1.3E2],"tree_param":{"num_deleted":"0","num_feature":"50","num_nodes":"13","size_leaf_vector":"0"}},{"base_weights":[1.05666666E-4,-5.9360648E-3,3.6891815E-3,2.4754793E-4,-1.1565637E-2,2.6331287E-2,1.3771248E-3,1.0658632E-2,-1.7843463E-2,-1.7613983E-2,-0E0,5.8248352E-2,-0E0,-2.1219556E-3,6.9381543E-3],"categories":[],"categories_nodes":[],"categories_segments":[],"categories_sizes":[],"default_left":[1,1,1,1,1,1,1,0,0,0,0,0,0,0,0],"id":36,"left_children":[1,3,5,7,9,11,13,-1,-1,-1,-1,-1,-1,-1,-1],"loss_changes":[2.3973873E-2,1.8529393E-2,2.7671434E-2,2.3659647E-2,2.0483706E-2,2.8033383E-2,1.6238425E-2,0E0,0E0,0E0,0E0,0E0,0E0,0E0,0E0],"parents":[2147483647,0,0,1,1,2,2,3,3,4,4,5,5,6,6],"right_children":[2,4,6,8,10,12,14,-1,-1,-1,-1,-1,-1,-1,-1],"split_conditions":[1.3782999E-1,5.3767364E-2,1.23555705E-1,6.723601E-2,7.1391785E-1,9.887055E-3,6.1982965E-1,3.3388857E-3,-5.5895806E-3,-5.5176946E-3,-0E0,1.8246675E-2,-0E0,-6.647164E-4,2.173422E-3],"split_indices":[13,27,19,13,39,16,35,0,0,0,0,0,0,0,0],"split_type":[0,0,0,0,0,0,0,0,0,0,0,0,0,0,0],"sum_hessian":[1.155E3,3.82E2,7.73E2,1.43E2,2.39E2,5.3E1,7.2E2,1.07E2,3.6E1,1.69E2,7E1,1.9E1,3.4E1,3.91E2,3.29E2],"tree_param":{"num_deleted":"0","num_feature":"50","num_nodes":"15","size_leaf_vector":"0"}},{"base_weights":[-5.175459E-4,-8.363751E-3,1.4641021E-3,-1.7386997E-2,-0E0,2.3110554E-2,-0E0,-0E0,-2.3117702E-2,4.314283E-3,-1.3170828E-2,3.4623608E-2,-0E0,7.187024E-4,-1.9623697E-2],"categories":[],"categories_nodes":[],"categories_segments":[],"categories_sizes":[],"default_left":[1,1,1,1,1,1,1,0,0,0,0,0,0,1,1],"id":37,"left_children":[1,3,5,7,9,11,-1,-1,-1,-1,-1,-1,-1,-1,-1],"loss_changes":[2.1086015E-2,1.7089695E-2,2.4363777E-2,1.7959595E-2,1.101592E-2,1.4665941E-2,8.930804E-3,0E0,0E0,0E0,0E0,0E0,0E0,0E0,0E0],"parents":[2147483647,0,0,1,1,2,2,3,3,4,4,5,5,6,6],"right_children":[2,4,6,8,10,12,-1,-1,-1,-1,-1,-1,-1,-1,-1],"split_conditions":[3.746907E-1,2.999765E-1,4.0657985E-1,1.7372586E-2,5.228963E-1,4.1307828E-1,-0E0,-0E0,-7.2417706E-3,1.3514772E-3,-4.1258475E-3,1.084607E-2,-0E0,2.251382E-4,-6.1472505E-3],"split_indices":[10,20,10,34,6,45,45,0,0,0,0,0,0,2147483647,2147483647],"split_type":[0,0,0,0,0,0,0,0,0,0,0,0,0,0,0],"sum_hessian":[1.151E3,2.79E2,8.72E2,1.21E2,1.58E2,4.9E1,8.23E2,1.9E1,1.02E2,1.06E2,5.2E1,3.4E1,1.5E1,8.01E2,2.2E1],"tree_param":{"num_deleted":"2","num_feature":"50","num_nodes":"15","size_leaf_vector":"0"}},{"base_weights":[1.0536342E-3,-1.7131979E-3,7.9546515E-3,5.7823565E-3,-6.2464373E-3,1.2206377E-2,-0E0,-0E0,2.4098476E-2,-1.2709543E-2,4.2856336E-3,1.9658314E-2,-0E0,-1.3101362E-2,3.2634358E-3],"categories":[],"categories_nodes":[],"categories_segments":[],"categories_sizes":[],"default_left":[1,1,1,1,1,1,1,0,0,0,0,0,0,1,1],"id":38,"left_children":[1,3,5,7,9,11,-1,-1,-1,-1,-1,-1,-1,-1,-1],"loss_changes":[2.6123727E-2,2.8119404E-2,1.6820315E-2,2.758934E-2,4.1343264E-2,2.076478E-2,7.685896E-3,0E0,0E0,0E0,0E0,0E0,0E0,0E0,0E0],"parents":[2147483647,0,0,1,1,2,2,3,3,4,4,5,5,6,6],"right_children":[2,4,6,8,10,12,-1,-1,-1,-1,-1,-1,-1,-1,-1],"split_conditions":[6.9111997E-1,1.1962327E-1,8.6257267E-1,2.3777586E-1,5.1107264E-1,5.92417E-1,-0E0,-0E0,7.5490046E-3,-3.981347E-3,1.3425025E-3,6.158095E-3,-0E0,-4.1040867E-3,1.0222925E-3],"split_indices":[29,45,29,13,45,4,36,0,0,0,0,0,0,2147483647,2147483647],"split_type":[0,0,0,0,0,0,0,0,0,0,0,0,0,0,0],"sum_hessian":[1.217E3,8.21E2,3.96E2,2.71E2,5.5E2,2.81E2,1.15E2,2.08E2,6.3E1,3.68E2,1.82E2,1.62E2,1.19E2,4E1,7.5E1],"tree_param":{"num_deleted":"2","num_feature":"50","num_nodes":"15","size_leaf_vector":"0"}},{"base_weights":[-6.1764807E-4,3.7974413E-3,-6.588726E-3,1.1817818E-2,-4.380737E-3,-1.1598048E-2,4.246495E-3,1.8224843E-2,-0E0,-1.2285499E-2,4.8326087E-4,-1.5794756E-2,1.5410424E-3,-7.1855276E-3,1.9937223E-2],"categories":[],"categories_nodes":[],"categories_segments":[],"categories_sizes":[],"default_left":[1,1,1,1,1,1,1,0,0,0,0,0,0,0,0],"id":39,"left_children":[1,3,5,7,9,11,13,-1,-1,-1,-1,-1,-1,-1,-1],"loss_changes":[3.171785E-2,4.4049952E-2,3.2445606E-2,3.2112952E-2,1.6144693E-2,2.8372895E-2,3.1039722E-2,0E0,0E0,0E0,0E0,0E0,0E0,0E0,0E0],"parents":[2147483647,0,0,1,1,2,2,3,3,4,4,5,5,6,6],"right_children":[2,4,6,8,10,12,14,-1,-1,-1,-1,-1,-1,-1,-1],"split_conditions":[5.4606E-1,6.494744E-1,2.615728E-1,3.994006E-1,2.645586E-1,1.2962991E-1,6.4510465E-1,5.7090507E-3,-0E0,-3.8485124E-3,1.5138461E-4,-4.94781E-3,4.8274154E-4,-2.2509133E-3,6.2454646E-3],"split_indices":[0,18,47,33,21,37,28,0,0,0,0,0,0,0,0],"split_type":[0,0,0,0,0,0,0,0,0,0,0,0,0,0,0],"sum_hessian":[1.154E3,6.19E2,5.35E2,3.41E2,2.78E2,3.95E2,1.4E2,2.4E2,1.01E2,1.42E2,1.36E2,3.26E2,6.9E1,6.4E1,7.6E1],"tree_param":{"num_deleted":"0","num_feature":"50","num_nodes":"15","size_leaf_vector":"0"}},{"base_weights":[-8.065006E-5,1.9228193E-3,-1.1619113E-2,7.0910105E-3,-2.1371733E-4,-3.5936523E-2,-3.6353732E-3,1.61253E-2,-1.0331883E-3,1.1708142E-3,-2.0843875E-2,-0E0,-5.4779947E-2,5.3337746E-4,-2.6389455E-2],"categories":[],"categories_nodes":[],"categories_segments":[],"categories_sizes":[],"default_left":[1,1,1,1,1,1,1,0,0,0,0,0,0,0,0],"id":40,"left_children":[1,3,5,7,9,11,13,-1,-1,-1,-1,-1,-1,-1,-1],"loss_changes":[3.2293156E-2,1.4120333E-2,2.2890024E-2,3.2889605E-2,2.7315268E-2,2.6146486E-2,2.8459078E-2,0E0,0E0,0E0,0E0,0E0,0E0,0E0,0E0],"parents":[2147483647,0,0,1,1,2,2,3,3,4,4,5,5,6,6],"right_children":[2,4,6,8,10,12,14,-1,-1,-1,-1,-1,-1,-1,-1],"split_conditions":[4.3418103E-1,4.8539522E-1,5.008604E-1,9.392586E-1,5.795125E-1,2.8828047E-2,5.459814E-1,5.0513553E-3,-3.2365296E-4,3.6676513E-4,-6.5294793E-3,-0E0,-1.7160175E-2,1.6708396E-4,-8.266669E-3],"split_indices":[20,7,12,46,42,2,13,0,0,0,0,0,0,0,0],"split_type":[0,0,0,0,0,0,0,0,0,0,0,0,0,0,0],"sum_hessian":[1.203E3,9.91E2,2.12E2,3.53E2,6.38E2,3.8E1,1.74E2,1.94E2,1.59E2,5.77E2,6.1E1,1.3E1,2.5E1,1.3E2,4.4E1],"tree_param":{"num_deleted":"0","num_feature":"50","num_nodes":"15","size_leaf_vector":"0"}},{"base_weights":[-2.7389175E-4,1.6008021E-2,-1.9993868E-3,-0E0,2.5861733E-2,6.0745245E-3,-4.3213638E-3,-1.5887117E-2,-0E0,-0E0,3.6937E-2,-0E0,1.3322189E-2,9.52825E-3,-5.8285734E-3],"categories":[],"categories_nodes":[],"categories_segments":[],"categories_sizes":[],"default_left":[1,1,1,1,1,1,1,1,1,0,0,1,1,0,0],"id":41,"left_children":[1,3,5,-1,9,-1,13,-1,-1,-1,-1,-1,-1,-1,-1],"loss_changes":[2.688528E-2,2.498453E-2,1.9799016E-2,3.5631221E-3,3.1726275E-2,9.815203E-3,1.7045368E-2,0E0,0E0,0E0,0E0,0E0,0E0,0E0,0E0],"parents":[2147483647,0,0,1,1,2,2,3,3,4,4,5,5,6,6],"right_children":[2,4,6,-1,10,-1,14,-1,-1,-1,-1,-1,-1,-1,-1],"split_conditions":[3.4480852E-1,2.0321375E-1,3.8601556E-1,-0E0,4.834094E-2,1.9028843E-3,1.6534092E-2,-4.976743E-3,-0E0,-0E0,1.1570754E-2,-0E0,4.1732625E-3,2.9847864E-3,-1.8258385E-3],"split_indices":[8,43,18,34,34,48,6,2147483647,2147483647,0,0,2147483647,2147483647,0,0],"split_type":[0,0,0,0,0,0,0,0,0,0,0,0,0,0,0],"sum_hessian":[1.187E3,8.8E1,1.099E3,1.7E1,7.1E1,2.01E2,8.98E2,1.4E1,3E0,1.3E1,5.8E1,1.04E2,9.7E1,5.8E1,8.4E2],"tree_param":{"num_deleted":"4","num_feature":"50","num_nodes":"15","size_leaf_vector":"0"}},{"base_weights":[-8.985708E-5,-8.5659325E-3,1.6452634E-3,-1.6216466E-2,-0E0,-5.0762207E-3,4.5166877E-3,-2.175005E-2,-0E0,1.0504031E-2,-3.7813054E-3,-0E0,-2.2396695E-2,2.7953323E-2,1.1537854E-3],"categories":[],"categories_nodes":[],"categories_segments":[],"categories_sizes":[],"default_left":[1,1,1,1,1,1,1,0,0,1,1,0,0,0,0],"id":42,"left_children":[1,3,5,7,-1,11,13,-1,-1,-1,-1,-1,-1,-1,-1],"loss_changes":[2.05833E-2,1.7736305E-2,1.781154E-2,1.5351124E-2,5.044694E-3,2.7183855E-2,4.2048447E-2,0E0,0E0,0E0,0E0,0E0,0E0,0E0,0E0],"parents":[2147483647,0,0,1,1,2,2,3,3,4,4,5,5,6,6],"right_children":[2,4,6,8,-1,12,14,-1,-1,-1,-1,-1,-1,-1,-1],"split_conditions":[3.4375352E-1,1.5157947E-1,2.2402284E-1,2.5614402E-1,-0E0,1.9101211E-1,2.4473315E-1,-6.8133445E-3,-0E0,3.2904558E-3,-1.1845184E-3,-0E0,-7.0159105E-3,8.75656E-3,3.6143078E-4],"split_indices":[10,34,49,16,3,49,49,0,0,2147483647,2147483647,0,0,0,0],"split_type":[0,0,0,0,0,0,0,0,0,0,0,0,0,0,0],"sum_hessian":[1.182E3,2.46E2,9.36E2,1.36E2,1.1E2,2.32E2,7.04E2,1.08E2,2.8E1,3.6E1,7.4E1,1.66E2,6.6E1,7.1E1,6.33E2],"tree_param":{"num_deleted":"2","num_feature":"50","num_nodes":"15","size_leaf_vector":"0"}},{"base_weights":[1.9684412E-4,5.478731E-3,-4.4467472E-3,4.967052E-4,2.6094507E-2,-7.1883416E-3,7.107109E-3,-7.5432956E-3,5.2410653E-3,-0E0,3.160542E-2,-1.02395285E-2,2.7877972E-3,-0E0,2.0799208E-2],"categories":[],"categories_nodes":[],"categories_segments":[],"categories_sizes":[],"default_left":[1,1,1,1,1,1,1,0,0,0,0,0,0,1,1],"id":43,"left_children":[1,3,5,7,9,11,-1,-1,-1,-1,-1,-1,-1,-1,-1],"loss_changes":[2.9865582E-2,5.0073553E-2,1.8767705E-2,1.8285163E-2,2.0847172E-2,1.8972328E-2,9.796716E-3,0E0,0E0,0E0,0E0,0E0,0E0,0E0,0E0],"parents":[2147483647,0,0,1,1,2,2,3,3,4,4,5,5,6,6],"right_children":[2,4,6,8,10,12,-1,-1,-1,-1,-1,-1,-1,-1,-1],"split_conditions":[4.9970087E-1,5.030645E-1,9.225667E-1,3.0609373E-2,3.708756E-1,8.055186E-1,2.226348E-3,-2.3629863E-3,1.6417978E-3,-0E0,9.9006025E-3,-3.2075988E-3,8.732956E-4,-0E0,6.515487E-3],"split_indices":[31,32,5,9,18,3,14,0,0,0,0,0,0,2147483647,2147483647],"split_type":[0,0,0,0,0,0,0,0,0,0,0,0,0,0,0],"sum_hessian":[1.198E3,6.07E2,5.91E2,5.07E2,1E2,5.1E2,8.1E1,1.52E2,3.55E2,1.1E1,8.9E1,4.26E2,8.4E1,4.9E1,3.2E1],"tree_param":{"num_deleted":"2","num_feature":"50","num_nodes":"15","size_leaf_vector":"0"}},{"base_weights":[-1.846576E-4,1.1791316E-3,-7.834546E-3,-6.9656584E-4,1.1424253E-2,8.673501E-3,-1.5466805E-2,-1.1347789E-2,1.2419384E-3,-0E0,1.8409288E-2,-0E0,3.5649247E-2,-0E0,-2.1778282E-2],"categories":[],"categories_nodes":[],"categories_segments":[],"categories_sizes":[],"default_left":[1,1,1,1,1,1,1,0,0,0,0,0,0,0,0],"id":44,"left_children":[1,3,5,7,9,11,13,-1,-1,-1,-1,-1,-1,-1,-1],"loss_changes":[1.5063367E-2,2.2713933E-2,3.1516418E-2,2.0012403E-2,1.5375132E-2,1.5290907E-2,2.030024E-2,0E0,0E0,0E0,0E0,0E0,0E0,0E0,0E0],"parents":[2147483647,0,0,1,1,2,2,3,3,4,4,5,5,6,6],"right_children":[2,4,6,8,10,12,14,-1,-1,-1,-1,-1,-1,-1,-1],"split_conditions":[3.4661382E-1,3.165741E-1,1.4908701E-1,1.9471283E-1,1.9920355E-1,4.0080768E-1,4.928871E-2,-3.5547689E-3,3.8904528E-4,-0E0,5.766829E-3,-0E0,1.1167359E-2,-0E0,-6.8221884E-3],"split_indices":[49,49,43,43,47,49,46,0,0,0,0,0,0,0,0],"split_type":[0,0,0,0,0,0,0,0,0,0,0,0,0,0,0],"sum_hessian":[1.149E3,9.24E2,2.25E2,7.43E2,1.81E2,5.2E1,1.73E2,1.51E2,5.92E2,6.6E1,1.15E2,3.7E1,1.5E1,4.3E1,1.3E2],"tree_param":{"num_deleted":"0","num_feature":"50","num_nodes":"15","size_leaf_vector":"0"}},{"base_weights":[1.3624936E-3,2.769708E-3,-6.118448E-3,-2.178421E-3,5.4227016E-3,5.5674056E-4,-1.7484153E-2,1.9309613E-3,-1.8817274E-2,1.7195013E-3,2.1298725E-2,-7.1224803E-3,1.6522832E-2,-2.6002571E-2,-0E0],"categories":[],"categories_nodes":[],"categories_segments":[],"categories_sizes":[],"default_left":[1,1,1,1,1,1,1,0,0,0,0,0,0,0,0],"id":45,"left_children":[1,3,5,7,9,11,13,-1,-1,-1,-1,-1,-1,-1,-1],"loss_changes":[1.06261745E-2,1.4956795E-2,1.7766513E-2,2.8118525E-2,3.217249E-2,1.135817E-2,1.325693E-2,0E0,0E0,0E0,0E0,0E0,0E0,0E0,0E0],"parents":[2147483647,0,0,1,1,2,2,3,3,4,4,5,5,6,6],"right_children":[2,4,6,8,10,12,14,-1,-1,-1,-1,-1,-1,-1,-1],"split_conditions":[7.6123464E-1,2.3821004E-1,5.5408907E-1,1.7521334E-1,5.368602E-1,2.917477E-1,5.5460334E-1,6.0488615E-4,-5.8946335E-3,5.3864496E-4,6.671964E-3,-2.2311632E-3,5.175885E-3,-8.145475E-3,-0E0],"split_indices":[7,43,4,43,42,20,24,0,0,0,0,0,0,0,0],"split_type":[0,0,0,0,0,0,0,0,0,0,0,0,0,0,0],"sum_hessian":[1.156E3,1.025E3,1.31E2,2.97E2,7.28E2,5.7E1,7.4E1,2.16E2,8.1E1,6.14E2,1.14E2,1.9E1,3.8E1,5.3E1,2.1E1],"tree_param":{"num_deleted":"0","num_feature":"50","num_nodes":"15","size_leaf_vector":"0"}},{"base_weights":[3.0949604E-4,7.4882545E-3,-1.5214318E-3,1.2794463E-2,-0E0,-6.977348E-3,9.84413E-4,-0E0,1.6433708E-2,5.0137886E-3,-7.717363E-3,-1.2665855E-2,-0E0,-0E0,1.9731667E-2],"categories":[],"categories_nodes":[],"categories_segments":[],"categories_sizes":[],"default_left":[1,1,1,1,1,1,1,0,0,1,1,0,0,0,0],"id":46,"left_children":[1,3,5,7,-1,11,13,-1,-1,-1,-1,-1,-1,-1,-1],"loss_changes":[1.833398E-2,1.490536E-2,1.4978991E-2,1.2496881E-2,4.6140268E-3,1.7840108E-2,1.663945E-2,0E0,0E0,0E0,0E0,0E0,0E0,0E0,0E0],"parents":[2147483647,0,0,1,1,2,2,3,3,4,4,5,5,6,6],"right_children":[2,4,6,8,-1,12,14,-1,-1,-1,-1,-1,-1,-1,-1],"split_conditions":[4.3395168E-1,6.902977E-1,2.560016E-1,2.1331203E-1,-0E0,4.8340803E-1,8.439339E-1,-0E0,5.147966E-3,1.5706018E-3,-2.417514E-3,-3.9676614E-3,-0E0,-0E0,6.181073E-3],"split_indices":[18,7,45,25,45,33,29,0,0,2147483647,2147483647,0,0,0,0],"split_type":[0,0,0,0,0,0,0,0,0,0,0,0,0,0,0],"sum_hessian":[1.185E3,2.92E2,8.93E2,1.91E2,1.01E2,3.39E2,5.54E2,2.9E1,1.62E2,4.1E1,6E1,2.14E2,1.25E2,5.1E2,4.4E1],"tree_param":{"num_deleted":"2","num_feature":"50","num_nodes":"15","size_leaf_vector":"0"}},{"base_weights":[1.4110293E-3,-2.420246E-3,5.040554E-3,-1.1504252E-2,8.7077776E-4,2.0966858E-2,1.0058073E-3,-1.5085336E-2,3.2357231E-3,6.2847496E-3,-1.2306528E-2,2.5466112E-2,-0E0,2.6914724E-3,-3.727981E-2],"categories":[],"categories_nodes":[],"categories_segments":[],"categories_sizes":[],"default_left":[1,1,1,1,1,1,1,0,0,0,0,0,0,0,0],"id":47,"left_children":[1,3,5,7,9,11,13,-1,-1,-1,-1,-1,-1,-1,-1],"loss_changes":[1.778882E-2,2.04016E-2,3.316748E-2,1.47218965E-2,2.170644E-2,1.7794974E-2,2.0250093E-2,0E0,0E0,0E0,0E0,0E0,0E0,0E0,0E0],"parents":[2147483647,0,0,1,1,2,2,3,3,4,4,5,5,6,6],"right_children":[2,4,6,8,10,12,14,-1,-1,-1,-1,-1,-1,-1,-1],"split_conditions":[8.1212215E-2,2.767166E-1,1.1515935E-1,7.7635777E-1,4.8405075E-1,6.643053E-1,9.037429E-1,-4.7255796E-3,1.0136113E-3,1.9687386E-3,-3.8551E-3,7.977425E-3,-0E0,8.4312126E-4,-1.1678143E-2],"split_indices":[48,49,48,42,20,44,42,0,0,0,0,0,0,0,0],"split_type":[0,0,0,0,0,0,0,0,0,0,0,0,0,0,0],"sum_hessian":[1.192E3,5.18E2,6.74E2,1.75E2,3.43E2,1.13E2,5.61E2,1.66E2,9E0,2.68E2,7.5E1,1.04E2,9E0,5.49E2,1.2E1],"tree_param":{"num_deleted":"0","num_feature":"50","num_nodes":"15","size_leaf_vector":"0"}},{"base_weights":[-0E0,-3.7123219E-3,3.0634345E-3,-1.3916825E-3,-3.4841094E-2,3.3738606E-2,5.8394356E-4,-1.7053045E-2,-0E0,-0E0,-4.2479306E-2,3.740974E-2,-0E0,-1.7913793E-3,8.872105E-3],"categories":[],"categories_nodes":[],"categories_segments":[],"categories_sizes":[],"default_left":[1,1,1,1,1,1,1,0,0,1,1,1,1,0,0],"id":48,"left_children":[1,3,5,7,-1,-1,13,-1,-1,-1,-1,-1,-1,-1,-1],"loss_changes":[1.3636969E-2,2.3794897E-2,3.1996038E-2,1.2663565E-2,9.420333E-3,5.8510117E-3,1.5007812E-2,0E0,0E0,0E0,0E0,0E0,0E0,0E0,0E0],"parents":[2147483647,0,0,1,1,2,2,3,3,4,4,5,5,6,6],"right_children":[2,4,6,8,-1,-1,14,-1,-1,-1,-1,-1,-1,-1,-1],"split_conditions":[4.8928076E-1,7.542515E-1,4.525715E-1,2.880813E-1,-1.0914199E-2,1.0568838E-2,6.5688324E-1,-5.3419773E-3,-0E0,-0E0,-1.3306919E-2,1.1718845E-2,-0E0,-5.611612E-4,2.7792444E-3],"split_indices":[1,45,15,24,13,9,38,0,0,2147483647,2147483647,2147483647,2147483647,0,0],"split_type":[0,0,0,0,0,0,0,0,0,0,0,0,0,0,0],"sum_hessian":[1.19E3,5.61E2,6.29E2,5.36E2,2.5E1,3.3E1,5.96E2,4.7E1,4.89E2,3E0,2.2E1,3.1E1,2E0,4.2E2,1.76E2],"tree_param":{"num_deleted":"4","num_feature":"50","num_nodes":"15","size_leaf_vector":"0"}},{"base_weights":[-5.2511494E-4,6.7392564E-3,-2.402444E-3,1.9179948E-2,-0E0,-5.4619256E-3,6.980403E-3,-0E0,2.7144758E-2,-9.619687E-3,2.2390087E-3,5.5719538E-5,-1.0038062E-2,1.8025286E-2,-0E0],"categories":[],"categories_nodes":[],"categories_segments":[],"categories_sizes":[],"default_left":[1,1,1,1,1,1,1,0,0,1,1,0,0,0,0],"id":49,"left_children":[1,3,5,7,-1,11,13,-1,-1,-1,-1,-1,-1,-1,-1],"loss_changes":[1.4242971E-2,2.4335034E-2,2.7927049E-2,2.1460813E-2,5.3466624E-3,2.453512E-2,2.2063468E-2,0E0,0E0,0E0,0E0,0E0,0E0,0E0,0E0],"parents":[2147483647,0,0,1,1,2,2,3,3,4,4,5,5,6,6],"right_children":[2,4,6,8,-1,12,14,-1,-1,-1,-1,-1,-1,-1,-1],"split_conditions":[1.459764E-1,5.728197E-1,7.227895E-1,1.8813397E-1,-0E0,1.5864526E-1,6.7338014E-1,-0E0,8.503272E-3,-3.0134295E-3,7.0138404E-4,1.7454508E-5,-3.1444882E-3,5.646538E-3,-0E0],"split_indices":[43,35,35,47,48,47,39,0,0,2147483647,2147483647,0,0,0,0],"split_type":[0,0,0,0,0,0,0,0,0,0,0,0,0,0,0],"sum_hessian":[1.191E3,1.94E2,9.97E2,9E1,1.04E2,7.89E2,2.08E2,1.6E1,7.4E1,5.5E1,4.9E1,3.12E2,4.77E2,9.9E1,1.09E2],"tree_param":{"num_deleted":"2","num_feature":"50","num_nodes":"15","size_leaf_vector":"0"}},{"base_weights":[-0E0,-4.5064366E-3,3.4380762E-3,6.534806E-3,-7.7615916E-3,-7.93763E-3,6.8766787E-3,-1.04428E-3,1.7872186E-2,-1.4475733E-2,-0E0,-0E0,-1.949565E-2,1.722572E-2,1.0201698E-3],"categories":[],"categories_nodes":[],"categories_segments":[],"categories_sizes":[],"default_left":[1,1,1,1,1,1,1,0,0,0,0,0,0,0,0],"id":50,"left_children":[1,3,5,7,9,11,13,-1,-1,-1,-1,-1,-1,-1,-1],"loss_changes":[1.8104628E-2,1.7361138E-2,2.8036917E-2,1.4142634E-2,2.0766163E-2,1.7947882E-2,2.7398406E-2,0E0,0E0,0E0,0E0,0E0,0E0,0E0,0E0],"parents":[2147483647,0,0,1,1,2,2,3,3,4,4,5,5,6,6],"right_children":[2,4,6,8,10,12,14,-1,-1,-1,-1,-1,-1,-1,-1],"split_conditions":[6.375083E-2,2.0226786E-1,3.0710447E-1,2.2163904E-1,6.649842E-1,4.5969123E-1,3.8184857E-1,-3.271275E-4,5.5985786E-3,-4.5346175E-3,-0E0,-0E0,-6.107139E-3,5.3960686E-3,3.195748E-4],"split_indices":[48,26,28,49,21,42,43,0,0,0,0,0,0,0,0],"split_type":[0,0,0,0,0,0,0,0,0,0,0,0,0,0,0],"sum_hessian":[1.196E3,4.67E2,7.29E2,7.4E1,3.93E2,1.38E2,5.91E2,2E1,5.4E1,2.12E2,1.81E2,6.8E1,7E1,1.85E2,4.06E2],"tree_param":{"num_deleted":"0","num_feature":"50","num_nodes":"15","size_leaf_vector":"0"}},{"base_weights":[-0E0,-1.301532E-3,9.854103E-3,1.1960041E-3,-6.8540345E-3,-0E0,1.8271234E-2,-1.015039E-3,8.525878E-3,-1.3575243E-3,-2.3972556E-2,-0E0,-4.251304E-3,2.6770195E-2,-0E0],"categories":[],"categories_nodes":[],"categories_segments":[],"categories_sizes":[],"default_left":[1,1,1,1,1,1,1,0,0,0,0,1,1,0,0],"id":51,"left_children":[1,3,5,7,9,-1,13,-1,-1,-1,-1,-1,-1,-1,-1],"loss_changes":[1.1360575E-2,1.7620403E-2,1.5883245E-2,1.4638109E-2,2.5286948E-2,3.4551165E-4,1.9104963E-2,0E0,0E0,0E0,0E0,0E0,0E0,0E0,0E0],"parents":[2147483647,0,0,1,1,2,2,3,3,4,4,5,5,6,6],"right_children":[2,4,6,8,10,-1,14,-1,-1,-1,-1,-1,-1,-1,-1],"split_conditions":[7.102488E-1,6.419372E-1,2.7091396E-1,2.3964095E-1,5.1024742E-2,-0E0,8.650098E-1,-3.1796758E-4,2.6707868E-3,-4.2525333E-4,-7.509559E-3,-0E0,-1.3317487E-3,8.385938E-3,-0E0],"split_indices":[31,17,7,30,16,11,32,0,0,0,0,2147483647,2147483647,0,0],"split_type":[0,0,0,0,0,0,0,0,0,0,0,0,0,0,0],"sum_hessian":[1.18E3,1.082E3,9.8E1,6.89E2,3.93E2,2.2E1,7.6E1,4.81E2,2.08E2,3.18E2,7.5E1,3E0,1.9E1,6.2E1,1.4E1],"tree_param":{"num_deleted":"2","num_feature":"50","num_nodes":"15","size_leaf_vector":"0"}},{"base_weights":[1.7570893E-4,3.6858094E-3,-4.222519E-3,-0E0,8.126963E-3,-1.7324062E-2,-0E0,-5.6605134E-3,3.341223E-3,1.5706794E-2,-0E0,-0E0,-2.067307E-2,2.4121001E-2,-2.6555755E-3],"categories":[],"categories_nodes":[],"categories_segments":[],"categories_sizes":[],"default_left":[1,1,1,1,1,1,1,1,1,0,0,0,0,0,0],"id":52,"left_children":[1,3,5,-1,9,11,13,-1,-1,-1,-1,-1,-1,-1,-1],"loss_changes":[1.792654E-2,1.383281E-2,2.7474698E-2,7.3726964E-3,2.091482E-2,1.1738941E-2,2.4343114E-2,0E0,0E0,0E0,0E0,0E0,0E0,0E0,0E0],"parents":[2147483647,0,0,1,1,2,2,3,3,4,4,5,5,6,6],"right_children":[2,4,6,-1,10,12,14,-1,-1,-1,-1,-1,-1,-1,-1],"split_conditions":[3.8812834E-1,3.1612867E-1,2.393434E-1,-0E0,6.0931313E-1,1.2037538E-2,3.0387434E-1,-1.7731927E-3,1.0466599E-3,4.9202554E-3,-0E0,-0E0,-6.4759734E-3,7.5560603E-3,-8.318763E-4],"split_indices":[25,25,43,31,0,2,43,2147483647,2147483647,0,0,0,0,0,0],"split_type":[0,0,0,0,0,0,0,0,0,0,0,0,0,0,0],"sum_hessian":[1.177E3,7.13E2,4.64E2,3.57E2,3.56E2,1.19E2,3.45E2,1.62E2,1.95E2,1.8E2,1.76E2,8E0,1.11E2,3.8E1,3.07E2],"tree_param":{"num_deleted":"2","num_feature":"50","num_nodes":"15","size_leaf_vector":"0"}},{"base_weights":[-0E0,-7.7649445E-4,3.285805E-2,5.7116505E-3,-3.547047E-3,-0E0,3.672367E-2,-0E0,2.1139532E-2,-2.3614842E-2,-1.2377771E-3],"categories":[],"categories_nodes":[],"categories_segments":[],"categories_sizes":[],"default_left":[1,1,1,1,1,1,1,0,0,0,0],"id":53,"left_children":[1,3,-1,7,9,-1,-1,-1,-1,-1,-1],"loss_changes":[1.809775E-2,1.9784734E-2,1.6378164E-3,2.3461157E-2,2.837814E-2,0E0,0E0,0E0,0E0,0E0,0E0],"parents":[2147483647,0,0,1,1,2,2,3,3,4,4],"right_children":[2,4,-1,8,10,-1,-1,-1,-1,-1,-1],"split_conditions":[8.846972E-1,1.1962327E-1,1.02929985E-2,2.4692753E-1,1.504798E-1,-0E0,1.1503928E-2,-0E0,6.622096E-3,-7.397503E-3,-3.8774172E-4],"split_indices":[14,45,35,47,45,2147483647,2147483647,0,0,0,0],"split_type":[0,0,0,0,0,0,0,0,0,0,0],"sum_hessian":[1.172E3,1.156E3,1.6E1,2.96E2,8.6E2,2E0,1.4E1,2.22E2,7.4E1,6.8E1,7.92E2],"tree_param":{"num_deleted":"2","num_feature":"50","num_nodes":"11","size_leaf_vector":"0"}},{"base_weights":[-4.3696407E-4,-2.956028E-3,3.4248806E-3,-0E0,-1.344882E-2,1.475528E-2,-0E0,8.140554E-3,-1.9937346E-3,-0E0,-2.0876708E-2,-0E0,1.925074E-2,1.5346933E-2,-3.2732585E-3],"categories":[],"categories_nodes":[],"categories_segments":[],"categories_sizes":[],"default_left":[1,1,1,1,1,1,1,0,0,0,0,0,0,0,0],"id":54,"left_children":[1,3,5,7,9,11,13,-1,-1,-1,-1,-1,-1,-1,-1],"loss_changes":[1.1352656E-2,2.800761E-2,1.8227775E-2,1.1297217E-2,2.5267243E-2,1.0510644E-2,1.2374726E-2,0E0,0E0,0E0,0E0,0E0,0E0,0E0,0E0],"parents":[2147483647,0,0,1,1,2,2,3,3,4,4,5,5,6,6],"right_children":[2,4,6,8,10,12,14,-1,-1,-1,-1,-1,-1,-1,-1],"split_conditions":[5.7952607E-1,4.2244935E-1,6.125625E-1,3.8823542E-1,3.0559286E-1,1.209345E-1,1.5083635E-1,2.5500813E-3,-6.2455033E-4,-0E0,-6.5397643E-3,-0E0,6.0304194E-3,4.8075267E-3,-1.0253695E-3],"split_indices":[14,45,14,28,7,47,26,0,0,0,0,0,0,0,0],"split_type":[0,0,0,0,0,0,0,0,0,0,0,0,0,0,0],"sum_hessian":[1.189E3,7.92E2,3.97E2,5.99E2,1.93E2,1.05E2,2.92E2,1.43E2,4.56E2,5.5E1,1.38E2,1.5E1,9E1,4.1E1,2.51E2],"tree_param":{"num_deleted":"0","num_feature":"50","num_nodes":"15","size_leaf_vector":"0"}},{"base_weights":[1.4599218E-3,4.1527473E-3,-4.566323E-3,8.066051E-3,-0E0,-1.4958287E-2,-0E0,1.3189115E-2,-0E0,1.967415E-3,-2.5899215E-2,-2.0743657E-2,-0E0,-1.142633E-3,1.1965611E-2],"categories":[],"categories_nodes":[],"categories_segments":[],"categories_sizes":[],"default_left":[1,1,1,1,1,1,1,0,0,0,0,0,0,1,1],"id":55,"left_children":[1,3,5,7,9,11,-1,-1,-1,-1,-1,-1,-1,-1,-1],"loss_changes":[1.9253803E-2,1.5781593E-2,2.1606404E-2,2.3490828E-2,2.4987983E-2,1.3570646E-2,7.3597785E-3,0E0,0E0,0E0,0E0,0E0,0E0,0E0,0E0],"parents":[2147483647,0,0,1,1,2,2,3,3,4,4,5,5,6,6],"right_children":[2,4,6,8,10,12,-1,-1,-1,-1,-1,-1,-1,-1,-1],"split_conditions":[1.8948707E-1,2.6723707E-1,2.2723079E-1,6.0994375E-1,7.2613084E-1,6.96921E-1,-0E0,4.131576E-3,-0E0,6.163055E-4,-8.113097E-3,-6.4980853E-3,-0E0,-3.579372E-4,3.7483054E-3],"split_indices":[48,33,48,31,10,24,19,0,0,0,0,0,0,2147483647,2147483647],"split_type":[0,0,0,0,0,0,0,0,0,0,0,0,0,0,0],"sum_hessian":[1.198E3,8.81E2,3.17E2,4.76E2,4.05E2,1.26E2,1.91E2,3.13E2,1.63E2,3.7E2,3.5E1,9.7E1,2.9E1,1.41E2,5E1],"tree_param":{"num_deleted":"2","num_feature":"50","num_nodes":"15","size_leaf_vector":"0"}},{"base_weights":[-1.1981439E-3,-1.5017618E-2,-0E0,-3.0567301E-2,-0E0,9.355083E-3,-1.5879562E-3,-0E0,-3.6595587E-2,-2.0808818E-2,1.4195146E-2,-6.097142E-3,1.6544437E-2,-7.892394E-3,9.761533E-4],"categories":[],"categories_nodes":[],"categories_segments":[],"categories_sizes":[],"default_left":[1,1,1,1,1,1,1,0,0,0,0,0,0,0,0],"id":56,"left_children":[1,3,5,7,9,11,13,-1,-1,-1,-1,-1,-1,-1,-1],"loss_changes":[2.0877965E-2,2.2379281E-2,1.6770806E-2,1.1446014E-2,1.5645415E-2,2.3179866E-2,1.806904E-2,0E0,0E0,0E0,0E0,0E0,0E0,0E0,0E0],"parents":[2147483647,0,0,1,1,2,2,3,3,4,4,5,5,6,6],"right_children":[2,4,6,8,10,12,14,-1,-1,-1,-1,-1,-1,-1,-1],"split_conditions":[1.6358864E-1,6.674526E-1,3.8041912E-2,2.989852E-1,5.7358593E-2,2.0045638E-2,1.8755764E-1,-0E0,-1.1463805E-2,-6.5184976E-3,4.4467216E-3,-1.9099694E-3,5.1826523E-3,-2.4723439E-3,3.0578638E-4],"split_indices":[49,10,34,10,49,40,47,0,0,0,0,0,0,0,0],"split_type":[0,0,0,0,0,0,0,0,0,0,0,0,0,0,0],"sum_hessian":[1.185E3,1E2,1.085E3,4.8E1,5.2E1,1.65E2,9.2E2,6E0,4.2E1,2.2E1,3E1,3.2E1,1.33E2,3.18E2,6.02E2],"tree_param":{"num_deleted":"0","num_feature":"50","num_nodes":"15","size_leaf_vector":"0"}},{"base_weights":[5.129333E-4,7.570265E-3,-8.0246147E-4,-0E0,1.6288588E-2,-4.5009307E-3,6.866171E-3,-1.1255314E-2,1.2321213E-2,2.2034315E-2,-0E0,1.3044206E-4,-1.0182891E-2,1.5189019E-2,-0E0],"categories":[],"categories_nodes":[],"categories_segments":[],"categories_sizes":[],"default_left":[1,1,1,1,1,1,1,0,0,0,0,0,0,0,0],"id":57,"left_children":[1,3,5,7,9,11,13,-1,-1,-1,-1,-1,-1,-1,-1],"loss_changes":[1.387736E-2,1.8280286E-2,2.5036154E-2,1.6085751E-2,1.4311124E-2,2.2066575E-2,1.7341495E-2,0E0,0E0,0E0,0E0,0E0,0E0,0E0,0E0],"parents":[2147483647,0,0,1,1,2,2,3,3,4,4,5,5,6,6],"right_children":[2,4,6,8,10,12,14,-1,-1,-1,-1,-1,-1,-1,-1],"split_conditions":[1.3305614E-4,4.7015764E-2,2.4013248E-1,5.760946E-1,5.51438E-1,3.5127887E-1,5.353211E-1,-3.5258E-3,3.8597002E-3,6.9023925E-3,-0E0,4.086182E-5,-3.189857E-3,4.758059E-3,-0E0],"split_indices":[16,2,30,32,6,25,18,0,0,0,0,0,0,0,0],"split_type":[0,0,0,0,0,0,0,0,0,0,0,0,0,0,0],"sum_hessian":[1.158E3,2.37E2,9.21E2,1.17E2,1.2E2,6.62E2,2.59E2,6.8E1,4.9E1,9.5E1,2.5E1,3.2E2,3.42E2,1.28E2,1.31E2],"tree_param":{"num_deleted":"0","num_feature":"50","num_nodes":"15","size_leaf_vector":"0"}},{"base_weights":[-0E0,-3.9163856E-3,2.8230676E-3,-1.2124922E-2,5.9679424E-4,6.0996558E-3,-9.519525E-3,-2.1616533E-2,-0E0,-2.3752471E-2,3.2418987E-3,-0E0,1.1824756E-2,-1.7313998E-2,3.8208575E-3],"categories":[],"categories_nodes":[],"categories_segments":[],"categories_sizes":[],"default_left":[1,1,1,1,1,1,1,0,0,1,1,0,0,0,0],"id":58,"left_children":[1,3,5,7,-1,11,13,-1,-1,-1,-1,-1,-1,-1,-1],"loss_changes":[1.3175979E-2,2.4519471E-2,2.4961771E-2,2.4234649E-2,9.737017E-3,1.9473303E-2,1.7481552E-2,0E0,0E0,0E0,0E0,0E0,0E0,0E0,0E0],"parents":[2147483647,0,0,1,1,2,2,3,3,4,4,5,5,6,6],"right_children":[2,4,6,8,-1,12,14,-1,-1,-1,-1,-1,-1,-1,-1],"split_conditions":[8.294313E-2,3.0656877E-1,3.2928288E-1,4.3530664E-1,1.8694968E-4,2.3639438E-1,8.936844E-1,-6.77152E-3,-0E0,-7.440616E-3,1.0155458E-3,-0E0,3.7041816E-3,-5.4237223E-3,1.1969084E-3],"split_indices":[48,49,49,26,42,49,46,0,0,2147483647,2147483647,0,0,0,0],"split_type":[0,0,0,0,0,0,0,0,0,0,0,0,0,0,0],"sum_hessian":[1.174E3,5.18E2,6.56E2,2.2E2,2.98E2,5.48E2,1.08E2,1.21E2,9.9E1,1.2E1,2.86E2,2.63E2,2.85E2,9E1,1.8E1],"tree_param":{"num_deleted":"2","num_feature":"50","num_nodes":"15","size_leaf_vector":"0"}},{"base_weights":[-5.342142E-4,-2.3651097E-3,5.9820293E-3,-0E0,-9.037688E-3,2.0385118E-2,-0E0,-9.568849E-3,2.0854115E-3,-0E0,-1.61022E-2,2.5241999E-2,-0E0,-7.0946338E-3,1.0861366E-2],"categories":[],"categories_nodes":[],"categories_segments":[],"categories_sizes":[],"default_left":[1,1,1,1,1,1,1,1,1,0,0,0,0,1,1],"id":59,"left_children":[1,3,5,-1,9,11,-1,-1,-1,-1,-1,-1,-1,-1,-1],"loss_changes":[1.2386811E-2,1.930398E-2,2.3115493E-2,1.0172459E-2,2.1683061E-2,1.1105852E-2,8.997954E-3,0E0,0E0,0E0,0E0,0E0,0E0,0E0,0E0],"parents":[2147483647,0,0,1,1,2,2,3,3,4,4,5,5,6,6],"right_children":[2,4,6,-1,10,12,-1,-1,-1,-1,-1,-1,-1,-1,-1],"split_conditions":[7.789166E-1,4.9546885E-1,8.241756E-1,-0E0,4.599127E-1,8.9657706E-1,-0E0,-2.997504E-3,6.532687E-4,-0E0,-5.044119E-3,7.90722E-3,-0E0,-2.2224402E-3,3.4023935E-3],"split_indices":[17,42,17,40,10,38,40,2147483647,2147483647,0,0,0,0,2147483647,2147483647],"split_type":[0,0,0,0,0,0,0,0,0,0,0,0,0,0,0],"sum_hessian":[1.178E3,9.75E2,2.03E2,6.72E2,3.03E2,7.3E1,1.3E2,8.3E1,5.89E2,1.24E2,1.79E2,6.5E1,8E0,9.4E1,3.6E1],"tree_param":{"num_deleted":"4","num_feature":"50","num_nodes":"15","size_leaf_vector":"0"}},{"base_weights":[-1.9607402E-3,3.1639135E-3,-4.7512176E-3,6.095201E-3,-1.1167231E-2,-2.5907328E-2,-2.6312121E-3,-0E0,1.2761491E-2,-2.7804611E-2,-0E0,-2.871798E-2,-0E0,-5.134861E-3,1.9416348E-3],"categories":[],"categories_nodes":[],"categories_segments":[],"categories_sizes":[],"default_left":[1,1,1,1,1,1,1,0,0,0,0,1,1,0,0],"id":60,"left_children":[1,3,5,7,9,-1,13,-1,-1,-1,-1,-1,-1,-1,-1],"loss_changes":[1.7868187E-2,1.2961572E-2,2.4222817E-2,1.4337335E-2,1.0399909E-2,6.141618E-3,1.0384435E-2,0E0,0E0,0E0,0E0,0E0,0E0,0E0,0E0],"parents":[2147483647,0,0,1,1,2,2,3,3,4,4,5,5,6,6],"right_children":[2,4,6,8,10,-1,14,-1,-1,-1,-1,-1,-1,-1,-1],"split_conditions":[4.79922E-3,4.574957E-1,8.593531E-3,1.5612513E-1,9.563769E-2,-8.115639E-3,6.577294E-1,-0E0,3.99762E-3,-8.7099755E-3,-0E0,-8.996094E-3,-0E0,-1.6085285E-3,6.082297E-4],"split_indices":[37,41,37,33,2,25,4,0,0,0,0,2147483647,2147483647,0,0],"split_type":[0,0,0,0,0,0,0,0,0,0,0,0,0,0,0],"sum_hessian":[1.198E3,3.64E2,8.34E2,3.29E2,3.5E1,5.6E1,7.78E2,1.66E2,1.63E2,1.9E1,1.6E1,5.3E1,3E0,5.68E2,2.1E2],"tree_param":{"num_deleted":"2","num_feature":"50","num_nodes":"15","size_leaf_vector":"0"}},{"base_weights":[2.3982732E-4,-1.9920219E-4,1.7279442E-2,-4.1085696E-3,1.3566256E-3,2.6544705E-2,-0E0,-0E0,-3.9789323E-2,-3.4459305E-4,1.4852534E-2,3.9258875E-2,-0E0],"categories":[],"categories_nodes":[],"categories_segments":[],"categories_sizes":[],"default_left":[1,1,1,1,1,1,0,0,0,0,0,0,0],"id":61,"left_children":[1,3,5,7,9,11,-1,-1,-1,-1,-1,-1,-1],"loss_changes":[1.6732039E-2,8.120994E-3,1.4330391E-2,4.55919E-2,2.325743E-2,1.3791015E-2,0E0,0E0,0E0,0E0,0E0,0E0,0E0],"parents":[2147483647,0,0,1,1,2,2,3,3,4,4,5,5],"right_children":[2,4,6,8,10,12,-1,-1,-1,-1,-1,-1,-1],"split_conditions":[8.357817E-1,3.3490956E-1,5.9837747E-1,3.0507314E-1,5.4129994E-1,4.9037702E-2,-0E0,-0E0,-1.2464264E-2,-1.0794601E-4,4.652653E-3,1.2298098E-2,-0E0],"split_indices":[42,43,13,43,42,30,0,0,0,0,0,0,0],"split_type":[0,0,0,0,0,0,0,0,0,0,0,0,0],"sum_hessian":[1.182E3,1.126E3,5.6E1,4.05E2,7.21E2,4.4E1,1.2E1,3.72E2,3.3E1,6.1E2,1.11E2,2.9E1,1.5E1],"tree_param":{"num_deleted":"0","num_feature":"50","num_nodes":"13","size_leaf_vector":"0"}},{"base_weights":[-0E0,6.640856E-3,-2.2805945E-3,-9.289802E-4,1.3245557E-2,-1.9139566E-2,-2.7138565E-4,-7.42194E-3,1.9396776E-3,2.4505079E-2,-0E0,-0E0,-4.1179083E-2,1.6994843E-4,-9.045033E-3],"categories":[],"categories_nodes":[],"categories_segments":[],"categories_sizes":[],"default_left":[1,1,1,1,1,1,1,1,1,0,0,0,0,1,1],"id":62,"left_children":[1,3,5,-1,9,11,-1,-1,-1,-1,-1,-1,-1,-1,-1],"loss_changes":[1.6983243E-2,1.9594602E-2,2.176158E-2,4.342522E-3,2.8344095E-2,2.6347429E-2,7.332717E-3,0E0,0E0,0E0,0E0,0E0,0E0,0E0,0E0],"parents":[2147483647,0,0,1,1,2,2,3,3,4,4,5,5,6,6],"right_children":[2,4,6,-1,10,12,-1,-1,-1,-1,-1,-1,-1,-1,-1],"split_conditions":[1.3228774E-1,1.4784297E-1,2.0847869E-1,-2.9100908E-4,1.0514161E-1,4.6044725E-1,-8.501332E-5,-2.324971E-3,6.076166E-4,7.676375E-3,-0E0,-0E0,-1.2899616E-2,5.323745E-5,-2.8334153E-3],"split_indices":[47,49,49,46,23,7,9,2147483647,2147483647,0,0,0,0,2147483647,2147483647],"split_type":[0,0,0,0,0,0,0,0,0,0,0,0,0,0,0],"sum_hessian":[1.185E3,2.78E2,9.07E2,9.7E1,1.81E2,7.2E1,8.35E2,7.9E1,1.8E1,1E2,8.1E1,4.1E1,3.1E1,7.45E2,9E1],"tree_param":{"num_deleted":"4","num_feature":"50","num_nodes":"15","size_leaf_vector":"0"}},{"base_weights":[-3.5046187E-6,-7.0300098E-3,1.4537448E-3,-1.168591E-2,8.772784E-4,-0E0,1.0202061E-2,-0E0,-1.52386995E-2,7.7022337E-3,-0E0,-8.343662E-3,2.7064593E-3,-0E0,1.9946769E-2],"categories":[],"categories_nodes":[],"categories_segments":[],"categories_sizes":[],"default_left":[1,1,1,1,1,1,1,0,0,1,1,0,0,0,0],"id":63,"left_children":[1,3,5,7,-1,11,13,-1,-1,-1,-1,-1,-1,-1,-1],"loss_changes":[1.48957E-2,1.4606223E-2,1.4466091E-2,1.4593976E-2,2.096349E-3,1.9082176E-2,1.7408643E-2,0E0,0E0,0E0,0E0,0E0,0E0,0E0,0E0],"parents":[2147483647,0,0,1,1,2,2,3,3,4,4,5,5,6,6],"right_children":[2,4,6,8,-1,12,14,-1,-1,-1,-1,-1,-1,-1,-1],"split_conditions":[3.5550523E-1,7.5923777E-1,7.834135E-1,3.361841E-1,2.7481315E-4,4.8923975E-1,1.2227595E-1,-0E0,-4.773622E-3,2.4127748E-3,-0E0,-2.6137065E-3,8.4781594E-4,-0E0,6.248455E-3],"split_indices":[11,28,39,28,6,15,34,0,0,2147483647,2147483647,0,0,0,0],"split_type":[0,0,0,0,0,0,0,0,0,0,0,0,0,0,0],"sum_hessian":[1.203E3,2.61E2,9.42E2,2.01E2,6E1,7.84E2,1.58E2,2E1,1.81E2,3.6E1,2.4E1,2.14E2,5.7E2,7.3E1,8.5E1],"tree_param":{"num_deleted":"2","num_feature":"50","num_nodes":"15","size_leaf_vector":"0"}},{"base_weights":[1.28375E-3,3.2210436E-3,-2.188011E-3,5.857611E-4,1.9467138E-2,-0E0,-1.5002712E-2,-2.2561008E-3,6.526929E-3,-0E0,2.8667584E-2,1.2370577E-2,-3.7539147E-3,-0E0,-3.4229163E-2],"categories":[],"categories_nodes":[],"categories_segments":[],"categories_sizes":[],"default_left":[1,1,1,1,1,1,1,0,0,0,0,0,0,0,0],"id":64,"left_children":[1,3,5,7,9,11,13,-1,-1,-1,-1,-1,-1,-1,-1],"loss_changes":[8.260481E-3,2.6191639E-2,1.5556892E-2,1.441963E-2,2.555919E-2,1.5394628E-2,2.4011748E-2,0E0,0E0,0E0,0E0,0E0,0E0,0E0,0E0],"parents":[2147483647,0,0,1,1,2,2,3,3,4,4,5,5,6,6],"right_children":[2,4,6,8,10,12,14,-1,-1,-1,-1,-1,-1,-1,-1],"split_conditions":[5.8047235E-1,5.158495E-1,6.8495405E-1,6.28307E-1,2.5342757E-1,1.8434721E-1,3.91967E-1,-7.067382E-4,2.044603E-3,-0E0,8.980307E-3,3.8751636E-3,-1.1759382E-3,-0E0,-1.0722508E-2],"split_indices":[44,44,38,28,5,40,11,0,0,0,0,0,0,0,0],"split_type":[0,0,0,0,0,0,0,0,0,0,0,0,0,0,0],"sum_hessian":[1.157E3,8.28E2,3.29E2,7.37E2,9.1E1,2.53E2,7.6E1,4.46E2,2.91E2,1.8E1,7.3E1,8.5E1,1.68E2,4.1E1,3.5E1],"tree_param":{"num_deleted":"0","num_feature":"50","num_nodes":"15","size_leaf_vector":"0"}},{"base_weights":[1.4627932E-3,-1.2385788E-3,4.3072095E-3,4.925763E-4,-1.7473131E-2,3.360543E-2,2.6616035E-3,3.4111012E-3,-1.6616004E-2,-2.514679E-2,-0E0,4.5262534E-2,-0E0,-2.4957305E-3,4.8144194E-3],"categories":[],"categories_nodes":[],"categories_segments":[],"categories_sizes":[],"default_left":[1,1,1,1,1,1,1,0,0,1,1,1,1,1,1],"id":65,"left_children":[1,3,5,7,-1,-1,-1,-1,-1,-1,-1,-1,-1,-1,-1],"loss_changes":[1.0501022E-2,2.2545269E-2,1.5018181E-2,1.6233431E-2,9.085076E-3,1.0300159E-2,8.16825E-3,0E0,0E0,0E0,0E0,0E0,0E0,0E0,0E0],"parents":[2147483647,0,0,1,1,2,2,3,3,4,4,5,5,6,6],"right_children":[2,4,6,8,-1,-1,-1,-1,-1,-1,-1,-1,-1,-1,-1],"split_conditions":[1.859388E-1,1.7146456E-1,1.9142126E-1,3.2326508E-1,-5.473572E-3,1.052712E-2,8.337646E-4,1.0685496E-3,-5.205071E-3,-7.8773955E-3,-0E0,1.4178783E-2,-0E0,-7.818038E-4,1.5081482E-3],"split_indices":[47,47,47,49,15,0,21,0,0,2147483647,2147483647,2147483647,2147483647,2147483647,2147483647],"split_type":[0,0,0,0,0,0,0,0,0,0,0,0,0,0,0],"sum_hessian":[1.182E3,5.23E2,6.59E2,4.47E2,7.6E1,2E1,6.39E2,4.05E2,4.2E1,5.1E1,2.5E1,1.6E1,4E0,1.25E2,5.14E2],"tree_param":{"num_deleted":"6","num_feature":"50","num_nodes":"15","size_leaf_vector":"0"}},{"base_weights":[-7.814621E-4,2.2098325E-4,-9.064158E-3,6.556991E-3,-1.4973512E-3,1.3342155E-3,-1.2678153E-2,1.1750242E-2,-6.5975776E-4,-4.007469E-3,6.7732055E-3,-0E0,1.0380591E-2,-1.9984934E-2,-0E0],"categories":[],"categories_nodes":[],"categories_segments":[],"categories_sizes":[],"default_left":[1,1,1,1,1,1,1,0,0,0,0,1,1,0,0],"id":66,"left_children":[1,3,5,7,9,-1,13,-1,-1,-1,-1,-1,-1,-1,-1],"loss_changes":[1.4264758E-2,1.3705593E-2,1.2084962E-2,1.5621268E-2,1.4588968E-2,1.1727941E-3,1.9753855E-2,0E0,0E0,0E0,0E0,0E0,0E0,0E0,0E0],"parents":[2147483647,0,0,1,1,2,2,3,3,4,4,5,5,6,6],"right_children":[2,4,6,8,10,-1,14,-1,-1,-1,-1,-1,-1,-1,-1],"split_conditions":[7.326728E-1,3.872153E-1,5.331036E-1,1.7519483E-1,5.6735194E-1,4.179517E-4,2.3234762E-2,3.6808397E-3,-2.066734E-4,-1.2553657E-3,2.1217507E-3,-0E0,3.2517877E-3,-6.260411E-3,-0E0],"split_indices":[18,32,24,2,42,18,16,0,0,0,0,2147483647,2147483647,0,0],"split_type":[0,0,0,0,0,0,0,0,0,0,0,0,0,0,0],"sum_hessian":[1.226E3,1.044E3,1.82E2,2.8E2,7.64E2,1.4E1,1.68E2,2E2,8E1,6.29E2,1.35E2,3E0,1.1E1,1.17E2,5.1E1],"tree_param":{"num_deleted":"2","num_feature":"50","num_nodes":"15","size_leaf_vector":"0"}},{"base_weights":[1.2269082E-4,2.5341231E-3,-4.1706925E-3,-0E0,1.4241475E-2,-1.4154526E-2,-0E0,1.8866672E-3,-8.7714745E-3,-0E0,2.7693877E-2,-0E0,-2.0907428E-2,-1.3553191E-2,4.4631376E-3],"categories":[],"categories_nodes":[],"categories_segments":[],"categories_sizes":[],"default_left":[1,1,1,1,1,1,1,1,1,0,0,0,0,0,0],"id":67,"left_children":[1,3,5,-1,9,11,13,-1,-1,-1,-1,-1,-1,-1,-1],"loss_changes":[1.1535866E-2,1.8023565E-2,1.4430216E-2,8.641384E-3,2.659352E-2,1.567258E-2,1.5748318E-2,0E0,0E0,0E0,0E0,0E0,0E0,0E0,0E0],"parents":[2147483647,0,0,1,1,2,2,3,3,4,4,5,5,6,6],"right_children":[2,4,6,-1,10,12,14,-1,-1,-1,-1,-1,-1,-1,-1],"split_conditions":[6.3943195E-1,5.838748E-1,8.3187336E-1,-0E0,4.546159E-1,1.02773085E-2,2.8334454E-2,5.910108E-4,-2.7477215E-3,-0E0,8.6752875E-3,-0E0,-6.5493877E-3,-4.2456253E-3,1.3981069E-3],"split_indices":[18,18,46,17,29,48,5,2147483647,2147483647,0,0,0,0,0,0],"split_type":[0,0,0,0,0,0,0,0,0,0,0,0,0,0,0],"sum_hessian":[1.187E3,8.29E2,3.58E2,7.14E2,1.15E2,1.03E2,2.55E2,6.31E2,8.3E1,5E1,6.5E1,2E1,8.3E1,6.5E1,1.9E2],"tree_param":{"num_deleted":"2","num_feature":"50","num_nodes":"15","size_leaf_vector":"0"}},{"base_weights":[-1.8417639E-4,-1.7116794E-3,8.4731085E-3,3.116105E-3,-5.547787E-3,-0E0,1.8587247E-2,-5.7779666E-4,1.2622719E-2,-0E0,-1.4569461E-2,-1.4059211E-2,-0E0,-0E0,2.8489554E-2],"categories":[],"categories_nodes":[],"categories_segments":[],"categories_sizes":[],"default_left":[1,1,1,1,1,1,1,0,0,0,0,1,1,0,0],"id":68,"left_children":[1,3,5,7,9,-1,13,-1,-1,-1,-1,-1,-1,-1,-1],"loss_changes":[1.1995605E-2,1.9961976E-2,1.9315844E-2,1.9509042E-2,3.7614774E-2,4.96465E-3,2.2047276E-2,0E0,0E0,0E0,0E0,0E0,0E0,0E0,0E0],"parents":[2147483647,0,0,1,1,2,2,3,3,4,4,5,5,6,6],"right_children":[2,4,6,8,10,-1,14,-1,-1,-1,-1,-1,-1,-1,-1],"split_conditions":[6.885592E-1,2.4227309E-1,9.818646E-2,4.3515992E-1,4.1616094E-1,-0E0,3.659839E-1,-1.8099856E-4,3.954149E-3,-0E0,-4.5639784E-3,-4.4041392E-3,-0E0,-0E0,8.924538E-3],"split_indices":[14,6,34,42,42,35,0,0,0,0,0,2147483647,2147483647,0,0],"split_type":[0,0,0,0,0,0,0,0,0,0,0,0,0,0,0],"sum_hessian":[1.143E3,1.017E3,1.26E2,3.97E2,6.2E2,4.4E1,8.2E1,2.51E2,1.46E2,3.53E2,2.67E2,2.5E1,1.9E1,2E1,6.2E1],"tree_param":{"num_deleted":"2","num_feature":"50","num_nodes":"15","size_leaf_vector":"0"}},{"base_weights":[-0E0,-3.053442E-3,2.4557281E-3,-8.4878225E-3,4.0749307E-3,1.9350398E-2,-0E0,-0E0,-1.7067093E-2,9.854861E-3,-0E0,3.1347673E-2,-0E0,-5.1531135E-3,2.1526504E-3],"categories":[],"categories_nodes":[],"categories_segments":[],"categories_sizes":[],"default_left":[1,1,1,1,1,1,1,0,0,1,1,0,0,1,1],"id":69,"left_children":[1,3,5,7,-1,11,-1,-1,-1,-1,-1,-1,-1,-1,-1],"loss_changes":[8.8087935E-3,2.1725677E-2,2.2183083E-2,1.8265475E-2,8.0421725E-3,1.4150212E-2,5.8102906E-3,0E0,0E0,0E0,0E0,0E0,0E0,0E0,0E0],"parents":[2147483647,0,0,1,1,2,2,3,3,4,4,5,5,6,6],"right_children":[2,4,6,8,-1,12,-1,-1,-1,-1,-1,-1,-1,-1,-1],"split_conditions":[1.8317343E-1,6.5604466E-1,4.199663E-1,3.6154762E-1,1.2764985E-3,2.586614E-1,-0E0,-0E0,-5.346378E-3,3.0870992E-3,-0E0,9.819862E-3,-0E0,-1.6142463E-3,6.7433174E-4],"split_indices":[47,24,15,25,47,47,12,0,0,2147483647,2147483647,0,0,2147483647,2147483647],"split_type":[0,0,0,0,0,0,0,0,0,0,0,0,0,0,0],"sum_hessian":[1.183E3,5.08E2,6.75E2,3.25E2,1.83E2,7E1,6.05E2,1.82E2,1.43E2,1.14E2,6.9E1,4.1E1,2.9E1,1.37E2,4.68E2],"tree_param":{"num_deleted":"4","num_feature":"50","num_nodes":"15","size_leaf_vector":"0"}},{"base_weights":[-3.4155752E-4,-6.3297627E-3,1.0707505E-3,-0E0,-1.1369591E-2,-0E0,7.6093995E-3,3.7277136E-3,-0E0,-1.6457936E-2,-0E0,-1.3433675E-3,1.7241752E-2,1.3437064E-2,-0E0],"categories":[],"categories_nodes":[],"categories_segments":[],"categories_sizes":[],"default_left":[1,1,1,1,1,1,1,1,1,0,0,1,1,0,0],"id":70,"left_children":[1,3,5,-1,9,-1,13,-1,-1,-1,-1,-1,-1,-1,-1],"loss_changes":[1.2520034E-2,1.3339966E-2,9.567583E-3,8.492718E-4,1.0551052E-2,9.903041E-3,1.1806883E-2,0E0,0E0,0E0,0E0,0E0,0E0,0E0,0E0],"parents":[2147483647,0,0,1,1,2,2,3,3,4,4,5,5,6,6],"right_children":[2,4,6,-1,10,-1,14,-1,-1,-1,-1,-1,-1,-1,-1],"split_conditions":[3.9143607E-2,1.2665752E-1,7.856245E-1,-0E0,6.844896E-1,-0E0,1.1417747E-1,1.1677305E-3,-0E0,-5.1555554E-3,-0E0,-4.208186E-4,5.4010907E-3,4.209248E-3,-0E0],"split_indices":[48,34,5,6,28,46,16,2147483647,2147483647,0,0,2147483647,2147483647,0,0],"split_type":[0,0,0,0,0,0,0,0,0,0,0,0,0,0,0],"sum_hessian":[1.193E3,2.9E2,9.03E2,9.7E1,1.93E2,7.2E2,1.83E2,6.1E1,3.6E1,1.31E2,6.2E1,6.91E2,2.9E1,1.24E2,5.9E1],"tree_param":{"num_deleted":"4","num_feature":"50","num_nodes":"15","size_leaf_vector":"0"}},{"base_weights":[-0E0,-1.5688885E-3,4.6244995E-3,-4.9713035E-3,2.4404656E-3,9.017735E-3,-6.956819E-3,-1.0588801E-2,-0E0,-2.02453E-3,9.634668E-3,-0E0,1.6151534E-2,-1.7086787E-2,-0E0],"categories":[],"categories_nodes":[],"categories_segments":[],"categories_sizes":[],"default_left":[1,1,1,1,1,1,1,0,0,0,0,0,0,1,1],"id":71,"left_children":[1,3,5,7,9,11,-1,-1,-1,-1,-1,-1,-1,-1,-1],"loss_changes":[9.14236E-3,1.3067234E-2,1.7602684E-2,1.753464E-2,1.4377969E-2,1.8042551E-2,8.462617E-3,0E0,0E0,0E0,0E0,0E0,0E0,0E0,0E0],"parents":[2147483647,0,0,1,1,2,2,3,3,4,4,5,5,6,6],"right_children":[2,4,6,8,10,12,-1,-1,-1,-1,-1,-1,-1,-1,-1],"split_conditions":[7.1863973E-1,5.3820395E-1,6.580071E-1,5.4003227E-1,5.447722E-1,6.1569846E-1,-2.1792687E-3,-3.3170106E-3,-0E0,-6.341972E-4,3.0181224E-3,-0E0,5.0595733E-3,-5.3525474E-3,-0E0],"split_indices":[43,11,11,44,10,28,10,0,0,0,0,0,0,2147483647,2147483647],"split_type":[0,0,0,0,0,0,0,0,0,0,0,0,0,0,0],"sum_hessian":[1.199E3,8.72E2,3.27E2,5.34E2,3.38E2,2.66E2,6.1E1,2.74E2,2.6E2,1.69E2,1.69E2,1.14E2,1.52E2,3.9E1,2.2E1],"tree_param":{"num_deleted":"2","num_feature":"50","num_nodes":"15","size_leaf_vector":"0"}},{"base_weights":[1.0267594E-3,-1.7511456E-3,5.651884E-3,-8.795188E-3,1.3714915E-4,9.299498E-3,-0E0,-1.4058964E-2,-0E0,-2.7403762E-3,4.263508E-3,1.1419872E-2,-0E0,-3.517116E-3,1.1481631E-2],"categories":[],"categories_nodes":[],"categories_segments":[],"categories_sizes":[],"default_left":[1,1,1,1,1,1,1,0,0,1,1,1,1,0,0],"id":72,"left_children":[1,3,5,7,-1,-1,13,-1,-1,-1,-1,-1,-1,-1,-1],"loss_changes":[1.7132029E-2,1.3085067E-2,8.275555E-3,1.3117014E-2,6.4886915E-3,9.612957E-3,1.10550895E-2,0E0,0E0,0E0,0E0,0E0,0E0,0E0,0E0],"parents":[2147483647,0,0,1,1,2,2,3,3,4,4,5,5,6,6],"right_children":[2,4,6,8,-1,-1,14,-1,-1,-1,-1,-1,-1,-1,-1],"split_conditions":[1.7963478E-1,5.268868E-1,3.9867413E-1,5.5367374E-1,4.2962864E-5,2.9131281E-3,5.134467E-1,-4.404062E-3,-0E0,-8.5844065E-4,1.3355716E-3,3.577349E-3,-0E0,-1.1017595E-3,3.5966954E-3],"split_indices":[30,38,31,45,46,30,31,0,0,2147483647,2147483647,2147483647,2147483647,0,0],"split_type":[0,0,0,0,0,0,0,0,0,0,0,0,0,0,0],"sum_hessian":[1.193E3,6.83E2,5.1E2,1.96E2,4.87E2,2.84E2,2.26E2,1.43E2,5.3E1,2.21E2,2.66E2,2.62E2,2.2E1,1.57E2,6.9E1],"tree_param":{"num_deleted":"4","num_feature":"50","num_nodes":"15","size_leaf_vector":"0"}},{"base_weights":[-0E0,2.1782997E-3,-2.3530205E-3,-1.5449924E-3,5.8109974E-3,-0E0,-1.1258958E-2,1.5322869E-3,-8.754121E-3,-0E0,1.1804394E-2,3.1158663E-3,-4.789737E-3,-0E0,-1.4855128E-2],"categories":[],"categories_nodes":[],"categories_segments":[],"categories_sizes":[],"default_left":[1,1,1,1,1,1,1,1,1,0,0,1,1,1,1],"id":73,"left_children":[1,3,5,-1,9,-1,-1,-1,-1,-1,-1,-1,-1,-1,-1],"loss_changes":[6.126648E-3,1.1305506E-2,1.3135053E-2,9.50679E-3,1.1181929E-2,5.461058E-3,7.65091E-3,0E0,0E0,0E0,0E0,0E0,0E0,0E0,0E0],"parents":[2147483647,0,0,1,1,2,2,3,3,4,4,5,5,6,6],"right_children":[2,4,6,-1,10,-1,-1,-1,-1,-1,-1,-1,-1,-1,-1],"split_conditions":[6.599334E-2,5.682907E-1,6.028545E-1,-4.8397892E-4,3.0757457E-2,-0E0,-3.5269419E-3,4.7999882E-4,-2.7422854E-3,-0E0,3.6978032E-3,9.760654E-4,-1.5004163E-3,-0E0,-4.6534655E-3],"split_indices":[9,4,11,4,9,7,17,2147483647,2147483647,0,0,2147483647,2147483647,2147483647,2147483647],"split_type":[0,0,0,0,0,0,0,0,0,0,0,0,0,0,0],"sum_hessian":[1.205E3,6.9E2,5.15E2,2.78E2,4.12E2,3.89E2,1.26E2,1.5E2,1.28E2,2.32E2,1.8E2,2.62E2,1.27E2,1.9E1,1.07E2],"tree_param":{"num_deleted":"6","num_feature":"50","num_nodes":"15","size_leaf_vector":"0"}},{"base_weights":[1.6572569E-3,4.868873E-3,-1.0805846E-3,-0E0,1.3061935E-2,-1.38614895E-2,1.749033E-5,-1.190542E-2,1.036702E-3,1.6068114E-2,-0E0,-2.3824666E-2,-0E0,2.3990327E-3,-5.5278772E-3],"categories":[],"categories_nodes":[],"categories_segments":[],"categories_sizes":[],"default_left":[1,1,1,1,1,1,1,1,1,1,1,0,0,1,1],"id":74,"left_children":[1,3,5,-1,-1,11,-1,-1,-1,-1,-1,-1,-1,-1,-1],"loss_changes":[1.2038915E-2,2.5338037E-2,1.4170442E-2,5.3505045E-3,9.916097E-3,1.6467866E-2,4.8575825E-3,0E0,0E0,0E0,0E0,0E0,0E0,0E0,0E0],"parents":[2147483647,0,0,1,1,2,2,3,3,4,4,5,5,6,6],"right_children":[2,4,6,-1,-1,12,-1,-1,-1,-1,-1,-1,-1,-1,-1],"split_conditions":[1.5926036E-1,2.903518E-2,4.74854E-1,-0E0,4.091736E-3,2.4799834E-1,5.47896E-6,-3.72945E-3,3.2475364E-4,5.0334414E-3,-0E0,-7.463231E-3,-0E0,7.515126E-4,-1.7316435E-3],"split_indices":[30,37,15,38,48,47,5,2147483647,2147483647,2147483647,2147483647,0,0,2147483647,2147483647],"split_type":[0,0,0,0,0,0,0,0,0,0,0,0,0,0,0],"sum_hessian":[1.17E3,6.16E2,5.54E2,3.82E2,2.34E2,7.7E1,4.77E2,3.5E1,3.47E2,1.93E2,4.1E1,5.5E1,2.2E1,3.92E2,8.5E1],"tree_param":{"num_deleted":"6","num_feature":"50","num_nodes":"15","size_leaf_vector":"0"}},{"base_weights":[-0E0,-3.0491315E-3,3.7281339E-3,-7.681153E-3,5.884752E-5,-3.9022978E-4,1.0721766E-2,-0E0,-1.0397708E-2,-2.4389334E-3,1.3527629E-2,-8.454885E-3,3.084014E-3,1.3586368E-2,-0E0],"categories":[],"categories_nodes":[],"categories_segments":[],"categories_sizes":[],"default_left":[1,1,1,1,1,1,1,1,1,0,0,0,0,1,1],"id":75,"left_children":[1,3,5,-1,9,11,-1,-1,-1,-1,-1,-1,-1,-1,-1],"loss_changes":[1.3528055E-2,1.2821985E-2,2.0357434E-2,8.104676E-3,1.6129958E-2,1.0864365E-2,8.552842E-3,0E0,0E0,0E0,0E0,0E0,0E0,0E0,0E0],"parents":[2147483647,0,0,1,1,2,2,3,3,4,4,5,5,6,6],"right_children":[2,4,6,-1,10,12,-1,-1,-1,-1,-1,-1,-1,-1,-1],"split_conditions":[6.7866945E-1,5.6409323E-1,4.800637E-1,-2.406171E-3,4.946339E-1,2.6608926E-1,3.358663E-3,-0E0,-3.2571496E-3,-7.6401175E-4,4.237618E-3,-2.6485478E-3,9.660874E-4,4.2560184E-3,-0E0],"split_indices":[15,11,31,43,44,45,31,2147483647,2147483647,0,0,0,0,2147483647,2147483647],"split_type":[0,0,0,0,0,0,0,0,0,0,0,0,0,0,0],"sum_hessian":[1.187E3,6.46E2,5.41E2,3.19E2,3.27E2,2.99E2,2.42E2,7E1,2.49E2,2.47E2,8E1,1.3E2,1.69E2,1.97E2,4.5E1],"tree_param":{"num_deleted":"4","num_feature":"50","num_nodes":"15","size_leaf_vector":"0"}},{"base_weights":[-0E0,2.6725754E-3,-4.4679292E-3,-1.1124297E-3,6.367764E-3,-1.5143882E-2,-8.1514823E-4,-7.746357E-3,2.158272E-3,-6.1314245E-4,9.1347005E-3,-0E0,-2.073809E-2,-4.2563393E-3,6.4839246E-3],"categories":[],"categories_nodes":[],"categories_segments":[],"categories_sizes":[],"default_left":[1,1,1,1,1,1,1,1,1,0,0,1,1,1,1],"id":76,"left_children":[1,3,5,-1,9,-1,-1,-1,-1,-1,-1,-1,-1,-1,-1],"loss_changes":[1.4539563E-2,1.2443786E-2,1.1039138E-2,8.920995E-3,1.2128381E-2,9.94659E-3,8.622497E-3,0E0,0E0,0E0,0E0,0E0,0E0,0E0,0E0],"parents":[2147483647,0,0,1,1,2,2,3,3,4,4,5,5,6,6],"right_children":[2,4,6,-1,10,-1,-1,-1,-1,-1,-1,-1,-1,-1,-1],"split_conditions":[5.8304036E-1,2.8347155E-1,6.076087E-1,-3.4847582E-4,1.9487862E-2,-4.7439192E-3,-2.553505E-4,-2.4265966E-3,6.7609275E-4,-1.9207086E-4,2.8615044E-3,-0E0,-6.4963414E-3,-1.333326E-3,2.0311316E-3],"split_indices":[24,20,24,24,9,43,35,2147483647,2147483647,0,0,2147483647,2147483647,2147483647,2147483647],"split_type":[0,0,0,0,0,0,0,0,0,0,0,0,0,0,0],"sum_hessian":[1.188E3,7.16E2,4.72E2,2.92E2,4.24E2,8.8E1,3.84E2,1.43E2,1.49E2,7.3E1,3.51E2,1.8E1,7E1,3.04E2,8E1],"tree_param":{"num_deleted":"6","num_feature":"50","num_nodes":"15","size_leaf_vector":"0"}},{"base_weights":[-6.4731145E-4,4.7166487E-3,-2.7785585E-3,1.7176416E-2,-0E0,3.2870343E-4,-5.267272E-3,2.3830915E-2,-0E0,-1.8534424E-2,2.673136E-3,5.4357774E-3,-1.04969E-3,-7.5730267E-3,-0E0],"categories":[],"categories_nodes":[],"categories_segments":[],"categories_sizes":[],"default_left":[1,1,1,1,1,1,1,0,0,0,0,1,1,0,0],"id":77,"left_children":[1,3,5,7,9,-1,13,-1,-1,-1,-1,-1,-1,-1,-1],"loss_changes":[1.2723202E-2,1.7471887E-2,9.349974E-3,1.3911795E-2,1.086732E-2,4.3079793E-3,1.0474557E-2,0E0,0E0,0E0,0E0,0E0,0E0,0E0,0E0],"parents":[2147483647,0,0,1,1,2,2,3,3,4,4,5,5,6,6],"right_children":[2,4,6,8,10,-1,14,-1,-1,-1,-1,-1,-1,-1,-1],"split_conditions":[1.2712178E-1,8.912226E-1,5.0814676E-1,8.2318586E-1,4.8952243E-1,1.02968486E-4,4.2879623E-1,7.465189E-3,-0E0,-5.806029E-3,8.373773E-4,1.7027926E-3,-3.288222E-4,-2.3722998E-3,-0E0],"split_indices":[26,46,14,22,38,9,34,0,0,0,0,2147483647,2147483647,0,0],"split_type":[0,0,0,0,0,0,0,0,0,0,0,0,0,0,0],"sum_hessian":[1.191E3,2.77E2,9.14E2,8E1,1.97E2,3.24E2,5.9E2,6.6E1,1.4E1,2.8E1,1.69E2,1.4E2,1.84E2,4.68E2,1.22E2],"tree_param":{"num_deleted":"2","num_feature":"50","num_nodes":"15","size_leaf_vector":"0"}},{"base_weights":[1.32771E-3,-6.721981E-3,2.757811E-3,-1.527659E-2,-0E0,4.1206164E-4,1.0470163E-2,-2.455692E-2,-0E0,6.35197E-3,-6.0927635E-4,3.5132917E-3,-3.7503934E-3,1.7301738E-2,-0E0],"categories":[],"categories_nodes":[],"categories_segments":[],"categories_sizes":[],"default_left":[1,1,1,1,1,1,1,0,0,1,1,0,0,0,0],"id":78,"left_children":[1,3,5,7,-1,11,13,-1,-1,-1,-1,-1,-1,-1,-1],"loss_changes":[1.2044502E-2,8.714974E-3,1.4369574E-2,1.3080602E-2,6.703677E-4,1.1098326E-2,1.3281494E-2,0E0,0E0,0E0,0E0,0E0,0E0,0E0,0E0],"parents":[2147483647,0,0,1,1,2,2,3,3,4,4,5,5,6,6],"right_children":[2,4,6,8,-1,12,14,-1,-1,-1,-1,-1,-1,-1,-1],"split_conditions":[3.5829574E-1,5.873678E-1,7.5349575E-1,5.806362E-1,-0E0,5.8243203E-1,5.5238605E-1,-7.692615E-3,-0E0,1.989796E-3,-1.9085978E-4,1.1005615E-3,-1.1748351E-3,5.419882E-3,-0E0],"split_indices":[39,0,3,28,28,10,1,0,0,2147483647,2147483647,0,0,0,0],"split_type":[0,0,0,0,0,0,0,0,0,0,0,0,0,0,0],"sum_hessian":[1.205E3,1.33E2,1.072E3,6.3E1,7E1,8.68E2,2.04E2,4.6E1,1.7E1,1.6E1,5.4E1,5.61E2,3.07E2,1.19E2,8.5E1],"tree_param":{"num_deleted":"2","num_feature":"50","num_nodes":"15","size_leaf_vector":"0"}},{"base_weights":[-3.3602066E-4,-4.5999885E-3,1.3963039E-3,-6.968425E-3,5.6725065E-3,-0E0,1.592674E-2,-1.42955445E-2,-0E0,-0E0,1.7320937E-2,-4.707022E-3,2.950866E-3,-0E0,3.5323426E-2],"categories":[],"categories_nodes":[],"categories_segments":[],"categories_sizes":[],"default_left":[1,1,1,1,1,1,1,0,0,1,1,1,1,0,0],"id":79,"left_children":[1,3,5,7,-1,-1,13,-1,-1,-1,-1,-1,-1,-1,-1],"loss_changes":[1.0507601E-2,1.1067769E-2,1.0914689E-2,1.5403016E-2,5.815875E-3,9.754784E-3,1.264175E-2,0E0,0E0,0E0,0E0,0E0,0E0,0E0,0E0],"parents":[2147483647,0,0,1,1,2,2,3,3,4,4,5,5,6,6],"right_children":[2,4,6,8,-1,-1,14,-1,-1,-1,-1,-1,-1,-1,-1],"split_conditions":[4.000561E-2,8.6443424E-1,7.554711E-1,7.756585E-2,1.7769495E-3,-0E0,2.8533423E-1,-4.4781724E-3,-0E0,-0E0,5.425896E-3,-1.4745053E-3,9.2437794E-4,-0E0,1.1065293E-2],"split_indices":[23,17,18,34,44,21,21,0,0,2147483647,2147483647,2147483647,2147483647,0,0],"split_type":[0,0,0,0,0,0,0,0,0,0,0,0,0,0,0],"sum_hessian":[1.222E3,4.3E2,7.92E2,3.86E2,4.4E1,7.43E2,4.9E1,1.67E2,2.19E2,2E1,2.4E1,2.44E2,4.99E2,2.9E1,2E1],"tree_param":{"num_deleted":"4","num_feature":"50","num_nodes":"15","size_leaf_vector":"0"}},{"base_weights":[-7.426798E-4,-2.1496625E-3,6.2302733E-3,-7.1397163E-3,-0E0,-0E0,1.0394134E-2,-1.8724652E-2,-0E0,2.2611055E-3,-7.985492E-3,-0E0,1.3124284E-2],"categories":[],"categories_nodes":[],"categories_segments":[],"categories_sizes":[],"default_left":[1,1,1,1,1,1,1,0,0,0,0,1,1],"id":80,"left_children":[1,3,-1,7,9,-1,-1,-1,-1,-1,-1,-1,-1],"loss_changes":[1.0165814E-2,1.016829E-2,7.5435466E-3,1.9605946E-2,1.5199078E-2,0E0,7.1081677E-3,0E0,0E0,0E0,0E0,0E0,0E0],"parents":[2147483647,0,0,1,1,2,2,3,3,4,4,6,6],"right_children":[2,4,-1,8,10,-1,-1,-1,-1,-1,-1,-1,-1],"split_conditions":[7.4356246E-1,4.450264E-1,1.9516737E-3,5.31722E-1,7.894002E-1,-0E0,3.25603E-3,-5.865619E-3,-0E0,7.08306E-4,-2.5015073E-3,-0E0,4.1112676E-3],"split_indices":[28,24,43,22,15,2147483647,2147483647,0,0,0,0,2147483647,2147483647],"split_type":[0,0,0,0,0,0,0,0,0,0,0,0,0],"sum_hessian":[1.228E3,1.077E3,1.51E2,2.97E2,7.8E2,2.7E1,1.24E2,9.9E1,1.98E2,5.89E2,1.91E2,5E0,1.19E2],"tree_param":{"num_deleted":"4","num_feature":"50","num_nodes":"13","size_leaf_vector":"0"}},{"base_weights":[3.0640338E-4,3.5373059E-3,-3.6489465E-3,8.452637E-3,-0E0,-5.8381604E-3,4.0500048E-3,-0E0,1.3769867E-2,-5.574025E-3,2.733195E-3,-0E0,-8.576629E-3,-0E0,1.1827614E-2],"categories":[],"categories_nodes":[],"categories_segments":[],"categories_sizes":[],"default_left":[1,1,1,1,1,1,1,1,1,1,1,1,1,1,1],"id":81,"left_children":[1,3,-1,-1,-1,-1,-1,-1,-1,-1,-1,-1,-1,-1,-1],"loss_changes":[1.496718E-2,1.2258817E-2,8.651137E-3,7.1172565E-3,6.290623E-3,1.0078386E-2,4.4118124E-3,0E0,0E0,0E0,0E0,0E0,0E0,0E0,0E0],"parents":[2147483647,0,0,1,1,2,2,3,3,4,4,5,5,6,6],"right_children":[2,4,-1,-1,-1,-1,-1,-1,-1,-1,-1,-1,-1,-1,-1],"split_conditions":[7.344349E-2,2.6482135E-1,-1.1430562E-3,2.6478434E-3,-0E0,-1.8288417E-3,1.2686903E-3,-0E0,4.3135E-3,-1.7460997E-3,8.561911E-4,-0E0,-2.6866847E-3,-0E0,3.705077E-3],"split_indices":[9,49,26,5,23,2147483647,2147483647,2147483647,2147483647,2147483647,2147483647,2147483647,2147483647,2147483647,2147483647],"split_type":[0,0,0,0,0,0,0,0,0,0,0,0,0,0,0],"sum_hessian":[1.175E3,7.11E2,4.64E2,2.96E2,4.15E2,4.08E2,5.6E1,1.47E2,1.49E2,1.35E2,2.8E2,8.2E1,3.26E2,1.8E1,3.8E1],"tree_param":{"num_deleted":"10","num_feature":"50","num_nodes":"15","size_leaf_vector":"0"}},{"base_weights":[-5.7563145E-4,-1.04884915E-2,-0E0,-0E0,-1.715314E-2,-1.9778912E-3,4.8513026E-3,-2.1347554E-2,-0E0,4.1208724E-3,-5.5473815E-3,1.1202249E-2,-0E0],"categories":[],"categories_nodes":[],"categories_segments":[],"categories_sizes":[],"default_left":[1,1,1,1,1,1,1,1,1,0,0,1,1],"id":82,"left_children":[1,-1,5,-1,-1,9,-1,-1,-1,-1,-1,-1,-1],"loss_changes":[9.307547E-3,7.700378E-3,1.1064948E-2,0E0,5.900925E-3,1.6512217E-2,1.0245245E-2,0E0,0E0,0E0,0E0,0E0,0E0],"parents":[2147483647,0,0,1,1,2,2,4,4,5,5,6,6],"right_children":[2,-1,6,-1,-1,10,-1,-1,-1,-1,-1,-1,-1],"split_conditions":[2.0189522E-1,-3.2855882E-3,3.2254186E-1,-0E0,-5.3733326E-3,3.3113635E-1,1.519702E-3,-6.6872602E-3,-0E0,1.29089E-3,-1.7377533E-3,3.5091774E-3,-0E0],"split_indices":[25,4,49,2147483647,2147483647,25,9,2147483647,2147483647,0,0,2147483647,2147483647],"split_type":[0,0,0,0,0,0,0,0,0,0,0,0,0],"sum_hessian":[1.165E3,8.8E1,1.077E3,2.9E1,5.9E1,7.28E2,3.49E2,5.1E1,8E0,2.21E2,5.07E2,1.47E2,2.02E2],"tree_param":{"num_deleted":"6","num_feature":"50","num_nodes":"13","size_leaf_vector":"0"}},{"base_weights":[-9.958529E-4,-4.532136E-3,3.246244E-3,-0E0,-1.2519681E-2,1.1501247E-2,-0E0,-4.0919976E-3,5.2865264E-3,-1.7677352E-2,-0E0,-0E0,1.772355E-2,-1.2497278E-3,1.1224289E-2],"categories":[],"categories_nodes":[],"categories_segments":[],"categories_sizes":[],"default_left":[1,1,1,1,1,1,1,1,1,0,0,0,0,1,1],"id":83,"left_children":[1,3,5,-1,9,11,-1,-1,-1,-1,-1,-1,-1,-1,-1],"loss_changes":[1.7998807E-2,2.075563E-2,1.0029897E-2,9.74046E-3,1.38129E-2,1.2402576E-2,7.1637724E-3,0E0,0E0,0E0,0E0,0E0,0E0,0E0,0E0],"parents":[2147483647,0,0,1,1,2,2,3,3,4,4,5,5,6,6],"right_children":[2,4,6,-1,10,12,-1,-1,-1,-1,-1,-1,-1,-1,-1],"split_conditions":[1.4978701E-1,4.9546885E-1,5.524167E-1,-0E0,6.5306854E-1,3.5110486E-1,-0E0,-1.2818449E-3,1.6560388E-3,-5.5375453E-3,-0E0,-0E0,5.552017E-3,-3.9148534E-4,3.5160817E-3],"split_indices":[2,42,5,19,0,7,35,2147483647,2147483647,0,0,0,0,2147483647,2147483647],"split_type":[0,0,0,0,0,0,0,0,0,0,0,0,0,0,0],"sum_hessian":[1.16E3,6.92E2,4.68E2,4.69E2,2.23E2,1.13E2,3.55E2,3.01E2,1.68E2,1.56E2,6.7E1,2.6E1,8.7E1,3.02E2,5.3E1],"tree_param":{"num_deleted":"4","num_feature":"50","num_nodes":"15","size_leaf_vector":"0"}},{"base_weights":[-0E0,3.2566395E-3,-2.8717741E-3,-0E0,7.6218145E-3,-5.657541E-3,1.4785309E-3,2.897879E-3,-7.7119195E-3,-0E0,1.1804344E-2,-0E0,-9.293943E-3,5.7609063E-3,-6.5091904E-3],"categories":[],"categories_nodes":[],"categories_segments":[],"categories_sizes":[],"default_left":[1,1,1,1,1,1,1,1,1,0,0,0,0,1,1],"id":84,"left_children":[1,3,5,-1,9,11,-1,-1,-1,-1,-1,-1,-1,-1,-1],"loss_changes":[1.1470508E-2,1.1076247E-2,9.870335E-3,8.054613E-3,1.2552308E-2,1.2622753E-2,6.196223E-3,0E0,0E0,0E0,0E0,0E0,0E0,0E0,0E0],"parents":[2147483647,0,0,1,1,2,2,3,3,4,4,5,5,6,6],"right_children":[2,4,6,-1,10,12,-1,-1,-1,-1,-1,-1,-1,-1,-1],"split_conditions":[4.770307E-2,5.3732765E-1,2.699275E-1,-0E0,6.6908106E-2,1.5127058E-1,4.6315943E-4,9.077795E-4,-2.4158088E-3,-0E0,3.6977876E-3,-0E0,-2.911388E-3,1.8046413E-3,-2.0390463E-3],"split_indices":[9,11,2,41,34,20,48,2147483647,2147483647,0,0,0,0,2147483647,2147483647],"split_type":[0,0,0,0,0,0,0,0,0,0,0,0,0,0,0],"sum_hessian":[1.227E3,5.72E2,6.55E2,2.77E2,2.95E2,4.64E2,1.91E2,1.65E2,1.12E2,8.2E1,2.13E2,1.46E2,3.18E2,1.62E2,2.9E1],"tree_param":{"num_deleted":"4","num_feature":"50","num_nodes":"15","size_leaf_vector":"0"}},{"base_weights":[1.3001922E-3,7.412072E-3,-0E0,9.510084E-3,-0E0,5.899698E-3,-1.0528775E-3,1.2711013E-2,-0E0,8.956039E-3,-0E0,-4.682353E-3,1.0278869E-3],"categories":[],"categories_nodes":[],"categories_segments":[],"categories_sizes":[],"default_left":[1,1,1,1,1,1,1,1,1,1,1,1,1],"id":85,"left_children":[-1,-1,-1,-1,-1,-1,-1,-1,-1,-1,-1,-1,-1],"loss_changes":[9.756507E-3,7.0591215E-3,5.834222E-3,7.370757E-3,0E0,5.204143E-3,7.97256E-3,0E0,0E0,0E0,0E0,0E0,0E0],"parents":[2147483647,0,0,1,1,2,2,3,3,5,5,6,6],"right_children":[-1,-1,-1,-1,-1,-1,-1,-1,-1,-1,-1,-1,-1],"split_conditions":[4.0729367E-4,2.3218796E-3,-0E0,2.9790956E-3,-0E0,1.8481187E-3,-3.2982073E-4,3.9818073E-3,-0E0,2.8055375E-3,-0E0,-1.4667776E-3,